{
    "type": "NeuralNetwork",
    "sizes": [
        5,
        10,
        1
    ],
    "layers": [
        {
            "weights": [],
            "biases": []
        },
        {
            "weights": [
                [
                    -5.586314678192139,
                    8.886913299560547,
                    -4.969364166259766,
                    -5.102675437927246,
                    6.315833568572998
                ],
                [
                    -4.994079113006592,
                    1.58921480178833,
                    1.688097357749939,
                    -12.098316192626953,
                    -5.567292213439941
                ],
                [
                    -7.513306617736816,
                    -5.124235153198242,
                    12.391265869140625,
                    7.668196201324463,
                    -5.178895473480225
                ],
                [
                    1.7743501663208008,
                    -4.512832164764404,
                    -2.218376636505127,
                    1.436984896659851,
                    -1.7734007835388184
                ],
                [
                    -9.115714073181152,
                    22.350662231445312,
                    -17.224504470825195,
                    -21.481292724609375,
                    13.438129425048828
                ],
                [
                    -7.1086039543151855,
                    -12.168072700500488,
                    -5.290114402770996,
                    -1.8546953201293945,
                    -0.6249606013298035
                ],
                [
                    -25.26164436340332,
                    5.239953517913818,
                    2.3310744762420654,
                    -4.964179515838623,
                    -6.560801982879639
                ],
                [
                    8.208708763122559,
                    -15.060275077819824,
                    -3.44326114654541,
                    10.39248275756836,
                    4.74106502532959
                ],
                [
                    22.677871704101562,
                    -4.119553565979004,
                    17.829986572265625,
                    -38.64668655395508,
                    -0.16251997649669647
                ],
                [
                    9.704550743103027,
                    -22.927839279174805,
                    -3.970730781555176,
                    -11.517067909240723,
                    6.303102493286133
                ]
            ],
            "biases": [
                -7.257073879241943,
                3.3063395023345947,
                -15.866281509399414,
                0.7044069766998291,
                -13.192010879516602,
                5.611210823059082,
                6.684872150421143,
                -14.759834289550781,
                -5.8212504386901855,
                -0.31906741857528687
            ]
        },
        {
            "weights": [
                [
                    -3.932271957397461,
                    5.015283107757568,
                    -3.971374988555908,
                    -0.7508219480514526,
                    3.4225387573242188,
                    -5.764491558074951,
                    -1.8992664813995361,
                    -1.2403846979141235,
                    -0.8522173762321472,
                    1.239447832107544
                ]
            ],
            "biases": [
                0.6375274658203125
            ]
        }
    ],
    "inputLookup": null,
    "inputLookupLength": 0,
    "outputLookup": null,
    "outputLookupLength": 0,
    "options": {
        "inputSize": 0,
        "outputSize": 0,
        "binaryThresh": 0.5,
        "hiddenLayers": [
            10
        ]
    },
    "trainOpts": {
        "activation": "sigmoid",
        "iterations": 20000,
        "errorThresh": 0.005,
        "log": false,
        "logPeriod": 10,
        "leakyReluAlpha": 0.01,
        "learningRate": 0.3,
        "momentum": 0.1,
        "callbackPeriod": 10,
        "timeout": "Infinity",
        "beta1": 0.9,
        "beta2": 0.999,
        "epsilon": 1e-8
    }
}