{
    "type": "NeuralNetwork",
    "sizes": [
        10,
        10,
        1
    ],
    "layers": [
        {
            "weights": [],
            "biases": []
        },
        {
            "weights": [
                [
                    -26.268321990966797,
                    -5.659183025360107,
                    6.774941444396973,
                    -14.476119041442871,
                    2.855907440185547,
                    -7.601839542388916,
                    -0.617164134979248,
                    -0.12127365916967392,
                    -4.778892993927002,
                    5.736335277557373
                ],
                [
                    8.259864807128906,
                    0.9587550163269043,
                    8.097862243652344,
                    12.183260917663574,
                    -35.738773345947266,
                    7.463571071624756,
                    -33.071041107177734,
                    -27.371498107910156,
                    -7.168593406677246,
                    17.948755264282227
                ],
                [
                    9.954209327697754,
                    -7.69978666305542,
                    -9.448225975036621,
                    1.2090595960617065,
                    -0.7528010010719299,
                    -7.146117687225342,
                    -7.239236831665039,
                    -25.196577072143555,
                    -8.996528625488281,
                    -13.343316078186035
                ],
                [
                    -1.1324396133422852,
                    8.708057403564453,
                    -6.129507064819336,
                    8.434995651245117,
                    0.5203765034675598,
                    -16.278404235839844,
                    2.2192916870117188,
                    5.975246429443359,
                    -1.8106937408447266,
                    -28.03521156311035
                ],
                [
                    -12.742352485656738,
                    -10.395005226135254,
                    3.165178060531616,
                    -5.007887840270996,
                    5.899975299835205,
                    5.539261341094971,
                    -19.923192977905273,
                    -6.37200927734375,
                    -22.573659896850586,
                    7.25733757019043
                ],
                [
                    -23.325584411621094,
                    -21.397727966308594,
                    4.661622524261475,
                    3.5023484230041504,
                    3.4979379177093506,
                    20.567646026611328,
                    16.55297088623047,
                    8.894408226013184,
                    4.589902400970459,
                    0.5184138417243958
                ],
                [
                    1.7977993488311768,
                    1.8479304313659668,
                    -3.8117146492004395,
                    1.4193739891052246,
                    -13.089170455932617,
                    1.8357391357421875,
                    -27.203649520874023,
                    -11.874274253845215,
                    -6.047806739807129,
                    4.1871466636657715
                ],
                [
                    3.6610045433044434,
                    -31.45703125,
                    -9.144535064697266,
                    1.2493274211883545,
                    6.897850513458252,
                    -20.163936614990234,
                    -9.520368576049805,
                    9.775656700134277,
                    1.995803952217102,
                    8.653820037841797
                ],
                [
                    -3.5482800006866455,
                    -5.424365997314453,
                    -3.041718006134033,
                    6.497898101806641,
                    -0.1075950637459755,
                    -12.555450439453125,
                    -5.040468692779541,
                    -32.840328216552734,
                    -15.21841812133789,
                    3.092054605484009
                ],
                [
                    -13.531883239746094,
                    4.109091758728027,
                    -0.9985201358795166,
                    4.769149303436279,
                    4.048757076263428,
                    -9.712010383605957,
                    -5.010976791381836,
                    -11.757221221923828,
                    -13.92868423461914,
                    8.583919525146484
                ]
            ],
            "biases": [
                6.53025484085083,
                3.711846113204956,
                29.09867286682129,
                -1.6699206829071045,
                9.826781272888184,
                -22.22637367248535,
                13.506331443786621,
                2.3709797859191895,
                23.687450408935547,
                9.425958633422852
            ]
        },
        {
            "weights": [
                [
                    -5.541710376739502,
                    -1.7630198001861572,
                    -1.0291780233383179,
                    -1.84749174118042,
                    6.954109191894531,
                    -0.8723068833351135,
                    3.404022693634033,
                    -1.4223735332489014,
                    1.943738341331482,
                    -1.6444675922393799
                ]
            ],
            "biases": [
                0.7935186624526978
            ]
        }
    ],
    "inputLookup": null,
    "inputLookupLength": 0,
    "outputLookup": null,
    "outputLookupLength": 0,
    "options": {
        "inputSize": 0,
        "outputSize": 0,
        "binaryThresh": 0.5,
        "hiddenLayers": [
            10
        ]
    },
    "trainOpts": {
        "activation": "sigmoid",
        "iterations": 20000,
        "errorThresh": 0.005,
        "log": false,
        "logPeriod": 10,
        "leakyReluAlpha": 0.01,
        "learningRate": 0.3,
        "momentum": 0.1,
        "callbackPeriod": 10,
        "timeout": "Infinity",
        "beta1": 0.9,
        "beta2": 0.999,
        "epsilon": 1e-8
    }
}