{
    "type": "NeuralNetwork",
    "sizes": [
        10,
        10,
        1
    ],
    "layers": [
        {
            "weights": [],
            "biases": []
        },
        {
            "weights": [
                [
                    -0.40560048818588257,
                    22.7394962310791,
                    0.027385246008634567,
                    -9.8475980758667,
                    7.179862976074219,
                    -13.32544231414795,
                    -6.109825611114502,
                    -32.31035232543945,
                    11.80467700958252,
                    -35.207576751708984
                ],
                [
                    3.105475425720215,
                    -22.585472106933594,
                    -32.837703704833984,
                    -21.400257110595703,
                    11.118001937866211,
                    16.256553649902344,
                    -13.427563667297363,
                    -4.44215726852417,
                    -7.097830772399902,
                    4.1349101066589355
                ],
                [
                    11.876226425170898,
                    -3.3832595348358154,
                    -0.09889572858810425,
                    -19.935827255249023,
                    5.7032670974731445,
                    -22.478334426879883,
                    27.55631446838379,
                    -20.854753494262695,
                    -25.24599266052246,
                    20.90703582763672
                ],
                [
                    0.9799804091453552,
                    6.517513751983643,
                    0.19956403970718384,
                    -4.272742748260498,
                    1.9815064668655396,
                    -7.504499435424805,
                    -2.3617162704467773,
                    -6.061493396759033,
                    4.101495742797852,
                    -6.730550289154053
                ],
                [
                    -40.10066604614258,
                    -9.531115531921387,
                    -7.54237174987793,
                    -1.5747694969177246,
                    -18.76056480407715,
                    14.173796653747559,
                    -0.959190845489502,
                    2.2793095111846924,
                    -5.952919960021973,
                    -12.575431823730469
                ],
                [
                    -20.428436279296875,
                    -31.84830665588379,
                    23.417072296142578,
                    -16.870187759399414,
                    13.449396133422852,
                    4.305858135223389,
                    9.712785720825195,
                    2.7587273120880127,
                    -16.120691299438477,
                    17.754512786865234
                ],
                [
                    -25.231122970581055,
                    -7.233900547027588,
                    -2.694951057434082,
                    2.7334604263305664,
                    -6.3647074699401855,
                    10.705849647521973,
                    1.8217343091964722,
                    0.3466532826423645,
                    -5.841917037963867,
                    -3.9336607456207275
                ],
                [
                    -6.311438083648682,
                    -4.262776851654053,
                    5.426868438720703,
                    -6.437101364135742,
                    9.631138801574707,
                    16.404869079589844,
                    -11.607135772705078,
                    -19.490753173828125,
                    -6.470450401306152,
                    -4.728013515472412
                ],
                [
                    -16.689176559448242,
                    -10.29269790649414,
                    -6.612094879150391,
                    19.868417739868164,
                    -16.284854888916016,
                    22.88494110107422,
                    4.0200419425964355,
                    12.468208312988281,
                    -18.495912551879883,
                    -3.8265318870544434
                ],
                [
                    0.19851450622081757,
                    -7.753163814544678,
                    -5.446377277374268,
                    -14.67221450805664,
                    9.084942817687988,
                    15.215983390808105,
                    -14.174127578735352,
                    -7.056422710418701,
                    -11.242453575134277,
                    -3.885488986968994
                ]
            ],
            "biases": [
                5.1734490394592285,
                9.864830017089844,
                -5.918870449066162,
                -0.45789358019828796,
                20.553281784057617,
                -27.091434478759766,
                7.4195756912231445,
                -2.7566349506378174,
                -8.799257278442383,
                3.072828769683838
            ]
        },
        {
            "weights": [
                [
                    1.8039805889129639,
                    -1.9305459260940552,
                    -0.5012140274047852,
                    -2.7913997173309326,
                    -3.0864615440368652,
                    16.95705795288086,
                    3.2463576793670654,
                    -2.724919319152832,
                    -0.8957505822181702,
                    4.084011077880859
                ]
            ],
            "biases": [
                0.3115726113319397
            ]
        }
    ],
    "inputLookup": null,
    "inputLookupLength": 0,
    "outputLookup": null,
    "outputLookupLength": 0,
    "options": {
        "inputSize": 0,
        "outputSize": 0,
        "binaryThresh": 0.5,
        "hiddenLayers": [
            10
        ]
    },
    "trainOpts": {
        "activation": "sigmoid",
        "iterations": 20000,
        "errorThresh": 0.005,
        "log": false,
        "logPeriod": 10,
        "leakyReluAlpha": 0.01,
        "learningRate": 0.3,
        "momentum": 0.1,
        "callbackPeriod": 10,
        "timeout": "Infinity",
        "beta1": 0.9,
        "beta2": 0.999,
        "epsilon": 1e-8
    }
}