{
    "type": "NeuralNetwork",
    "sizes": [
        10,
        10,
        1
    ],
    "layers": [
        {
            "weights": [],
            "biases": []
        },
        {
            "weights": [
                [
                    -8.447630882263184,
                    4.219310760498047,
                    4.431844711303711,
                    2.9049770832061768,
                    -1.2492536306381226,
                    -8.987197875976562,
                    0.9341194033622742,
                    -8.50881576538086,
                    -14.988236427307129,
                    12.14468002319336
                ],
                [
                    2.146170139312744,
                    -7.083597183227539,
                    0.6387831568717957,
                    -1.4825053215026855,
                    -4.155683517456055,
                    -22.101903915405273,
                    -3.099505662918091,
                    -3.360002279281616,
                    -23.452608108520508,
                    -9.567573547363281
                ],
                [
                    -7.014270782470703,
                    2.3986990451812744,
                    -9.664435386657715,
                    -11.934537887573242,
                    -3.5967724323272705,
                    -8.001094818115234,
                    -1.3416383266448975,
                    -7.0861921310424805,
                    -18.124629974365234,
                    5.7098469734191895
                ],
                [
                    2.9236955642700195,
                    -3.3461456298828125,
                    -10.15071964263916,
                    -6.171004772186279,
                    -14.737383842468262,
                    -16.950105667114258,
                    -1.8375054597854614,
                    1.525722622871399,
                    0.39687350392341614,
                    1.297155737876892
                ],
                [
                    -22.681385040283203,
                    14.464953422546387,
                    0.27303367853164673,
                    -12.159505844116211,
                    8.022706985473633,
                    0.5879821181297302,
                    -17.389625549316406,
                    3.0655319690704346,
                    -20.299222946166992,
                    4.5779337882995605
                ],
                [
                    25.47884750366211,
                    -17.681753158569336,
                    1.1876670122146606,
                    20.729951858520508,
                    -14.430875778198242,
                    1.1287966966629028,
                    20.427003860473633,
                    -3.265155553817749,
                    18.497634887695312,
                    -12.349162101745605
                ],
                [
                    -5.890050888061523,
                    6.152149200439453,
                    1.9796735048294067,
                    -11.228940963745117,
                    7.930770397186279,
                    4.7724289894104,
                    19.55074119567871,
                    -9.045117378234863,
                    -8.974807739257812,
                    -24.74744415283203
                ],
                [
                    -2.350144147872925,
                    2.9828102588653564,
                    -2.2831692695617676,
                    -8.065726280212402,
                    0.7254133820533752,
                    -8.254783630371094,
                    2.446018934249878,
                    -13.708731651306152,
                    -17.736757278442383,
                    -0.9595779180526733
                ],
                [
                    0.5774124264717102,
                    -4.537884712219238,
                    -0.8762935996055603,
                    -3.1144649982452393,
                    -3.312549352645874,
                    -16.714744567871094,
                    -1.3713473081588745,
                    1.4903364181518555,
                    -5.08289909362793,
                    2.9203040599823
                ],
                [
                    -4.889375686645508,
                    -12.112808227539062,
                    -0.7640402317047119,
                    4.360556602478027,
                    -6.941946983337402,
                    -1.8215950727462769,
                    -4.884133815765381,
                    9.422593116760254,
                    -1.6900827884674072,
                    3.865281581878662
                ]
            ],
            "biases": [
                -5.88921594619751,
                28.508285522460938,
                24.622901916503906,
                14.035840034484863,
                19.12569236755371,
                -20.272022247314453,
                -11.0100679397583,
                18.22262191772461,
                11.634349822998047,
                -0.9519503712654114
            ]
        },
        {
            "weights": [
                [
                    13.41651439666748,
                    4.771528720855713,
                    4.308870315551758,
                    9.622364044189453,
                    -7.614684104919434,
                    -7.390624523162842,
                    15.528715133666992,
                    -4.242142677307129,
                    -6.360982418060303,
                    8.150598526000977
                ]
            ],
            "biases": [
                7.016836643218994
            ]
        }
    ],
    "inputLookup": null,
    "inputLookupLength": 0,
    "outputLookup": null,
    "outputLookupLength": 0,
    "options": {
        "inputSize": 0,
        "outputSize": 0,
        "binaryThresh": 0.5,
        "hiddenLayers": [
            10
        ]
    },
    "trainOpts": {
        "activation": "sigmoid",
        "iterations": 20000,
        "errorThresh": 0.005,
        "log": false,
        "logPeriod": 10,
        "leakyReluAlpha": 0.01,
        "learningRate": 0.3,
        "momentum": 0.1,
        "callbackPeriod": 10,
        "timeout": "Infinity",
        "beta1": 0.9,
        "beta2": 0.999,
        "epsilon": 1e-8
    }
}