{
    "type": "NeuralNetwork",
    "sizes": [
        5,
        10,
        1
    ],
    "layers": [
        {
            "weights": [],
            "biases": []
        },
        {
            "weights": [
                [
                    0.42392265796661377,
                    -0.9149226546287537,
                    -2.2489442825317383,
                    -1.9496653079986572,
                    -2.0603675842285156
                ],
                [
                    -0.6914380788803101,
                    -1.832647681236267,
                    -1.072550892829895,
                    -1.8181416988372803,
                    0.3289760947227478
                ],
                [
                    -0.9243735074996948,
                    1.5359644889831543,
                    -7.457737922668457,
                    2.5891025066375732,
                    -0.45254266262054443
                ],
                [
                    -0.01563422568142414,
                    0.6684179902076721,
                    5.376537322998047,
                    -7.565279483795166,
                    -0.17384257912635803
                ],
                [
                    -0.6542903184890747,
                    -1.4872783422470093,
                    -2.3668830394744873,
                    -0.7799392342567444,
                    0.7589747309684753
                ],
                [
                    -3.7636654376983643,
                    -9.035985946655273,
                    3.604792594909668,
                    3.9311962127685547,
                    0.7240840196609497
                ],
                [
                    -4.552618026733398,
                    -6.1139421463012695,
                    -4.262994289398193,
                    -1.4397348165512085,
                    0.9610118865966797
                ],
                [
                    0.08259851485490799,
                    -0.7789880037307739,
                    -1.2630444765090942,
                    -1.0151612758636475,
                    -1.9368549585342407
                ],
                [
                    -1.8723663091659546,
                    0.13047358393669128,
                    -3.612250804901123,
                    -1.565166711807251,
                    1.5109069347381592
                ],
                [
                    -0.6340311765670776,
                    -1.297668218612671,
                    -1.3199764490127563,
                    -1.0536611080169678,
                    -1.2468324899673462
                ]
            ],
            "biases": [
                -1.483072280883789,
                -1.7075986862182617,
                -2.016719341278076,
                -3.2493724822998047,
                -1.606029748916626,
                -3.151695966720581,
                1.080159068107605,
                -1.8566914796829224,
                -1.2686541080474854,
                -2.03266978263855
            ]
        },
        {
            "weights": [
                [
                    0.9800565838813782,
                    -1.6537426710128784,
                    -2.6279969215393066,
                    -2.5331790447235107,
                    -1.5911165475845337,
                    -3.342618942260742,
                    3.277353286743164,
                    0.6485810875892639,
                    -2.2095508575439453,
                    -0.23681673407554626
                ]
            ],
            "biases": [
                -0.03374912589788437
            ]
        }
    ],
    "inputLookup": null,
    "inputLookupLength": 0,
    "outputLookup": null,
    "outputLookupLength": 0,
    "options": {
        "inputSize": 0,
        "outputSize": 0,
        "binaryThresh": 0.5,
        "hiddenLayers": [
            10
        ]
    },
    "trainOpts": {
        "activation": "sigmoid",
        "iterations": 20000,
        "errorThresh": 0.005,
        "log": false,
        "logPeriod": 10,
        "leakyReluAlpha": 0.01,
        "learningRate": 0.3,
        "momentum": 0.1,
        "callbackPeriod": 10,
        "timeout": "Infinity",
        "beta1": 0.9,
        "beta2": 0.999,
        "epsilon": 1e-8
    }
}