{
    "type": "NeuralNetwork",
    "sizes": [
        20,
        10,
        1
    ],
    "layers": [
        {
            "weights": [],
            "biases": []
        },
        {
            "weights": [
                [
                    -3.155457019805908,
                    -0.14763233065605164,
                    -0.21478646993637085,
                    -0.3175581097602844,
                    -13.136353492736816,
                    18.018142700195312,
                    -17.258255004882812,
                    20.499975204467773,
                    6.289124488830566,
                    14.299249649047852,
                    2.3133318424224854,
                    12.643941879272461,
                    -1.9120874404907227,
                    17.339658737182617,
                    26.753936767578125,
                    -11.37169075012207,
                    3.8084871768951416,
                    13.867170333862305,
                    -25.836645126342773,
                    -23.338333129882812
                ],
                [
                    -25.7597599029541,
                    10.242478370666504,
                    -9.621481895446777,
                    -7.293111324310303,
                    -9.584477424621582,
                    13.30568790435791,
                    1.9622669219970703,
                    -3.4707188606262207,
                    1.3600159883499146,
                    4.6496477127075195,
                    -4.3852362632751465,
                    -2.6916422843933105,
                    -2.6053595542907715,
                    1.4503734111785889,
                    4.465786457061768,
                    -1.2166558504104614,
                    10.380539894104004,
                    3.6750266551971436,
                    -20.09006118774414,
                    -22.053503036499023
                ],
                [
                    5.134575366973877,
                    -4.677670478820801,
                    2.6994686126708984,
                    1.2072125673294067,
                    21.323974609375,
                    -17.86968421936035,
                    -19.115161895751953,
                    5.4083027839660645,
                    -17.390607833862305,
                    -0.5894284844398499,
                    -7.494566440582275,
                    1.2985092401504517,
                    -16.891212463378906,
                    16.59862518310547,
                    2.73772931098938,
                    -11.267576217651367,
                    -15.3969087600708,
                    -10.806010246276855,
                    -6.3542633056640625,
                    8.598665237426758
                ],
                [
                    -6.6173996925354,
                    -3.676619291305542,
                    10.605596542358398,
                    -8.251932144165039,
                    13.232858657836914,
                    -3.4472603797912598,
                    -28.965744018554688,
                    13.84515380859375,
                    -4.578000068664551,
                    -3.2399096488952637,
                    3.3187239170074463,
                    9.198119163513184,
                    -1.19282865524292,
                    13.742765426635742,
                    7.040303707122803,
                    -10.285744667053223,
                    -3.2762181758880615,
                    -8.865120887756348,
                    -10.112625122070312,
                    -7.145754814147949
                ],
                [
                    -0.5195707678794861,
                    7.208127498626709,
                    5.540441036224365,
                    -11.601853370666504,
                    -18.78025245666504,
                    -23.555416107177734,
                    -26.833662033081055,
                    1.6222376823425293,
                    17.876407623291016,
                    -10.99015998840332,
                    4.995303630828857,
                    -9.415403366088867,
                    2.059797763824463,
                    -1.680567741394043,
                    -14.459315299987793,
                    2.432833671569824,
                    -2.0541744232177734,
                    16.832624435424805,
                    -10.012798309326172,
                    5.667647361755371
                ],
                [
                    -8.44283390045166,
                    15.906929016113281,
                    8.526971817016602,
                    0.9612612128257751,
                    2.084564447402954,
                    -0.2671942710876465,
                    -0.98994380235672,
                    2.1237668991088867,
                    -20.331987380981445,
                    -15.232820510864258,
                    -11.346455574035645,
                    -6.657861709594727,
                    -1.8855805397033691,
                    -19.128116607666016,
                    -2.5754194259643555,
                    20.042924880981445,
                    -20.27836799621582,
                    -1.4413057565689087,
                    -14.635013580322266,
                    -6.47526216506958
                ],
                [
                    -5.113777160644531,
                    -0.08681733906269073,
                    4.1191020011901855,
                    -9.898515701293945,
                    2.602600336074829,
                    -0.5183141827583313,
                    -5.139281749725342,
                    1.4653795957565308,
                    5.219793319702148,
                    1.1098214387893677,
                    -6.276538372039795,
                    1.5460948944091797,
                    -8.834809303283691,
                    -0.6065034866333008,
                    -3.9650461673736572,
                    5.74446439743042,
                    -3.1109297275543213,
                    4.8927717208862305,
                    -19.787578582763672,
                    9.729593276977539
                ],
                [
                    -4.969335079193115,
                    2.4430665969848633,
                    -12.115060806274414,
                    -39.07938003540039,
                    -5.964216709136963,
                    9.660391807556152,
                    8.856189727783203,
                    10.344895362854004,
                    -9.562116622924805,
                    3.150775671005249,
                    -1.4758074283599854,
                    17.832958221435547,
                    -0.8843095898628235,
                    -11.090970039367676,
                    -0.787541389465332,
                    -1.3579812049865723,
                    26.801971435546875,
                    -32.60391616821289,
                    8.77263355255127,
                    -16.977249145507812
                ],
                [
                    10.647369384765625,
                    -2.1819005012512207,
                    -21.854875564575195,
                    -5.419952869415283,
                    -22.944427490234375,
                    1.4512872695922852,
                    -10.385379791259766,
                    18.611520767211914,
                    5.147183418273926,
                    9.327532768249512,
                    2.119093656539917,
                    -4.94619083404541,
                    -1.28110671043396,
                    3.0038366317749023,
                    12.700285911560059,
                    -16.96505355834961,
                    -1.5454176664352417,
                    15.010704040527344,
                    -10.561982154846191,
                    1.098460078239441
                ],
                [
                    -12.143218040466309,
                    -12.456035614013672,
                    -4.345285415649414,
                    -20.128286361694336,
                    12.000411987304688,
                    -3.1424996852874756,
                    -5.996490955352783,
                    2.126058340072632,
                    12.817728996276855,
                    9.526787757873535,
                    -8.827568054199219,
                    8.918396949768066,
                    -13.805651664733887,
                    -7.210075378417969,
                    -9.162437438964844,
                    11.12669563293457,
                    -1.7611840963363647,
                    9.39799976348877,
                    -30.778789520263672,
                    21.287368774414062
                ]
            ],
            "biases": [
                -36.16182327270508,
                10.140876770019531,
                3.7613964080810547,
                -3.1041994094848633,
                17.93073081970215,
                10.569642066955566,
                0.42759549617767334,
                0.5061226487159729,
                -12.30345630645752,
                -2.215228319168091
            ]
        },
        {
            "weights": [
                [
                    2.569091796875,
                    -2.8489911556243896,
                    16.5604248046875,
                    -3.035393714904785,
                    1.3559645414352417,
                    19.535476684570312,
                    -10.262994766235352,
                    2.2284226417541504,
                    -2.8253908157348633,
                    8.419114112854004
                ]
            ],
            "biases": [
                -0.360958069562912
            ]
        }
    ],
    "inputLookup": null,
    "inputLookupLength": 0,
    "outputLookup": null,
    "outputLookupLength": 0,
    "options": {
        "inputSize": 0,
        "outputSize": 0,
        "binaryThresh": 0.5,
        "hiddenLayers": [
            10
        ]
    },
    "trainOpts": {
        "activation": "sigmoid",
        "iterations": 20000,
        "errorThresh": 0.005,
        "log": false,
        "logPeriod": 10,
        "leakyReluAlpha": 0.01,
        "learningRate": 0.3,
        "momentum": 0.1,
        "callbackPeriod": 10,
        "timeout": "Infinity",
        "beta1": 0.9,
        "beta2": 0.999,
        "epsilon": 1e-8
    }
}