{
    "type": "NeuralNetwork",
    "sizes": [
        10,
        10,
        1
    ],
    "layers": [
        {
            "weights": [],
            "biases": []
        },
        {
            "weights": [
                [
                    0.03728124871850014,
                    -9.565067291259766,
                    -12.671269416809082,
                    11.962425231933594,
                    2.7395551204681396,
                    8.987119674682617,
                    3.042349100112915,
                    1.772429347038269,
                    -8.093412399291992,
                    2.6752471923828125
                ],
                [
                    -1.571144700050354,
                    0.3352464437484741,
                    0.7614046931266785,
                    6.431732654571533,
                    -13.032430648803711,
                    1.4180418252944946,
                    0.5404160618782043,
                    0.02673967368900776,
                    -0.007007257081568241,
                    1.2923139333724976
                ],
                [
                    -8.303126335144043,
                    2.6782541275024414,
                    -0.666761577129364,
                    -7.720801830291748,
                    -1.4022489786148071,
                    -1.3745211362838745,
                    -1.4030823707580566,
                    3.4500112533569336,
                    -4.512463569641113,
                    -0.08297707885503769
                ],
                [
                    -6.440309524536133,
                    -4.3624067306518555,
                    -0.6090712547302246,
                    -1.83262300491333,
                    1.6522735357284546,
                    -2.889019250869751,
                    0.5940301418304443,
                    -3.3402581214904785,
                    7.353407859802246,
                    -2.7752127647399902
                ],
                [
                    -1.4186092615127563,
                    -1.6368951797485352,
                    -3.872173309326172,
                    10.982220649719238,
                    -2.2156639099121094,
                    4.657644748687744,
                    1.3808293342590332,
                    -3.724858283996582,
                    -9.363417625427246,
                    3.66609263420105
                ],
                [
                    8.933348655700684,
                    2.0894644260406494,
                    -1.3857768774032593,
                    -4.490675449371338,
                    -0.6966068148612976,
                    -3.0874414443969727,
                    -11.044570922851562,
                    1.6473801136016846,
                    2.466024160385132,
                    2.855229377746582
                ],
                [
                    0.5551441311836243,
                    1.373626947402954,
                    -3.147331714630127,
                    -5.606895923614502,
                    -9.714810371398926,
                    1.7625197172164917,
                    7.399294376373291,
                    -9.052906036376953,
                    2.6596460342407227,
                    1.2546803951263428
                ],
                [
                    4.580567836761475,
                    -7.319351673126221,
                    2.768812894821167,
                    -2.435642719268799,
                    0.7518959641456604,
                    -1.1892499923706055,
                    -1.6585948467254639,
                    0.98282390832901,
                    -6.98065710067749,
                    -1.0217896699905396
                ],
                [
                    -8.379384994506836,
                    -5.649629592895508,
                    -0.5981545448303223,
                    -0.2400282472372055,
                    -9.276941299438477,
                    -0.9054863452911377,
                    5.897665500640869,
                    -10.457293510437012,
                    6.213876247406006,
                    0.09626589715480804
                ],
                [
                    1.485892415046692,
                    7.756374835968018,
                    2.1482434272766113,
                    6.155460834503174,
                    4.312941551208496,
                    0.3243439197540283,
                    -1.847561001777649,
                    -13.672531127929688,
                    -5.906890869140625,
                    3.420990467071533
                ]
            ],
            "biases": [
                -5.567170143127441,
                -3.198436737060547,
                2.2538747787475586,
                3.279221296310425,
                -5.011045455932617,
                -5.329718589782715,
                -1.3101309537887573,
                -0.5174595713615417,
                2.3328144550323486,
                -7.131861686706543
            ]
        },
        {
            "weights": [
                [
                    -1.4085866212844849,
                    -5.060530185699463,
                    -6.380390167236328,
                    -0.9995872378349304,
                    4.141342639923096,
                    -4.754570484161377,
                    -4.107400417327881,
                    -4.6771697998046875,
                    4.693770408630371,
                    -2.0295615196228027
                ]
            ],
            "biases": [
                0.29248514771461487
            ]
        }
    ],
    "inputLookup": null,
    "inputLookupLength": 0,
    "outputLookup": null,
    "outputLookupLength": 0,
    "options": {
        "inputSize": 0,
        "outputSize": 0,
        "binaryThresh": 0.5,
        "hiddenLayers": [
            10
        ]
    },
    "trainOpts": {
        "activation": "sigmoid",
        "iterations": 20000,
        "errorThresh": 0.005,
        "log": false,
        "logPeriod": 10,
        "leakyReluAlpha": 0.01,
        "learningRate": 0.3,
        "momentum": 0.1,
        "callbackPeriod": 10,
        "timeout": "Infinity",
        "beta1": 0.9,
        "beta2": 0.999,
        "epsilon": 1e-8
    }
}