{
    "type": "NeuralNetwork",
    "sizes": [
        20,
        10,
        1
    ],
    "layers": [
        {
            "weights": [],
            "biases": []
        },
        {
            "weights": [
                [
                    -3.986809253692627,
                    11.480765342712402,
                    -18.90624237060547,
                    -12.805641174316406,
                    16.804908752441406,
                    20.890125274658203,
                    25.772180557250977,
                    -17.0655574798584,
                    15.333956718444824,
                    -8.471266746520996,
                    -17.201740264892578,
                    -14.54340648651123,
                    11.777125358581543,
                    10.126829147338867,
                    -11.240476608276367,
                    -1.2006535530090332,
                    -10.204445838928223,
                    -2.488011598587036,
                    2.5239224433898926,
                    -7.963667869567871
                ],
                [
                    -18.28948402404785,
                    -16.7943058013916,
                    16.88294792175293,
                    2.552569627761841,
                    -22.73436737060547,
                    -15.420154571533203,
                    -10.225536346435547,
                    7.778919219970703,
                    2.5217199325561523,
                    -4.539144515991211,
                    30.50588035583496,
                    20.481142044067383,
                    -16.41556167602539,
                    -29.84901237487793,
                    10.831361770629883,
                    6.546111583709717,
                    -11.00656795501709,
                    -18.749380111694336,
                    -12.29161548614502,
                    2.1757853031158447
                ],
                [
                    -8.496596336364746,
                    -28.632043838500977,
                    -21.75391387939453,
                    20.40130043029785,
                    24.221769332885742,
                    35.98148727416992,
                    32.63535690307617,
                    -30.076921463012695,
                    0.5800251960754395,
                    -10.832352638244629,
                    8.976076126098633,
                    -15.21640396118164,
                    2.5535953044891357,
                    5.87584924697876,
                    1.8698276281356812,
                    1.1806811094284058,
                    3.566772937774658,
                    -17.746623992919922,
                    -7.345181465148926,
                    -25.60965347290039
                ],
                [
                    -15.653635025024414,
                    5.872376441955566,
                    8.529356956481934,
                    -29.488384246826172,
                    24.09031867980957,
                    -13.800804138183594,
                    27.4216251373291,
                    -6.186328411102295,
                    5.6659393310546875,
                    -8.879173278808594,
                    0.5698242783546448,
                    5.032546520233154,
                    -3.729123592376709,
                    -1.7632218599319458,
                    -39.197303771972656,
                    -39.58269500732422,
                    -1.8030120134353638,
                    1.5186028480529785,
                    -16.71796226501465,
                    -3.836052417755127
                ],
                [
                    -12.502750396728516,
                    22.2779483795166,
                    2.287425994873047,
                    -13.308184623718262,
                    -30.62519645690918,
                    -19.433143615722656,
                    1.3381096124649048,
                    6.945190906524658,
                    10.227219581604004,
                    -14.639761924743652,
                    -0.9372815489768982,
                    -7.5138444900512695,
                    -6.782968044281006,
                    23.407272338867188,
                    -10.9872407913208,
                    4.7890400886535645,
                    3.0245838165283203,
                    -7.550291061401367,
                    -6.213717460632324,
                    5.499671936035156
                ],
                [
                    -7.617749214172363,
                    17.657217025756836,
                    -3.813244581222534,
                    -0.9421889185905457,
                    0.4595962464809418,
                    -9.6741361618042,
                    13.786457061767578,
                    0.8625200986862183,
                    -8.078390121459961,
                    -24.965484619140625,
                    -3.358602523803711,
                    -17.67955207824707,
                    20.135433197021484,
                    -33.876705169677734,
                    1.4603008031845093,
                    8.421631813049316,
                    -7.893930435180664,
                    -31.37871551513672,
                    -6.369621276855469,
                    21.1792049407959
                ],
                [
                    -15.949037551879883,
                    -5.994185924530029,
                    -6.144560813903809,
                    5.90933084487915,
                    3.895176649093628,
                    8.67973518371582,
                    26.596345901489258,
                    -7.4704508781433105,
                    -0.0746532455086708,
                    -2.6717660427093506,
                    15.74882698059082,
                    -2.402783155441284,
                    -26.108346939086914,
                    -1.9157822132110596,
                    1.7907084226608276,
                    -12.07239818572998,
                    8.359134674072266,
                    -23.371809005737305,
                    -0.5106238722801208,
                    -2.1646926403045654
                ],
                [
                    -6.660415172576904,
                    17.945959091186523,
                    2.0443379878997803,
                    0.025211110711097717,
                    -18.904253005981445,
                    -3.986931562423706,
                    0.669347882270813,
                    6.216023921966553,
                    4.477797508239746,
                    -4.91005277633667,
                    -0.6856997013092041,
                    -4.549854278564453,
                    -6.124958515167236,
                    14.393589973449707,
                    -7.407690048217773,
                    0.5595113039016724,
                    2.9952938556671143,
                    -7.123849391937256,
                    -0.6292394995689392,
                    2.29803466796875
                ],
                [
                    -3.5342373847961426,
                    -13.899412155151367,
                    -10.321593284606934,
                    -11.496521949768066,
                    -3.5480146408081055,
                    -31.924633026123047,
                    -11.925955772399902,
                    3.433589220046997,
                    1.2414438724517822,
                    -2.2360503673553467,
                    -8.374211311340332,
                    1.8424010276794434,
                    -20.311391830444336,
                    -6.651453495025635,
                    -8.19426441192627,
                    -8.603745460510254,
                    -18.44032096862793,
                    -5.719332218170166,
                    -1.7411705255508423,
                    8.149810791015625
                ],
                [
                    -3.7587554454803467,
                    4.922175884246826,
                    -19.519733428955078,
                    -10.864973068237305,
                    10.112068176269531,
                    19.7166805267334,
                    -16.177255630493164,
                    -11.746753692626953,
                    -8.069283485412598,
                    9.947571754455566,
                    -28.64958953857422,
                    -30.35366439819336,
                    -14.375819206237793,
                    0.5053558945655823,
                    -26.08498191833496,
                    2.899855136871338,
                    -3.7330615520477295,
                    13.356308937072754,
                    -4.810426712036133,
                    21.590057373046875
                ]
            ],
            "biases": [
                -25.72948455810547,
                -6.792527198791504,
                -11.639420509338379,
                19.182912826538086,
                -6.708407402038574,
                -4.050624847412109,
                -3.6916112899780273,
                -15.113100051879883,
                50.697723388671875,
                10.05007553100586
            ]
        },
        {
            "weights": [
                [
                    -1.956502079963684,
                    20.156343460083008,
                    1.161138653755188,
                    1.407488465309143,
                    -21.316631317138672,
                    16.88045883178711,
                    -1.5303308963775635,
                    22.872356414794922,
                    20.99901580810547,
                    18.35321044921875
                ]
            ],
            "biases": [
                -0.03374425694346428
            ]
        }
    ],
    "inputLookup": null,
    "inputLookupLength": 0,
    "outputLookup": null,
    "outputLookupLength": 0,
    "options": {
        "inputSize": 0,
        "outputSize": 0,
        "binaryThresh": 0.5,
        "hiddenLayers": [
            10
        ]
    },
    "trainOpts": {
        "activation": "sigmoid",
        "iterations": 20000,
        "errorThresh": 0.005,
        "log": false,
        "logPeriod": 10,
        "leakyReluAlpha": 0.01,
        "learningRate": 0.3,
        "momentum": 0.1,
        "callbackPeriod": 10,
        "timeout": "Infinity",
        "beta1": 0.9,
        "beta2": 0.999,
        "epsilon": 1e-8
    }
}