{
    "type": "NeuralNetwork",
    "sizes": [
        20,
        10,
        1
    ],
    "layers": [
        {
            "weights": [],
            "biases": []
        },
        {
            "weights": [
                [
                    -2.475947856903076,
                    1.357900619506836,
                    -1.9704596996307373,
                    -3.6964645385742188,
                    -1.2211508750915527,
                    1.030094861984253,
                    -4.051152229309082,
                    -2.335813522338867,
                    -3.093209981918335,
                    -0.27289506793022156,
                    -2.9489593505859375,
                    -3.6413919925689697,
                    -0.9136048555374146,
                    1.9449304342269897,
                    1.6452653408050537,
                    4.202450275421143,
                    3.285616636276245,
                    4.291820526123047,
                    -3.2284579277038574,
                    3.7458269596099854
                ],
                [
                    -4.887354850769043,
                    -0.36052364110946655,
                    3.8077492713928223,
                    -0.12025474011898041,
                    -0.10932160913944244,
                    -4.945507526397705,
                    2.479370355606079,
                    -4.4083991050720215,
                    -1.0725700855255127,
                    1.172090768814087,
                    -2.7683749198913574,
                    1.3128924369812012,
                    -1.573911428451538,
                    1.470792531967163,
                    -1.011710286140442,
                    1.4375708103179932,
                    5.3993940353393555,
                    -3.804818868637085,
                    -2.1660654544830322,
                    -0.269237220287323
                ],
                [
                    -3.453542947769165,
                    -9.73538589477539,
                    -1.33224618434906,
                    -5.768542289733887,
                    8.414084434509277,
                    3.1684141159057617,
                    0.6629921793937683,
                    -1.6298620700836182,
                    2.915571928024292,
                    0.5570144653320312,
                    -1.0308729410171509,
                    -1.6026604175567627,
                    0.9968152642250061,
                    4.357109546661377,
                    -3.5868871212005615,
                    7.317628860473633,
                    -7.637866497039795,
                    3.8862040042877197,
                    -6.134592056274414,
                    4.48850154876709
                ],
                [
                    -1.1673004627227783,
                    -3.205841064453125,
                    3.416759967803955,
                    2.2163543701171875,
                    -8.264571189880371,
                    -9.209892272949219,
                    5.68209171295166,
                    -5.122117519378662,
                    0.5271101593971252,
                    5.142216205596924,
                    1.3814404010772705,
                    6.145557403564453,
                    -4.390248775482178,
                    3.656097888946533,
                    -3.074618101119995,
                    0.47989463806152344,
                    -1.5865042209625244,
                    -9.526409149169922,
                    1.344369888305664,
                    -0.3011612594127655
                ],
                [
                    -10.488040924072266,
                    -0.787942111492157,
                    2.7085676193237305,
                    -2.3998873233795166,
                    3.304107666015625,
                    -2.350755453109741,
                    3.8730790615081787,
                    -1.4178433418273926,
                    -2.2894840240478516,
                    -2.831296443939209,
                    -5.521944046020508,
                    0.42156893014907837,
                    -1.0657132863998413,
                    -1.5145260095596313,
                    -2.110955238342285,
                    2.855283498764038,
                    5.174149513244629,
                    -11.404789924621582,
                    -3.4827775955200195,
                    -3.098970413208008
                ],
                [
                    1.7582147121429443,
                    -2.718067169189453,
                    3.0136120319366455,
                    -3.337139844894409,
                    3.4578144550323486,
                    2.1845967769622803,
                    -4.989888668060303,
                    -3.879708766937256,
                    1.2306984663009644,
                    3.9199249744415283,
                    -1.1936542987823486,
                    -2.6557466983795166,
                    0.9032421112060547,
                    0.3868251442909241,
                    -4.745883464813232,
                    -0.5901361703872681,
                    -1.6091644763946533,
                    4.6359124183654785,
                    -4.570764064788818,
                    3.1690430641174316
                ],
                [
                    -0.3217853009700775,
                    -6.715864658355713,
                    -1.5608997344970703,
                    -6.4280829429626465,
                    3.9035987854003906,
                    0.8607917428016663,
                    4.563286781311035,
                    -1.4777380228042603,
                    -0.2497357726097107,
                    -2.3908298015594482,
                    -4.943982124328613,
                    -0.6473594307899475,
                    2.5492630004882812,
                    -7.283880233764648,
                    0.23528490960597992,
                    1.6369059085845947,
                    4.019785404205322,
                    -3.457247495651245,
                    -1.7495756149291992,
                    1.7805172204971313
                ],
                [
                    4.880335807800293,
                    -4.474385738372803,
                    -2.5698444843292236,
                    -5.6977996826171875,
                    -0.6294982433319092,
                    5.995060443878174,
                    10.56312370300293,
                    -12.84253978729248,
                    -4.227648735046387,
                    2.9786593914031982,
                    1.4546232223510742,
                    3.173189401626587,
                    6.554317951202393,
                    -4.278155326843262,
                    2.3232052326202393,
                    -7.011467933654785,
                    -11.410616874694824,
                    2.9165971279144287,
                    5.369144439697266,
                    -1.5403575897216797
                ],
                [
                    6.337985992431641,
                    -4.156426906585693,
                    4.02584171295166,
                    -3.1810662746429443,
                    2.832434892654419,
                    1.3495019674301147,
                    6.593076229095459,
                    -6.589975833892822,
                    -0.3135533034801483,
                    0.8355638384819031,
                    -3.2719855308532715,
                    -0.33038583397865295,
                    5.486774921417236,
                    -10.237665176391602,
                    3.8352162837982178,
                    -12.092906951904297,
                    -1.302331805229187,
                    2.250429153442383,
                    4.836213111877441,
                    3.728879451751709
                ],
                [
                    0.01925349421799183,
                    0.10577641427516937,
                    -0.346028596162796,
                    0.38653576374053955,
                    -0.03509386256337166,
                    0.4933149218559265,
                    0.5592101216316223,
                    -0.30930694937705994,
                    -0.4785713851451874,
                    -0.14282573759555817,
                    -0.23654255270957947,
                    0.33835726976394653,
                    -1.0206995010375977,
                    -0.011056769639253616,
                    -0.13316333293914795,
                    -0.4828665256500244,
                    0.19421717524528503,
                    0.19858470559120178,
                    -1.0790462493896484,
                    0.3844386339187622
                ]
            ],
            "biases": [
                1.514917016029358,
                1.031449794769287,
                -3.8056788444519043,
                1.559358835220337,
                9.332962036132812,
                -1.6817799806594849,
                3.7848012447357178,
                -1.5010721683502197,
                -3.473912000656128,
                -0.0026664300821721554
            ]
        },
        {
            "weights": [
                [
                    4.4432291984558105,
                    -9.329835891723633,
                    8.582079887390137,
                    6.2836384773254395,
                    11.532440185546875,
                    -6.257110595703125,
                    -8.45112133026123,
                    -6.2226643562316895,
                    6.953832626342773,
                    -1.5121079683303833
                ]
            ],
            "biases": [
                -0.7112736701965332
            ]
        }
    ],
    "inputLookup": null,
    "inputLookupLength": 0,
    "outputLookup": null,
    "outputLookupLength": 0,
    "options": {
        "inputSize": 0,
        "outputSize": 0,
        "binaryThresh": 0.5,
        "hiddenLayers": [
            10
        ]
    },
    "trainOpts": {
        "activation": "sigmoid",
        "iterations": 20000,
        "errorThresh": 0.005,
        "log": false,
        "logPeriod": 10,
        "leakyReluAlpha": 0.01,
        "learningRate": 0.3,
        "momentum": 0.1,
        "callbackPeriod": 10,
        "timeout": "Infinity",
        "beta1": 0.9,
        "beta2": 0.999,
        "epsilon": 1e-8
    }
}