{
    "type": "NeuralNetwork",
    "sizes": [
        11,
        4,
        8,
        1
    ],
    "layers": [
        {
            "weights": [],
            "biases": []
        },
        {
            "weights": [
                [
                    0.8373631238937378,
                    2.4801204204559326,
                    3.9986977577209473,
                    -8.647576332092285,
                    10.276386260986328,
                    7.508911609649658,
                    2.114380359649658,
                    8.542795181274414,
                    -6.030868053436279,
                    -5.074727535247803,
                    12.048052787780762
                ],
                [
                    12.31006145477295,
                    18.599016189575195,
                    1.4041974544525146,
                    14.231075286865234,
                    9.67595386505127,
                    7.554779052734375,
                    -11.187328338623047,
                    -23.74790382385254,
                    13.726454734802246,
                    -1.0155853033065796,
                    8.485189437866211
                ],
                [
                    -4.251805305480957,
                    -13.234774589538574,
                    9.979188919067383,
                    2.8278706073760986,
                    2.7243385314941406,
                    -4.132081985473633,
                    14.611549377441406,
                    16.046812057495117,
                    6.000682353973389,
                    17.50897979736328,
                    -1.486438274383545
                ],
                [
                    8.214887619018555,
                    -2.593870162963867,
                    1.1372277736663818,
                    -9.85307788848877,
                    3.3557791709899902,
                    -3.5295393466949463,
                    7.038847923278809,
                    -1.7356969118118286,
                    -1.4537593126296997,
                    17.5533390045166,
                    9.365762710571289
                ]
            ],
            "biases": [
                1.6831953525543213,
                -0.8657507300376892,
                -3.0682778358459473,
                7.544468402862549
            ]
        },
        {
            "weights": [
                [
                    -35.366172790527344,
                    11.28195858001709,
                    -32.89603042602539,
                    5.326785564422607
                ],
                [
                    -1.8331174850463867,
                    -0.7363073229789734,
                    -10.506876945495605,
                    -39.57639694213867
                ],
                [
                    -12.676669120788574,
                    9.967020988464355,
                    -44.51932144165039,
                    23.571645736694336
                ],
                [
                    -4.052258491516113,
                    -4.001237869262695,
                    -5.441568851470947,
                    -2.880730390548706
                ],
                [
                    -3.699424982070923,
                    -4.136895656585693,
                    -4.665226936340332,
                    -3.6476025581359863
                ],
                [
                    -55.23234176635742,
                    -27.388431549072266,
                    14.398886680603027,
                    -1.2230075597763062
                ],
                [
                    -3.130614995956421,
                    -6.6563897132873535,
                    -4.048216819763184,
                    -2.4855175018310547
                ],
                [
                    26.415618896484375,
                    -52.702293395996094,
                    3.7396655082702637,
                    -32.140869140625
                ]
            ],
            "biases": [
                11.632293701171875,
                10.0886869430542,
                -16.09153175354004,
                -0.936246931552887,
                -0.9666776061058044,
                13.130661964416504,
                -1.6572753190994263,
                1.9281433820724487
            ]
        },
        {
            "weights": [
                [
                    14.581665992736816,
                    8.616178512573242,
                    0.6838197112083435,
                    1.5100054740905762,
                    1.4488410949707031,
                    2.623156785964966,
                    0.8371175527572632,
                    1.655714988708496
                ]
            ],
            "biases": [
                -0.3432708978652954
            ]
        }
    ],
    "inputLookup": null,
    "inputLookupLength": 0,
    "outputLookup": null,
    "outputLookupLength": 0,
    "options": {
        "inputSize": 0,
        "outputSize": 0,
        "binaryThresh": 0.5,
        "hiddenLayers": [
            4,
            8
        ]
    },
    "trainOpts": {
        "activation": "sigmoid",
        "iterations": 20000,
        "errorThresh": 0.005,
        "log": false,
        "logPeriod": 10,
        "leakyReluAlpha": 0.01,
        "learningRate": 0.3,
        "momentum": 0.1,
        "callbackPeriod": 10,
        "timeout": "Infinity",
        "beta1": 0.9,
        "beta2": 0.999,
        "epsilon": 1e-8
    }
}