{
    "type": "NeuralNetwork",
    "sizes": [
        30,
        4,
        8,
        1
    ],
    "layers": [
        {
            "weights": [],
            "biases": []
        },
        {
            "weights": [
                [
                    -4.4010210037231445,
                    3.01875638961792,
                    -7.178532123565674,
                    -4.204131126403809,
                    22.621692657470703,
                    -16.42091178894043,
                    -9.762042999267578,
                    -9.074063301086426,
                    22.172170639038086,
                    -8.220566749572754,
                    -11.990418434143066,
                    30.84012794494629,
                    28.883113861083984,
                    -21.2274112701416,
                    -8.867646217346191,
                    6.671097755432129,
                    -21.950878143310547,
                    -0.051116421818733215,
                    -11.511186599731445,
                    -12.475418090820312,
                    25.652280807495117,
                    20.08238983154297,
                    -25.621337890625,
                    -7.275853157043457,
                    -31.593626022338867,
                    -8.596598625183105,
                    -18.513540267944336,
                    26.925512313842773,
                    28.83013916015625,
                    29.392263412475586
                ],
                [
                    -3.918178081512451,
                    14.556408882141113,
                    0.878678023815155,
                    18.479549407958984,
                    16.890594482421875,
                    4.933465957641602,
                    -7.143138885498047,
                    22.911813735961914,
                    -37.06782913208008,
                    3.670776605606079,
                    2.653744697570801,
                    39.957637786865234,
                    -6.929811954498291,
                    26.893327713012695,
                    84.36250305175781,
                    23.32420539855957,
                    -15.229715347290039,
                    4.032216548919678,
                    19.167142868041992,
                    24.487110137939453,
                    -9.870890617370605,
                    -25.52748680114746,
                    -17.25956916809082,
                    -22.97127914428711,
                    -43.304283142089844,
                    -25.149091720581055,
                    10.341344833374023,
                    12.78518009185791,
                    -3.601325511932373,
                    51.822269439697266
                ],
                [
                    21.443117141723633,
                    -35.90009689331055,
                    36.04566192626953,
                    24.909273147583008,
                    -1.9324994087219238,
                    18.6539363861084,
                    -19.236448287963867,
                    19.082096099853516,
                    -16.867565155029297,
                    55.6274528503418,
                    -10.960951805114746,
                    -49.01618194580078,
                    7.393027305603027,
                    32.068145751953125,
                    -4.154550075531006,
                    -19.22711181640625,
                    29.369361877441406,
                    15.90641975402832,
                    -5.068201541900635,
                    -19.953725814819336,
                    6.522541522979736,
                    1.1871931552886963,
                    10.329486846923828,
                    6.787600040435791,
                    4.596377372741699,
                    4.3694329261779785,
                    15.062806129455566,
                    -7.802005767822266,
                    -9.223278045654297,
                    -3.428382396697998
                ],
                [
                    -22.625268936157227,
                    33.4376106262207,
                    -16.702293395996094,
                    -8.301665306091309,
                    14.763894081115723,
                    -9.092333793640137,
                    5.893052577972412,
                    -29.966339111328125,
                    -14.469146728515625,
                    -42.55925369262695,
                    26.805540084838867,
                    27.436811447143555,
                    -41.91579818725586,
                    -0.17484761774539948,
                    -40.580833435058594,
                    0.9020428657531738,
                    0.003408790100365877,
                    0.7973328232765198,
                    7.162688732147217,
                    25.361404418945312,
                    26.44605827331543,
                    20.425979614257812,
                    -35.23805618286133,
                    -19.77826690673828,
                    10.983022689819336,
                    23.47996711730957,
                    0.7775591015815735,
                    39.43101119995117,
                    -22.333898544311523,
                    -27.292430877685547
                ]
            ],
            "biases": [
                -11.301727294921875,
                2.1724441051483154,
                7.75857400894165,
                -16.357223510742188
            ]
        },
        {
            "weights": [
                [
                    -35.718849182128906,
                    -22.088510513305664,
                    -37.9498405456543,
                    -42.9119987487793
                ],
                [
                    -54.429100036621094,
                    33.08491134643555,
                    -61.295711517333984,
                    -55.000732421875
                ],
                [
                    -4.33445405960083,
                    -27.507219314575195,
                    -11.686233520507812,
                    -27.857791900634766
                ],
                [
                    -12.116786003112793,
                    1.5000287294387817,
                    -13.020256042480469,
                    -14.994841575622559
                ],
                [
                    16.74908447265625,
                    -14.483152389526367,
                    -14.911796569824219,
                    -1.6043919324874878
                ],
                [
                    -2.956915855407715,
                    -2.677262306213379,
                    -5.205174922943115,
                    -4.671297550201416
                ],
                [
                    -15.495213508605957,
                    -25.381736755371094,
                    -38.445518493652344,
                    -20.33428192138672
                ],
                [
                    -2.4181525707244873,
                    -2.856078624725342,
                    -6.0689473152160645,
                    -5.024148464202881
                ]
            ],
            "biases": [
                48.159767150878906,
                25.105926513671875,
                29.14165687561035,
                0.6582342982292175,
                -5.050826072692871,
                -2.201422691345215,
                56.37140655517578,
                -1.7388325929641724
            ]
        },
        {
            "weights": [
                [
                    3.496293544769287,
                    10.934337615966797,
                    8.396000862121582,
                    -9.839667320251465,
                    11.050699234008789,
                    0.3972024917602539,
                    -10.039260864257812,
                    1.20488703250885
                ]
            ],
            "biases": [
                -0.06485401093959808
            ]
        }
    ],
    "inputLookup": null,
    "inputLookupLength": 0,
    "outputLookup": null,
    "outputLookupLength": 0,
    "options": {
        "inputSize": 0,
        "outputSize": 0,
        "binaryThresh": 0.5,
        "hiddenLayers": [
            4,
            8
        ]
    },
    "trainOpts": {
        "activation": "sigmoid",
        "iterations": 20000,
        "errorThresh": 0.005,
        "log": false,
        "logPeriod": 10,
        "leakyReluAlpha": 0.01,
        "learningRate": 0.3,
        "momentum": 0.1,
        "callbackPeriod": 10,
        "timeout": "Infinity",
        "beta1": 0.9,
        "beta2": 0.999,
        "epsilon": 1e-8
    }
}