{
    "type": "NeuralNetwork",
    "sizes": [
        10,
        10,
        1
    ],
    "layers": [
        {
            "weights": [],
            "biases": []
        },
        {
            "weights": [
                [
                    -4.478316307067871,
                    -1.0676162242889404,
                    4.572051525115967,
                    -10.60576057434082,
                    -0.7622854113578796,
                    -1.5622572898864746,
                    -1.3000717163085938,
                    4.452288627624512,
                    -4.178515434265137,
                    6.991605281829834
                ],
                [
                    5.176015853881836,
                    6.168770790100098,
                    0.9902544617652893,
                    1.0582491159439087,
                    6.180700302124023,
                    -5.446498394012451,
                    3.133161783218384,
                    -5.86393928527832,
                    -1.6058377027511597,
                    -1.514349341392517
                ],
                [
                    7.081523895263672,
                    -4.948415756225586,
                    0.07078960537910461,
                    -0.5800120234489441,
                    -1.3119025230407715,
                    -2.5603013038635254,
                    -9.192658424377441,
                    -7.013408660888672,
                    1.2085442543029785,
                    -0.6674750447273254
                ],
                [
                    -1.6378885507583618,
                    -2.476703643798828,
                    2.1283559799194336,
                    -1.754099726676941,
                    -0.6595905423164368,
                    -0.5582840442657471,
                    -2.7008402347564697,
                    -1.959773063659668,
                    -1.1798840761184692,
                    2.6198577880859375
                ],
                [
                    0.5461626052856445,
                    2.3471858501434326,
                    3.2416982650756836,
                    -0.22204478085041046,
                    3.3735556602478027,
                    1.3380928039550781,
                    -2.0880320072174072,
                    6.249638080596924,
                    -7.913674354553223,
                    5.838840961456299
                ],
                [
                    2.20882511138916,
                    2.450690269470215,
                    -12.110573768615723,
                    4.441146373748779,
                    -1.0766754150390625,
                    -2.987089157104492,
                    3.6601264476776123,
                    -9.86711311340332,
                    -8.1600341796875,
                    3.274308204650879
                ],
                [
                    2.2579727172851562,
                    7.875828742980957,
                    6.25197696685791,
                    -2.599194288253784,
                    5.9554548263549805,
                    -2.1629183292388916,
                    -10.72974681854248,
                    0.38781654834747314,
                    -4.8115315437316895,
                    -0.6441881060600281
                ],
                [
                    4.393534183502197,
                    5.738435745239258,
                    -3.8305327892303467,
                    7.234575271606445,
                    3.984152317047119,
                    -3.809030771255493,
                    5.5884528160095215,
                    -2.257446527481079,
                    -12.321167945861816,
                    3.5113868713378906
                ],
                [
                    0.7492628693580627,
                    1.2600561380386353,
                    -1.273858904838562,
                    -6.987483501434326,
                    -8.783588409423828,
                    -5.9058732986450195,
                    1.516732931137085,
                    -0.7282708883285522,
                    1.7631268501281738,
                    1.6820076704025269
                ],
                [
                    4.272696018218994,
                    3.5665218830108643,
                    0.3124915659427643,
                    -10.74583625793457,
                    0.47107404470443726,
                    -12.856310844421387,
                    5.422471523284912,
                    -5.504067420959473,
                    1.9516689777374268,
                    1.7084879875183105
                ]
            ],
            "biases": [
                -3.1603469848632812,
                -6.791983127593994,
                1.1788967847824097,
                -0.2029290646314621,
                -9.771795272827148,
                0.42967063188552856,
                -6.550872325897217,
                -7.672788619995117,
                2.4092764854431152,
                -1.3590551614761353
            ]
        },
        {
            "weights": [
                [
                    -5.562411308288574,
                    2.001948595046997,
                    -4.168747425079346,
                    2.3426496982574463,
                    2.840203285217285,
                    7.507616996765137,
                    -2.207944393157959,
                    -2.0478808879852295,
                    2.835970640182495,
                    -3.693662166595459
                ]
            ],
            "biases": [
                -0.48426052927970886
            ]
        }
    ],
    "inputLookup": null,
    "inputLookupLength": 0,
    "outputLookup": null,
    "outputLookupLength": 0,
    "options": {
        "inputSize": 0,
        "outputSize": 0,
        "binaryThresh": 0.5,
        "hiddenLayers": [
            10
        ]
    },
    "trainOpts": {
        "activation": "sigmoid",
        "iterations": 20000,
        "errorThresh": 0.005,
        "log": false,
        "logPeriod": 10,
        "leakyReluAlpha": 0.01,
        "learningRate": 0.3,
        "momentum": 0.1,
        "callbackPeriod": 10,
        "timeout": "Infinity",
        "beta1": 0.9,
        "beta2": 0.999,
        "epsilon": 1e-8
    }
}