{
    "type": "NeuralNetwork",
    "sizes": [
        22,
        4,
        8,
        1
    ],
    "layers": [
        {
            "weights": [],
            "biases": []
        },
        {
            "weights": [
                [
                    -11.723807334899902,
                    4.115434646606445,
                    16.729814529418945,
                    18.78569793701172,
                    12.474323272705078,
                    25.474231719970703,
                    -13.201168060302734,
                    7.973948955535889,
                    18.082210540771484,
                    1.4623955488204956,
                    2.055713653564453,
                    3.2004315853118896,
                    29.976577758789062,
                    -33.24245071411133,
                    44.64828872680664,
                    7.2178239822387695,
                    -4.782858848571777,
                    -6.566868782043457,
                    0.962608277797699,
                    -6.947927951812744,
                    -15.394698143005371,
                    -39.29912567138672
                ],
                [
                    22.00785255432129,
                    -30.231670379638672,
                    0.04533495008945465,
                    17.280065536499023,
                    -10.962069511413574,
                    -37.23737335205078,
                    39.32663345336914,
                    -41.6257209777832,
                    -13.843974113464355,
                    -8.84974479675293,
                    6.401123046875,
                    -16.830921173095703,
                    12.934988975524902,
                    20.431655883789062,
                    -15.513233184814453,
                    31.18385124206543,
                    2.9753425121307373,
                    -14.135825157165527,
                    13.704731941223145,
                    -0.8198586702346802,
                    16.656837463378906,
                    -6.545894145965576
                ],
                [
                    -10.213092803955078,
                    14.612044334411621,
                    -17.975324630737305,
                    -33.1961669921875,
                    0.2541983425617218,
                    15.019712448120117,
                    1.5932406187057495,
                    6.026933193206787,
                    25.226661682128906,
                    12.9695463180542,
                    2.3297595977783203,
                    -1.2895054817199707,
                    6.392191410064697,
                    7.2518391609191895,
                    2.595370054244995,
                    -2.138503313064575,
                    -9.770198822021484,
                    -12.381819725036621,
                    13.142475128173828,
                    23.51260757446289,
                    -4.600643157958984,
                    -14.951534271240234
                ],
                [
                    5.043065071105957,
                    16.81328010559082,
                    4.605798244476318,
                    4.775880336761475,
                    -13.524447441101074,
                    -11.386510848999023,
                    12.49059009552002,
                    6.36915397644043,
                    -16.5517635345459,
                    0.9927440881729126,
                    1.575796365737915,
                    12.328797340393066,
                    -19.692319869995117,
                    29.816387176513672,
                    -24.23480224609375,
                    -11.768024444580078,
                    20.336200714111328,
                    34.30567169189453,
                    -20.520097732543945,
                    4.392935276031494,
                    -0.9742631316184998,
                    57.05412292480469
                ]
            ],
            "biases": [
                -20.39012908935547,
                9.835756301879883,
                33.35250473022461,
                -25.84250831604004
            ]
        },
        {
            "weights": [
                [
                    -45.946311950683594,
                    -69.69939422607422,
                    43.52118682861328,
                    -50.052162170410156
                ],
                [
                    -16.216693878173828,
                    -14.581802368164062,
                    -19.00902557373047,
                    2.5873773097991943
                ],
                [
                    -18.5852108001709,
                    -28.481983184814453,
                    -62.59939956665039,
                    14.891654014587402
                ],
                [
                    -26.64712905883789,
                    -27.92230987548828,
                    11.854616165161133,
                    -28.287940979003906
                ],
                [
                    -11.4271821975708,
                    -14.623318672180176,
                    5.313209056854248,
                    -16.986175537109375
                ],
                [
                    -11.220536231994629,
                    -14.411677360534668,
                    5.153497219085693,
                    -16.812450408935547
                ],
                [
                    -1.5618699789047241,
                    -9.852838516235352,
                    -14.641695976257324,
                    -9.539027214050293
                ],
                [
                    -49.90458297729492,
                    10.437846183776855,
                    1.163082480430603,
                    -50.00480651855469
                ]
            ],
            "biases": [
                15.113007545471191,
                5.133474349975586,
                27.795970916748047,
                9.065630912780762,
                1.8481088876724243,
                1.8591856956481934,
                1.0332391262054443,
                -1.755239725112915
            ]
        },
        {
            "weights": [
                [
                    1.620644450187683,
                    7.763896942138672,
                    2.0997519493103027,
                    11.317959785461426,
                    3.9305992126464844,
                    3.8796770572662354,
                    6.623237609863281,
                    2.6721301078796387
                ]
            ],
            "biases": [
                -0.6375396251678467
            ]
        }
    ],
    "inputLookup": null,
    "inputLookupLength": 0,
    "outputLookup": null,
    "outputLookupLength": 0,
    "options": {
        "inputSize": 0,
        "outputSize": 0,
        "binaryThresh": 0.5,
        "hiddenLayers": [
            4,
            8
        ]
    },
    "trainOpts": {
        "activation": "sigmoid",
        "iterations": 20000,
        "errorThresh": 0.005,
        "log": false,
        "logPeriod": 10,
        "leakyReluAlpha": 0.01,
        "learningRate": 0.3,
        "momentum": 0.1,
        "callbackPeriod": 10,
        "timeout": "Infinity",
        "beta1": 0.9,
        "beta2": 0.999,
        "epsilon": 1e-8
    }
}