{
    "type": "NeuralNetwork",
    "sizes": [
        20,
        10,
        1
    ],
    "layers": [
        {
            "weights": [],
            "biases": []
        },
        {
            "weights": [
                [
                    -0.9489547610282898,
                    3.776047706604004,
                    -7.179405689239502,
                    2.9315242767333984,
                    -0.0716203823685646,
                    -0.22548983991146088,
                    -7.989979267120361,
                    -12.911202430725098,
                    -2.8154640197753906,
                    2.1328816413879395,
                    -5.333990573883057,
                    2.1414692401885986,
                    -5.080845355987549,
                    -4.9887189865112305,
                    -2.2777669429779053,
                    -3.1592822074890137,
                    -1.6926789283752441,
                    -8.59431266784668,
                    -0.5429273247718811,
                    5.806190013885498
                ],
                [
                    -6.1617207527160645,
                    3.377582311630249,
                    -1.988444447517395,
                    -13.103015899658203,
                    12.213229179382324,
                    7.046085357666016,
                    -3.881253242492676,
                    -4.612033367156982,
                    4.719194412231445,
                    -10.181730270385742,
                    4.302262783050537,
                    5.784303188323975,
                    -1.96664297580719,
                    -10.73327922821045,
                    -3.077083110809326,
                    0.8531482815742493,
                    -8.445677757263184,
                    3.7482900619506836,
                    1.7192745208740234,
                    -8.225441932678223
                ],
                [
                    3.3691728115081787,
                    -0.9553159475326538,
                    2.7024881839752197,
                    1.2881135940551758,
                    -1.2261848449707031,
                    -0.9177300930023193,
                    -3.3078346252441406,
                    -0.44842129945755005,
                    -1.7078640460968018,
                    0.6538257002830505,
                    0.2532861828804016,
                    -0.22453290224075317,
                    2.967658042907715,
                    1.5758631229400635,
                    -2.7719004154205322,
                    -0.7078114748001099,
                    -3.963646650314331,
                    0.009451664984226227,
                    -1.3207353353500366,
                    0.8233441114425659
                ],
                [
                    -4.605679988861084,
                    3.4704554080963135,
                    0.24455304443836212,
                    2.0263476371765137,
                    5.656806945800781,
                    13.480072021484375,
                    8.678078651428223,
                    0.1799290031194687,
                    -17.860992431640625,
                    -12.71770191192627,
                    1.1276190280914307,
                    4.872807502746582,
                    2.7281177043914795,
                    1.0589449405670166,
                    2.7606420516967773,
                    -0.7149807214736938,
                    -4.646737098693848,
                    -10.465188980102539,
                    -1.2544910907745361,
                    -9.603504180908203
                ],
                [
                    16.423934936523438,
                    -1.5815633535385132,
                    6.262597560882568,
                    7.884478569030762,
                    -8.024848937988281,
                    -0.33429884910583496,
                    -7.330976486206055,
                    -4.799856185913086,
                    -2.847296953201294,
                    7.41285514831543,
                    -1.0329148769378662,
                    -1.9648016691207886,
                    10.907132148742676,
                    3.0190560817718506,
                    -16.63971519470215,
                    1.5823392868041992,
                    -9.430157661437988,
                    -2.5252320766448975,
                    -5.877666473388672,
                    9.888236045837402
                ],
                [
                    -1.754886507987976,
                    3.3301703929901123,
                    -6.666810512542725,
                    4.620721817016602,
                    0.06733471155166626,
                    6.296086311340332,
                    -0.646085262298584,
                    -9.817988395690918,
                    -1.2147955894470215,
                    -4.078066825866699,
                    -2.0775763988494873,
                    3.420624256134033,
                    -2.0755505561828613,
                    -2.7844409942626953,
                    -3.2521636486053467,
                    0.2728782892227173,
                    -3.0747568607330322,
                    -8.9267578125,
                    1.4645414352416992,
                    7.90280294418335
                ],
                [
                    -2.9011123180389404,
                    0.6866361498832703,
                    0.45316082239151,
                    -4.06207799911499,
                    8.3724946975708,
                    4.234569549560547,
                    -4.294145584106445,
                    -1.8487714529037476,
                    -4.593499660491943,
                    -5.113303184509277,
                    3.3623712062835693,
                    0.08598756045103073,
                    3.3649978637695312,
                    -3.6731784343719482,
                    -0.47150641679763794,
                    -0.3117896020412445,
                    -5.46130895614624,
                    -0.6360970139503479,
                    1.3105545043945312,
                    -12.843005180358887
                ],
                [
                    5.320660591125488,
                    7.799034595489502,
                    -11.436473846435547,
                    5.74600887298584,
                    0.38206925988197327,
                    15.353331565856934,
                    6.420894622802734,
                    -7.969549179077148,
                    4.7543625831604,
                    -3.9639759063720703,
                    -12.235240936279297,
                    -2.984982490539551,
                    5.1647772789001465,
                    -6.372840881347656,
                    -14.466217041015625,
                    4.412261486053467,
                    1.8459486961364746,
                    -5.193662166595459,
                    -4.944767951965332,
                    20.710811614990234
                ],
                [
                    -7.964027404785156,
                    0.9281992316246033,
                    2.095585584640503,
                    0.4059228301048279,
                    -2.490412950515747,
                    2.785493850708008,
                    1.998098611831665,
                    -1.673990249633789,
                    -9.296582221984863,
                    -1.9989917278289795,
                    -0.616133451461792,
                    0.18865439295768738,
                    0.22822174429893494,
                    2.3495421409606934,
                    1.0160170793533325,
                    -1.2392454147338867,
                    0.020952824503183365,
                    -1.3479995727539062,
                    -5.186049938201904,
                    -7.645395278930664
                ],
                [
                    3.3630924224853516,
                    4.7154130935668945,
                    -2.6177234649658203,
                    -3.814056158065796,
                    5.991672992706299,
                    5.80197286605835,
                    1.5253913402557373,
                    1.1141735315322876,
                    3.592163562774658,
                    -3.091676712036133,
                    -3.0311429500579834,
                    1.9973152875900269,
                    0.02060903236269951,
                    -10.19112491607666,
                    -3.65749192237854,
                    0.2908649146556854,
                    -5.850472450256348,
                    4.993767261505127,
                    -1.7616342306137085,
                    1.8424324989318848
                ]
            ],
            "biases": [
                13.188346862792969,
                3.1355490684509277,
                -1.6645097732543945,
                -0.2039228081703186,
                -5.500792980194092,
                2.1079912185668945,
                3.046994924545288,
                -12.840229034423828,
                5.270373344421387,
                -6.341470241546631
            ]
        },
        {
            "weights": [
                [
                    2.615471839904785,
                    3.4467835426330566,
                    3.8145766258239746,
                    1.4334635734558105,
                    -1.2408612966537476,
                    -3.722956657409668,
                    -5.912797451019287,
                    2.0429635047912598,
                    -4.5795793533325195,
                    -3.862332344055176
                ]
            ],
            "biases": [
                -0.3753407597541809
            ]
        }
    ],
    "inputLookup": null,
    "inputLookupLength": 0,
    "outputLookup": null,
    "outputLookupLength": 0,
    "options": {
        "inputSize": 0,
        "outputSize": 0,
        "binaryThresh": 0.5,
        "hiddenLayers": [
            10
        ]
    },
    "trainOpts": {
        "activation": "sigmoid",
        "iterations": 20000,
        "errorThresh": 0.005,
        "log": false,
        "logPeriod": 10,
        "leakyReluAlpha": 0.01,
        "learningRate": 0.3,
        "momentum": 0.1,
        "callbackPeriod": 10,
        "timeout": "Infinity",
        "beta1": 0.9,
        "beta2": 0.999,
        "epsilon": 1e-8
    }
}