{
    "type": "NeuralNetwork",
    "sizes": [
        17,
        4,
        8,
        1
    ],
    "layers": [
        {
            "weights": [],
            "biases": []
        },
        {
            "weights": [
                [
                    22.87567710876465,
                    -4.526650905609131,
                    10.587442398071289,
                    24.741783142089844,
                    9.930428504943848,
                    -19.554479598999023,
                    1.9115294218063354,
                    29.378787994384766,
                    -12.347973823547363,
                    8.43272590637207,
                    4.168997287750244,
                    11.655463218688965,
                    -17.51156997680664,
                    -8.834817886352539,
                    9.74463176727295,
                    -6.128024101257324,
                    -3.380448341369629
                ],
                [
                    -23.135711669921875,
                    35.391841888427734,
                    -26.72341537475586,
                    -22.8952693939209,
                    -23.41531753540039,
                    4.703406810760498,
                    8.306398391723633,
                    25.453351974487305,
                    32.611351013183594,
                    -0.04798809066414833,
                    10.992598533630371,
                    7.139869689941406,
                    -7.496569633483887,
                    18.44256019592285,
                    -6.390217304229736,
                    30.36980438232422,
                    -4.03666877746582
                ],
                [
                    -4.388612747192383,
                    1.151228904724121,
                    -17.1849422454834,
                    17.2353572845459,
                    -5.825800895690918,
                    17.216548919677734,
                    -20.58574676513672,
                    -14.341012954711914,
                    0.9905981421470642,
                    18.730682373046875,
                    17.732736587524414,
                    -8.848426818847656,
                    11.903282165527344,
                    10.724270820617676,
                    0.06818288564682007,
                    3.9625277519226074,
                    16.436092376708984
                ],
                [
                    4.487461566925049,
                    1.3592889308929443,
                    24.81397247314453,
                    -22.164621353149414,
                    28.49808692932129,
                    -4.740423202514648,
                    39.99119186401367,
                    1.9765408039093018,
                    7.978029251098633,
                    -36.232757568359375,
                    -14.191031455993652,
                    11.22297191619873,
                    14.906984329223633,
                    -21.88252067565918,
                    -7.2916412353515625,
                    -23.34559440612793,
                    22.474266052246094
                ]
            ],
            "biases": [
                -0.674012303352356,
                -33.987022399902344,
                -18.385116577148438,
                12.470887184143066
            ]
        },
        {
            "weights": [
                [
                    11.89159870147705,
                    -27.353538513183594,
                    -17.816822052001953,
                    -18.17694664001465
                ],
                [
                    9.276017189025879,
                    -19.803192138671875,
                    -10.302055358886719,
                    -9.81997299194336
                ],
                [
                    8.522543907165527,
                    -30.55327606201172,
                    0.07997101545333862,
                    11.770376205444336
                ],
                [
                    12.299566268920898,
                    -25.671667098999023,
                    -16.188631057739258,
                    -16.487327575683594
                ],
                [
                    11.950307846069336,
                    -26.98517417907715,
                    -17.4591064453125,
                    -17.807531356811523
                ],
                [
                    13.448507308959961,
                    -25.393680572509766,
                    -15.910500526428223,
                    -16.225828170776367
                ],
                [
                    -42.490142822265625,
                    -38.449859619140625,
                    -23.10933494567871,
                    -33.84145736694336
                ],
                [
                    -0.5277215242385864,
                    32.44590759277344,
                    -60.42115783691406,
                    -7.499577045440674
                ]
            ],
            "biases": [
                2.3390626907348633,
                -2.678565263748169,
                -21.9937801361084,
                0.3681905269622803,
                1.9372831583023071,
                -1.033692717552185,
                58.20301818847656,
                -28.87384605407715
            ]
        },
        {
            "weights": [
                [
                    7.970876216888428,
                    3.415823459625244,
                    1.2498350143432617,
                    6.838189125061035,
                    7.711666107177734,
                    6.7468342781066895,
                    3.338798761367798,
                    18.95598030090332
                ]
            ],
            "biases": [
                -0.6128780245780945
            ]
        }
    ],
    "inputLookup": null,
    "inputLookupLength": 0,
    "outputLookup": null,
    "outputLookupLength": 0,
    "options": {
        "inputSize": 0,
        "outputSize": 0,
        "binaryThresh": 0.5,
        "hiddenLayers": [
            4,
            8
        ]
    },
    "trainOpts": {
        "activation": "sigmoid",
        "iterations": 20000,
        "errorThresh": 0.005,
        "log": false,
        "logPeriod": 10,
        "leakyReluAlpha": 0.01,
        "learningRate": 0.3,
        "momentum": 0.1,
        "callbackPeriod": 10,
        "timeout": "Infinity",
        "beta1": 0.9,
        "beta2": 0.999,
        "epsilon": 1e-8
    }
}