{
    "type": "NeuralNetwork",
    "sizes": [
        18,
        4,
        8,
        1
    ],
    "layers": [
        {
            "weights": [],
            "biases": []
        },
        {
            "weights": [
                [
                    2.1431283950805664,
                    23.88018035888672,
                    5.334537506103516,
                    -9.927164077758789,
                    11.546457290649414,
                    -7.706963062286377,
                    6.560176372528076,
                    22.62611198425293,
                    11.661847114562988,
                    1.1608260869979858,
                    39.70612716674805,
                    -3.4304444789886475,
                    2.5589115619659424,
                    -18.591686248779297,
                    -36.1177978515625,
                    14.525691986083984,
                    -6.072352409362793,
                    26.311965942382812
                ],
                [
                    -24.275516510009766,
                    17.64657211303711,
                    -24.30232810974121,
                    -0.7997063994407654,
                    -9.855175971984863,
                    20.757835388183594,
                    3.9388580322265625,
                    8.591708183288574,
                    -11.066123008728027,
                    9.750783920288086,
                    -13.396476745605469,
                    11.476659774780273,
                    7.122023105621338,
                    37.670719146728516,
                    23.27809715270996,
                    -13.898646354675293,
                    -12.750348091125488,
                    42.76771926879883
                ],
                [
                    12.961816787719727,
                    -34.15483093261719,
                    20.84012222290039,
                    -20.90085220336914,
                    -15.511733055114746,
                    -8.554076194763184,
                    0.1522214561700821,
                    -8.684306144714355,
                    14.189956665039062,
                    20.942974090576172,
                    1.2026318311691284,
                    18.987529754638672,
                    2.36857271194458,
                    -17.415834426879883,
                    11.15982437133789,
                    1.909149169921875,
                    17.644376754760742,
                    0.807438313961029
                ],
                [
                    15.987726211547852,
                    3.2329564094543457,
                    30.43600082397461,
                    8.107142448425293,
                    23.205738067626953,
                    -9.668066024780273,
                    -33.83443832397461,
                    -23.544559478759766,
                    13.808257102966309,
                    5.904627323150635,
                    2.6068644523620605,
                    7.334169864654541,
                    32.888362884521484,
                    -1.6523157358169556,
                    12.190668106079102,
                    14.317649841308594,
                    -6.58680534362793,
                    15.802035331726074
                ]
            ],
            "biases": [
                -2.137709856033325,
                15.926177978515625,
                -16.139385223388672,
                -14.094157218933105
            ]
        },
        {
            "weights": [
                [
                    -4.547152996063232,
                    -5.035806655883789,
                    -4.999382972717285,
                    -6.115200519561768
                ],
                [
                    -14.187029838562012,
                    -9.041257858276367,
                    -2.8224027156829834,
                    -4.047901153564453
                ],
                [
                    -21.354013442993164,
                    -5.75067663192749,
                    -18.48665428161621,
                    -20.67793846130371
                ],
                [
                    2.6073384284973145,
                    2.345327615737915,
                    -43.821346282958984,
                    -49.13296890258789
                ],
                [
                    -49.52935028076172,
                    18.919509887695312,
                    -46.3082160949707,
                    -23.393409729003906
                ],
                [
                    -26.613027572631836,
                    -47.45627975463867,
                    -32.755615234375,
                    38.07916259765625
                ],
                [
                    -3.6707215309143066,
                    -14.837627410888672,
                    -11.069510459899902,
                    -21.316999435424805
                ],
                [
                    -4.259498596191406,
                    -4.792706489562988,
                    -4.212780475616455,
                    -4.361818313598633
                ]
            ],
            "biases": [
                -1.2561306953430176,
                -0.747867226600647,
                18.625009536743164,
                5.564526557922363,
                21.0321102142334,
                0.7999796867370605,
                9.427754402160645,
                -1.9791134595870972
            ]
        },
        {
            "weights": [
                [
                    1.6883925199508667,
                    4.129422664642334,
                    8.91946029663086,
                    1.7142746448516846,
                    1.7932380437850952,
                    2.990241765975952,
                    8.833894729614258,
                    0.7684639692306519
                ]
            ],
            "biases": [
                -0.4125158190727234
            ]
        }
    ],
    "inputLookup": null,
    "inputLookupLength": 0,
    "outputLookup": null,
    "outputLookupLength": 0,
    "options": {
        "inputSize": 0,
        "outputSize": 0,
        "binaryThresh": 0.5,
        "hiddenLayers": [
            4,
            8
        ]
    },
    "trainOpts": {
        "activation": "sigmoid",
        "iterations": 20000,
        "errorThresh": 0.005,
        "log": false,
        "logPeriod": 10,
        "leakyReluAlpha": 0.01,
        "learningRate": 0.3,
        "momentum": 0.1,
        "callbackPeriod": 10,
        "timeout": "Infinity",
        "beta1": 0.9,
        "beta2": 0.999,
        "epsilon": 1e-8
    }
}