{
    "type": "NeuralNetwork",
    "sizes": [
        5,
        4,
        8,
        1
    ],
    "layers": [
        {
            "weights": [],
            "biases": []
        },
        {
            "weights": [
                [
                    -8.347229957580566,
                    -15.661251068115234,
                    -0.10255919396877289,
                    -4.357553482055664,
                    12.861210823059082
                ],
                [
                    9.069318771362305,
                    -7.913156509399414,
                    9.463797569274902,
                    7.455700874328613,
                    -0.061252571642398834
                ],
                [
                    -9.376372337341309,
                    -4.220547676086426,
                    9.985116004943848,
                    2.5082647800445557,
                    -3.515012502670288
                ],
                [
                    8.891881942749023,
                    -5.2504448890686035,
                    -6.466351509094238,
                    -10.270339012145996,
                    11.41942310333252
                ]
            ],
            "biases": [
                1.9952692985534668,
                3.9119925498962402,
                4.36055326461792,
                10.529624938964844
            ]
        },
        {
            "weights": [
                [
                    -6.499004364013672,
                    -1.6070300340652466,
                    -2.5951132774353027,
                    -2.959252119064331
                ],
                [
                    -6.351685523986816,
                    -1.5931477546691895,
                    -2.5897953510284424,
                    -2.960347890853882
                ],
                [
                    5.255736351013184,
                    -7.008205413818359,
                    3.508798599243164,
                    0.7444563508033752
                ],
                [
                    -5.955844879150391,
                    -1.5278879404067993,
                    -2.5673420429229736,
                    -2.957383155822754
                ],
                [
                    -6.5478081703186035,
                    -1.6145946979522705,
                    -2.599872350692749,
                    -2.9628965854644775
                ],
                [
                    -6.512524127960205,
                    -1.6093896627426147,
                    -2.5966148376464844,
                    -2.960237741470337
                ],
                [
                    -6.237036228179932,
                    -1.580527901649475,
                    -2.585933208465576,
                    -2.961216926574707
                ],
                [
                    5.307368755340576,
                    -7.067264080047607,
                    3.5132524967193604,
                    0.23482662439346313
                ]
            ],
            "biases": [
                -0.02355966903269291,
                -0.04192861169576645,
                -4.975817680358887,
                -0.13471946120262146,
                -0.00995795801281929,
                -0.018107833340764046,
                -0.05903356894850731,
                -4.460659980773926
            ]
        },
        {
            "weights": [
                [
                    3.4637808799743652,
                    3.460054636001587,
                    1.8051395416259766,
                    3.4571468830108643,
                    3.462662696838379,
                    3.459321975708008,
                    3.459113597869873,
                    1.7985398769378662
                ]
            ],
            "biases": [
                0.022303614765405655
            ]
        }
    ],
    "inputLookup": null,
    "inputLookupLength": 0,
    "outputLookup": null,
    "outputLookupLength": 0,
    "options": {
        "inputSize": 0,
        "outputSize": 0,
        "binaryThresh": 0.5,
        "hiddenLayers": [
            4,
            8
        ]
    },
    "trainOpts": {
        "activation": "sigmoid",
        "iterations": 20000,
        "errorThresh": 0.005,
        "log": false,
        "logPeriod": 10,
        "leakyReluAlpha": 0.01,
        "learningRate": 0.3,
        "momentum": 0.1,
        "callbackPeriod": 10,
        "timeout": "Infinity",
        "beta1": 0.9,
        "beta2": 0.999,
        "epsilon": 1e-8
    }
}