{
    "type": "NeuralNetwork",
    "sizes": [
        20,
        4,
        8,
        1
    ],
    "layers": [
        {
            "weights": [],
            "biases": []
        },
        {
            "weights": [
                [
                    41.673072814941406,
                    14.881174087524414,
                    -51.83089828491211,
                    38.76835632324219,
                    -18.137409210205078,
                    5.212118625640869,
                    12.071389198303223,
                    13.241170883178711,
                    -36.46117401123047,
                    15.96817684173584,
                    30.704410552978516,
                    26.927364349365234,
                    -26.05431365966797,
                    -8.744169235229492,
                    13.040165901184082,
                    10.782295227050781,
                    8.187093734741211,
                    10.831494331359863,
                    8.227319717407227,
                    5.178949356079102
                ],
                [
                    21.284414291381836,
                    -28.695838928222656,
                    2.3218131065368652,
                    -8.22045612335205,
                    10.327092170715332,
                    -16.334224700927734,
                    -10.284857749938965,
                    -1.5456881523132324,
                    7.504279613494873,
                    -5.425478458404541,
                    16.83696174621582,
                    -10.306099891662598,
                    45.23170471191406,
                    -7.975371360778809,
                    -35.81110763549805,
                    31.224933624267578,
                    -40.278160095214844,
                    15.74435043334961,
                    27.44849395751953,
                    24.758230209350586
                ],
                [
                    0.2648886442184448,
                    -25.296268463134766,
                    0.31539490818977356,
                    28.657421112060547,
                    55.314178466796875,
                    37.62559509277344,
                    75.47847747802734,
                    38.880760192871094,
                    23.17289924621582,
                    31.0136775970459,
                    -15.622005462646484,
                    13.810514450073242,
                    0.7289316654205322,
                    33.89832305908203,
                    17.60309600830078,
                    4.626147270202637,
                    -27.244556427001953,
                    -34.616546630859375,
                    -26.651023864746094,
                    40.133148193359375
                ],
                [
                    -49.23054504394531,
                    23.597848892211914,
                    32.22754669189453,
                    28.569276809692383,
                    -9.219441413879395,
                    1.5250996351242065,
                    32.23869705200195,
                    43.6869010925293,
                    -19.038341522216797,
                    10.492287635803223,
                    -7.307272434234619,
                    -39.7894401550293,
                    -6.287436008453369,
                    58.80356979370117,
                    1.240781307220459,
                    -5.569226264953613,
                    21.049577713012695,
                    22.64337730407715,
                    -37.35966110229492,
                    -34.65780258178711
                ]
            ],
            "biases": [
                21.459613800048828,
                39.85197830200195,
                -30.06991958618164,
                5.876265525817871
            ]
        },
        {
            "weights": [
                [
                    19.390600204467773,
                    -14.563750267028809,
                    -39.16067886352539,
                    -27.238374710083008
                ],
                [
                    -33.066707611083984,
                    -15.271422386169434,
                    -16.358190536499023,
                    5.918506145477295
                ],
                [
                    -27.220233917236328,
                    7.732550144195557,
                    -2.829817771911621,
                    -15.928775787353516
                ],
                [
                    1.781633734703064,
                    -25.61139678955078,
                    -26.4500732421875,
                    -32.964813232421875
                ],
                [
                    -5.027371406555176,
                    -1.7256531715393066,
                    -2.794376850128174,
                    -5.7296366691589355
                ],
                [
                    -36.27811050415039,
                    -32.40655517578125,
                    33.21752166748047,
                    -36.912845611572266
                ],
                [
                    27.25589370727539,
                    -22.12494468688965,
                    -49.421932220458984,
                    -29.933998107910156
                ],
                [
                    24.296092987060547,
                    -18.74419593811035,
                    3.4029629230499268,
                    -18.88968276977539
                ]
            ],
            "biases": [
                11.928202629089355,
                4.254762649536133,
                4.961041450500488,
                33.38548278808594,
                -2.5434672832489014,
                16.206064224243164,
                13.689087867736816,
                -12.013779640197754
            ]
        },
        {
            "weights": [
                [
                    5.901848793029785,
                    12.746827125549316,
                    13.581233978271484,
                    -11.510271072387695,
                    0.3952008783817291,
                    9.585076332092285,
                    6.557363033294678,
                    3.4307656288146973
                ]
            ],
            "biases": [
                -0.26194700598716736
            ]
        }
    ],
    "inputLookup": null,
    "inputLookupLength": 0,
    "outputLookup": null,
    "outputLookupLength": 0,
    "options": {
        "inputSize": 0,
        "outputSize": 0,
        "binaryThresh": 0.5,
        "hiddenLayers": [
            4,
            8
        ]
    },
    "trainOpts": {
        "activation": "sigmoid",
        "iterations": 20000,
        "errorThresh": 0.005,
        "log": false,
        "logPeriod": 10,
        "leakyReluAlpha": 0.01,
        "learningRate": 0.3,
        "momentum": 0.1,
        "callbackPeriod": 10,
        "timeout": "Infinity",
        "beta1": 0.9,
        "beta2": 0.999,
        "epsilon": 1e-8
    }
}