{
    "type": "NeuralNetwork",
    "sizes": [
        15,
        4,
        8,
        1
    ],
    "layers": [
        {
            "weights": [],
            "biases": []
        },
        {
            "weights": [
                [
                    13.576913833618164,
                    6.106876373291016,
                    -21.519046783447266,
                    -26.206785202026367,
                    11.987445831298828,
                    41.54838180541992,
                    5.846235752105713,
                    -7.72723913192749,
                    -5.426424980163574,
                    -2.5049281120300293,
                    -37.956207275390625,
                    -37.70092010498047,
                    39.822845458984375,
                    -21.88530921936035,
                    -1.1937178373336792
                ],
                [
                    7.76228141784668,
                    -25.449310302734375,
                    -20.65671730041504,
                    -10.20456600189209,
                    -41.831886291503906,
                    33.66868591308594,
                    -18.877685546875,
                    -22.069765090942383,
                    -46.08524703979492,
                    53.54976272583008,
                    -6.699400424957275,
                    9.871477127075195,
                    3.577326536178589,
                    62.115699768066406,
                    -14.672959327697754
                ],
                [
                    -51.218143463134766,
                    20.26830291748047,
                    -6.26646614074707,
                    53.87205123901367,
                    -10.212641716003418,
                    6.813790798187256,
                    18.30632781982422,
                    74.72865295410156,
                    38.373008728027344,
                    6.070728778839111,
                    -13.029942512512207,
                    2.210623025894165,
                    14.37285327911377,
                    3.6389291286468506,
                    26.30043601989746
                ],
                [
                    6.994653701782227,
                    -22.27812957763672,
                    21.614547729492188,
                    -23.640140533447266,
                    30.749486923217773,
                    -29.75253677368164,
                    38.73733139038086,
                    -24.94020652770996,
                    19.713909149169922,
                    4.846345901489258,
                    30.18863296508789,
                    14.981732368469238,
                    -4.302620887756348,
                    -11.780121803283691,
                    41.83736801147461
                ]
            ],
            "biases": [
                44.994388580322266,
                -5.713894844055176,
                -47.97642135620117,
                9.94394302368164
            ]
        },
        {
            "weights": [
                [
                    -25.26761817932129,
                    17.485595703125,
                    -31.054718017578125,
                    -20.817731857299805
                ],
                [
                    -4.525743007659912,
                    -2.9273343086242676,
                    -3.4045376777648926,
                    -2.8505053520202637
                ],
                [
                    -40.727333068847656,
                    -41.103172302246094,
                    3.006664514541626,
                    -16.534828186035156
                ],
                [
                    -21.530290603637695,
                    -20.847326278686523,
                    -22.480445861816406,
                    -21.406461715698242
                ],
                [
                    11.646541595458984,
                    52.828758239746094,
                    -43.25344467163086,
                    -23.964862823486328
                ],
                [
                    -43.19051742553711,
                    -12.327414512634277,
                    -42.91950988769531,
                    -15.811936378479004
                ],
                [
                    -6.8632049560546875,
                    -20.635786056518555,
                    31.91267967224121,
                    35.064125061035156
                ],
                [
                    49.3406867980957,
                    -42.5122184753418,
                    -17.557647705078125,
                    -36.03447723388672
                ]
            ],
            "biases": [
                -1.902894377708435,
                -2.1379356384277344,
                8.439277648925781,
                25.704456329345703,
                -7.851045608520508,
                24.959909439086914,
                -35.536312103271484,
                -8.37195873260498
            ]
        },
        {
            "weights": [
                [
                    5.463957786560059,
                    -0.3168517053127289,
                    15.619543075561523,
                    -7.164226531982422,
                    8.652596473693848,
                    14.585549354553223,
                    8.530876159667969,
                    9.095256805419922
                ]
            ],
            "biases": [
                -8.765716552734375
            ]
        }
    ],
    "inputLookup": null,
    "inputLookupLength": 0,
    "outputLookup": null,
    "outputLookupLength": 0,
    "options": {
        "inputSize": 0,
        "outputSize": 0,
        "binaryThresh": 0.5,
        "hiddenLayers": [
            4,
            8
        ]
    },
    "trainOpts": {
        "activation": "sigmoid",
        "iterations": 20000,
        "errorThresh": 0.005,
        "log": false,
        "logPeriod": 10,
        "leakyReluAlpha": 0.01,
        "learningRate": 0.3,
        "momentum": 0.1,
        "callbackPeriod": 10,
        "timeout": "Infinity",
        "beta1": 0.9,
        "beta2": 0.999,
        "epsilon": 1e-8
    }
}