{
    "type": "NeuralNetwork",
    "sizes": [
        14,
        4,
        8,
        1
    ],
    "layers": [
        {
            "weights": [],
            "biases": []
        },
        {
            "weights": [
                [
                    12.499670028686523,
                    -19.5379695892334,
                    9.561968803405762,
                    10.067581176757812,
                    25.299222946166992,
                    10.721966743469238,
                    21.158845901489258,
                    20.94865608215332,
                    -0.515876293182373,
                    -23.9180965423584,
                    -31.978628158569336,
                    15.513642311096191,
                    -15.874588966369629,
                    10.543144226074219
                ],
                [
                    10.316069602966309,
                    -1.0854930877685547,
                    -31.292482376098633,
                    6.661963939666748,
                    13.459342002868652,
                    27.979032516479492,
                    15.935187339782715,
                    -13.98568058013916,
                    -17.253379821777344,
                    14.824286460876465,
                    16.722421646118164,
                    -16.89312744140625,
                    38.76618957519531,
                    -6.111656665802002
                ],
                [
                    8.544748306274414,
                    12.801485061645508,
                    12.762774467468262,
                    -12.315498352050781,
                    -10.20142650604248,
                    -25.422794342041016,
                    -27.862192153930664,
                    -0.23875291645526886,
                    14.282578468322754,
                    7.8146281242370605,
                    10.289494514465332,
                    24.447864532470703,
                    -17.86341094970703,
                    7.394351482391357
                ],
                [
                    -7.147275447845459,
                    5.2104034423828125,
                    7.198970317840576,
                    10.815320014953613,
                    -12.212661743164062,
                    8.360234260559082,
                    -19.224653244018555,
                    15.13459587097168,
                    4.031884670257568,
                    9.27820873260498,
                    7.248854160308838,
                    -10.29900074005127,
                    1.7607523202896118,
                    29.99897575378418
                ]
            ],
            "biases": [
                8.257612228393555,
                -9.03902816772461,
                -11.994430541992188,
                9.155247688293457
            ]
        },
        {
            "weights": [
                [
                    -6.21360969543457,
                    -4.904019355773926,
                    -3.980727195739746,
                    -3.839246988296509
                ],
                [
                    8.068981170654297,
                    -22.241586685180664,
                    18.245601654052734,
                    10.766945838928223
                ],
                [
                    -6.204305171966553,
                    -3.789485216140747,
                    -4.131130218505859,
                    -5.517337322235107
                ],
                [
                    -26.221933364868164,
                    10.178367614746094,
                    -0.26263248920440674,
                    -26.782283782958984
                ],
                [
                    -5.910538673400879,
                    -3.923535108566284,
                    -3.8447842597961426,
                    -5.5356950759887695
                ],
                [
                    13.274124145507812,
                    -7.812468528747559,
                    -9.0106782913208,
                    -40.524356842041016
                ],
                [
                    2.868990659713745,
                    -26.30510902404785,
                    2.3106770515441895,
                    -42.80753707885742
                ],
                [
                    -64.60368347167969,
                    -64.40874481201172,
                    -55.719032287597656,
                    45.211978912353516
                ]
            ],
            "biases": [
                -0.8355036377906799,
                -38.49355697631836,
                -0.8315459489822388,
                9.871402740478516,
                -0.9014496207237244,
                -5.2167744636535645,
                1.6358228921890259,
                19.506797790527344
            ]
        },
        {
            "weights": [
                [
                    1.6587945222854614,
                    1.3294929265975952,
                    1.8750132322311401,
                    13.424799919128418,
                    1.6828573942184448,
                    2.3546619415283203,
                    14.53993034362793,
                    2.6210310459136963
                ]
            ],
            "biases": [
                -0.41458040475845337
            ]
        }
    ],
    "inputLookup": null,
    "inputLookupLength": 0,
    "outputLookup": null,
    "outputLookupLength": 0,
    "options": {
        "inputSize": 0,
        "outputSize": 0,
        "binaryThresh": 0.5,
        "hiddenLayers": [
            4,
            8
        ]
    },
    "trainOpts": {
        "activation": "sigmoid",
        "iterations": 20000,
        "errorThresh": 0.005,
        "log": false,
        "logPeriod": 10,
        "leakyReluAlpha": 0.01,
        "learningRate": 0.3,
        "momentum": 0.1,
        "callbackPeriod": 10,
        "timeout": "Infinity",
        "beta1": 0.9,
        "beta2": 0.999,
        "epsilon": 1e-8
    }
}