{
    "type": "NeuralNetwork",
    "sizes": [
        30,
        4,
        8,
        1
    ],
    "layers": [
        {
            "weights": [],
            "biases": []
        },
        {
            "weights": [
                [
                    -3.8208374977111816,
                    27.049320220947266,
                    -5.182129859924316,
                    -15.757640838623047,
                    16.31908416748047,
                    8.012373924255371,
                    17.350791931152344,
                    -0.19938285648822784,
                    24.537988662719727,
                    8.500445365905762,
                    19.601537704467773,
                    18.494802474975586,
                    2.2625081539154053,
                    9.879697799682617,
                    47.9877815246582,
                    -8.76058292388916,
                    0.00617473479360342,
                    20.313190460205078,
                    0.8314982652664185,
                    16.430580139160156,
                    4.98838996887207,
                    26.614179611206055,
                    -0.033566344529390335,
                    24.695175170898438,
                    43.691253662109375,
                    2.79988169670105,
                    -26.758777618408203,
                    -17.893156051635742,
                    -35.28491973876953,
                    9.229314804077148
                ],
                [
                    -2.0814528465270996,
                    -20.434757232666016,
                    -33.68773651123047,
                    26.172380447387695,
                    -1.397254467010498,
                    9.527532577514648,
                    17.304386138916016,
                    13.668495178222656,
                    7.768345355987549,
                    -15.434185028076172,
                    -62.30800247192383,
                    24.089691162109375,
                    -29.932844161987305,
                    -7.45266580581665,
                    -27.86322784423828,
                    41.80733108520508,
                    7.47925329208374,
                    9.4053955078125,
                    -7.1224894523620605,
                    -4.448974609375,
                    22.029571533203125,
                    21.181100845336914,
                    10.227202415466309,
                    26.941612243652344,
                    -18.007253646850586,
                    25.058528900146484,
                    15.268799781799316,
                    29.813003540039062,
                    18.353456497192383,
                    36.37974548339844
                ],
                [
                    -4.4383368492126465,
                    0.9929655194282532,
                    21.32578468322754,
                    38.44430160522461,
                    21.5819091796875,
                    -12.248777389526367,
                    -18.29798126220703,
                    22.06885528564453,
                    -51.56415557861328,
                    4.129861831665039,
                    50.504188537597656,
                    -10.258143424987793,
                    25.737316131591797,
                    7.241528034210205,
                    -8.696355819702148,
                    7.595323085784912,
                    -7.297743320465088,
                    24.879085540771484,
                    -8.287169456481934,
                    12.866344451904297,
                    26.90607261657715,
                    -14.19384479522705,
                    -23.18778419494629,
                    -8.844167709350586,
                    29.52806854248047,
                    36.26131820678711,
                    27.370403289794922,
                    -1.6310352087020874,
                    28.749523162841797,
                    -57.11110305786133
                ],
                [
                    20.481260299682617,
                    17.640958786010742,
                    6.82857608795166,
                    -18.44243049621582,
                    2.8082735538482666,
                    -12.41622257232666,
                    -33.1872673034668,
                    9.635441780090332,
                    40.2352409362793,
                    8.252748489379883,
                    24.072233200073242,
                    -4.083862781524658,
                    49.11344528198242,
                    48.030860900878906,
                    8.075828552246094,
                    28.503570556640625,
                    13.418749809265137,
                    -4.808323383331299,
                    -2.7390217781066895,
                    -11.359037399291992,
                    8.100223541259766,
                    -14.726129531860352,
                    6.313710689544678,
                    1.144461750984192,
                    22.233642578125,
                    -12.824461936950684,
                    -17.65477180480957,
                    4.1302266120910645,
                    41.53114318847656,
                    25.447946548461914
                ]
            ],
            "biases": [
                -62.58830261230469,
                -17.972888946533203,
                -2.912170648574829,
                -9.559548377990723
            ]
        },
        {
            "weights": [
                [
                    -6.196393966674805,
                    -35.61876678466797,
                    -54.91530227661133,
                    7.8772430419921875
                ],
                [
                    10.699718475341797,
                    -16.736356735229492,
                    7.573085308074951,
                    -0.8633953928947449
                ],
                [
                    -54.52849197387695,
                    16.36855697631836,
                    -41.47835922241211,
                    -3.022604465484619
                ],
                [
                    -34.72618865966797,
                    46.9326286315918,
                    -19.1566219329834,
                    -65.86715698242188
                ],
                [
                    1.3871668577194214,
                    -45.861488342285156,
                    4.810617923736572,
                    -11.222879409790039
                ],
                [
                    10.701921463012695,
                    -17.41254425048828,
                    7.581799030303955,
                    -0.9680941104888916
                ],
                [
                    -38.95132827758789,
                    -45.98674774169922,
                    19.17983627319336,
                    -6.117172718048096
                ],
                [
                    10.95389461517334,
                    -13.509479522705078,
                    7.7888875007629395,
                    -0.23782745003700256
                ]
            ],
            "biases": [
                16.125844955444336,
                -21.087303161621094,
                25.479169845581055,
                12.011458396911621,
                -1.531320333480835,
                -21.00360107421875,
                0.17592670023441315,
                -22.133590698242188
            ]
        },
        {
            "weights": [
                [
                    1.7563778162002563,
                    2.4047558307647705,
                    1.7809841632843018,
                    1.096955418586731,
                    3.795335531234741,
                    2.406648874282837,
                    1.4321308135986328,
                    2.428600788116455
                ]
            ],
            "biases": [
                -0.5964252948760986
            ]
        }
    ],
    "inputLookup": null,
    "inputLookupLength": 0,
    "outputLookup": null,
    "outputLookupLength": 0,
    "options": {
        "inputSize": 0,
        "outputSize": 0,
        "binaryThresh": 0.5,
        "hiddenLayers": [
            4,
            8
        ]
    },
    "trainOpts": {
        "activation": "sigmoid",
        "iterations": 20000,
        "errorThresh": 0.005,
        "log": false,
        "logPeriod": 10,
        "leakyReluAlpha": 0.01,
        "learningRate": 0.3,
        "momentum": 0.1,
        "callbackPeriod": 10,
        "timeout": "Infinity",
        "beta1": 0.9,
        "beta2": 0.999,
        "epsilon": 1e-8
    }
}