{
    "type": "NeuralNetwork",
    "sizes": [
        8,
        4,
        8,
        1
    ],
    "layers": [
        {
            "weights": [],
            "biases": []
        },
        {
            "weights": [
                [
                    3.827864646911621,
                    0.0436156690120697,
                    26.3973445892334,
                    8.482748031616211,
                    3.580427646636963,
                    19.48111915588379,
                    -14.281349182128906,
                    8.540122032165527
                ],
                [
                    0.003503156127408147,
                    23.53240203857422,
                    -14.996543884277344,
                    -8.859210968017578,
                    -28.197093963623047,
                    8.05278205871582,
                    3.6090755462646484,
                    27.605852127075195
                ],
                [
                    -8.792216300964355,
                    11.622613906860352,
                    8.416542053222656,
                    5.735185146331787,
                    14.31894588470459,
                    -13.547523498535156,
                    2.5581047534942627,
                    12.634892463684082
                ],
                [
                    12.098372459411621,
                    -24.240446090698242,
                    -5.50204610824585,
                    12.190789222717285,
                    35.40456008911133,
                    16.207223892211914,
                    2.0916035175323486,
                    -33.53307342529297
                ]
            ],
            "biases": [
                -22.956966400146484,
                3.905560255050659,
                8.63051986694336,
                11.272994041442871
            ]
        },
        {
            "weights": [
                [
                    -12.202071189880371,
                    -5.042763710021973,
                    2.78869366645813,
                    -4.6559858322143555
                ],
                [
                    -12.237921714782715,
                    -4.992076396942139,
                    2.3218297958374023,
                    -4.608638763427734
                ],
                [
                    17.568052291870117,
                    -8.080512046813965,
                    -19.324771881103516,
                    -8.573043823242188
                ],
                [
                    12.540253639221191,
                    -9.059258460998535,
                    1.049501895904541,
                    -9.590773582458496
                ],
                [
                    -8.380321502685547,
                    -2.256549835205078,
                    -9.422860145568848,
                    -1.594508171081543
                ],
                [
                    12.690073013305664,
                    -9.111734390258789,
                    1.5736339092254639,
                    -9.644201278686523
                ],
                [
                    -12.116207122802734,
                    -4.961535453796387,
                    2.01393985748291,
                    -4.582756042480469
                ],
                [
                    12.856410026550293,
                    -8.17536449432373,
                    -1.6440553665161133,
                    -8.646317481994629
                ]
            ],
            "biases": [
                -0.10384265333414078,
                0.3153377175331116,
                8.132781028747559,
                -6.748539447784424,
                9.977045059204102,
                -7.349546909332275,
                0.5936159491539001,
                -5.563358306884766
            ]
        },
        {
            "weights": [
                [
                    2.0824639797210693,
                    2.077409029006958,
                    0.8801305890083313,
                    1.7215441465377808,
                    1.2725543975830078,
                    1.7131942510604858,
                    2.0745725631713867,
                    1.9620850086212158
                ]
            ],
            "biases": [
                -0.5270576477050781
            ]
        }
    ],
    "inputLookup": null,
    "inputLookupLength": 0,
    "outputLookup": null,
    "outputLookupLength": 0,
    "options": {
        "inputSize": 0,
        "outputSize": 0,
        "binaryThresh": 0.5,
        "hiddenLayers": [
            4,
            8
        ]
    },
    "trainOpts": {
        "activation": "sigmoid",
        "iterations": 20000,
        "errorThresh": 0.005,
        "log": false,
        "logPeriod": 10,
        "leakyReluAlpha": 0.01,
        "learningRate": 0.3,
        "momentum": 0.1,
        "callbackPeriod": 10,
        "timeout": "Infinity",
        "beta1": 0.9,
        "beta2": 0.999,
        "epsilon": 1e-8
    }
}