{
    "type": "NeuralNetwork",
    "sizes": [
        21,
        4,
        8,
        1
    ],
    "layers": [
        {
            "weights": [],
            "biases": []
        },
        {
            "weights": [
                [
                    -11.635955810546875,
                    -4.200174808502197,
                    2.3625192642211914,
                    0.8351348042488098,
                    -20.050756454467773,
                    27.720468521118164,
                    -12.600387573242188,
                    4.997181415557861,
                    -16.394943237304688,
                    -3.824549436569214,
                    -6.894769191741943,
                    4.494152069091797,
                    21.98617172241211,
                    15.983288764953613,
                    14.874658584594727,
                    0.768943727016449,
                    -22.27153778076172,
                    16.392621994018555,
                    12.067233085632324,
                    8.264229774475098,
                    6.7991414070129395
                ],
                [
                    16.36781883239746,
                    21.397428512573242,
                    -10.484371185302734,
                    -2.9674594402313232,
                    39.2353630065918,
                    9.57619857788086,
                    -12.48196029663086,
                    38.854671478271484,
                    3.0967190265655518,
                    -27.597837448120117,
                    5.221240043640137,
                    58.37957000732422,
                    -9.690801620483398,
                    11.641786575317383,
                    2.3597657680511475,
                    12.958653450012207,
                    -10.898067474365234,
                    -19.682140350341797,
                    -0.5633266568183899,
                    -2.4376797676086426,
                    -12.318415641784668
                ],
                [
                    10.322710990905762,
                    -8.351222038269043,
                    6.695530891418457,
                    4.421745777130127,
                    28.937164306640625,
                    -11.319119453430176,
                    7.062567234039307,
                    5.117522716522217,
                    6.734495162963867,
                    0.34830641746520996,
                    -1.9163627624511719,
                    1.021108865737915,
                    5.1286845207214355,
                    0.2725010812282562,
                    29.45868682861328,
                    5.071041107177734,
                    43.13559341430664,
                    20.764934539794922,
                    -27.969724655151367,
                    16.762714385986328,
                    2.447484254837036
                ],
                [
                    8.171553611755371,
                    23.617502212524414,
                    18.071529388427734,
                    -2.4505903720855713,
                    -7.2439422607421875,
                    1.2916523218154907,
                    -3.799152135848999,
                    -14.129791259765625,
                    6.000594139099121,
                    6.876885414123535,
                    0.4170777499675751,
                    3.7771456241607666,
                    9.977087020874023,
                    -21.343124389648438,
                    0.49531975388526917,
                    13.422350883483887,
                    18.6260929107666,
                    -26.31618881225586,
                    -20.201448440551758,
                    -6.09090518951416,
                    28.805627822875977
                ]
            ],
            "biases": [
                -4.625144004821777,
                3.406229019165039,
                -13.852185249328613,
                -3.3768413066864014
            ]
        },
        {
            "weights": [
                [
                    -6.100494384765625,
                    -7.322171688079834,
                    -2.8742988109588623,
                    -5.07403039932251
                ],
                [
                    -14.027750968933105,
                    -18.101730346679688,
                    -35.341888427734375,
                    21.612812042236328
                ],
                [
                    -28.583240509033203,
                    2.2360401153564453,
                    -36.16554641723633,
                    -15.207430839538574
                ],
                [
                    -44.92436599731445,
                    21.58806610107422,
                    15.84233283996582,
                    -44.75109100341797
                ],
                [
                    -5.324097156524658,
                    -4.374117374420166,
                    -5.210268974304199,
                    -5.1258769035339355
                ],
                [
                    -4.948455810546875,
                    -4.671679973602295,
                    -4.3516316413879395,
                    -4.862504482269287
                ],
                [
                    -3.7778055667877197,
                    20.077932357788086,
                    -38.54901885986328,
                    -36.85200119018555
                ],
                [
                    -40.114498138427734,
                    -39.063011169433594,
                    19.973392486572266,
                    -33.033084869384766
                ]
            ],
            "biases": [
                -1.8434892892837524,
                3.442784547805786,
                37.90696334838867,
                3.181938886642456,
                -1.7266526222229004,
                -1.96210777759552,
                12.426407814025879,
                19.507734298706055
            ]
        },
        {
            "weights": [
                [
                    2.612645387649536,
                    19.018110275268555,
                    -17.401153564453125,
                    16.11875343322754,
                    1.5423872470855713,
                    1.0147006511688232,
                    19.66448211669922,
                    3.626890182495117
                ]
            ],
            "biases": [
                -0.5280728340148926
            ]
        }
    ],
    "inputLookup": null,
    "inputLookupLength": 0,
    "outputLookup": null,
    "outputLookupLength": 0,
    "options": {
        "inputSize": 0,
        "outputSize": 0,
        "binaryThresh": 0.5,
        "hiddenLayers": [
            4,
            8
        ]
    },
    "trainOpts": {
        "activation": "sigmoid",
        "iterations": 20000,
        "errorThresh": 0.005,
        "log": false,
        "logPeriod": 10,
        "leakyReluAlpha": 0.01,
        "learningRate": 0.3,
        "momentum": 0.1,
        "callbackPeriod": 10,
        "timeout": "Infinity",
        "beta1": 0.9,
        "beta2": 0.999,
        "epsilon": 1e-8
    }
}