{
    "type": "NeuralNetwork",
    "sizes": [
        9,
        4,
        8,
        1
    ],
    "layers": [
        {
            "weights": [],
            "biases": []
        },
        {
            "weights": [
                [
                    13.155037879943848,
                    -11.608657836914062,
                    4.268543720245361,
                    -3.7584726810455322,
                    -1.3507224321365356,
                    8.228570938110352,
                    -0.3481878936290741,
                    13.54296875,
                    5.082974910736084
                ],
                [
                    8.486260414123535,
                    -9.652166366577148,
                    9.319571495056152,
                    8.457083702087402,
                    -16.858266830444336,
                    -21.00753402709961,
                    -3.045889377593994,
                    5.024258613586426,
                    20.685436248779297
                ],
                [
                    6.274235725402832,
                    3.808709144592285,
                    28.324434280395508,
                    -6.017218112945557,
                    10.229377746582031,
                    11.542311668395996,
                    -23.62348747253418,
                    -6.7071213722229,
                    24.225191116333008
                ],
                [
                    8.209243774414062,
                    -4.589099884033203,
                    3.0965561866760254,
                    16.6076602935791,
                    8.693795204162598,
                    3.3269436359405518,
                    19.79861068725586,
                    -6.481587886810303,
                    19.312591552734375
                ]
            ],
            "biases": [
                5.382091045379639,
                18.408103942871094,
                7.355930805206299,
                -22.482851028442383
            ]
        },
        {
            "weights": [
                [
                    0.17071381211280823,
                    -25.01030921936035,
                    -0.35660624504089355,
                    -12.937653541564941
                ],
                [
                    -2.9769301414489746,
                    -2.655647039413452,
                    -3.4416470527648926,
                    -3.728517532348633
                ],
                [
                    -3.9190616607666016,
                    -1.5312014818191528,
                    -3.78053617477417,
                    -3.655216693878174
                ],
                [
                    -3.929727554321289,
                    -1.2344555854797363,
                    -3.9780781269073486,
                    -4.990461349487305
                ],
                [
                    -5.540174961090088,
                    2.8227150440216064,
                    -11.07917594909668,
                    -7.363646984100342
                ],
                [
                    -3.319784641265869,
                    -1.7969622611999512,
                    -3.6624786853790283,
                    -3.5036840438842773
                ],
                [
                    -5.654499530792236,
                    -2.286323308944702,
                    -1.607967734336853,
                    -6.782203674316406
                ],
                [
                    0.7497506737709045,
                    -6.458324909210205,
                    -22.509815216064453,
                    -7.8121113777160645
                ]
            ],
            "biases": [
                1.2525767087936401,
                -1.5556827783584595,
                -1.231522798538208,
                -0.5796605348587036,
                7.974549770355225,
                -1.4019299745559692,
                0.8799698352813721,
                7.608592987060547
            ]
        },
        {
            "weights": [
                [
                    1.5475502014160156,
                    0.4921353757381439,
                    1.0400844812393188,
                    1.7274720668792725,
                    2.807466983795166,
                    0.7248814105987549,
                    2.0096709728240967,
                    -2.097818613052368
                ]
            ],
            "biases": [
                -0.19344724714756012
            ]
        }
    ],
    "inputLookup": null,
    "inputLookupLength": 0,
    "outputLookup": null,
    "outputLookupLength": 0,
    "options": {
        "inputSize": 0,
        "outputSize": 0,
        "binaryThresh": 0.5,
        "hiddenLayers": [
            4,
            8
        ]
    },
    "trainOpts": {
        "activation": "sigmoid",
        "iterations": 20000,
        "errorThresh": 0.005,
        "log": false,
        "logPeriod": 10,
        "leakyReluAlpha": 0.01,
        "learningRate": 0.3,
        "momentum": 0.1,
        "callbackPeriod": 10,
        "timeout": "Infinity",
        "beta1": 0.9,
        "beta2": 0.999,
        "epsilon": 1e-8
    }
}