{
    "type": "NeuralNetwork",
    "sizes": [
        5,
        4,
        8,
        1
    ],
    "layers": [
        {
            "weights": [],
            "biases": []
        },
        {
            "weights": [
                [
                    9.248763084411621,
                    -0.2246784269809723,
                    -3.377272844314575,
                    1.8769258260726929,
                    10.287827491760254
                ],
                [
                    6.782489776611328,
                    -3.989698886871338,
                    6.039115905761719,
                    -4.855853080749512,
                    -5.493135929107666
                ],
                [
                    -10.43543815612793,
                    16.690248489379883,
                    -10.614376068115234,
                    13.386387825012207,
                    -5.6822309494018555
                ],
                [
                    -9.895977020263672,
                    -8.026121139526367,
                    9.914809226989746,
                    3.747697591781616,
                    13.269119262695312
                ]
            ],
            "biases": [
                -3.0195722579956055,
                -1.5086424350738525,
                1.2538349628448486,
                10.120903968811035
            ]
        },
        {
            "weights": [
                [
                    -1.3871997594833374,
                    -1.4284677505493164,
                    -1.8853557109832764,
                    -1.9075323343276978
                ],
                [
                    -1.3827142715454102,
                    -1.427726149559021,
                    -1.8902372121810913,
                    -1.9088895320892334
                ],
                [
                    -1.3876174688339233,
                    -1.4281444549560547,
                    -1.8803631067276,
                    -1.8970816135406494
                ],
                [
                    -1.3851711750030518,
                    -1.4271796941757202,
                    -1.889827013015747,
                    -1.9105995893478394
                ],
                [
                    -1.3830162286758423,
                    -1.4284430742263794,
                    -1.889816164970398,
                    -1.9080519676208496
                ],
                [
                    -1.3883827924728394,
                    -1.4284974336624146,
                    -1.8846728801727295,
                    -1.9072391986846924
                ],
                [
                    -4.956487655639648,
                    1.5255842208862305,
                    2.771735668182373,
                    -5.876196384429932
                ],
                [
                    -5.018647193908691,
                    1.5301631689071655,
                    2.9358901977539062,
                    -5.932862281799316
                ]
            ],
            "biases": [
                -0.1488652378320694,
                -0.14299872517585754,
                -0.13669101893901825,
                -0.12542705237865448,
                -0.14273671805858612,
                -0.14544863998889923,
                -1.4835928678512573,
                -1.6053749322891235
            ]
        },
        {
            "weights": [
                [
                    3.2365033626556396,
                    3.2219793796539307,
                    3.1595683097839355,
                    3.175748825073242,
                    3.219006061553955,
                    3.225931406021118,
                    2.34360933303833,
                    2.3789429664611816
                ]
            ],
            "biases": [
                -0.3453183174133301
            ]
        }
    ],
    "inputLookup": null,
    "inputLookupLength": 0,
    "outputLookup": null,
    "outputLookupLength": 0,
    "options": {
        "inputSize": 0,
        "outputSize": 0,
        "binaryThresh": 0.5,
        "hiddenLayers": [
            4,
            8
        ]
    },
    "trainOpts": {
        "activation": "sigmoid",
        "iterations": 20000,
        "errorThresh": 0.005,
        "log": false,
        "logPeriod": 10,
        "leakyReluAlpha": 0.01,
        "learningRate": 0.3,
        "momentum": 0.1,
        "callbackPeriod": 10,
        "timeout": "Infinity",
        "beta1": 0.9,
        "beta2": 0.999,
        "epsilon": 1e-8
    }
}