{
    "type": "NeuralNetwork",
    "sizes": [
        6,
        4,
        8,
        1
    ],
    "layers": [
        {
            "weights": [],
            "biases": []
        },
        {
            "weights": [
                [
                    -12.488368034362793,
                    -5.611807823181152,
                    2.5425710678100586,
                    15.973611831665039,
                    7.544452667236328,
                    16.259998321533203
                ],
                [
                    -3.6807899475097656,
                    12.342157363891602,
                    7.161365032196045,
                    -9.577498435974121,
                    -6.425296306610107,
                    -17.0256290435791
                ],
                [
                    14.88786792755127,
                    -1.7512009143829346,
                    -19.76339340209961,
                    8.312413215637207,
                    -12.058977127075195,
                    9.646784782409668
                ],
                [
                    13.467952728271484,
                    12.852071762084961,
                    8.46303939819336,
                    -9.434073448181152,
                    5.25374174118042,
                    -1.8615590333938599
                ]
            ],
            "biases": [
                -8.558483123779297,
                0.7420886754989624,
                19.3551082611084,
                -2.30586314201355
            ]
        },
        {
            "weights": [
                [
                    -9.634195327758789,
                    -1.5097949504852295,
                    -2.392451524734497,
                    -0.2998209595680237
                ],
                [
                    3.60622501373291,
                    -6.631803035736084,
                    -2.2579782009124756,
                    -2.367321491241455
                ],
                [
                    4.946005344390869,
                    -6.368184566497803,
                    -1.636875867843628,
                    -1.8746986389160156
                ],
                [
                    4.582004070281982,
                    -6.447694301605225,
                    -1.7387964725494385,
                    -1.9493438005447388
                ],
                [
                    4.814145565032959,
                    -6.394920349121094,
                    -1.671420931816101,
                    -1.8999136686325073
                ],
                [
                    -9.601083755493164,
                    -1.5186829566955566,
                    -2.4178836345672607,
                    -0.333457350730896
                ],
                [
                    -9.625923156738281,
                    -1.5116822719573975,
                    -2.3997902870178223,
                    -0.3150024712085724
                ],
                [
                    -9.799359321594238,
                    -1.5073612928390503,
                    -2.3527655601501465,
                    -0.18804271519184113
                ]
            ],
            "biases": [
                0.02140248380601406,
                -3.84061598777771,
                -5.8398919105529785,
                -5.362184524536133,
                -5.668450355529785,
                0.09527779370546341,
                0.048990510404109955,
                -0.15324415266513824
            ]
        },
        {
            "weights": [
                [
                    2.393543243408203,
                    2.236494302749634,
                    2.2546427249908447,
                    2.2401926517486572,
                    2.2477004528045654,
                    2.355447769165039,
                    2.3805642127990723,
                    2.4665236473083496
                ]
            ],
            "biases": [
                -0.42132076621055603
            ]
        }
    ],
    "inputLookup": null,
    "inputLookupLength": 0,
    "outputLookup": null,
    "outputLookupLength": 0,
    "options": {
        "inputSize": 0,
        "outputSize": 0,
        "binaryThresh": 0.5,
        "hiddenLayers": [
            4,
            8
        ]
    },
    "trainOpts": {
        "activation": "sigmoid",
        "iterations": 20000,
        "errorThresh": 0.005,
        "log": false,
        "logPeriod": 10,
        "leakyReluAlpha": 0.01,
        "learningRate": 0.3,
        "momentum": 0.1,
        "callbackPeriod": 10,
        "timeout": "Infinity",
        "beta1": 0.9,
        "beta2": 0.999,
        "epsilon": 1e-8
    }
}