{
    "type": "NeuralNetwork",
    "sizes": [
        20,
        4,
        8,
        1
    ],
    "layers": [
        {
            "weights": [],
            "biases": []
        },
        {
            "weights": [
                [
                    -0.8649966716766357,
                    -8.678911209106445,
                    -27.305145263671875,
                    -4.001712799072266,
                    40.355255126953125,
                    -27.74842071533203,
                    10.901679039001465,
                    33.44960021972656,
                    -20.975889205932617,
                    -20.31311798095703,
                    23.75840950012207,
                    36.8474235534668,
                    -3.93125319480896,
                    22.617040634155273,
                    25.458232879638672,
                    15.432019233703613,
                    12.752140045166016,
                    -14.289484024047852,
                    -7.606501579284668,
                    5.6499128341674805
                ],
                [
                    -29.61927032470703,
                    55.26502227783203,
                    10.186556816101074,
                    -30.06232261657715,
                    -39.06979751586914,
                    77.13639068603516,
                    -13.187368392944336,
                    -25.80685043334961,
                    6.429671764373779,
                    15.0575590133667,
                    -10.093852043151855,
                    18.60666275024414,
                    45.60805892944336,
                    19.66363525390625,
                    -19.174840927124023,
                    -19.42285919189453,
                    47.680015563964844,
                    18.42308235168457,
                    23.688756942749023,
                    14.19027328491211
                ],
                [
                    17.953214645385742,
                    -25.46578598022461,
                    -7.494875431060791,
                    13.412398338317871,
                    -14.96580982208252,
                    6.9087700843811035,
                    3.492180109024048,
                    2.286782741546631,
                    11.182320594787598,
                    18.749265670776367,
                    26.747709274291992,
                    -26.588268280029297,
                    7.144116401672363,
                    1.1283042430877686,
                    9.678914070129395,
                    17.26534652709961,
                    38.04572296142578,
                    14.915152549743652,
                    -1.975084662437439,
                    -8.259000778198242
                ],
                [
                    48.727664947509766,
                    16.35832977294922,
                    0.2952331602573395,
                    30.142980575561523,
                    38.58153533935547,
                    -30.24208641052246,
                    -9.576037406921387,
                    4.115546703338623,
                    19.634090423583984,
                    20.921890258789062,
                    25.925052642822266,
                    34.95074462890625,
                    -6.703282833099365,
                    -6.501493453979492,
                    36.77406692504883,
                    -13.2808256149292,
                    -52.554237365722656,
                    0.7065616250038147,
                    19.736068725585938,
                    -6.973872661590576
                ]
            ],
            "biases": [
                11.052512168884277,
                -49.63750457763672,
                -11.071489334106445,
                3.1949715614318848
            ]
        },
        {
            "weights": [
                [
                    -19.884023666381836,
                    -14.554058074951172,
                    -19.722257614135742,
                    2.622703790664673
                ],
                [
                    -4.693840503692627,
                    -5.157440662384033,
                    -12.821144104003906,
                    -4.140695095062256
                ],
                [
                    4.213252067565918,
                    -3.557452917098999,
                    -40.881126403808594,
                    5.253838062286377
                ],
                [
                    14.49126148223877,
                    -10.820757865905762,
                    29.2795352935791,
                    -11.566563606262207
                ],
                [
                    -31.789854049682617,
                    -7.129858016967773,
                    -57.66293716430664,
                    -39.94561767578125
                ],
                [
                    -3.2297449111938477,
                    -6.2574896812438965,
                    -12.858002662658691,
                    -5.832015514373779
                ],
                [
                    -59.755802154541016,
                    -47.69707107543945,
                    36.74888610839844,
                    -2.4331538677215576
                ],
                [
                    -11.36761474609375,
                    -10.328993797302246,
                    -14.658456802368164,
                    -4.000607013702393
                ]
            ],
            "biases": [
                7.93417501449585,
                -0.5275117754936218,
                -8.19635009765625,
                -35.344200134277344,
                46.07341384887695,
                2.2653701305389404,
                10.992107391357422,
                5.052759647369385
            ]
        },
        {
            "weights": [
                [
                    7.0161967277526855,
                    2.9735755920410156,
                    1.091883659362793,
                    2.2402842044830322,
                    2.71970272064209,
                    3.9162631034851074,
                    1.6127499341964722,
                    3.263979911804199
                ]
            ],
            "biases": [
                -0.21791529655456543
            ]
        }
    ],
    "inputLookup": null,
    "inputLookupLength": 0,
    "outputLookup": null,
    "outputLookupLength": 0,
    "options": {
        "inputSize": 0,
        "outputSize": 0,
        "binaryThresh": 0.5,
        "hiddenLayers": [
            4,
            8
        ]
    },
    "trainOpts": {
        "activation": "sigmoid",
        "iterations": 20000,
        "errorThresh": 0.005,
        "log": false,
        "logPeriod": 10,
        "leakyReluAlpha": 0.01,
        "learningRate": 0.3,
        "momentum": 0.1,
        "callbackPeriod": 10,
        "timeout": "Infinity",
        "beta1": 0.9,
        "beta2": 0.999,
        "epsilon": 1e-8
    }
}