{
    "type": "NeuralNetwork",
    "sizes": [
        10,
        4,
        8,
        1
    ],
    "layers": [
        {
            "weights": [],
            "biases": []
        },
        {
            "weights": [
                [
                    -14.717574119567871,
                    12.879127502441406,
                    -4.557308673858643,
                    11.092183113098145,
                    -10.145212173461914,
                    16.239328384399414,
                    16.507614135742188,
                    1.3919525146484375,
                    18.92911148071289,
                    27.89571762084961
                ],
                [
                    13.537403106689453,
                    -4.08976936340332,
                    -32.75607681274414,
                    21.987449645996094,
                    30.471128463745117,
                    16.656030654907227,
                    14.848204612731934,
                    -21.712739944458008,
                    -9.445444107055664,
                    15.502463340759277
                ],
                [
                    4.816508769989014,
                    7.862185001373291,
                    -10.071808815002441,
                    0.9018601179122925,
                    16.197660446166992,
                    -17.716289520263672,
                    -13.005263328552246,
                    19.692941665649414,
                    1.843136191368103,
                    16.882598876953125
                ],
                [
                    14.766737937927246,
                    3.084096670150757,
                    21.346113204956055,
                    14.787765502929688,
                    -0.28235822916030884,
                    -8.857025146484375,
                    -9.56965160369873,
                    4.093810081481934,
                    -1.121955156326294,
                    -7.689798355102539
                ]
            ],
            "biases": [
                1.3112809658050537,
                22.218679428100586,
                21.128154754638672,
                -4.736958980560303
            ]
        },
        {
            "weights": [
                [
                    -18.871212005615234,
                    -8.882015228271484,
                    -9.131753921508789,
                    7.565572261810303
                ],
                [
                    -6.1753153800964355,
                    -4.9769673347473145,
                    -2.7895305156707764,
                    -3.851430654525757
                ],
                [
                    9.354883193969727,
                    -20.104719161987305,
                    3.6708176136016846,
                    -21.389480590820312
                ],
                [
                    17.078388214111328,
                    -16.88594627380371,
                    -41.27543640136719,
                    16.000455856323242
                ],
                [
                    -26.19936752319336,
                    -12.56435489654541,
                    -3.545710802078247,
                    20.587129592895508
                ],
                [
                    0.413305401802063,
                    -2.9830808639526367,
                    -22.61850357055664,
                    -18.133283615112305
                ],
                [
                    2.9417498111724854,
                    -11.630605697631836,
                    4.6488494873046875,
                    -20.723857879638672
                ],
                [
                    -5.171409606933594,
                    -2.1716229915618896,
                    4.777256488800049,
                    -18.068288803100586
                ]
            ],
            "biases": [
                6.173837184906006,
                0.6669143438339233,
                3.3190317153930664,
                8.602431297302246,
                -1.1630489826202393,
                1.8178743124008179,
                1.8328124284744263,
                -0.1240973174571991
            ]
        },
        {
            "weights": [
                [
                    2.2734670639038086,
                    2.301109790802002,
                    6.511474132537842,
                    1.3456568717956543,
                    1.4111746549606323,
                    9.545865058898926,
                    1.4904855489730835,
                    1.7649214267730713
                ]
            ],
            "biases": [
                -0.3610392212867737
            ]
        }
    ],
    "inputLookup": null,
    "inputLookupLength": 0,
    "outputLookup": null,
    "outputLookupLength": 0,
    "options": {
        "inputSize": 0,
        "outputSize": 0,
        "binaryThresh": 0.5,
        "hiddenLayers": [
            4,
            8
        ]
    },
    "trainOpts": {
        "activation": "sigmoid",
        "iterations": 20000,
        "errorThresh": 0.005,
        "log": false,
        "logPeriod": 10,
        "leakyReluAlpha": 0.01,
        "learningRate": 0.3,
        "momentum": 0.1,
        "callbackPeriod": 10,
        "timeout": "Infinity",
        "beta1": 0.9,
        "beta2": 0.999,
        "epsilon": 1e-8
    }
}