{
    "type": "NeuralNetwork",
    "sizes": [
        5,
        10,
        1
    ],
    "layers": [
        {
            "weights": [],
            "biases": []
        },
        {
            "weights": [
                [
                    -2.5920984745025635,
                    0.19838480651378632,
                    -4.290207386016846,
                    0.9019259810447693,
                    -4.342276096343994
                ],
                [
                    -1.0277972221374512,
                    -1.1549172401428223,
                    -0.1915213018655777,
                    -0.7703625559806824,
                    -0.8803324103355408
                ],
                [
                    -1.1645010709762573,
                    -1.139663577079773,
                    -1.8967682123184204,
                    -1.2393839359283447,
                    -1.1938892602920532
                ],
                [
                    -1.6422492265701294,
                    -1.855303168296814,
                    -1.8836884498596191,
                    -1.6730509996414185,
                    -0.666972815990448
                ],
                [
                    -1.7996957302093506,
                    -3.014878034591675,
                    -0.9069816470146179,
                    2.1620352268218994,
                    -0.020847080275416374
                ],
                [
                    -1.747560739517212,
                    -2.6976354122161865,
                    -1.9548970460891724,
                    -4.544435501098633,
                    1.8200790882110596
                ],
                [
                    -1.284348964691162,
                    -1.3566738367080688,
                    -0.3673821687698364,
                    -0.26453155279159546,
                    -0.9811868667602539
                ],
                [
                    -2.7065019607543945,
                    4.833288192749023,
                    -2.4601354598999023,
                    -1.2792824506759644,
                    1.5151939392089844
                ],
                [
                    0.21123147010803223,
                    -8.123605728149414,
                    -2.2820847034454346,
                    1.456282377243042,
                    -2.5062901973724365
                ],
                [
                    -0.26470959186553955,
                    -0.474417120218277,
                    1.7513138055801392,
                    -2.8232550621032715,
                    -2.169769763946533
                ]
            ],
            "biases": [
                0.0992574393749237,
                -2.313417673110962,
                -2.002271890640259,
                -1.7453173398971558,
                -1.769667148590088,
                -0.6539314985275269,
                -2.351447582244873,
                -3.4923388957977295,
                0.4542138874530792,
                -1.732081651687622
            ]
        },
        {
            "weights": [
                [
                    2.802170753479004,
                    -0.7233620285987854,
                    0.4448336064815521,
                    0.8658422827720642,
                    -1.7501640319824219,
                    2.3421223163604736,
                    -0.4725132882595062,
                    -2.0290238857269287,
                    -3.160592794418335,
                    -1.7148756980895996
                ]
            ],
            "biases": [
                -0.17756137251853943
            ]
        }
    ],
    "inputLookup": null,
    "inputLookupLength": 0,
    "outputLookup": null,
    "outputLookupLength": 0,
    "options": {
        "inputSize": 0,
        "outputSize": 0,
        "binaryThresh": 0.5,
        "hiddenLayers": [
            10
        ]
    },
    "trainOpts": {
        "activation": "sigmoid",
        "iterations": 20000,
        "errorThresh": 0.005,
        "log": false,
        "logPeriod": 10,
        "leakyReluAlpha": 0.01,
        "learningRate": 0.3,
        "momentum": 0.1,
        "callbackPeriod": 10,
        "timeout": "Infinity",
        "beta1": 0.9,
        "beta2": 0.999,
        "epsilon": 1e-8
    }
}