{
    "type": "NeuralNetwork",
    "sizes": [
        5,
        4,
        8,
        1
    ],
    "layers": [
        {
            "weights": [],
            "biases": []
        },
        {
            "weights": [
                [
                    5.146151542663574,
                    -1.2829885482788086,
                    5.637551784515381,
                    1.2710096836090088,
                    3.836322069168091
                ],
                [
                    0.40068888664245605,
                    7.416419982910156,
                    7.574936866760254,
                    -15.040870666503906,
                    -16.694408416748047
                ],
                [
                    5.511847972869873,
                    8.15637493133545,
                    -6.589383602142334,
                    8.476913452148438,
                    4.808119773864746
                ],
                [
                    -11.455280303955078,
                    5.201702117919922,
                    8.380566596984863,
                    5.2162299156188965,
                    8.612107276916504
                ]
            ],
            "biases": [
                -10.358729362487793,
                18.158817291259766,
                -10.360108375549316,
                -15.50587272644043
            ]
        },
        {
            "weights": [
                [
                    0.14623260498046875,
                    -3.226732015609741,
                    -3.1780974864959717,
                    -2.952286958694458
                ],
                [
                    -7.065566539764404,
                    -0.3229331374168396,
                    -0.09274730831384659,
                    -0.39628633856773376
                ],
                [
                    -7.558650493621826,
                    -0.2974696159362793,
                    -0.06621677428483963,
                    -0.3541918694972992
                ],
                [
                    -7.028481960296631,
                    -0.3237650990486145,
                    -0.0946199893951416,
                    -0.39887017011642456
                ],
                [
                    0.1462603211402893,
                    -3.227278470993042,
                    -3.178457021713257,
                    -2.9525020122528076
                ],
                [
                    0.1464325338602066,
                    -3.227174997329712,
                    -3.1784679889678955,
                    -2.953356981277466
                ],
                [
                    0.14637933671474457,
                    -3.227024793624878,
                    -3.1782519817352295,
                    -2.9524528980255127
                ],
                [
                    -0.34040653705596924,
                    0.6979097723960876,
                    -5.736256122589111,
                    0.2753293216228485
                ]
            ],
            "biases": [
                -1.7502585649490356,
                -4.434606552124023,
                -4.477607250213623,
                -4.42870569229126,
                -1.7494901418685913,
                -1.74960196018219,
                -1.7497960329055786,
                -5.390166759490967
            ]
        },
        {
            "weights": [
                [
                    4.825729846954346,
                    5.137188911437988,
                    5.174850940704346,
                    5.115642547607422,
                    4.8246612548828125,
                    4.824693202972412,
                    4.824534893035889,
                    4.609657287597656
                ]
            ],
            "biases": [
                -0.35664990544319153
            ]
        }
    ],
    "inputLookup": null,
    "inputLookupLength": 0,
    "outputLookup": null,
    "outputLookupLength": 0,
    "options": {
        "inputSize": 0,
        "outputSize": 0,
        "binaryThresh": 0.5,
        "hiddenLayers": [
            4,
            8
        ]
    },
    "trainOpts": {
        "activation": "sigmoid",
        "iterations": 20000,
        "errorThresh": 0.005,
        "log": false,
        "logPeriod": 10,
        "leakyReluAlpha": 0.01,
        "learningRate": 0.3,
        "momentum": 0.1,
        "callbackPeriod": 10,
        "timeout": "Infinity",
        "beta1": 0.9,
        "beta2": 0.999,
        "epsilon": 1e-8
    }
}