{
    "type": "NeuralNetwork",
    "sizes": [
        24,
        4,
        8,
        1
    ],
    "layers": [
        {
            "weights": [],
            "biases": []
        },
        {
            "weights": [
                [
                    23.622690200805664,
                    17.946996688842773,
                    -9.3410005569458,
                    -13.396624565124512,
                    -18.5819034576416,
                    -19.86914825439453,
                    -4.6839704513549805,
                    16.836299896240234,
                    -4.3438944816589355,
                    16.413501739501953,
                    46.72641372680664,
                    -1.9471105337142944,
                    -7.115328311920166,
                    17.514625549316406,
                    26.30487060546875,
                    -20.615604400634766,
                    26.08119010925293,
                    2.6713778972625732,
                    -8.512024879455566,
                    0.9663366079330444,
                    -25.86896324157715,
                    40.317054748535156,
                    12.526474952697754,
                    0.3338452875614166
                ],
                [
                    12.986239433288574,
                    2.9114861488342285,
                    41.56987762451172,
                    -22.682369232177734,
                    -3.2232346534729004,
                    11.72741985321045,
                    -12.885124206542969,
                    -47.891761779785156,
                    50.589027404785156,
                    -52.99983596801758,
                    -20.602252960205078,
                    7.034261226654053,
                    11.12064266204834,
                    -17.554235458374023,
                    11.283933639526367,
                    15.577856063842773,
                    -7.336418628692627,
                    11.857481956481934,
                    16.94758415222168,
                    -11.38238525390625,
                    19.439064025878906,
                    -15.287267684936523,
                    2.413020372390747,
                    -7.951870918273926
                ],
                [
                    25.979568481445312,
                    21.861820220947266,
                    -24.655363082885742,
                    2.142404556274414,
                    17.888547897338867,
                    35.93820571899414,
                    7.172313213348389,
                    1.9296777248382568,
                    -21.89561653137207,
                    7.050948619842529,
                    -33.2462158203125,
                    -15.709854125976562,
                    7.959987640380859,
                    1.7926416397094727,
                    -0.8149098753929138,
                    35.3298454284668,
                    -26.17889404296875,
                    -1.7132583856582642,
                    4.31424617767334,
                    25.17156410217285,
                    -11.222476959228516,
                    -8.411860466003418,
                    -2.7172915935516357,
                    56.453033447265625
                ],
                [
                    -31.208324432373047,
                    -51.23218536376953,
                    -18.797348022460938,
                    11.743273735046387,
                    11.121485710144043,
                    -18.713193893432617,
                    -3.3455429077148438,
                    17.96585464477539,
                    11.088351249694824,
                    19.055795669555664,
                    20.590993881225586,
                    -5.888378143310547,
                    -10.127178192138672,
                    -6.268097400665283,
                    23.72931671142578,
                    11.549201011657715,
                    11.965118408203125,
                    10.513620376586914,
                    5.310583114624023,
                    1.084721326828003,
                    18.28583335876465,
                    -9.36505126953125,
                    -7.637856960296631,
                    -5.070606708526611
                ]
            ],
            "biases": [
                -8.863168716430664,
                -0.025302255526185036,
                -11.117168426513672,
                39.29221725463867
            ]
        },
        {
            "weights": [
                [
                    -45.14569854736328,
                    -3.1113028526306152,
                    8.986845016479492,
                    -24.623981475830078
                ],
                [
                    27.09921646118164,
                    -52.50330352783203,
                    -38.24405288696289,
                    -55.3795280456543
                ],
                [
                    -9.82474422454834,
                    -6.144042015075684,
                    -10.998675346374512,
                    -2.6036272048950195
                ],
                [
                    14.647753715515137,
                    -24.57219696044922,
                    13.3650484085083,
                    18.565521240234375
                ],
                [
                    -39.09257125854492,
                    -40.62965393066406,
                    1.4767704010009766,
                    13.494499206542969
                ],
                [
                    -9.290687561035156,
                    -7.309999465942383,
                    -3.058371067047119,
                    -6.77368688583374
                ],
                [
                    -32.991302490234375,
                    -7.424957752227783,
                    -33.15850067138672,
                    -9.92967700958252
                ],
                [
                    -5.4796953201293945,
                    -4.954573154449463,
                    -5.427631378173828,
                    -3.9147515296936035
                ]
            ],
            "biases": [
                4.063820838928223,
                29.30097007751465,
                1.4148870706558228,
                -46.161319732666016,
                -0.6385083198547363,
                0.3637855648994446,
                33.856021881103516,
                -1.3213975429534912
            ]
        },
        {
            "weights": [
                [
                    2.3619179725646973,
                    2.356682300567627,
                    3.968127727508545,
                    1.1461628675460815,
                    2.086665391921997,
                    2.6792092323303223,
                    17.24235725402832,
                    1.720384120941162
                ]
            ],
            "biases": [
                -0.7333847880363464
            ]
        }
    ],
    "inputLookup": null,
    "inputLookupLength": 0,
    "outputLookup": null,
    "outputLookupLength": 0,
    "options": {
        "inputSize": 0,
        "outputSize": 0,
        "binaryThresh": 0.5,
        "hiddenLayers": [
            4,
            8
        ]
    },
    "trainOpts": {
        "activation": "sigmoid",
        "iterations": 20000,
        "errorThresh": 0.005,
        "log": false,
        "logPeriod": 10,
        "leakyReluAlpha": 0.01,
        "learningRate": 0.3,
        "momentum": 0.1,
        "callbackPeriod": 10,
        "timeout": "Infinity",
        "beta1": 0.9,
        "beta2": 0.999,
        "epsilon": 1e-8
    }
}