{
    "type": "NeuralNetwork",
    "sizes": [
        25,
        4,
        8,
        1
    ],
    "layers": [
        {
            "weights": [],
            "biases": []
        },
        {
            "weights": [
                [
                    30.405738830566406,
                    10.296252250671387,
                    7.669724941253662,
                    6.084044933319092,
                    -15.150012969970703,
                    10.308245658874512,
                    52.41642379760742,
                    -30.554067611694336,
                    -40.16753387451172,
                    9.64419937133789,
                    19.056760787963867,
                    13.453837394714355,
                    -2.931378126144409,
                    23.7888126373291,
                    40.86210632324219,
                    -15.503957748413086,
                    6.838653564453125,
                    -13.491103172302246,
                    -13.690177917480469,
                    -13.183460235595703,
                    -6.276985168457031,
                    31.557327270507812,
                    28.28091049194336,
                    -8.12987232208252,
                    -39.35329055786133
                ],
                [
                    -4.440958023071289,
                    -21.054479598999023,
                    5.027232646942139,
                    8.169424057006836,
                    19.50184440612793,
                    20.991334915161133,
                    -0.6674810647964478,
                    -17.075937271118164,
                    -4.384215831756592,
                    32.58662033081055,
                    18.475446701049805,
                    14.756961822509766,
                    -15.396535873413086,
                    -30.379772186279297,
                    -12.959968566894531,
                    26.854726791381836,
                    18.034265518188477,
                    32.62847137451172,
                    29.848432540893555,
                    11.46058464050293,
                    30.786617279052734,
                    -6.75800085067749,
                    2.210907220840454,
                    -30.055164337158203,
                    -7.031633377075195
                ],
                [
                    -26.070707321166992,
                    -2.6347153186798096,
                    2.4495208263397217,
                    14.544119834899902,
                    33.47071075439453,
                    -30.053312301635742,
                    -28.999677658081055,
                    22.488801956176758,
                    -1.3820381164550781,
                    -16.925596237182617,
                    -9.322410583496094,
                    4.3039445877075195,
                    7.864374160766602,
                    23.753692626953125,
                    -21.283620834350586,
                    -12.83842945098877,
                    0.870604395866394,
                    6.656152725219727,
                    -9.20669174194336,
                    11.919072151184082,
                    -4.038577556610107,
                    -2.0130457878112793,
                    2.915726900100708,
                    38.618988037109375,
                    29.940462112426758
                ],
                [
                    1.87876296043396,
                    28.49840545654297,
                    22.415660858154297,
                    -9.301578521728516,
                    -33.857093811035156,
                    -6.498703479766846,
                    -5.256569862365723,
                    7.50244665145874,
                    36.56267166137695,
                    -17.94546127319336,
                    -20.944805145263672,
                    7.89412260055542,
                    28.560731887817383,
                    6.4065446853637695,
                    51.72455978393555,
                    20.083274841308594,
                    1.435133457183838,
                    -28.166784286499023,
                    13.24644660949707,
                    5.729834079742432,
                    5.7542338371276855,
                    -7.692506313323975,
                    -15.755599975585938,
                    13.46362018585205,
                    21.895326614379883
                ]
            ],
            "biases": [
                -11.482928276062012,
                -25.55024528503418,
                -13.300752639770508,
                -14.680635452270508
            ]
        },
        {
            "weights": [
                [
                    -32.698204040527344,
                    -32.5283317565918,
                    -37.64764404296875,
                    25.13786506652832
                ],
                [
                    -13.047855377197266,
                    -17.93792724609375,
                    -3.8360047340393066,
                    -5.728754043579102
                ],
                [
                    -22.446121215820312,
                    -22.249977111816406,
                    -29.989858627319336,
                    23.309356689453125
                ],
                [
                    -52.43465042114258,
                    -60.58542251586914,
                    60.535545349121094,
                    -60.523494720458984
                ],
                [
                    -19.206470489501953,
                    2.4816277027130127,
                    -42.531097412109375,
                    -53.82682800292969
                ],
                [
                    27.562734603881836,
                    -20.96997833251953,
                    -56.10508728027344,
                    -30.89142608642578
                ],
                [
                    -21.247617721557617,
                    -21.041095733642578,
                    -28.67770767211914,
                    23.585561752319336
                ],
                [
                    -22.65655517578125,
                    -22.46816062927246,
                    -30.207801818847656,
                    22.884042739868164
                ]
            ],
            "biases": [
                2.8585195541381836,
                1.6076250076293945,
                -4.591085910797119,
                -0.5092629194259644,
                6.9605021476745605,
                -8.922449111938477,
                -6.119654178619385,
                -3.9785609245300293
            ]
        },
        {
            "weights": [
                [
                    12.401604652404785,
                    5.6628007888793945,
                    4.628925323486328,
                    1.8012869358062744,
                    1.7231196165084839,
                    2.3926708698272705,
                    4.718760013580322,
                    4.753323554992676
                ]
            ],
            "biases": [
                -0.28531014919281006
            ]
        }
    ],
    "inputLookup": null,
    "inputLookupLength": 0,
    "outputLookup": null,
    "outputLookupLength": 0,
    "options": {
        "inputSize": 0,
        "outputSize": 0,
        "binaryThresh": 0.5,
        "hiddenLayers": [
            4,
            8
        ]
    },
    "trainOpts": {
        "activation": "sigmoid",
        "iterations": 20000,
        "errorThresh": 0.005,
        "log": false,
        "logPeriod": 10,
        "leakyReluAlpha": 0.01,
        "learningRate": 0.3,
        "momentum": 0.1,
        "callbackPeriod": 10,
        "timeout": "Infinity",
        "beta1": 0.9,
        "beta2": 0.999,
        "epsilon": 1e-8
    }
}