{
    "type": "NeuralNetwork",
    "sizes": [
        10,
        4,
        8,
        1
    ],
    "layers": [
        {
            "weights": [],
            "biases": []
        },
        {
            "weights": [
                [
                    13.804323196411133,
                    19.231548309326172,
                    -4.596484184265137,
                    15.00300407409668,
                    11.186453819274902,
                    9.533084869384766,
                    -7.734336853027344,
                    24.68140411376953,
                    -14.557334899902344,
                    8.033382415771484
                ],
                [
                    31.769989013671875,
                    47.396820068359375,
                    1.4654326438903809,
                    -14.957008361816406,
                    -23.999771118164062,
                    4.778090000152588,
                    -9.123191833496094,
                    -23.929443359375,
                    50.53036880493164,
                    27.4588565826416
                ],
                [
                    26.6840763092041,
                    -3.3076133728027344,
                    -41.91920852661133,
                    -4.297135829925537,
                    -10.803889274597168,
                    29.02610969543457,
                    -35.962894439697266,
                    49.76042938232422,
                    -22.393024444580078,
                    -4.59628438949585
                ],
                [
                    -8.67117691040039,
                    -10.590644836425781,
                    26.83380699157715,
                    2.5161216259002686,
                    18.63357162475586,
                    5.902408599853516,
                    35.2119026184082,
                    -2.836853265762329,
                    -6.3089213371276855,
                    -4.9314703941345215
                ]
            ],
            "biases": [
                -19.79866600036621,
                -7.563628196716309,
                10.305919647216797,
                -18.24476432800293
            ]
        },
        {
            "weights": [
                [
                    9.389801025390625,
                    -21.339038848876953,
                    -1.4692038297653198,
                    0.15393471717834473
                ],
                [
                    4.33689546585083,
                    -1.3293774127960205,
                    -1.4853343963623047,
                    -3.919313669204712
                ],
                [
                    7.144994735717773,
                    -21.0582218170166,
                    -1.19424307346344,
                    -0.3664169907569885
                ],
                [
                    -27.06510353088379,
                    4.668959140777588,
                    24.376611709594727,
                    39.606910705566406
                ],
                [
                    -20.03733253479004,
                    1.8723235130310059,
                    15.48403263092041,
                    -18.678388595581055
                ],
                [
                    4.542601108551025,
                    -1.1891202926635742,
                    -1.4770933389663696,
                    -7.8854899406433105
                ],
                [
                    4.527145862579346,
                    -1.2811564207077026,
                    -1.5651450157165527,
                    -2.774014949798584
                ],
                [
                    -48.85190963745117,
                    -11.350272178649902,
                    -34.83818054199219,
                    -11.754887580871582
                ]
            ],
            "biases": [
                -11.635062217712402,
                -5.314487457275391,
                -9.074554443359375,
                -44.446380615234375,
                -17.668807983398438,
                -5.73544979095459,
                -5.574379920959473,
                10.940892219543457
            ]
        },
        {
            "weights": [
                [
                    1.9692658185958862,
                    2.037431240081787,
                    2.190016984939575,
                    0.9816551208496094,
                    0.9962525963783264,
                    2.2525529861450195,
                    2.0664360523223877,
                    1.441983699798584
                ]
            ],
            "biases": [
                -0.32455071806907654
            ]
        }
    ],
    "inputLookup": null,
    "inputLookupLength": 0,
    "outputLookup": null,
    "outputLookupLength": 0,
    "options": {
        "inputSize": 0,
        "outputSize": 0,
        "binaryThresh": 0.5,
        "hiddenLayers": [
            4,
            8
        ]
    },
    "trainOpts": {
        "activation": "sigmoid",
        "iterations": 20000,
        "errorThresh": 0.005,
        "log": false,
        "logPeriod": 10,
        "leakyReluAlpha": 0.01,
        "learningRate": 0.3,
        "momentum": 0.1,
        "callbackPeriod": 10,
        "timeout": "Infinity",
        "beta1": 0.9,
        "beta2": 0.999,
        "epsilon": 1e-8
    }
}