{
    "type": "NeuralNetwork",
    "sizes": [
        15,
        4,
        8,
        1
    ],
    "layers": [
        {
            "weights": [],
            "biases": []
        },
        {
            "weights": [
                [
                    -21.37154769897461,
                    10.446977615356445,
                    11.942777633666992,
                    16.675024032592773,
                    -16.756649017333984,
                    1.1428343057632446,
                    20.580045700073242,
                    -12.06175422668457,
                    16.74725341796875,
                    5.264906406402588,
                    7.9449381828308105,
                    29.650714874267578,
                    20.083505630493164,
                    9.580613136291504,
                    45.20217514038086
                ],
                [
                    26.048355102539062,
                    0.0660308301448822,
                    -0.4238131046295166,
                    2.2014310359954834,
                    38.20024490356445,
                    -33.28108596801758,
                    -43.91147232055664,
                    30.783754348754883,
                    34.486576080322266,
                    40.75404357910156,
                    -5.954739093780518,
                    13.416303634643555,
                    12.920685768127441,
                    -2.7656142711639404,
                    -23.547561645507812
                ],
                [
                    -14.964744567871094,
                    16.637155532836914,
                    -9.122111320495605,
                    -4.22895622253418,
                    12.977058410644531,
                    -25.140968322753906,
                    10.08852481842041,
                    8.339259147644043,
                    23.868938446044922,
                    20.862070083618164,
                    -23.501956939697266,
                    -27.65166664123535,
                    37.91651153564453,
                    0.7345218062400818,
                    49.030277252197266
                ],
                [
                    -7.331587791442871,
                    1.0587503910064697,
                    19.40770721435547,
                    -28.540924072265625,
                    26.889795303344727,
                    43.09521484375,
                    -13.267183303833008,
                    -38.14444351196289,
                    23.719079971313477,
                    -30.29461097717285,
                    22.58690643310547,
                    23.41118621826172,
                    5.659450531005859,
                    16.678205490112305,
                    -24.031736373901367
                ]
            ],
            "biases": [
                -13.243743896484375,
                -22.515329360961914,
                -6.509670734405518,
                1.303195595741272
            ]
        },
        {
            "weights": [
                [
                    -14.587357521057129,
                    -43.03466796875,
                    23.777650833129883,
                    -49.87407684326172
                ],
                [
                    2.016282558441162,
                    -8.59332275390625,
                    -7.764474868774414,
                    -8.303340911865234
                ],
                [
                    25.181812286376953,
                    -5.5718183517456055,
                    -34.00680923461914,
                    -28.526233673095703
                ],
                [
                    -39.42959213256836,
                    -25.41901397705078,
                    -34.18758010864258,
                    31.911378860473633
                ],
                [
                    -29.266197204589844,
                    -29.36903190612793,
                    -26.694358825683594,
                    -12.809981346130371
                ],
                [
                    -34.1765251159668,
                    -3.5025734901428223,
                    8.988807678222656,
                    -22.980546951293945
                ],
                [
                    -15.675760269165039,
                    -11.80791187286377,
                    -9.377856254577637,
                    -32.550445556640625
                ],
                [
                    0.6172869801521301,
                    -35.22705841064453,
                    -37.803916931152344,
                    17.495025634765625
                ]
            ],
            "biases": [
                -3.9355270862579346,
                2.091252565383911,
                -2.9871199131011963,
                -4.031827449798584,
                62.91412353515625,
                0.26237383484840393,
                16.05628776550293,
                -10.839566230773926
            ]
        },
        {
            "weights": [
                [
                    16.089738845825195,
                    -4.575700759887695,
                    15.274298667907715,
                    18.73191261291504,
                    -14.909096717834473,
                    16.270427703857422,
                    16.0175724029541,
                    15.437572479248047
                ]
            ],
            "biases": [
                0.04442821815609932
            ]
        }
    ],
    "inputLookup": null,
    "inputLookupLength": 0,
    "outputLookup": null,
    "outputLookupLength": 0,
    "options": {
        "inputSize": 0,
        "outputSize": 0,
        "binaryThresh": 0.5,
        "hiddenLayers": [
            4,
            8
        ]
    },
    "trainOpts": {
        "activation": "sigmoid",
        "iterations": 20000,
        "errorThresh": 0.005,
        "log": false,
        "logPeriod": 10,
        "leakyReluAlpha": 0.01,
        "learningRate": 0.3,
        "momentum": 0.1,
        "callbackPeriod": 10,
        "timeout": "Infinity",
        "beta1": 0.9,
        "beta2": 0.999,
        "epsilon": 1e-8
    }
}