{
    "type": "NeuralNetwork",
    "sizes": [
        23,
        4,
        8,
        1
    ],
    "layers": [
        {
            "weights": [],
            "biases": []
        },
        {
            "weights": [
                [
                    -19.27268409729004,
                    -9.878339767456055,
                    18.318017959594727,
                    -2.9718756675720215,
                    -26.438159942626953,
                    -13.630071640014648,
                    13.203847885131836,
                    9.344547271728516,
                    -0.0804959163069725,
                    29.79414176940918,
                    1.7782552242279053,
                    5.361568927764893,
                    20.52540397644043,
                    30.86970329284668,
                    9.897953033447266,
                    24.55885124206543,
                    4.751530170440674,
                    -4.376828670501709,
                    -27.037410736083984,
                    18.390546798706055,
                    13.925604820251465,
                    9.026262283325195,
                    -12.237772941589355
                ],
                [
                    -11.863067626953125,
                    13.751081466674805,
                    -18.696935653686523,
                    15.005704879760742,
                    33.37869644165039,
                    24.132644653320312,
                    -18.987245559692383,
                    19.5932559967041,
                    -35.8362922668457,
                    -18.092443466186523,
                    -25.737932205200195,
                    4.851112365722656,
                    -14.00098705291748,
                    6.31368350982666,
                    4.3566131591796875,
                    21.64077377319336,
                    15.460572242736816,
                    -28.245676040649414,
                    -21.110193252563477,
                    13.853007316589355,
                    19.001201629638672,
                    8.3423433303833,
                    27.337507247924805
                ],
                [
                    -20.287355422973633,
                    -5.736518859863281,
                    -4.691713809967041,
                    -19.141075134277344,
                    0.09524420648813248,
                    19.200870513916016,
                    11.336485862731934,
                    7.793917655944824,
                    15.934473991394043,
                    11.30119800567627,
                    2.829591989517212,
                    -17.93719482421875,
                    31.367034912109375,
                    14.759559631347656,
                    34.78700256347656,
                    -18.4711971282959,
                    -11.989487648010254,
                    4.5003838539123535,
                    31.817638397216797,
                    11.41332721710205,
                    -12.292886734008789,
                    13.646337509155273,
                    5.128404140472412
                ],
                [
                    12.300823211669922,
                    -13.999017715454102,
                    20.889509201049805,
                    18.250953674316406,
                    -7.7157697677612305,
                    -33.3427848815918,
                    14.499788284301758,
                    1.5617367029190063,
                    -11.316277503967285,
                    20.389686584472656,
                    3.049494981765747,
                    2.749356508255005,
                    -19.41164207458496,
                    7.021618366241455,
                    -0.26942455768585205,
                    0.36426764726638794,
                    32.175907135009766,
                    36.768917083740234,
                    5.949275493621826,
                    -20.931066513061523,
                    -16.646883010864258,
                    -8.183746337890625,
                    1.2942438125610352
                ]
            ],
            "biases": [
                14.51605224609375,
                -5.744050979614258,
                -12.765542030334473,
                11.694421768188477
            ]
        },
        {
            "weights": [
                [
                    -43.321311950683594,
                    7.062167644500732,
                    -22.301546096801758,
                    -10.968684196472168
                ],
                [
                    -35.66771697998047,
                    -28.60744285583496,
                    3.750293731689453,
                    6.561990261077881
                ],
                [
                    -6.550195693969727,
                    -0.5398769378662109,
                    -9.6520357131958,
                    -11.032309532165527
                ],
                [
                    13.669249534606934,
                    -19.405092239379883,
                    -18.09832191467285,
                    -22.61481475830078
                ],
                [
                    -3.913299322128296,
                    -4.687953948974609,
                    -3.7157371044158936,
                    -2.023266077041626
                ],
                [
                    1.7818284034729004,
                    -19.12097930908203,
                    -21.543914794921875,
                    -22.187788009643555
                ],
                [
                    39.917030334472656,
                    -49.06769943237305,
                    -45.72734069824219,
                    -40.14817810058594
                ],
                [
                    -3.457808494567871,
                    -4.218184947967529,
                    -3.1851561069488525,
                    -2.9300596714019775
                ]
            ],
            "biases": [
                19.53631591796875,
                11.499847412109375,
                3.9046878814697266,
                12.363452911376953,
                -1.5815682411193848,
                22.73226547241211,
                20.270414352416992,
                -1.9124058485031128
            ]
        },
        {
            "weights": [
                [
                    2.7254478931427,
                    10.1995267868042,
                    10.202506065368652,
                    10.701456069946289,
                    1.0048854351043701,
                    -15.815845489501953,
                    6.60768461227417,
                    -0.1329214870929718
                ]
            ],
            "biases": [
                -0.3771512806415558
            ]
        }
    ],
    "inputLookup": null,
    "inputLookupLength": 0,
    "outputLookup": null,
    "outputLookupLength": 0,
    "options": {
        "inputSize": 0,
        "outputSize": 0,
        "binaryThresh": 0.5,
        "hiddenLayers": [
            4,
            8
        ]
    },
    "trainOpts": {
        "activation": "sigmoid",
        "iterations": 20000,
        "errorThresh": 0.005,
        "log": false,
        "logPeriod": 10,
        "leakyReluAlpha": 0.01,
        "learningRate": 0.3,
        "momentum": 0.1,
        "callbackPeriod": 10,
        "timeout": "Infinity",
        "beta1": 0.9,
        "beta2": 0.999,
        "epsilon": 1e-8
    }
}