{
    "type": "NeuralNetwork",
    "sizes": [
        13,
        4,
        8,
        1
    ],
    "layers": [
        {
            "weights": [],
            "biases": []
        },
        {
            "weights": [
                [
                    -11.163924217224121,
                    -0.12431551516056061,
                    13.717986106872559,
                    27.213600158691406,
                    8.99181842803955,
                    12.526126861572266,
                    4.8743791580200195,
                    5.438723564147949,
                    -12.987298011779785,
                    -28.992233276367188,
                    22.05721092224121,
                    -5.606741905212402,
                    7.000751972198486
                ],
                [
                    2.0323381423950195,
                    -9.392168998718262,
                    -9.183613777160645,
                    0.7251076698303223,
                    15.638729095458984,
                    -19.49305534362793,
                    16.24276351928711,
                    14.857625961303711,
                    -0.6769295334815979,
                    -5.7527642250061035,
                    -2.739287853240967,
                    12.227767944335938,
                    14.813347816467285
                ],
                [
                    5.998525619506836,
                    2.504910707473755,
                    7.977123737335205,
                    2.1366705894470215,
                    4.826490879058838,
                    -7.567391395568848,
                    24.2855281829834,
                    10.121977806091309,
                    3.5880579948425293,
                    12.769710540771484,
                    -11.430715560913086,
                    -6.6191725730896,
                    19.366422653198242
                ],
                [
                    0.0763862356543541,
                    20.090024948120117,
                    -2.597914457321167,
                    -31.22321128845215,
                    17.039173126220703,
                    2.5024003982543945,
                    -9.44725513458252,
                    -13.741436004638672,
                    13.604510307312012,
                    42.90361404418945,
                    26.104223251342773,
                    32.96405029296875,
                    0.9890912771224976
                ]
            ],
            "biases": [
                8.726579666137695,
                17.29883575439453,
                -1.8466724157333374,
                -4.212539196014404
            ]
        },
        {
            "weights": [
                [
                    -2.453943967819214,
                    2.7960760593414307,
                    -4.760112762451172,
                    -25.61717414855957
                ],
                [
                    -48.152408599853516,
                    29.89551544189453,
                    -3.749483585357666,
                    -12.837231636047363
                ],
                [
                    -26.12556266784668,
                    -38.84416198730469,
                    4.109850883483887,
                    5.1653151512146
                ],
                [
                    -1.1087419986724854,
                    20.931028366088867,
                    -27.238937377929688,
                    -25.85858726501465
                ],
                [
                    -28.030454635620117,
                    32.58552551269531,
                    -32.57290267944336,
                    -30.970308303833008
                ],
                [
                    22.947858810424805,
                    -37.29289627075195,
                    7.228119850158691,
                    -28.881797790527344
                ],
                [
                    2.3115270137786865,
                    -38.67576217651367,
                    -27.853225708007812,
                    4.18496561050415
                ],
                [
                    -0.146938756108284,
                    2.433199644088745,
                    -5.690032958984375,
                    -25.04098892211914
                ]
            ],
            "biases": [
                2.9122679233551025,
                -11.584857940673828,
                5.988691806793213,
                4.012075901031494,
                23.456514358520508,
                -1.8710944652557373,
                4.900389671325684,
                1.7486919164657593
            ]
        },
        {
            "weights": [
                [
                    1.1126654148101807,
                    0.8965657949447632,
                    15.468629837036133,
                    4.461902141571045,
                    14.73865032196045,
                    2.174173593521118,
                    2.362384557723999,
                    1.181688904762268
                ]
            ],
            "biases": [
                -0.3344096541404724
            ]
        }
    ],
    "inputLookup": null,
    "inputLookupLength": 0,
    "outputLookup": null,
    "outputLookupLength": 0,
    "options": {
        "inputSize": 0,
        "outputSize": 0,
        "binaryThresh": 0.5,
        "hiddenLayers": [
            4,
            8
        ]
    },
    "trainOpts": {
        "activation": "sigmoid",
        "iterations": 20000,
        "errorThresh": 0.005,
        "log": false,
        "logPeriod": 10,
        "leakyReluAlpha": 0.01,
        "learningRate": 0.3,
        "momentum": 0.1,
        "callbackPeriod": 10,
        "timeout": "Infinity",
        "beta1": 0.9,
        "beta2": 0.999,
        "epsilon": 1e-8
    }
}