{
    "type": "NeuralNetwork",
    "sizes": [
        19,
        4,
        8,
        1
    ],
    "layers": [
        {
            "weights": [],
            "biases": []
        },
        {
            "weights": [
                [
                    7.828221321105957,
                    7.318174362182617,
                    -44.28744125366211,
                    36.75972366333008,
                    -15.53643798828125,
                    -28.16399574279785,
                    -19.52655792236328,
                    -24.50834846496582,
                    9.536432266235352,
                    -4.354490756988525,
                    27.18210220336914,
                    19.501953125,
                    31.24934959411621,
                    -2.121863603591919,
                    -21.82354164123535,
                    31.93354606628418,
                    8.038159370422363,
                    5.764279365539551,
                    16.260211944580078
                ],
                [
                    -13.925507545471191,
                    1.877661943435669,
                    24.523921966552734,
                    -4.604568958282471,
                    3.751338005065918,
                    9.307188034057617,
                    -0.8100324869155884,
                    -5.13385009765625,
                    7.892341136932373,
                    26.14377212524414,
                    -1.686658501625061,
                    10.85167121887207,
                    -0.28280937671661377,
                    17.877317428588867,
                    -6.021073818206787,
                    -14.946769714355469,
                    13.363226890563965,
                    -3.5114927291870117,
                    2.8125417232513428
                ],
                [
                    24.825824737548828,
                    1.1055434942245483,
                    16.544992446899414,
                    -6.819375038146973,
                    -7.8211236000061035,
                    0.6761898398399353,
                    4.521205902099609,
                    -0.8385592103004456,
                    2.972836494445801,
                    4.977069854736328,
                    8.468456268310547,
                    -0.866613507270813,
                    14.839799880981445,
                    4.138762950897217,
                    21.607975006103516,
                    6.3220109939575195,
                    -19.045944213867188,
                    2.6128432750701904,
                    12.416340827941895
                ],
                [
                    9.018272399902344,
                    -10.036116600036621,
                    -15.932732582092285,
                    12.594406127929688,
                    0.8887306451797485,
                    24.86884880065918,
                    8.124342918395996,
                    28.689838409423828,
                    -13.322704315185547,
                    2.962841033935547,
                    -4.484444618225098,
                    -24.007471084594727,
                    -11.557031631469727,
                    -23.174823760986328,
                    27.08662223815918,
                    4.981909275054932,
                    -22.325693130493164,
                    10.9175443649292,
                    -10.708352088928223
                ]
            ],
            "biases": [
                -24.84824562072754,
                -7.546212196350098,
                0.02164323255419731,
                -18.402070999145508
            ]
        },
        {
            "weights": [
                [
                    -60.346988677978516,
                    -67.72117614746094,
                    19.60561180114746,
                    -56.102439880371094
                ],
                [
                    -18.874778747558594,
                    -7.2856292724609375,
                    7.534501552581787,
                    -24.53439712524414
                ],
                [
                    -19.404090881347656,
                    -6.613144397735596,
                    8.814299583435059,
                    -24.734325408935547
                ],
                [
                    -0.4164559245109558,
                    -16.269508361816406,
                    -36.56814193725586,
                    -8.388463973999023
                ],
                [
                    -23.424379348754883,
                    10.510321617126465,
                    -36.613006591796875,
                    -19.942956924438477
                ],
                [
                    -19.379436492919922,
                    -6.736061096191406,
                    8.675414085388184,
                    -24.79143524169922
                ],
                [
                    -19.48246192932129,
                    -6.886218547821045,
                    8.927837371826172,
                    -25.16090965270996
                ],
                [
                    -19.379737854003906,
                    -6.954211711883545,
                    8.657833099365234,
                    -25.03410530090332
                ]
            ],
            "biases": [
                45.970516204833984,
                -2.9206933975219727,
                -4.789870738983154,
                18.57282066345215,
                6.782864093780518,
                -4.5322442054748535,
                -4.605081081390381,
                -4.287463665008545
            ]
        },
        {
            "weights": [
                [
                    1.818515419960022,
                    2.466099500656128,
                    2.3698582649230957,
                    15.560842514038086,
                    14.240623474121094,
                    2.3755946159362793,
                    2.353882312774658,
                    2.374704360961914
                ]
            ],
            "biases": [
                -0.6465809345245361
            ]
        }
    ],
    "inputLookup": null,
    "inputLookupLength": 0,
    "outputLookup": null,
    "outputLookupLength": 0,
    "options": {
        "inputSize": 0,
        "outputSize": 0,
        "binaryThresh": 0.5,
        "hiddenLayers": [
            4,
            8
        ]
    },
    "trainOpts": {
        "activation": "sigmoid",
        "iterations": 20000,
        "errorThresh": 0.005,
        "log": false,
        "logPeriod": 10,
        "leakyReluAlpha": 0.01,
        "learningRate": 0.3,
        "momentum": 0.1,
        "callbackPeriod": 10,
        "timeout": "Infinity",
        "beta1": 0.9,
        "beta2": 0.999,
        "epsilon": 1e-8
    }
}