{
    "type": "NeuralNetwork",
    "sizes": [
        5,
        4,
        8,
        1
    ],
    "layers": [
        {
            "weights": [],
            "biases": []
        },
        {
            "weights": [
                [
                    0.8912630081176758,
                    -2.8512792587280273,
                    3.765089273452759,
                    -2.694441795349121,
                    3.8466973304748535
                ],
                [
                    -7.170742988586426,
                    5.401283264160156,
                    12.6500825881958,
                    -0.9539785385131836,
                    11.914613723754883
                ],
                [
                    0.6657894849777222,
                    0.07463137060403824,
                    2.5787525177001953,
                    0.7054430246353149,
                    2.6382763385772705
                ],
                [
                    -4.794590473175049,
                    2.7241437435150146,
                    7.403711795806885,
                    -1.604777216911316,
                    6.690295219421387
                ]
            ],
            "biases": [
                -0.016668841242790222,
                -2.349419593811035,
                3.4416160583496094,
                -0.2863074839115143
            ]
        },
        {
            "weights": [
                [
                    -0.9898478984832764,
                    -5.532958507537842,
                    -1.7514060735702515,
                    -1.8267936706542969
                ],
                [
                    -1.414759874343872,
                    -5.744720458984375,
                    -1.5040346384048462,
                    -1.1760504245758057
                ],
                [
                    -1.1575242280960083,
                    -5.083381652832031,
                    -1.568220615386963,
                    -2.184476613998413
                ],
                [
                    -1.0360183715820312,
                    -5.561819076538086,
                    -1.609521746635437,
                    -1.761092185974121
                ],
                [
                    -1.1623272895812988,
                    -5.628311634063721,
                    -1.566346526145935,
                    -1.5749871730804443
                ],
                [
                    -1.166416883468628,
                    -5.201039791107178,
                    -1.6961174011230469,
                    -2.031269073486328
                ],
                [
                    -1.1910954713821411,
                    -5.721139907836914,
                    -1.4714381694793701,
                    -1.4493573904037476
                ],
                [
                    -1.460707187652588,
                    -5.763486385345459,
                    -1.6863118410110474,
                    -1.0959761142730713
                ]
            ],
            "biases": [
                -2.5168211460113525,
                -2.7883260250091553,
                -2.705587148666382,
                -2.6755101680755615,
                -2.728759765625,
                -2.58070707321167,
                -2.818247079849243,
                -2.608133554458618
            ]
        },
        {
            "weights": [
                [
                    2.4829421043395996,
                    2.5330779552459717,
                    2.542036771774292,
                    2.538550615310669,
                    2.5638010501861572,
                    2.5319712162017822,
                    2.5497593879699707,
                    2.524853229522705
                ]
            ],
            "biases": [
                -0.2444199174642563
            ]
        }
    ],
    "inputLookup": null,
    "inputLookupLength": 0,
    "outputLookup": null,
    "outputLookupLength": 0,
    "options": {
        "inputSize": 0,
        "outputSize": 0,
        "binaryThresh": 0.5,
        "hiddenLayers": [
            4,
            8
        ]
    },
    "trainOpts": {
        "activation": "sigmoid",
        "iterations": 20000,
        "errorThresh": 0.005,
        "log": false,
        "logPeriod": 10,
        "leakyReluAlpha": 0.01,
        "learningRate": 0.3,
        "momentum": 0.1,
        "callbackPeriod": 10,
        "timeout": "Infinity",
        "beta1": 0.9,
        "beta2": 0.999,
        "epsilon": 1e-8
    }
}