{
    "type": "NeuralNetwork",
    "sizes": [
        2,
        30,
        30,
        1
    ],
    "layers": [
        {
            "weights": [],
            "biases": []
        },
        {
            "weights": [
                [
                    0.26973408460617065,
                    0.09460991621017456
                ],
                [
                    -0.22655566036701202,
                    0.17167973518371582
                ],
                [
                    -0.8797789812088013,
                    0.048478756099939346
                ],
                [
                    -0.39121511578559875,
                    -0.15297037363052368
                ],
                [
                    0.6956158876419067,
                    -0.10287151485681534
                ],
                [
                    1.2026360034942627,
                    -0.017756616696715355
                ],
                [
                    0.5623049736022949,
                    -0.09346481412649155
                ],
                [
                    1.191129446029663,
                    -0.1542113870382309
                ],
                [
                    -0.7341100573539734,
                    -0.11214064806699753
                ],
                [
                    0.7113193869590759,
                    -0.04830228537321091
                ],
                [
                    -0.7474335432052612,
                    0.0628538578748703
                ],
                [
                    0.09188410639762878,
                    0.17794065177440643
                ],
                [
                    1.2685155868530273,
                    -0.12725770473480225
                ],
                [
                    0.32353129982948303,
                    -0.19132506847381592
                ],
                [
                    -0.12273599952459335,
                    -0.19770213961601257
                ],
                [
                    -0.6876075863838196,
                    0.03526638075709343
                ],
                [
                    -0.33413028717041016,
                    0.06442072987556458
                ],
                [
                    1.4141782522201538,
                    0.0821528360247612
                ],
                [
                    0.11952054500579834,
                    -0.16863325238227844
                ],
                [
                    -0.398551881313324,
                    0.16347788274288177
                ],
                [
                    1.1731542348861694,
                    -0.174882173538208
                ],
                [
                    -0.3285355269908905,
                    -0.0029898700304329395
                ],
                [
                    -0.2746073007583618,
                    0.14905071258544922
                ],
                [
                    0.9612566232681274,
                    -0.08489378541707993
                ],
                [
                    0.40558290481567383,
                    -0.07983683794736862
                ],
                [
                    -1.57414710521698,
                    0.030612746253609657
                ],
                [
                    -1.5528995990753174,
                    -0.19597852230072021
                ],
                [
                    1.1255093812942505,
                    -0.1125454530119896
                ],
                [
                    1.032509446144104,
                    -0.08928819745779037
                ],
                [
                    -0.21132071316242218,
                    0.031414344906806946
                ]
            ],
            "biases": [
                0.009022140875458717,
                0.07792647182941437,
                0.20846688747406006,
                -0.01207728497684002,
                0.02154240757226944,
                -0.18144090473651886,
                -0.008416443131864071,
                -0.10013548284769058,
                0.09243322908878326,
                -0.08919700980186462,
                0.14214496314525604,
                0.08327917754650116,
                -0.23433427512645721,
                0.1382715404033661,
                -0.1639409065246582,
                0.04324768856167793,
                0.11420541256666183,
                -0.1491144895553589,
                0.07234753668308258,
                0.14317452907562256,
                -0.027468139305710793,
                0.09820955991744995,
                0.13228201866149902,
                -0.10150030255317688,
                0.1354469358921051,
                0.3240540623664856,
                0.2719224989414215,
                -0.31046393513679504,
                -0.14265881478786469,
                0.11092371493577957
            ]
        },
        {
            "weights": [
                [
                    -0.10661495476961136,
                    0.060534972697496414,
                    -0.17536045610904694,
                    -0.14098915457725525,
                    0.1582302749156952,
                    0.0610763356089592,
                    -0.13994020223617554,
                    0.01667843386530876,
                    0.03645539656281471,
                    -0.05176334083080292,
                    -0.2494274079799652,
                    -0.013191581703722477,
                    0.24090121686458588,
                    0.019128020852804184,
                    -0.09830872714519501,
                    0.03334127366542816,
                    -0.15754444897174835,
                    0.04366292059421539,
                    -0.12323117256164551,
                    -0.1542239636182785,
                    0.130672886967659,
                    -0.16476252675056458,
                    0.07398588210344315,
                    0.19600655138492584,
                    0.12238102406263351,
                    -0.23001669347286224,
                    -0.3356303870677948,
                    0.07075971364974976,
                    0.2727937698364258,
                    -0.18108461797237396
                ],
                [
                    -0.013442451134324074,
                    -0.038676850497722626,
                    -0.5912178754806519,
                    -0.13752618432044983,
                    0.16838155686855316,
                    0.4551173746585846,
                    0.17873772978782654,
                    0.40108463168144226,
                    -0.29022085666656494,
                    0.3436658978462219,
                    -0.5705716609954834,
                    -0.12642624974250793,
                    0.40404626727104187,
                    0.04570681229233742,
                    -0.014651010744273663,
                    -0.2335159331560135,
                    -0.27326077222824097,
                    0.4607263505458832,
                    -0.13677172362804413,
                    -0.35080215334892273,
                    0.5182895064353943,
                    -0.29680922627449036,
                    -0.2371569722890854,
                    0.4472726881504059,
                    0.1273135542869568,
                    -0.8888391256332397,
                    -0.6969010829925537,
                    0.30299896001815796,
                    0.3001297116279602,
                    -0.004865949507802725
                ],
                [
                    -0.11451990902423859,
                    0.18499799072742462,
                    0.10412096232175827,
                    0.14682064950466156,
                    -0.03594288229942322,
                    -0.31073659658432007,
                    -0.15854890644550323,
                    -0.2936381697654724,
                    0.2804795503616333,
                    -0.16322609782218933,
                    0.11910129338502884,
                    -0.20286807417869568,
                    -0.2824857831001282,
                    -0.14054833352565765,
                    0.03376566618680954,
                    -0.003179966239258647,
                    0.03294975683093071,
                    -0.10906709730625153,
                    -0.0688377320766449,
                    -0.009150007739663124,
                    -0.12288697808980942,
                    0.04951582849025726,
                    -0.04642279073596001,
                    -0.22707295417785645,
                    -0.13162468373775482,
                    0.30257663130760193,
                    0.4143187403678894,
                    -0.1042504832148552,
                    -0.04804809018969536,
                    0.19015610218048096
                ],
                [
                    -0.16335758566856384,
                    0.2924497723579407,
                    0.6231179237365723,
                    0.09584032744169235,
                    -0.26117071509361267,
                    -0.39705410599708557,
                    -0.27215829491615295,
                    -0.5073782205581665,
                    0.4945303201675415,
                    -0.16425961256027222,
                    0.3687991797924042,
                    0.11827106028795242,
                    -0.6178537607192993,
                    -0.1302824467420578,
                    0.08010067790746689,
                    0.6045602560043335,
                    0.18878526985645294,
                    -0.691081702709198,
                    -0.05156313255429268,
                    0.3255126476287842,
                    -0.5470830202102661,
                    0.09704779088497162,
                    0.3647967278957367,
                    -0.20881229639053345,
                    -0.1864781677722931,
                    0.8797474503517151,
                    0.9660704731941223,
                    -0.5897465944290161,
                    -0.37823745608329773,
                    0.1936691403388977
                ],
                [
                    -0.01451584231108427,
                    0.09273367375135422,
                    0.09891226142644882,
                    0.15244682133197784,
                    -0.3022705614566803,
                    -0.2087337225675583,
                    0.0013139673974364996,
                    -0.35044538974761963,
                    0.2140531986951828,
                    0.03386872261762619,
                    -0.13704389333724976,
                    -0.026107842102646828,
                    -0.042773615568876266,
                    -0.0159528236836195,
                    0.05544034391641617,
                    -0.1485317498445511,
                    0.11961354315280914,
                    -0.04514698684215546,
                    -0.19234685599803925,
                    0.1257103681564331,
                    -0.05033975467085838,
                    -0.07883159071207047,
                    0.11803258210420609,
                    -0.2889595329761505,
                    -0.16718581318855286,
                    0.3001447021961212,
                    0.2983661890029907,
                    -0.1890013962984085,
                    -0.15035909414291382,
                    0.0291103757917881
                ],
                [
                    -0.1267608255147934,
                    0.08374447375535965,
                    0.09322088211774826,
                    -0.027549853548407555,
                    0.0825544074177742,
                    -0.28841766715049744,
                    0.08125674724578857,
                    -0.20398811995983124,
                    -0.1378728300333023,
                    -0.07122210413217545,
                    0.09526088833808899,
                    -0.15901170670986176,
                    -0.014143352396786213,
                    0.13034756481647491,
                    0.01778506487607956,
                    0.06610140204429626,
                    0.05688301846385002,
                    -0.19484177231788635,
                    -0.07446397095918655,
                    -0.047907959669828415,
                    -0.301918089389801,
                    -0.07612886279821396,
                    -0.08576899021863937,
                    -0.24098840355873108,
                    -0.232984721660614,
                    0.012041800655424595,
                    -0.03200821205973625,
                    -0.1295510232448578,
                    -0.15894106030464172,
                    -0.034067682921886444
                ],
                [
                    -0.1429680585861206,
                    -0.1358284056186676,
                    -0.06296208500862122,
                    -0.014753459021449089,
                    -0.003926372621208429,
                    -0.2601810097694397,
                    -0.2465081661939621,
                    -0.10237399488687515,
                    -0.08673342317342758,
                    -0.21688713133335114,
                    0.11521663516759872,
                    -0.25433453917503357,
                    0.07810106873512268,
                    0.05167686194181442,
                    -0.07906250655651093,
                    0.13808779418468475,
                    -0.13597075641155243,
                    -0.0980953723192215,
                    -0.13766394555568695,
                    -0.09514119476079941,
                    -0.1202813982963562,
                    -0.10071433335542679,
                    -0.1253703385591507,
                    -0.25025674700737,
                    0.07585354149341583,
                    0.09611474722623825,
                    0.20618125796318054,
                    0.08454999327659607,
                    0.08652156591415405,
                    -0.053749434649944305
                ],
                [
                    -0.04576348885893822,
                    -0.14629392325878143,
                    -0.23468421399593353,
                    -0.1368626356124878,
                    0.006935740355402231,
                    0.10241637378931046,
                    0.08530764281749725,
                    -0.22178329527378082,
                    -0.02594907023012638,
                    -0.011774756014347076,
                    0.01189243234694004,
                    0.013776752166450024,
                    -0.15482185781002045,
                    0.10980530083179474,
                    0.1039869636297226,
                    -0.2499190717935562,
                    0.032541003078222275,
                    -0.15194886922836304,
                    -0.07319767773151398,
                    0.04564642533659935,
                    0.0895514115691185,
                    0.09863007813692093,
                    -0.0681547075510025,
                    -0.06211133301258087,
                    -0.09556398540735245,
                    0.06745094805955887,
                    0.023662107065320015,
                    -0.22126072645187378,
                    0.1354604959487915,
                    -0.13045042753219604
                ],
                [
                    -0.06583420932292938,
                    0.04013878479599953,
                    0.07508092373609543,
                    0.2574506402015686,
                    -0.2869068682193756,
                    -0.24128298461437225,
                    -0.007032113149762154,
                    -0.3429678678512573,
                    0.20911873877048492,
                    -0.18664537370204926,
                    0.050067197531461716,
                    -0.05387585982680321,
                    -0.15781664848327637,
                    0.1456240862607956,
                    -0.13670343160629272,
                    0.014205391518771648,
                    0.21718674898147583,
                    -0.2825371026992798,
                    0.07484147697687149,
                    -0.06061357632279396,
                    -0.14000003039836884,
                    0.11027339845895767,
                    0.07574408501386642,
                    -0.043449096381664276,
                    -0.24243225157260895,
                    0.42102527618408203,
                    0.28217703104019165,
                    -0.29030656814575195,
                    -0.31964483857154846,
                    0.14998210966587067
                ],
                [
                    -0.10890839993953705,
                    0.07548671215772629,
                    -0.08396203815937042,
                    0.18024994432926178,
                    -0.1626858413219452,
                    0.010136780329048634,
                    -0.005206780042499304,
                    -0.3229995667934418,
                    -0.10631813853979111,
                    -0.20442411303520203,
                    -0.01863144338130951,
                    0.03627700358629227,
                    -0.06986528635025024,
                    -0.04172564297914505,
                    -0.20558567345142365,
                    -0.018483268097043037,
                    -0.20493465662002563,
                    -0.02231823094189167,
                    0.012786614708602428,
                    -0.10963533818721771,
                    -0.23454608023166656,
                    -0.13669253885746002,
                    -0.19092829525470734,
                    -0.021161632612347603,
                    -0.16584140062332153,
                    -0.08352327346801758,
                    0.0866505354642868,
                    -0.1912926733493805,
                    -0.014820661395788193,
                    0.1308474838733673
                ],
                [
                    -0.043526288121938705,
                    0.13043320178985596,
                    -0.2111269235610962,
                    0.03490550443530083,
                    -0.16233724355697632,
                    -0.14932583272457123,
                    0.09624451398849487,
                    0.07309368997812271,
                    -0.05850924178957939,
                    0.09443048387765884,
                    0.023189982399344444,
                    0.06632662564516068,
                    -0.13714911043643951,
                    -0.005658529233187437,
                    0.05729803442955017,
                    -0.0519862100481987,
                    0.08946343511343002,
                    -0.2512859106063843,
                    0.09694479405879974,
                    0.02393670380115509,
                    -0.29822611808776855,
                    -0.007294601295143366,
                    -0.017125055193901062,
                    -0.19622763991355896,
                    -0.2633959949016571,
                    -0.03731434792280197,
                    -0.202483668923378,
                    0.02217317558825016,
                    -0.28453636169433594,
                    -0.0004563917173072696
                ],
                [
                    -0.044130366295576096,
                    -0.14732643961906433,
                    -0.2617000341415405,
                    -0.1268918514251709,
                    0.08145412802696228,
                    0.43288514018058777,
                    0.13100740313529968,
                    0.45209819078445435,
                    -0.4282698929309845,
                    0.25113749504089355,
                    -0.4698367714881897,
                    -0.04600953683257103,
                    0.3315843641757965,
                    -0.1243995949625969,
                    -0.2073737233877182,
                    -0.2326733022928238,
                    -0.029450548812747,
                    0.565864622592926,
                    -0.10627686232328415,
                    -0.058286599814891815,
                    0.31564924120903015,
                    -0.12939509749412537,
                    -0.16839943826198578,
                    0.07685551047325134,
                    0.12725088000297546,
                    -0.7677637934684753,
                    -0.7160736322402954,
                    0.41144660115242004,
                    0.46264535188674927,
                    -0.3100489675998688
                ],
                [
                    0.15060746669769287,
                    0.03798661753535271,
                    -0.2789722681045532,
                    -0.19859392940998077,
                    0.14413437247276306,
                    0.32990697026252747,
                    0.2737240195274353,
                    0.0739755630493164,
                    -0.13939501345157623,
                    -0.05235975980758667,
                    -0.2858599126338959,
                    0.02261829748749733,
                    0.3556888699531555,
                    0.08490510284900665,
                    -0.2381725311279297,
                    -0.10949505120515823,
                    -0.050671983510255814,
                    0.2788645625114441,
                    -0.05185631662607193,
                    -0.21431222558021545,
                    0.29779717326164246,
                    -0.25650954246520996,
                    -0.11897111684083939,
                    0.31325623393058777,
                    -0.03087572194635868,
                    -0.27503475546836853,
                    -0.3589877188205719,
                    0.21786817908287048,
                    0.26357948780059814,
                    0.0930168479681015
                ],
                [
                    0.060929205268621445,
                    0.10863655060529709,
                    0.3003595769405365,
                    0.27224740386009216,
                    -0.05046472325921059,
                    -0.234105184674263,
                    0.06233346089720726,
                    -0.21929435431957245,
                    0.21834269165992737,
                    0.022032547742128372,
                    -0.010562000796198845,
                    0.010490844026207924,
                    -0.3858221173286438,
                    0.025885140523314476,
                    0.08447737246751785,
                    0.22650031745433807,
                    0.06823581457138062,
                    -0.35197028517723083,
                    -0.1875995546579361,
                    -0.022002162411808968,
                    -0.14990119636058807,
                    -0.08970483392477036,
                    -0.06588263809680939,
                    -0.292140930891037,
                    -0.013579429127275944,
                    0.2884560525417328,
                    0.3602871894836426,
                    -0.3790171444416046,
                    -0.18760627508163452,
                    -0.013806995935738087
                ],
                [
                    -0.009767844341695309,
                    0.11382710188627243,
                    0.16630282998085022,
                    -0.06149671971797943,
                    -0.29362621903419495,
                    -0.33341920375823975,
                    0.01931602507829666,
                    -0.29098695516586304,
                    -0.016375748440623283,
                    -0.15322761237621307,
                    -0.08741378784179688,
                    -0.24148759245872498,
                    -0.08262686431407928,
                    -0.11521321535110474,
                    -0.014886111952364445,
                    0.17930574715137482,
                    -0.042473580688238144,
                    -0.20939725637435913,
                    0.05094281956553459,
                    -0.12707987427711487,
                    -0.023250022903084755,
                    0.11132630705833435,
                    -0.18838901817798615,
                    -0.07675004005432129,
                    -0.09948420524597168,
                    0.26065945625305176,
                    0.12072711437940598,
                    -0.012838452123105526,
                    -0.017487680539488792,
                    -0.13409234583377838
                ],
                [
                    -0.18784020841121674,
                    -0.0018549419473856688,
                    0.025670574977993965,
                    0.07893317192792892,
                    -0.027769461274147034,
                    0.2049330174922943,
                    -0.1995183825492859,
                    0.18500356376171112,
                    0.038173921406269073,
                    0.13406576216220856,
                    -0.2279409021139145,
                    -0.22232183814048767,
                    -0.12125808745622635,
                    -0.024895912036299706,
                    0.13044147193431854,
                    -0.05804850533604622,
                    -0.023770127445459366,
                    0.15937799215316772,
                    0.020103711634874344,
                    -0.124108225107193,
                    0.11665558815002441,
                    -0.2173752784729004,
                    -0.1562086045742035,
                    -0.0273018479347229,
                    -0.10473422706127167,
                    -0.1401631087064743,
                    -0.14131715893745422,
                    0.08676254749298096,
                    0.0679306760430336,
                    -0.20658078789710999
                ],
                [
                    0.0850393995642662,
                    0.21534483134746552,
                    0.32900428771972656,
                    -0.030912747606635094,
                    -0.02782193012535572,
                    -0.4235062897205353,
                    -0.06059041619300842,
                    -0.04700840264558792,
                    0.2929011881351471,
                    -0.1545102745294571,
                    0.04877713695168495,
                    -0.1431555151939392,
                    -0.35221582651138306,
                    -0.2049628347158432,
                    0.1315743327140808,
                    0.3330337107181549,
                    0.1491849720478058,
                    -0.46144694089889526,
                    0.004332810174673796,
                    0.26868951320648193,
                    -0.048947278410196304,
                    0.24296477437019348,
                    0.2161681056022644,
                    -0.27331873774528503,
                    -0.02546808496117592,
                    0.37272557616233826,
                    0.33774301409721375,
                    -0.36437249183654785,
                    -0.33842968940734863,
                    -0.11085464060306549
                ],
                [
                    0.14124836027622223,
                    -0.17547671496868134,
                    -0.22036561369895935,
                    0.02252998948097229,
                    0.20977699756622314,
                    0.2331826388835907,
                    -0.018756207078695297,
                    0.2507290542125702,
                    -0.06728478521108627,
                    0.04694550111889839,
                    -0.11339952796697617,
                    -0.07597973197698593,
                    0.1869862824678421,
                    0.16690999269485474,
                    -0.2014828473329544,
                    -0.16947752237319946,
                    -0.2652904689311981,
                    0.15361769497394562,
                    0.04116999730467796,
                    -0.039971690624952316,
                    -0.07051417231559753,
                    -0.2591874897480011,
                    -0.16559675335884094,
                    0.041682902723550797,
                    0.11046632379293442,
                    -0.03565957769751549,
                    -0.13704384863376617,
                    -0.05132247880101204,
                    0.11437483131885529,
                    -0.22003091871738434
                ],
                [
                    -0.10935243964195251,
                    0.12846852838993073,
                    -0.0031157336197793484,
                    0.09850506484508514,
                    -0.18332503736019135,
                    0.06955022364854813,
                    0.1382931023836136,
                    -0.07292694598436356,
                    0.07831798493862152,
                    0.11727563291788101,
                    0.04725640267133713,
                    -0.20046955347061157,
                    -0.09006288647651672,
                    0.07393548637628555,
                    0.05549927055835724,
                    -0.2247791737318039,
                    -0.17075003683567047,
                    -0.15415778756141663,
                    -0.05179506912827492,
                    -0.06913447380065918,
                    -0.056173112243413925,
                    0.03898170590400696,
                    0.06644295156002045,
                    0.044122740626335144,
                    -0.10880454629659653,
                    -0.17772644758224487,
                    -0.31489527225494385,
                    0.1657009720802307,
                    0.17238405346870422,
                    -0.12909287214279175
                ],
                [
                    0.09957689791917801,
                    0.047941163182258606,
                    0.07637382298707962,
                    0.16263261437416077,
                    -0.18289460241794586,
                    -0.057192735373973846,
                    -0.12195604294538498,
                    -0.07391542196273804,
                    -0.05774284899234772,
                    -0.051772624254226685,
                    -0.0036510948557406664,
                    0.01739978976547718,
                    -0.3386438488960266,
                    0.08064022660255432,
                    -0.22534868121147156,
                    -0.09384292364120483,
                    -0.08213456720113754,
                    -0.04373416677117348,
                    0.043472614139318466,
                    0.14630535244941711,
                    -0.2608356773853302,
                    0.13148754835128784,
                    -0.2350504845380783,
                    0.003940288443118334,
                    -0.2390764057636261,
                    0.09795812517404556,
                    0.07577119022607803,
                    -0.165571391582489,
                    -0.23966671526432037,
                    -0.057323604822158813
                ],
                [
                    0.043167803436517715,
                    -0.021667804569005966,
                    0.12918749451637268,
                    0.027441950514912605,
                    -0.26457861065864563,
                    -0.08398270606994629,
                    0.09337553381919861,
                    0.0342288613319397,
                    -0.04037269949913025,
                    -0.03978990390896797,
                    -0.08539549261331558,
                    -0.04488001763820648,
                    -0.21343059837818146,
                    0.017446408048272133,
                    -0.12862208485603333,
                    0.06845366209745407,
                    -0.23674559593200684,
                    -0.08832123130559921,
                    -0.19027478992938995,
                    -0.17208154499530792,
                    -0.15500836074352264,
                    0.03851838782429695,
                    -0.22833271324634552,
                    -0.28172025084495544,
                    -0.11203911900520325,
                    -0.12827059626579285,
                    -0.10512440651655197,
                    -0.2628852427005768,
                    0.04925978556275368,
                    0.05850987136363983
                ],
                [
                    0.10897593200206757,
                    -0.12211723625659943,
                    -0.06310657411813736,
                    -0.1677253693342209,
                    0.027564141899347305,
                    -0.2666444182395935,
                    -0.08066068589687347,
                    -0.2294313758611679,
                    -0.19810974597930908,
                    -0.18540239334106445,
                    -0.16282424330711365,
                    0.00036119509604759514,
                    0.03559013083577156,
                    -0.08853951096534729,
                    -0.18700957298278809,
                    -0.030743999406695366,
                    0.08544773608446121,
                    -0.24726271629333496,
                    -0.06088092178106308,
                    -0.047740206122398376,
                    0.04865669831633568,
                    0.03575751557946205,
                    0.16281577944755554,
                    -0.277811735868454,
                    -0.23031550645828247,
                    -0.03732609003782272,
                    0.03971678391098976,
                    -0.05230651795864105,
                    -0.11910826712846756,
                    -0.06300441175699234
                ],
                [
                    0.024661418050527573,
                    -0.1038917526602745,
                    -0.2159067988395691,
                    -0.15682688355445862,
                    -0.05684955045580864,
                    0.07699403166770935,
                    0.01239914819598198,
                    -0.1764117330312729,
                    0.0009907676139846444,
                    -0.11553145945072174,
                    -0.18257306516170502,
                    0.07242316752672195,
                    -0.06360224634408951,
                    -0.028964480385184288,
                    -0.07722390443086624,
                    -0.029616618528962135,
                    0.11272388696670532,
                    -0.10859715193510056,
                    0.05176335573196411,
                    -0.03812213987112045,
                    -0.0635254979133606,
                    0.006744074169546366,
                    0.11648325622081757,
                    -0.14252761006355286,
                    0.010758256539702415,
                    0.10718228667974472,
                    -0.0624418668448925,
                    -0.06585316359996796,
                    -0.1666775643825531,
                    -0.2531096041202545
                ],
                [
                    -0.17883266508579254,
                    -0.06716520339250565,
                    0.03736623004078865,
                    -0.2566426992416382,
                    0.07718998193740845,
                    0.019730977714061737,
                    -0.22176863253116608,
                    0.12778764963150024,
                    -0.13193336129188538,
                    -0.0012351426994428039,
                    0.08073907345533371,
                    -0.0395863875746727,
                    0.03314044326543808,
                    -0.19560785591602325,
                    -0.19857001304626465,
                    -0.18359076976776123,
                    -0.12033476680517197,
                    0.172227680683136,
                    -0.021342720836400986,
                    -0.07283013314008713,
                    -0.11426611244678497,
                    -0.033426184207201004,
                    -0.0448501780629158,
                    0.005173171870410442,
                    -0.2013121396303177,
                    0.06657948344945908,
                    -0.13507691025733948,
                    0.11275521665811539,
                    -0.1580011397600174,
                    -0.0474882572889328
                ],
                [
                    -0.17286260426044464,
                    -0.2508368492126465,
                    0.09429609775543213,
                    -0.14701814949512482,
                    -0.18466824293136597,
                    0.08675798028707504,
                    -0.25052714347839355,
                    -0.009894419461488724,
                    0.06314678490161896,
                    0.028993552550673485,
                    0.04350622370839119,
                    -0.20954182744026184,
                    0.014286883175373077,
                    -0.1461227536201477,
                    -0.1391172856092453,
                    -0.049747712910175323,
                    0.07917003333568573,
                    0.06633008271455765,
                    -0.11196395754814148,
                    0.019591592252254486,
                    -0.27322280406951904,
                    0.03748729079961777,
                    0.12109042704105377,
                    -0.04457484185695648,
                    -0.12038696557283401,
                    -0.2271200269460678,
                    0.11659488826990128,
                    0.03843904286623001,
                    0.00982956774532795,
                    -0.14297637343406677
                ],
                [
                    -0.14509136974811554,
                    -0.05885866656899452,
                    -0.07713335752487183,
                    0.10455165058374405,
                    -0.13520775735378265,
                    -0.0007072763401083648,
                    0.0830574631690979,
                    0.030066898092627525,
                    -0.22557729482650757,
                    -0.02218298614025116,
                    -0.21948349475860596,
                    0.030088571831583977,
                    0.07917065173387527,
                    0.011114737018942833,
                    -0.011126969009637833,
                    -0.2013692557811737,
                    0.021178582683205605,
                    -0.2606227695941925,
                    0.0038612999487668276,
                    -0.06911689788103104,
                    -0.2533762753009796,
                    0.010411371476948261,
                    0.0057021635584533215,
                    -0.06913314014673233,
                    0.11051928997039795,
                    -0.07527785003185272,
                    0.09647461026906967,
                    -0.05332958698272705,
                    0.12077413499355316,
                    -0.1539982408285141
                ],
                [
                    -0.22444184124469757,
                    0.1630796492099762,
                    0.05357983335852623,
                    0.2689177989959717,
                    -0.13724137842655182,
                    -0.10416531562805176,
                    -0.026114054024219513,
                    -0.33486244082450867,
                    0.10003640502691269,
                    -0.1890093833208084,
                    0.3915567100048065,
                    0.1600913405418396,
                    -0.4398130178451538,
                    -0.18732205033302307,
                    0.12987692654132843,
                    0.15705442428588867,
                    0.22344939410686493,
                    -0.3644189238548279,
                    -0.0925263985991478,
                    0.022735916078090668,
                    -0.3890056908130646,
                    0.12990900874137878,
                    0.15232786536216736,
                    -0.11319618672132492,
                    0.04983765259385109,
                    0.5991365909576416,
                    0.4989183247089386,
                    -0.10045075416564941,
                    -0.2466544508934021,
                    0.01374903041869402
                ],
                [
                    -0.10026336461305618,
                    0.062155093997716904,
                    -0.198567733168602,
                    -0.25403621792793274,
                    0.16152967512607574,
                    0.29788938164711,
                    0.2631094455718994,
                    0.3596985638141632,
                    -0.4369851350784302,
                    0.11125367134809494,
                    -0.14634613692760468,
                    0.15051354467868805,
                    0.32232606410980225,
                    0.1291341930627823,
                    -0.060891129076480865,
                    -0.267575740814209,
                    -0.17097386717796326,
                    0.4174627363681793,
                    -0.12332145124673843,
                    -0.33600300550460815,
                    0.4456027150154114,
                    -0.1497175693511963,
                    -0.07604168355464935,
                    0.3896527588367462,
                    -0.15419666469097137,
                    -0.5385188460350037,
                    -0.5098169445991516,
                    0.25128650665283203,
                    0.23526304960250854,
                    -0.14845536649227142
                ],
                [
                    -0.1688423603773117,
                    0.014003615826368332,
                    0.18496854603290558,
                    0.04855215549468994,
                    -0.24754804372787476,
                    -0.07785020768642426,
                    -0.0650218054652214,
                    0.04633260518312454,
                    0.004349505994468927,
                    -0.18968048691749573,
                    0.23092752695083618,
                    0.16935895383358002,
                    -0.27805984020233154,
                    -0.05854448676109314,
                    0.10640796273946762,
                    0.10186576843261719,
                    0.048536524176597595,
                    -0.32205480337142944,
                    0.03417849913239479,
                    -0.17040638625621796,
                    -0.13495345413684845,
                    -0.08060154318809509,
                    -0.17198023200035095,
                    -0.27629488706588745,
                    -0.1455896645784378,
                    0.302032470703125,
                    0.3211720287799835,
                    -0.129008948802948,
                    0.04886360093951225,
                    -0.006646682042628527
                ],
                [
                    -0.22946977615356445,
                    -0.02119540050625801,
                    0.04696311801671982,
                    0.060287632048130035,
                    -0.03645917400717735,
                    -0.19417552649974823,
                    -0.04894188418984413,
                    -0.07821574807167053,
                    0.04701407253742218,
                    -0.21705539524555206,
                    0.0456279031932354,
                    -0.01449225377291441,
                    -0.1664980947971344,
                    -0.1431961953639984,
                    -0.021521322429180145,
                    0.025015773251652718,
                    0.05739055201411247,
                    -0.23069627583026886,
                    -0.22575876116752625,
                    -0.20351539552211761,
                    -0.11539820581674576,
                    0.051100004464387894,
                    -0.14664775133132935,
                    0.08273206651210785,
                    -0.012902473099529743,
                    -0.03309111297130585,
                    0.175005704164505,
                    -0.0482432059943676,
                    -0.05486321821808815,
                    0.14689034223556519
                ]
            ],
            "biases": [
                -0.15964815020561218,
                -0.11722482740879059,
                0.05473627522587776,
                0.3959946632385254,
                -0.09762726724147797,
                -0.08629727363586426,
                -0.02801729366183281,
                -0.29418420791625977,
                0.1510947197675705,
                0.014707338064908981,
                -0.05000497028231621,
                -0.02755306102335453,
                -0.30262282490730286,
                0.07662136852741241,
                -0.03748825564980507,
                -0.01672636717557907,
                0.04902137443423271,
                -0.12548141181468964,
                -0.2323680967092514,
                -0.0005834291223436594,
                0.0859871581196785,
                0.030910542234778404,
                -0.031797971576452255,
                0.06243804469704628,
                -0.011628069914877415,
                -0.07628220319747925,
                0.012343845330178738,
                -0.24266564846038818,
                -0.10766394436359406,
                -0.09963337332010269
            ]
        },
        {
            "weights": [
                [
                    0.5376490354537964,
                    1.969770073890686,
                    -0.8388093709945679,
                    -2.3355979919433594,
                    -0.6041253805160522,
                    -0.40657752752304077,
                    -0.27553582191467285,
                    -0.012939059175550938,
                    -0.8929531574249268,
                    -0.2423735111951828,
                    -0.16712966561317444,
                    1.7213762998580933,
                    1.0393120050430298,
                    -0.9535917639732361,
                    -0.5191402435302734,
                    0.33047741651535034,
                    -1.1089683771133423,
                    0.5110819935798645,
                    0.21905039250850677,
                    -0.3917260766029358,
                    -0.18707922101020813,
                    -0.24689267575740814,
                    -0.07660619914531708,
                    0.13988763093948364,
                    -0.053206078708171844,
                    0.01228763721883297,
                    -1.212821125984192,
                    1.4377156496047974,
                    -0.6494321227073669,
                    -0.3276982605457306
                ]
            ],
            "biases": [
                0.1476813107728958
            ]
        }
    ],
    "inputLookup": {
        "c": 0,
        "p": 1
    },
    "inputLookupLength": 2,
    "outputLookup": {
        "nc": 0
    },
    "outputLookupLength": 1,
    "options": {
        "inputSize": 0,
        "outputSize": 0,
        "binaryThresh": 0.5,
        "hiddenLayers": [
            30,
            30
        ]
    },
    "trainOpts": {
        "activation": "sigmoid",
        "iterations": 20000,
        "errorThresh": 0.005,
        "log": false,
        "logPeriod": 10,
        "leakyReluAlpha": 0.01,
        "learningRate": 0.3,
        "momentum": 0.1,
        "callbackPeriod": 10,
        "timeout": "Infinity",
        "beta1": 0.9,
        "beta2": 0.999,
        "epsilon": 1e-8
    }
}