{
    "type": "NeuralNetwork",
    "sizes": [
        12,
        4,
        8,
        1
    ],
    "layers": [
        {
            "weights": [],
            "biases": []
        },
        {
            "weights": [
                [
                    -4.180644512176514,
                    21.353065490722656,
                    -22.965351104736328,
                    -6.984851837158203,
                    -8.127924919128418,
                    -9.030573844909668,
                    6.5527119636535645,
                    26.07681655883789,
                    21.73307991027832,
                    4.525917053222656,
                    28.712203979492188,
                    -7.972487449645996
                ],
                [
                    1.9222604036331177,
                    -19.468746185302734,
                    12.857924461364746,
                    15.671734809875488,
                    13.836618423461914,
                    6.325876235961914,
                    -5.57655143737793,
                    -6.978374481201172,
                    1.9883465766906738,
                    -7.547136306762695,
                    -1.9220240116119385,
                    -9.462535858154297
                ],
                [
                    2.2799129486083984,
                    8.536474227905273,
                    -9.536038398742676,
                    14.139348983764648,
                    -22.438430786132812,
                    22.81283950805664,
                    0.1928640902042389,
                    7.499327182769775,
                    13.978062629699707,
                    -10.420854568481445,
                    5.459986686706543,
                    35.405311584472656
                ],
                [
                    7.492345333099365,
                    14.850846290588379,
                    22.977264404296875,
                    -12.322813987731934,
                    13.920438766479492,
                    27.882339477539062,
                    15.542892456054688,
                    -16.203378677368164,
                    -37.208274841308594,
                    29.599218368530273,
                    -5.640472412109375,
                    44.26397705078125
                ]
            ],
            "biases": [
                15.855673789978027,
                -2.262030601501465,
                9.238556861877441,
                -0.8070831298828125
            ]
        },
        {
            "weights": [
                [
                    -28.99557876586914,
                    39.93400955200195,
                    -37.017547607421875,
                    -24.57887077331543
                ],
                [
                    -31.209081649780273,
                    -42.48256301879883,
                    4.650982856750488,
                    19.653532028198242
                ],
                [
                    -20.27886390686035,
                    32.444618225097656,
                    -13.30128288269043,
                    -21.526657104492188
                ],
                [
                    -5.241827011108398,
                    -1.8483588695526123,
                    -1.8384467363357544,
                    -3.6751415729522705
                ],
                [
                    2.691530704498291,
                    -27.94455337524414,
                    7.6434807777404785,
                    -64.21002960205078
                ],
                [
                    -9.397011756896973,
                    -28.297683715820312,
                    3.7218575477600098,
                    11.30207633972168
                ],
                [
                    -8.010563850402832,
                    -27.60603141784668,
                    3.6859371662139893,
                    10.964731216430664
                ],
                [
                    10.366474151611328,
                    -32.09550094604492,
                    -48.6568717956543,
                    -10.045483589172363
                ]
            ],
            "biases": [
                20.019731521606445,
                2.179208755493164,
                2.1028518676757812,
                -1.7594274282455444,
                4.0565104484558105,
                -8.417675971984863,
                -9.440263748168945,
                8.024127006530762
            ]
        },
        {
            "weights": [
                [
                    1.4439866542816162,
                    15.788973808288574,
                    1.028637170791626,
                    0.5301666855812073,
                    2.12898325920105,
                    2.276749849319458,
                    2.2788569927215576,
                    1.8054977655410767
                ]
            ],
            "biases": [
                -0.562879204750061
            ]
        }
    ],
    "inputLookup": null,
    "inputLookupLength": 0,
    "outputLookup": null,
    "outputLookupLength": 0,
    "options": {
        "inputSize": 0,
        "outputSize": 0,
        "binaryThresh": 0.5,
        "hiddenLayers": [
            4,
            8
        ]
    },
    "trainOpts": {
        "activation": "sigmoid",
        "iterations": 20000,
        "errorThresh": 0.005,
        "log": false,
        "logPeriod": 10,
        "leakyReluAlpha": 0.01,
        "learningRate": 0.3,
        "momentum": 0.1,
        "callbackPeriod": 10,
        "timeout": "Infinity",
        "beta1": 0.9,
        "beta2": 0.999,
        "epsilon": 1e-8
    }
}