{
    "type": "NeuralNetwork",
    "sizes": [
        7,
        4,
        8,
        1
    ],
    "layers": [
        {
            "weights": [],
            "biases": []
        },
        {
            "weights": [
                [
                    16.319011688232422,
                    8.22381591796875,
                    -10.672080039978027,
                    -28.823789596557617,
                    -18.738439559936523,
                    2.350759267807007,
                    13.744997024536133
                ],
                [
                    -4.385477542877197,
                    -3.793210983276367,
                    11.237038612365723,
                    19.073989868164062,
                    4.282662868499756,
                    2.955772876739502,
                    -2.330226421356201
                ],
                [
                    2.0853421688079834,
                    16.479307174682617,
                    7.891750335693359,
                    7.392192363739014,
                    27.596214294433594,
                    -9.906327247619629,
                    22.21477508544922
                ],
                [
                    -27.891952514648438,
                    28.707233428955078,
                    -7.02443790435791,
                    8.086006164550781,
                    19.72538948059082,
                    2.7518677711486816,
                    -13.547146797180176
                ]
            ],
            "biases": [
                10.111360549926758,
                -11.809531211853027,
                -29.61690330505371,
                -9.539473533630371
            ]
        },
        {
            "weights": [
                [
                    1.7929339408874512,
                    -16.479373931884766,
                    5.358940124511719,
                    -2.4118387699127197
                ],
                [
                    -16.366453170776367,
                    -10.502065658569336,
                    11.967540740966797,
                    9.301275253295898
                ],
                [
                    -6.089804649353027,
                    1.8524919748306274,
                    8.730106353759766,
                    -3.401127576828003
                ],
                [
                    0.7746415734291077,
                    -17.614017486572266,
                    -13.600664138793945,
                    -0.18333597481250763
                ],
                [
                    17.00138282775879,
                    7.684078216552734,
                    -4.702154159545898,
                    1.3233712911605835
                ],
                [
                    -14.043249130249023,
                    1.4331077337265015,
                    -9.347180366516113,
                    -0.5905066728591919
                ],
                [
                    -16.21365737915039,
                    -18.781888961791992,
                    -13.27646255493164,
                    0.866294264793396
                ],
                [
                    -15.713082313537598,
                    0.467713862657547,
                    -9.684825897216797,
                    -0.774573564529419
                ]
            ],
            "biases": [
                -5.867509365081787,
                -11.27174186706543,
                -11.383946418762207,
                -3.636744499206543,
                -21.135713577270508,
                -1.8449079990386963,
                15.802306175231934,
                -1.3194769620895386
            ]
        },
        {
            "weights": [
                [
                    1.3442000150680542,
                    1.0732696056365967,
                    1.2110925912857056,
                    2.7426140308380127,
                    1.0737940073013306,
                    1.6798149347305298,
                    0.9509796500205994,
                    2.094055414199829
                ]
            ],
            "biases": [
                -0.6969304084777832
            ]
        }
    ],
    "inputLookup": null,
    "inputLookupLength": 0,
    "outputLookup": null,
    "outputLookupLength": 0,
    "options": {
        "inputSize": 0,
        "outputSize": 0,
        "binaryThresh": 0.5,
        "hiddenLayers": [
            4,
            8
        ]
    },
    "trainOpts": {
        "activation": "sigmoid",
        "iterations": 20000,
        "errorThresh": 0.005,
        "log": false,
        "logPeriod": 10,
        "leakyReluAlpha": 0.01,
        "learningRate": 0.3,
        "momentum": 0.1,
        "callbackPeriod": 10,
        "timeout": "Infinity",
        "beta1": 0.9,
        "beta2": 0.999,
        "epsilon": 1e-8
    }
}