{
    "type": "NeuralNetwork",
    "sizes": [
        10,
        10,
        1
    ],
    "layers": [
        {
            "weights": [],
            "biases": []
        },
        {
            "weights": [
                [
                    2.4725046157836914,
                    -2.2135519981384277,
                    2.22879695892334,
                    -2.6739559173583984,
                    5.18826961517334,
                    -8.457228660583496,
                    -5.527639865875244,
                    -0.9857686758041382,
                    0.9010721445083618,
                    -1.966268539428711
                ],
                [
                    2.436657190322876,
                    -2.953862428665161,
                    -0.5923629999160767,
                    2.4416630268096924,
                    -7.299800395965576,
                    5.634646415710449,
                    -4.602423191070557,
                    -0.20613309741020203,
                    -0.03200419992208481,
                    4.445127010345459
                ],
                [
                    -4.80924129486084,
                    2.3082072734832764,
                    2.9907493591308594,
                    -1.0351163148880005,
                    -12.60480785369873,
                    -8.120668411254883,
                    1.8345979452133179,
                    1.2681050300598145,
                    9.073568344116211,
                    1.937718391418457
                ],
                [
                    1.1128097772598267,
                    -13.378376007080078,
                    1.4289532899856567,
                    -0.9856732487678528,
                    6.666864395141602,
                    2.06144642829895,
                    -0.931753396987915,
                    -10.687828063964844,
                    12.007123947143555,
                    -7.123096942901611
                ],
                [
                    -2.1634104251861572,
                    -0.5259172320365906,
                    0.4691449999809265,
                    -0.8195093274116516,
                    -3.167562484741211,
                    -0.31083443760871887,
                    1.8804694414138794,
                    1.0886317491531372,
                    -10.37923526763916,
                    -3.114663600921631
                ],
                [
                    -0.12537109851837158,
                    -8.267068862915039,
                    -2.4007229804992676,
                    4.386347770690918,
                    -16.282146453857422,
                    8.571659088134766,
                    -6.119482517242432,
                    -3.7705416679382324,
                    -3.112736940383911,
                    12.291882514953613
                ],
                [
                    4.478363513946533,
                    3.843485116958618,
                    -1.1861377954483032,
                    -1.4017271995544434,
                    8.928926467895508,
                    1.309367299079895,
                    -7.250705242156982,
                    4.524646759033203,
                    3.2478981018066406,
                    -3.170903444290161
                ],
                [
                    4.730497360229492,
                    -3.541308879852295,
                    -9.943207740783691,
                    3.4582977294921875,
                    11.06296443939209,
                    -1.4463235139846802,
                    8.600444793701172,
                    -4.966313362121582,
                    -7.27074670791626,
                    14.071389198303223
                ],
                [
                    6.348982810974121,
                    2.8474478721618652,
                    -5.8358001708984375,
                    -0.2834588885307312,
                    -8.590353965759277,
                    -1.7808713912963867,
                    -3.4261109828948975,
                    -3.0212490558624268,
                    3.412081003189087,
                    -9.732197761535645
                ],
                [
                    15.773101806640625,
                    3.041351556777954,
                    -4.175232887268066,
                    1.0084389448165894,
                    6.2197675704956055,
                    3.746459722518921,
                    -11.245981216430664,
                    -0.8462092876434326,
                    3.8690507411956787,
                    -2.8283302783966064
                ]
            ],
            "biases": [
                -0.9305287599563599,
                -3.8037710189819336,
                -3.1574459075927734,
                -4.149037837982178,
                2.936082124710083,
                -1.6692304611206055,
                -10.313680648803711,
                -9.099905014038086,
                3.301119327545166,
                -10.924866676330566
            ]
        },
        {
            "weights": [
                [
                    -3.9499077796936035,
                    -5.1423869132995605,
                    -3.2073099613189697,
                    -3.6462790966033936,
                    -4.692305088043213,
                    4.315235614776611,
                    -3.9195995330810547,
                    -0.9663857221603394,
                    -1.9389985799789429,
                    1.8875113725662231
                ]
            ],
            "biases": [
                0.3760433495044708
            ]
        }
    ],
    "inputLookup": null,
    "inputLookupLength": 0,
    "outputLookup": null,
    "outputLookupLength": 0,
    "options": {
        "inputSize": 0,
        "outputSize": 0,
        "binaryThresh": 0.5,
        "hiddenLayers": [
            10
        ]
    },
    "trainOpts": {
        "activation": "sigmoid",
        "iterations": 20000,
        "errorThresh": 0.005,
        "log": false,
        "logPeriod": 10,
        "leakyReluAlpha": 0.01,
        "learningRate": 0.3,
        "momentum": 0.1,
        "callbackPeriod": 10,
        "timeout": "Infinity",
        "beta1": 0.9,
        "beta2": 0.999,
        "epsilon": 1e-8
    }
}