{
    "type": "NeuralNetwork",
    "sizes": [
        25,
        4,
        8,
        1
    ],
    "layers": [
        {
            "weights": [],
            "biases": []
        },
        {
            "weights": [
                [
                    -33.498870849609375,
                    3.7207014560699463,
                    -1.167263388633728,
                    -8.404990196228027,
                    -1.6542187929153442,
                    19.01852035522461,
                    4.553480625152588,
                    31.490625381469727,
                    -16.450742721557617,
                    -27.53318214416504,
                    -12.659090042114258,
                    66.32624816894531,
                    37.53830337524414,
                    40.51383590698242,
                    -0.48300376534461975,
                    -39.60112762451172,
                    -21.439077377319336,
                    -7.86063814163208,
                    20.65178680419922,
                    48.20380783081055,
                    7.430567264556885,
                    14.555220603942871,
                    -11.494601249694824,
                    -27.06570053100586,
                    19.080368041992188
                ],
                [
                    1.0573073625564575,
                    40.77705001831055,
                    -30.02045440673828,
                    29.55891990661621,
                    23.71087646484375,
                    -11.396894454956055,
                    -7.468234539031982,
                    5.037850379943848,
                    22.940446853637695,
                    -13.362109184265137,
                    -33.853599548339844,
                    42.754547119140625,
                    4.687938690185547,
                    31.391172409057617,
                    36.40262985229492,
                    8.84255313873291,
                    -46.40510559082031,
                    12.260064125061035,
                    -14.056211471557617,
                    32.56831359863281,
                    -53.82722854614258,
                    -31.05655288696289,
                    -30.699466705322266,
                    33.401092529296875,
                    1.3958985805511475
                ],
                [
                    3.8842079639434814,
                    -14.242898941040039,
                    22.00226402282715,
                    31.788345336914062,
                    -20.24915885925293,
                    16.90492057800293,
                    12.43195915222168,
                    19.86372947692871,
                    35.845420837402344,
                    15.893726348876953,
                    -16.901885986328125,
                    0.45527908205986023,
                    14.057332992553711,
                    -31.62981605529785,
                    4.969317436218262,
                    15.449284553527832,
                    -11.906867027282715,
                    4.056634902954102,
                    23.131547927856445,
                    11.66667652130127,
                    -14.02624797821045,
                    -15.453926086425781,
                    22.592247009277344,
                    8.032049179077148,
                    8.781635284423828
                ],
                [
                    -3.8263914585113525,
                    -36.61396789550781,
                    -48.19084548950195,
                    10.399153709411621,
                    28.753921508789062,
                    6.516629695892334,
                    -28.529109954833984,
                    -40.56916427612305,
                    17.578773498535156,
                    30.004501342773438,
                    52.41561508178711,
                    -6.381702423095703,
                    -14.872185707092285,
                    -10.523882865905762,
                    1.6616811752319336,
                    1.3851771354675293,
                    30.594446182250977,
                    11.841655731201172,
                    -11.767488479614258,
                    -33.273590087890625,
                    7.655416965484619,
                    3.5520713329315186,
                    13.75301456451416,
                    1.743696928024292,
                    2.0944809913635254
                ]
            ],
            "biases": [
                14.623043060302734,
                27.41670799255371,
                -10.12629222869873,
                -9.757256507873535
            ]
        },
        {
            "weights": [
                [
                    -18.894561767578125,
                    -16.17466163635254,
                    -35.994773864746094,
                    -39.620147705078125
                ],
                [
                    12.890932083129883,
                    -23.143613815307617,
                    22.910017013549805,
                    -31.601369857788086
                ],
                [
                    4.5099334716796875,
                    -30.77678871154785,
                    -31.02365493774414,
                    -29.853153228759766
                ],
                [
                    -36.234519958496094,
                    4.59697151184082,
                    15.436418533325195,
                    -12.010148048400879
                ],
                [
                    9.667451858520508,
                    18.770071029663086,
                    -33.216163635253906,
                    -46.0379753112793
                ],
                [
                    -2.9187467098236084,
                    -5.412328720092773,
                    -13.949712753295898,
                    -9.68715763092041
                ],
                [
                    -36.31127166748047,
                    -38.205360412597656,
                    2.5597102642059326,
                    -40.60527801513672
                ],
                [
                    -29.81793975830078,
                    15.50067138671875,
                    -27.87466812133789,
                    -23.865859985351562
                ]
            ],
            "biases": [
                39.04106521606445,
                -25.37271499633789,
                17.988845825195312,
                -9.103378295898438,
                0.8424466848373413,
                -4.479979515075684,
                22.608539581298828,
                4.114217281341553
            ]
        },
        {
            "weights": [
                [
                    -7.386255264282227,
                    0.5091371536254883,
                    17.908367156982422,
                    0.4700728952884674,
                    8.010008811950684,
                    2.7382683753967285,
                    7.581596851348877,
                    1.5112507343292236
                ]
            ],
            "biases": [
                -0.40662527084350586
            ]
        }
    ],
    "inputLookup": null,
    "inputLookupLength": 0,
    "outputLookup": null,
    "outputLookupLength": 0,
    "options": {
        "inputSize": 0,
        "outputSize": 0,
        "binaryThresh": 0.5,
        "hiddenLayers": [
            4,
            8
        ]
    },
    "trainOpts": {
        "activation": "sigmoid",
        "iterations": 20000,
        "errorThresh": 0.005,
        "log": false,
        "logPeriod": 10,
        "leakyReluAlpha": 0.01,
        "learningRate": 0.3,
        "momentum": 0.1,
        "callbackPeriod": 10,
        "timeout": "Infinity",
        "beta1": 0.9,
        "beta2": 0.999,
        "epsilon": 1e-8
    }
}