{
    "type": "NeuralNetwork",
    "sizes": [
        4,
        4,
        8,
        1
    ],
    "layers": [
        {
            "weights": [],
            "biases": []
        },
        {
            "weights": [
                [
                    11.046651840209961,
                    -5.356759071350098,
                    6.16050910949707,
                    -4.9182233810424805
                ],
                [
                    3.6153903007507324,
                    6.749005317687988,
                    -3.530658721923828,
                    3.913588285446167
                ],
                [
                    -7.872179985046387,
                    3.987109899520874,
                    2.50958514213562,
                    8.378334999084473
                ],
                [
                    -8.55036449432373,
                    0.8862960338592529,
                    1.8801976442337036,
                    9.030278205871582
                ]
            ],
            "biases": [
                -2.111163854598999,
                -6.947426795959473,
                3.3377623558044434,
                3.7800192832946777
            ]
        },
        {
            "weights": [
                [
                    -2.952009916305542,
                    -0.7805249094963074,
                    -1.1064807176589966,
                    -2.083759307861328
                ],
                [
                    -3.063180923461914,
                    -0.7452104091644287,
                    -1.3051749467849731,
                    -1.9953166246414185
                ],
                [
                    -2.961970806121826,
                    -0.7802662253379822,
                    -1.2282243967056274,
                    -1.9828293323516846
                ],
                [
                    -3.0596601963043213,
                    -0.7456318140029907,
                    -1.291322946548462,
                    -2.005713939666748
                ],
                [
                    -2.953557014465332,
                    -0.7861731052398682,
                    -1.3168678283691406,
                    -1.896626591682434
                ],
                [
                    -3.0208120346069336,
                    -0.758371889591217,
                    -1.2507909536361694,
                    -2.0103909969329834
                ],
                [
                    -2.886587142944336,
                    -0.8069373369216919,
                    -1.067118525505066,
                    -2.0665335655212402
                ],
                [
                    -2.973991632461548,
                    -0.7796635031700134,
                    -1.3694194555282593,
                    -1.8663146495819092
                ]
            ],
            "biases": [
                -0.9946928024291992,
                -0.8824339509010315,
                -0.9804413318634033,
                -0.8892835378646851,
                -0.9737739562988281,
                -0.9261665940284729,
                -1.054240107536316,
                -0.9543704986572266
            ]
        },
        {
            "weights": [
                [
                    3.246096134185791,
                    3.2480475902557373,
                    3.2662298679351807,
                    3.258046865463257,
                    3.2489562034606934,
                    3.2585864067077637,
                    3.250119209289551,
                    3.2590553760528564
                ]
            ],
            "biases": [
                -0.2766246199607849
            ]
        }
    ],
    "inputLookup": null,
    "inputLookupLength": 0,
    "outputLookup": null,
    "outputLookupLength": 0,
    "options": {
        "inputSize": 0,
        "outputSize": 0,
        "binaryThresh": 0.5,
        "hiddenLayers": [
            4,
            8
        ]
    },
    "trainOpts": {
        "activation": "sigmoid",
        "iterations": 20000,
        "errorThresh": 0.005,
        "log": false,
        "logPeriod": 10,
        "leakyReluAlpha": 0.01,
        "learningRate": 0.3,
        "momentum": 0.1,
        "callbackPeriod": 10,
        "timeout": "Infinity",
        "beta1": 0.9,
        "beta2": 0.999,
        "epsilon": 1e-8
    }
}