{
    "type": "NeuralNetwork",
    "sizes": [
        3,
        10,
        1
    ],
    "layers": [
        {
            "weights": [],
            "biases": []
        },
        {
            "weights": [
                [
                    -0.1003589853644371,
                    0.007335044909268618,
                    -0.5726603865623474
                ],
                [
                    -1.5060211420059204,
                    -1.7301139831542969,
                    -0.31638994812965393
                ],
                [
                    -0.6516324877738953,
                    -1.2535070180892944,
                    -0.4708893597126007
                ],
                [
                    0.006396057549864054,
                    -0.06723067909479141,
                    -0.4499753713607788
                ],
                [
                    -5.069512367248535,
                    -5.1268157958984375,
                    5.09077262878418
                ],
                [
                    0.15790024399757385,
                    0.44491010904312134,
                    2.9624342918395996
                ],
                [
                    0.09196586906909943,
                    5.37105655670166,
                    -6.4814653396606445
                ],
                [
                    0.13343940675258636,
                    -0.19130562245845795,
                    0.7244306802749634
                ],
                [
                    0.07965874671936035,
                    0.5205140709877014,
                    -0.6535646915435791
                ],
                [
                    -2.6101224422454834,
                    -1.9163572788238525,
                    6.788288116455078
                ]
            ],
            "biases": [
                -2.2037200927734375,
                -2.235008955001831,
                -2.1331584453582764,
                -2.276031970977783,
                -2.5374720096588135,
                -2.8387556076049805,
                -3.7513914108276367,
                -2.65356183052063,
                -2.2791500091552734,
                0.0914170891046524
            ]
        },
        {
            "weights": [
                [
                    -0.15198984742164612,
                    -0.8746602535247803,
                    -0.598758339881897,
                    -0.1029474288225174,
                    -4.3863677978515625,
                    1.2662420272827148,
                    -5.881163120269775,
                    0.33563148975372314,
                    0.0030846060253679752,
                    3.4925148487091064
                ]
            ],
            "biases": [
                -0.15169435739517212
            ]
        }
    ],
    "inputLookup": null,
    "inputLookupLength": 0,
    "outputLookup": null,
    "outputLookupLength": 0,
    "options": {
        "inputSize": 0,
        "outputSize": 0,
        "binaryThresh": 0.5,
        "hiddenLayers": [
            10
        ]
    },
    "trainOpts": {
        "activation": "sigmoid",
        "iterations": 20000,
        "errorThresh": 0.005,
        "log": false,
        "logPeriod": 10,
        "leakyReluAlpha": 0.01,
        "learningRate": 0.3,
        "momentum": 0.1,
        "callbackPeriod": 10,
        "timeout": "Infinity",
        "beta1": 0.9,
        "beta2": 0.999,
        "epsilon": 1e-8
    }
}