{
    "type": "NeuralNetwork",
    "sizes": [
        3,
        10,
        1
    ],
    "layers": [
        {
            "weights": [],
            "biases": []
        },
        {
            "weights": [
                [
                    0.3111831545829773,
                    -1.9962865114212036,
                    -0.8984938859939575
                ],
                [
                    -1.12899649143219,
                    -0.8217878341674805,
                    3.45112681388855
                ],
                [
                    0.4421200454235077,
                    -1.9440258741378784,
                    -0.8786628246307373
                ],
                [
                    -0.9385817646980286,
                    -1.0062202215194702,
                    1.4236007928848267
                ],
                [
                    0.787948489189148,
                    -2.3750672340393066,
                    -1.3365561962127686
                ],
                [
                    -1.1481949090957642,
                    -0.8722455501556396,
                    3.4129881858825684
                ],
                [
                    -0.9659138917922974,
                    -1.0485590696334839,
                    4.852482318878174
                ],
                [
                    1.5192387104034424,
                    -4.124285697937012,
                    -2.743764877319336
                ],
                [
                    -1.0693321228027344,
                    -0.7708523273468018,
                    3.0724380016326904
                ],
                [
                    1.123575210571289,
                    -3.292292356491089,
                    -1.9187947511672974
                ]
            ],
            "biases": [
                -0.9493278861045837,
                -1.6850782632827759,
                -1.0284526348114014,
                -1.2318614721298218,
                -0.9490100741386414,
                -1.6181093454360962,
                -2.1113977432250977,
                -0.6073306202888489,
                -1.676389217376709,
                -0.6629652380943298
            ]
        },
        {
            "weights": [
                [
                    0.62996906042099,
                    -2.0624260902404785,
                    0.6523935794830322,
                    -0.8237542510032654,
                    1.1404247283935547,
                    -2.049172878265381,
                    -3.859499931335449,
                    3.494750738143921,
                    -1.7595316171646118,
                    2.0986273288726807
                ]
            ],
            "biases": [
                0.470016211271286
            ]
        }
    ],
    "inputLookup": null,
    "inputLookupLength": 0,
    "outputLookup": null,
    "outputLookupLength": 0,
    "options": {
        "inputSize": 0,
        "outputSize": 0,
        "binaryThresh": 0.5,
        "hiddenLayers": [
            10
        ]
    },
    "trainOpts": {
        "activation": "sigmoid",
        "iterations": 20000,
        "errorThresh": 0.005,
        "log": false,
        "logPeriod": 10,
        "leakyReluAlpha": 0.01,
        "learningRate": 0.3,
        "momentum": 0.1,
        "callbackPeriod": 10,
        "timeout": "Infinity",
        "beta1": 0.9,
        "beta2": 0.999,
        "epsilon": 1e-8
    }
}