{
    "type": "NeuralNetwork",
    "sizes": [
        20,
        20,
        1
    ],
    "layers": [
        {
            "weights": [],
            "biases": []
        },
        {
            "weights": [
                [
                    -4.547065734863281,
                    -9.349655151367188,
                    0.19221943616867065,
                    0.5431145429611206,
                    -2.9428529739379883,
                    -5.957790851593018,
                    -1.7168543338775635,
                    3.1580491065979004,
                    1.2960885763168335,
                    -4.7747392654418945,
                    1.1592388153076172,
                    -3.0076534748077393,
                    5.490482330322266,
                    0.7729324698448181,
                    -0.4042731821537018,
                    0.9648245573043823,
                    -1.8015310764312744,
                    -0.8725206255912781,
                    1.0751228332519531,
                    2.8617701530456543
                ],
                [
                    -1.8016984462738037,
                    -4.38850736618042,
                    -1.8435829877853394,
                    1.5378174781799316,
                    4.965888500213623,
                    -2.4342308044433594,
                    2.100428819656372,
                    -1.1046311855316162,
                    -4.134311199188232,
                    -0.8458085060119629,
                    -0.061795204877853394,
                    -3.026461124420166,
                    1.6362178325653076,
                    7.584248065948486,
                    -0.558405339717865,
                    5.044948577880859,
                    -0.7130764126777649,
                    -5.146777153015137,
                    -0.70833820104599,
                    -2.0291738510131836
                ],
                [
                    0.8757613897323608,
                    -1.5133671760559082,
                    3.011035919189453,
                    -0.08080490678548813,
                    -0.6376430988311768,
                    0.38773393630981445,
                    -3.3282675743103027,
                    -2.3319754600524902,
                    -1.7221084833145142,
                    0.603321373462677,
                    -3.5289337635040283,
                    -1.5690146684646606,
                    0.01904735155403614,
                    -3.30169939994812,
                    -1.3716211318969727,
                    1.2573084831237793,
                    2.858039140701294,
                    -1.2902593612670898,
                    0.11895905435085297,
                    0.849353551864624
                ],
                [
                    0.19075725972652435,
                    -1.6449276208877563,
                    1.299151062965393,
                    -0.10507853329181671,
                    -0.13462626934051514,
                    -0.26085031032562256,
                    -0.09910903126001358,
                    -1.5095030069351196,
                    4.568246841430664,
                    2.0184073448181152,
                    -3.9608395099639893,
                    -2.9701192378997803,
                    0.8390447497367859,
                    -2.7739293575286865,
                    1.906221866607666,
                    1.3831456899642944,
                    0.74913090467453,
                    -1.2163889408111572,
                    -0.42726007103919983,
                    -3.027278184890747
                ],
                [
                    -1.450039029121399,
                    -2.9293339252471924,
                    -4.886255264282227,
                    -0.5306861996650696,
                    -1.5680440664291382,
                    0.16666686534881592,
                    -0.5544915199279785,
                    -0.16998380422592163,
                    4.548770427703857,
                    -2.3485448360443115,
                    -4.714057445526123,
                    -2.5813910961151123,
                    -4.314359664916992,
                    1.6527459621429443,
                    0.23262859880924225,
                    5.178526878356934,
                    -1.034398078918457,
                    -1.8838797807693481,
                    -0.4464194178581238,
                    -0.9485762119293213
                ],
                [
                    1.9518420696258545,
                    5.150330543518066,
                    2.963926076889038,
                    -1.4859400987625122,
                    -0.40026360750198364,
                    0.7208026051521301,
                    -3.3103885650634766,
                    -3.29695725440979,
                    -1.5270953178405762,
                    -0.7254558801651001,
                    -3.4078116416931152,
                    0.6110386848449707,
                    4.309040546417236,
                    -5.231701374053955,
                    3.417909860610962,
                    0.5439161658287048,
                    -3.1607770919799805,
                    -7.795104026794434,
                    2.080350399017334,
                    -3.403435707092285
                ],
                [
                    -0.6496171951293945,
                    -2.211137533187866,
                    1.7274922132492065,
                    0.7299985885620117,
                    -2.900526285171509,
                    1.067514419555664,
                    -2.8162572383880615,
                    -1.3342067003250122,
                    -3.043292999267578,
                    -1.1983323097229004,
                    5.967286109924316,
                    -3.3080389499664307,
                    -7.5443034172058105,
                    1.8604272603988647,
                    3.857313632965088,
                    -6.459461212158203,
                    -4.277370929718018,
                    1.841077446937561,
                    -0.7611410021781921,
                    -1.9436792135238647
                ],
                [
                    -0.1989416778087616,
                    1.077932596206665,
                    -1.5303442478179932,
                    -4.354790687561035,
                    -1.076188325881958,
                    -2.6694908142089844,
                    1.2265681028366089,
                    -0.8541125655174255,
                    3.5502774715423584,
                    -0.14319941401481628,
                    -3.5754141807556152,
                    -1.7249367237091064,
                    3.069718599319458,
                    -1.2080745697021484,
                    0.2980257272720337,
                    2.643843412399292,
                    -2.8865370750427246,
                    -0.9493001699447632,
                    1.6811285018920898,
                    -2.5506887435913086
                ],
                [
                    0.4020339250564575,
                    1.2248691320419312,
                    1.2264204025268555,
                    2.7473912239074707,
                    -2.984112024307251,
                    -3.675438642501831,
                    -2.158639430999756,
                    -0.7937424778938293,
                    0.8287492990493774,
                    -0.4717984199523926,
                    -4.788887977600098,
                    4.294958114624023,
                    -0.24299685657024384,
                    -4.276287078857422,
                    -7.267189979553223,
                    3.437350273132324,
                    -0.193092942237854,
                    6.020756244659424,
                    6.776508331298828,
                    2.850264549255371
                ],
                [
                    1.4884824752807617,
                    0.9514651894569397,
                    -2.893857717514038,
                    2.0241661071777344,
                    1.91163170337677,
                    4.445018768310547,
                    1.722775936126709,
                    -1.6707674264907837,
                    -0.8539056777954102,
                    -4.517132759094238,
                    -4.807444095611572,
                    -1.0970768928527832,
                    -5.349085330963135,
                    5.8620171546936035,
                    -3.84063458442688,
                    -3.3607285022735596,
                    -2.1178581714630127,
                    -2.0264041423797607,
                    -0.3388490676879883,
                    -2.6633822917938232
                ],
                [
                    4.3578057289123535,
                    -1.8047477006912231,
                    -1.6572513580322266,
                    -1.2568717002868652,
                    -4.429722785949707,
                    0.4891820251941681,
                    -6.34335470199585,
                    5.338322639465332,
                    0.9425618052482605,
                    -10.308976173400879,
                    -0.6039695739746094,
                    -3.149993896484375,
                    0.04451931267976761,
                    -2.6970508098602295,
                    -3.640062093734741,
                    7.935481548309326,
                    1.8987367153167725,
                    0.4281388521194458,
                    4.388637065887451,
                    0.7216671705245972
                ],
                [
                    -1.9672218561172485,
                    -1.8931238651275635,
                    -1.8135544061660767,
                    1.4408595561981201,
                    0.2638639509677887,
                    0.222804993391037,
                    -2.8741583824157715,
                    0.8713416457176208,
                    0.6986220479011536,
                    -3.9324707984924316,
                    -0.8370735049247742,
                    -0.7687661647796631,
                    0.4731733500957489,
                    -0.45506060123443604,
                    -1.41542387008667,
                    0.07176489382982254,
                    1.24582040309906,
                    0.04213936626911163,
                    0.8265319466590881,
                    2.5405430793762207
                ],
                [
                    -2.8289642333984375,
                    0.25145167112350464,
                    1.4046387672424316,
                    1.4232714176177979,
                    -3.050045967102051,
                    -0.7292051911354065,
                    3.8336544036865234,
                    5.2378315925598145,
                    -0.3795080780982971,
                    -3.8144237995147705,
                    -2.9027099609375,
                    -1.3237489461898804,
                    2.948193311691284,
                    -3.0512616634368896,
                    1.583488941192627,
                    -3.8105239868164062,
                    5.611747741699219,
                    -7.375424861907959,
                    -4.5539727210998535,
                    1.0184768438339233
                ],
                [
                    0.11850828677415848,
                    1.4845936298370361,
                    0.9942394495010376,
                    -1.3764801025390625,
                    0.2734549045562744,
                    -3.0839743614196777,
                    -2.773366928100586,
                    -0.9511430263519287,
                    -2.0244789123535156,
                    1.3293706178665161,
                    -0.3954820930957794,
                    -1.8739806413650513,
                    -1.4121487140655518,
                    -2.7164058685302734,
                    -0.7765132784843445,
                    -1.638375997543335,
                    1.9968459606170654,
                    1.9439857006072998,
                    1.7850043773651123,
                    0.09685293585062027
                ],
                [
                    -4.889632225036621,
                    -3.2004785537719727,
                    -0.8865348696708679,
                    -0.6142938733100891,
                    -1.6029577255249023,
                    1.4063204526901245,
                    -4.013489723205566,
                    -1.2895939350128174,
                    -2.8247926235198975,
                    -1.6047098636627197,
                    -2.9262137413024902,
                    -1.0551553964614868,
                    2.1302804946899414,
                    -0.30137360095977783,
                    2.2756407260894775,
                    7.119049072265625,
                    -4.664076328277588,
                    0.37333813309669495,
                    -1.4177219867706299,
                    -0.7613919973373413
                ],
                [
                    0.9178913831710815,
                    -0.07696469873189926,
                    2.439990520477295,
                    0.32592320442199707,
                    -2.248318910598755,
                    -1.7448012828826904,
                    -1.509299397468567,
                    0.7455191612243652,
                    2.7375924587249756,
                    -1.2653536796569824,
                    -0.47768059372901917,
                    -0.1960289180278778,
                    -0.659847617149353,
                    0.8103875517845154,
                    -2.4849965572357178,
                    -1.962681531906128,
                    -0.18037550151348114,
                    -0.253381609916687,
                    0.38963907957077026,
                    1.5971119403839111
                ],
                [
                    1.0089621543884277,
                    0.83426433801651,
                    -1.4385050535202026,
                    -1.866070032119751,
                    -1.619388222694397,
                    0.5608354806900024,
                    -3.6075592041015625,
                    -1.2485603094100952,
                    1.2686777114868164,
                    0.18379150331020355,
                    1.645509958267212,
                    -1.8147162199020386,
                    -1.30752432346344,
                    -0.061029400676488876,
                    0.2470560371875763,
                    1.6148817539215088,
                    -1.2238823175430298,
                    -1.6134308576583862,
                    -2.360191822052002,
                    -1.1147816181182861
                ],
                [
                    1.0132158994674683,
                    -5.285123825073242,
                    -0.30407842993736267,
                    -1.4168825149536133,
                    -2.379870891571045,
                    -6.797275066375732,
                    -1.7364870309829712,
                    -1.1900222301483154,
                    0.3039763271808624,
                    1.1778217554092407,
                    -0.39209458231925964,
                    1.2265660762786865,
                    0.9072571396827698,
                    3.701784133911133,
                    -5.1378889083862305,
                    -4.495229244232178,
                    3.272216558456421,
                    2.477137804031372,
                    -0.5101026296615601,
                    0.6996669769287109
                ],
                [
                    4.784844875335693,
                    4.045407295227051,
                    1.6126600503921509,
                    1.247270941734314,
                    1.4644137620925903,
                    1.4465219974517822,
                    -3.770981550216675,
                    5.350360870361328,
                    5.2430315017700195,
                    -3.0640413761138916,
                    -2.7386722564697266,
                    1.005465030670166,
                    -4.259518146514893,
                    -2.3809773921966553,
                    -0.5403391718864441,
                    -1.8590724468231201,
                    -2.23960280418396,
                    -0.06830120831727982,
                    -3.533874750137329,
                    -8.874696731567383
                ],
                [
                    -0.2721599340438843,
                    -1.2426671981811523,
                    1.6722439527511597,
                    -4.0371994972229,
                    -4.571071147918701,
                    -1.236473560333252,
                    0.6216500401496887,
                    -1.4600777626037598,
                    -0.3243190348148346,
                    -2.6553752422332764,
                    -1.6954433917999268,
                    -5.423624515533447,
                    -3.058469295501709,
                    -2.8817479610443115,
                    2.8032352924346924,
                    0.4784727990627289,
                    -2.1716699600219727,
                    3.528975248336792,
                    1.7397360801696777,
                    4.203365802764893
                ]
            ],
            "biases": [
                1.1514376401901245,
                -4.073530673980713,
                -0.5538639426231384,
                -0.6215534806251526,
                0.2926984429359436,
                -3.172839879989624,
                0.8802862167358398,
                -2.2249786853790283,
                -5.511528491973877,
                0.3885199725627899,
                1.0491515398025513,
                -1.1289725303649902,
                -3.672292470932007,
                -0.9298373460769653,
                0.8133777379989624,
                -1.0284698009490967,
                0.31988874077796936,
                -0.0668628141283989,
                -5.5004353523254395,
                1.7037780284881592
            ]
        },
        {
            "weights": [
                [
                    -15.840526580810547,
                    13.281485557556152,
                    -7.210554122924805,
                    -6.029759407043457,
                    12.167107582092285,
                    13.579766273498535,
                    13.952482223510742,
                    -9.937190055847168,
                    13.898290634155273,
                    -16.03322410583496,
                    -13.501240730285645,
                    10.177319526672363,
                    15.24122428894043,
                    -7.910277843475342,
                    12.639548301696777,
                    -8.257843017578125,
                    6.250418663024902,
                    13.847697257995605,
                    17.166927337646484,
                    13.161038398742676
                ]
            ],
            "biases": [
                -5.341508388519287
            ]
        }
    ],
    "inputLookup": null,
    "inputLookupLength": 0,
    "outputLookup": null,
    "outputLookupLength": 0,
    "options": {
        "inputSize": 0,
        "outputSize": 0,
        "binaryThresh": 0.5,
        "hiddenLayers": [
            20
        ]
    },
    "trainOpts": {
        "activation": "sigmoid",
        "iterations": 20000,
        "errorThresh": 0.005,
        "log": false,
        "logPeriod": 10,
        "leakyReluAlpha": 0.01,
        "learningRate": 0.3,
        "momentum": 0.1,
        "callbackPeriod": 10,
        "timeout": "Infinity",
        "beta1": 0.9,
        "beta2": 0.999,
        "epsilon": 1e-8
    }
}