{
    "type": "NeuralNetwork",
    "sizes": [
        4,
        10,
        1
    ],
    "layers": [
        {
            "weights": [],
            "biases": []
        },
        {
            "weights": [
                [
                    -2.8529019355773926,
                    -1.3239953517913818,
                    -1.2462488412857056,
                    -2.419614791870117
                ],
                [
                    6.827094078063965,
                    -5.46234130859375,
                    -1.1053061485290527,
                    -2.3125598430633545
                ],
                [
                    -2.132564067840576,
                    0.28353428840637207,
                    2.742048501968384,
                    -0.8388153314590454
                ],
                [
                    4.205528259277344,
                    1.9550071954727173,
                    -0.9345269799232483,
                    -1.477686882019043
                ],
                [
                    -2.9607715606689453,
                    -1.3260234594345093,
                    -0.6782398819923401,
                    -2.921400308609009
                ],
                [
                    -3.661898136138916,
                    0.28992003202438354,
                    3.846069097518921,
                    -1.1161973476409912
                ],
                [
                    -0.03885272517800331,
                    0.12489886581897736,
                    -0.07072988897562027,
                    -1.1135345697402954
                ],
                [
                    -4.818750381469727,
                    -0.8366543650627136,
                    0.9966114163398743,
                    2.448155641555786
                ],
                [
                    -4.147182464599609,
                    -1.7921491861343384,
                    0.23694540560245514,
                    -4.730210304260254
                ],
                [
                    -4.0072712898254395,
                    -1.598543405532837,
                    0.5473214983940125,
                    -4.917531967163086
                ]
            ],
            "biases": [
                -0.43317246437072754,
                -2.421412467956543,
                -1.6939260959625244,
                -2.0200870037078857,
                -0.1522907018661499,
                -1.7429072856903076,
                -1.104828119277954,
                -0.19728197157382965,
                0.9027379751205444,
                0.8578013777732849
            ]
        },
        {
            "weights": [
                [
                    -1.8340187072753906,
                    10.456252098083496,
                    1.9438730478286743,
                    -3.813542366027832,
                    -2.3419735431671143,
                    3.1418423652648926,
                    -0.15275761485099792,
                    2.884070873260498,
                    -4.896225452423096,
                    -5.388323783874512
                ]
            ],
            "biases": [
                -1.7660722732543945
            ]
        }
    ],
    "inputLookup": null,
    "inputLookupLength": 0,
    "outputLookup": null,
    "outputLookupLength": 0,
    "options": {
        "inputSize": 0,
        "outputSize": 0,
        "binaryThresh": 0.5,
        "hiddenLayers": [
            10
        ]
    },
    "trainOpts": {
        "activation": "sigmoid",
        "iterations": 20000,
        "errorThresh": 0.005,
        "log": false,
        "logPeriod": 10,
        "leakyReluAlpha": 0.01,
        "learningRate": 0.3,
        "momentum": 0.1,
        "callbackPeriod": 10,
        "timeout": "Infinity",
        "beta1": 0.9,
        "beta2": 0.999,
        "epsilon": 1e-8
    }
}