{
    "type": "NeuralNetwork",
    "sizes": [
        20,
        8,
        4,
        1
    ],
    "layers": [
        {
            "weights": [],
            "biases": []
        },
        {
            "weights": [
                [
                    11.446864128112793,
                    58.63654327392578,
                    -2.5270180702209473,
                    23.27646827697754,
                    -5.106371879577637,
                    -31.670223236083984,
                    -42.6332893371582,
                    -20.092470169067383,
                    17.91950035095215,
                    -21.508174896240234,
                    13.381643295288086,
                    -51.67414093017578,
                    -16.09775161743164,
                    -19.860984802246094,
                    40.1531867980957,
                    -21.72923469543457,
                    -24.42034339904785,
                    1.8396852016448975,
                    -8.107891082763672,
                    -13.27804946899414
                ],
                [
                    0.9939473867416382,
                    -22.16685676574707,
                    33.47419357299805,
                    20.81490135192871,
                    -71.8510971069336,
                    7.759424209594727,
                    37.20730972290039,
                    -15.801568984985352,
                    -19.825759887695312,
                    10.257984161376953,
                    -12.772882461547852,
                    5.8736491203308105,
                    16.323719024658203,
                    -36.294010162353516,
                    -2.5764811038970947,
                    40.72807693481445,
                    8.593469619750977,
                    26.54123878479004,
                    -60.11083984375,
                    -24.03510284423828
                ],
                [
                    -19.973405838012695,
                    -18.498218536376953,
                    -18.561973571777344,
                    9.625962257385254,
                    -20.32814598083496,
                    10.719732284545898,
                    15.456291198730469,
                    -15.217469215393066,
                    0.2127288430929184,
                    -38.86759567260742,
                    1.1797990798950195,
                    13.039961814880371,
                    -36.84792709350586,
                    7.329720497131348,
                    -23.87998390197754,
                    19.956682205200195,
                    31.26160430908203,
                    1.079176425933838,
                    -20.4632625579834,
                    -5.680726051330566
                ],
                [
                    24.23772621154785,
                    -5.357308864593506,
                    -12.254556655883789,
                    -38.56259536743164,
                    15.154026985168457,
                    -20.119718551635742,
                    11.287825584411621,
                    16.438663482666016,
                    28.644596099853516,
                    -6.688289642333984,
                    -12.2791109085083,
                    -3.5456998348236084,
                    -5.1768670082092285,
                    -10.727888107299805,
                    11.661835670471191,
                    -32.5855827331543,
                    -4.592957019805908,
                    10.528783798217773,
                    -15.56716537475586,
                    -41.53807067871094
                ],
                [
                    18.66952896118164,
                    -37.499351501464844,
                    6.326802730560303,
                    38.99412536621094,
                    32.88677215576172,
                    22.99074935913086,
                    37.34526443481445,
                    -12.59126091003418,
                    -37.96337127685547,
                    -50.365440368652344,
                    -1.8295340538024902,
                    7.78783655166626,
                    51.51651382446289,
                    -23.81229019165039,
                    -52.07311248779297,
                    -4.814867973327637,
                    -50.58173370361328,
                    9.69678020477295,
                    2.3711793422698975,
                    -5.516650676727295
                ],
                [
                    5.003377914428711,
                    22.13528823852539,
                    -0.9335619211196899,
                    -6.034380912780762,
                    -9.178457260131836,
                    -39.26708221435547,
                    -14.171889305114746,
                    -13.265654563903809,
                    -3.4049558639526367,
                    6.58048677444458,
                    -11.211663246154785,
                    8.899354934692383,
                    -10.771845817565918,
                    -7.938326835632324,
                    -15.5029878616333,
                    -18.55767822265625,
                    -16.741809844970703,
                    5.939755439758301,
                    -10.795933723449707,
                    -10.3499755859375
                ],
                [
                    -18.33509063720703,
                    0.6555203795433044,
                    -10.622870445251465,
                    -24.138891220092773,
                    11.590485572814941,
                    4.968755722045898,
                    -24.765413284301758,
                    38.28750228881836,
                    -27.869285583496094,
                    53.70686721801758,
                    -12.370009422302246,
                    35.45233154296875,
                    7.412759780883789,
                    5.873600006103516,
                    14.310728073120117,
                    35.90773010253906,
                    25.13412094116211,
                    -21.618398666381836,
                    38.229000091552734,
                    -9.66744327545166
                ],
                [
                    7.4396257400512695,
                    0.3218764662742615,
                    -7.145984172821045,
                    12.498604774475098,
                    -29.690523147583008,
                    -22.863229751586914,
                    -2.3010809421539307,
                    -5.290081024169922,
                    -17.571767807006836,
                    -13.699188232421875,
                    7.2748332023620605,
                    -3.8688690662384033,
                    -2.498133420944214,
                    -19.595657348632812,
                    21.14369010925293,
                    -15.0223970413208,
                    -29.958499908447266,
                    -37.24234390258789,
                    -14.267277717590332,
                    23.24753189086914
                ]
            ],
            "biases": [
                24.9899959564209,
                -17.2427921295166,
                -15.414977073669434,
                -4.6447978019714355,
                -19.20664405822754,
                -0.715630292892456,
                -61.11056900024414,
                -3.7352776527404785
            ]
        },
        {
            "weights": [
                [
                    -18.781702041625977,
                    -15.276545524597168,
                    -16.521764755249023,
                    -30.32655906677246,
                    -21.238794326782227,
                    -19.31151580810547,
                    16.518543243408203,
                    -16.676517486572266
                ],
                [
                    -21.284975051879883,
                    -22.27816390991211,
                    -19.06646728515625,
                    -19.638734817504883,
                    -14.024935722351074,
                    41.48227310180664,
                    -5.3218536376953125,
                    20.049901962280273
                ],
                [
                    -30.29476547241211,
                    -29.683324813842773,
                    -30.583955764770508,
                    -29.200517654418945,
                    -30.247146606445312,
                    -22.85723114013672,
                    -30.0662784576416,
                    -30.688148498535156
                ],
                [
                    -33.8741569519043,
                    -35.83918762207031,
                    -41.12883758544922,
                    -36.050567626953125,
                    -35.56315231323242,
                    -37.8613395690918,
                    -30.88426399230957,
                    -36.53076171875
                ]
            ],
            "biases": [
                -17.736074447631836,
                -2.092008352279663,
                55.574283599853516,
                43.634620666503906
            ]
        },
        {
            "weights": [
                [
                    1.508046269416809,
                    -16.0816593170166,
                    17.13414764404297,
                    -17.83534812927246
                ]
            ],
            "biases": [
                0.14891301095485687
            ]
        }
    ],
    "inputLookup": null,
    "inputLookupLength": 0,
    "outputLookup": null,
    "outputLookupLength": 0,
    "options": {
        "inputSize": 0,
        "outputSize": 0,
        "binaryThresh": 0.5,
        "hiddenLayers": [
            8,
            4
        ],
        "activation": "sigmoid"
    },
    "trainOpts": {
        "activation": "sigmoid",
        "iterations": 20000,
        "errorThresh": 0.005,
        "log": false,
        "logPeriod": 10,
        "leakyReluAlpha": 0.01,
        "learningRate": 0.3,
        "momentum": 0.1,
        "callbackPeriod": 10,
        "timeout": "Infinity",
        "beta1": 0.9,
        "beta2": 0.999,
        "epsilon": 1e-8
    }
}