{
    "type": "NeuralNetwork",
    "sizes": [
        4,
        10,
        1
    ],
    "layers": [
        {
            "weights": [],
            "biases": []
        },
        {
            "weights": [
                [
                    -2.157223701477051,
                    3.573302984237671,
                    -0.6169695258140564,
                    -1.8163691759109497
                ],
                [
                    -0.4697238802909851,
                    1.4006767272949219,
                    0.11142127960920334,
                    -0.9315847754478455
                ],
                [
                    -1.1283124685287476,
                    2.157928705215454,
                    -0.3260042667388916,
                    -1.274345874786377
                ],
                [
                    -0.05946710333228111,
                    -0.7877098321914673,
                    0.04992781579494476,
                    0.3131088614463806
                ],
                [
                    -1.997370958328247,
                    3.76123309135437,
                    -0.3899114727973938,
                    -1.951852560043335
                ],
                [
                    1.2599611282348633,
                    -2.786959409713745,
                    0.169479101896286,
                    1.8124473094940186
                ],
                [
                    -0.4948520064353943,
                    1.6305009126663208,
                    0.15561102330684662,
                    -1.206269383430481
                ],
                [
                    0.8596572279930115,
                    -2.0072126388549805,
                    -0.18210844695568085,
                    1.636966586112976
                ],
                [
                    2.1677377223968506,
                    -4.131301403045654,
                    0.5334383249282837,
                    2.310379981994629
                ],
                [
                    0.3776167035102844,
                    -1.4422047138214111,
                    -0.19779565930366516,
                    1.2842741012573242
                ]
            ],
            "biases": [
                -0.701538622379303,
                -0.3297749161720276,
                -0.384939968585968,
                -0.22862054407596588,
                -0.8850687742233276,
                0.5355702638626099,
                -0.3529532849788666,
                0.1487361639738083,
                0.8206017017364502,
                0.18181811273097992
            ]
        },
        {
            "weights": [
                [
                    4.263903617858887,
                    1.7011319398880005,
                    2.545336961746216,
                    -0.8449351191520691,
                    4.448566436767578,
                    -3.549633026123047,
                    2.075517416000366,
                    -2.8251101970672607,
                    -5.079472064971924,
                    -2.044066905975342
                ]
            ],
            "biases": [
                0.1353624314069748
            ]
        }
    ],
    "inputLookup": null,
    "inputLookupLength": 0,
    "outputLookup": null,
    "outputLookupLength": 0,
    "options": {
        "inputSize": 0,
        "outputSize": 0,
        "binaryThresh": 0.5,
        "hiddenLayers": [
            10
        ]
    },
    "trainOpts": {
        "activation": "sigmoid",
        "iterations": 20000,
        "errorThresh": 0.005,
        "log": false,
        "logPeriod": 10,
        "leakyReluAlpha": 0.01,
        "learningRate": 0.3,
        "momentum": 0.1,
        "callbackPeriod": 10,
        "timeout": "Infinity",
        "beta1": 0.9,
        "beta2": 0.999,
        "epsilon": 1e-8
    }
}