{
    "type": "NeuralNetwork",
    "sizes": [
        15,
        8,
        4,
        3
    ],
    "layers": [
        {
            "weights": [],
            "biases": []
        },
        {
            "weights": [
                [
                    5.608503818511963,
                    -33.52943420410156,
                    -0.6042752861976624,
                    -2.80082368850708,
                    14.460735321044922,
                    -4.394249439239502,
                    -14.299569129943848,
                    10.49318790435791,
                    15.75041389465332,
                    -2.1076700687408447,
                    53.76707458496094,
                    -28.311965942382812,
                    16.952369689941406,
                    -23.057575225830078,
                    31.057161331176758
                ],
                [
                    11.464347839355469,
                    -14.822917938232422,
                    -1.2168943881988525,
                    5.802829742431641,
                    -15.501856803894043,
                    9.747737884521484,
                    -13.57730770111084,
                    5.355251312255859,
                    18.43598747253418,
                    1.1347715854644775,
                    -0.7911363244056702,
                    -2.3791589736938477,
                    10.075237274169922,
                    0.9645317792892456,
                    -17.425622940063477
                ],
                [
                    17.28912925720215,
                    -8.775284767150879,
                    11.815423011779785,
                    -0.3040677011013031,
                    9.048678398132324,
                    8.321850776672363,
                    -22.071277618408203,
                    0.7436779737472534,
                    -20.632707595825195,
                    -25.4947566986084,
                    -13.665238380432129,
                    -45.15850830078125,
                    -25.30392837524414,
                    -16.03365707397461,
                    -4.337401390075684
                ],
                [
                    -12.170428276062012,
                    11.43588638305664,
                    14.582064628601074,
                    -7.56141996383667,
                    75.90624237060547,
                    23.589622497558594,
                    5.202230930328369,
                    17.284637451171875,
                    42.84773635864258,
                    4.258606433868408,
                    2.4755940437316895,
                    -17.043025970458984,
                    -0.5921521186828613,
                    -20.980628967285156,
                    40.45301818847656
                ],
                [
                    -13.514545440673828,
                    47.85334014892578,
                    -4.1155686378479,
                    26.47775650024414,
                    14.359793663024902,
                    12.19039249420166,
                    -3.432347059249878,
                    15.151193618774414,
                    -30.059194564819336,
                    4.481351852416992,
                    16.21480369567871,
                    47.749176025390625,
                    -2.8721940517425537,
                    -25.596099853515625,
                    52.10066604614258
                ],
                [
                    16.181665420532227,
                    -3.8717668056488037,
                    45.22692108154297,
                    25.19267463684082,
                    -16.099872589111328,
                    2.83817720413208,
                    34.170833587646484,
                    19.336345672607422,
                    -38.34075164794922,
                    15.384856224060059,
                    6.180446624755859,
                    -24.72687339782715,
                    -21.796777725219727,
                    19.65707015991211,
                    -20.027854919433594
                ],
                [
                    7.10150146484375,
                    -1.8305975198745728,
                    -5.79850435256958,
                    4.464606285095215,
                    2.514838457107544,
                    12.966018676757812,
                    0.4944058060646057,
                    13.913386344909668,
                    2.684532403945923,
                    7.340739727020264,
                    -2.742298126220703,
                    2.9132981300354004,
                    -20.79758644104004,
                    -4.655777931213379,
                    23.15424156188965
                ],
                [
                    -20.101545333862305,
                    13.828596115112305,
                    -14.039753913879395,
                    23.249202728271484,
                    50.227935791015625,
                    -32.25634765625,
                    21.53595733642578,
                    15.873279571533203,
                    -13.49219799041748,
                    -11.151850700378418,
                    7.7338547706604,
                    -32.50711441040039,
                    -29.47519302368164,
                    38.3446159362793,
                    -44.557613372802734
                ]
            ],
            "biases": [
                -10.232538223266602,
                -9.294781684875488,
                -0.7223424315452576,
                -51.71976089477539,
                -13.836698532104492,
                14.10859203338623,
                -25.198118209838867,
                -28.77918243408203
            ]
        },
        {
            "weights": [
                [
                    16.382614135742188,
                    -52.31363296508789,
                    43.30278778076172,
                    -24.11383056640625,
                    -47.99169158935547,
                    -22.525938034057617,
                    -34.4611930847168,
                    -26.422094345092773
                ],
                [
                    -38.77418518066406,
                    -26.20311164855957,
                    29.074010848999023,
                    -2.9780726432800293,
                    -26.033279418945312,
                    1.639227271080017,
                    -1.6842299699783325,
                    -25.503299713134766
                ],
                [
                    29.964197158813477,
                    -3.1105356216430664,
                    2.1280505657196045,
                    -50.676849365234375,
                    18.55789566040039,
                    -55.793182373046875,
                    29.812768936157227,
                    34.77429962158203
                ],
                [
                    59.72792053222656,
                    -1.097748875617981,
                    -22.41378402709961,
                    -61.42469787597656,
                    11.830265045166016,
                    -60.82919692993164,
                    1.4040135145187378,
                    9.076292991638184
                ]
            ],
            "biases": [
                57.7708625793457,
                21.801036834716797,
                -25.488046646118164,
                -10.59229564666748
            ]
        },
        {
            "weights": [
                [
                    2.3536810874938965,
                    8.44079875946045,
                    29.983497619628906,
                    -1.648305058479309
                ],
                [
                    -1.0325775146484375,
                    35.852394104003906,
                    -1.0183663368225098,
                    2.386977195739746
                ],
                [
                    2.203867197036743,
                    -0.9211015701293945,
                    1.4596762657165527,
                    -1.1826632022857666
                ]
            ],
            "biases": [
                0.09838516265153885,
                -0.06750960648059845,
                0.0874970331788063
            ]
        }
    ],
    "inputLookup": null,
    "inputLookupLength": 0,
    "outputLookup": null,
    "outputLookupLength": 0,
    "options": {
        "inputSize": 0,
        "outputSize": 0,
        "binaryThresh": 0.5,
        "hiddenLayers": [
            8,
            4
        ],
        "activation": "sigmoid"
    },
    "trainOpts": {
        "activation": "sigmoid",
        "iterations": 20000,
        "errorThresh": 0.005,
        "log": false,
        "logPeriod": 10,
        "leakyReluAlpha": 0.01,
        "learningRate": 0.3,
        "momentum": 0.1,
        "callbackPeriod": 10,
        "timeout": "Infinity",
        "beta1": 0.9,
        "beta2": 0.999,
        "epsilon": 1e-8
    }
}