{
    "type": "NeuralNetwork",
    "sizes": [
        15,
        8,
        4,
        3
    ],
    "layers": [
        {
            "weights": [],
            "biases": []
        },
        {
            "weights": [
                [
                    -14.88182544708252,
                    -6.779704570770264,
                    29.737037658691406,
                    -35.20119857788086,
                    17.583683013916016,
                    50.64643096923828,
                    -8.779058456420898,
                    -47.61760711669922,
                    65.05584716796875,
                    2.334913492202759,
                    -17.664840698242188,
                    -28.29871940612793,
                    11.434147834777832,
                    -30.979537963867188,
                    30.560977935791016
                ],
                [
                    1.7439556121826172,
                    25.864887237548828,
                    -16.15296745300293,
                    17.94373321533203,
                    22.573810577392578,
                    -17.651897430419922,
                    -18.62622833251953,
                    21.09384536743164,
                    -8.161163330078125,
                    38.17265319824219,
                    39.262569427490234,
                    35.14021301269531,
                    -44.01588821411133,
                    26.88390350341797,
                    0.2400544136762619
                ],
                [
                    -8.158215522766113,
                    -10.122425079345703,
                    1.1698698997497559,
                    4.166201114654541,
                    0.4629245102405548,
                    3.662795305252075,
                    7.3897223472595215,
                    1.5025054216384888,
                    -2.394205331802368,
                    -1.2351868152618408,
                    -1.192413330078125,
                    -4.601629734039307,
                    8.086212158203125,
                    5.228686332702637,
                    -5.189549446105957
                ],
                [
                    17.12911605834961,
                    -35.482810974121094,
                    26.992998123168945,
                    8.059549331665039,
                    -27.0990047454834,
                    3.031188726425171,
                    17.086151123046875,
                    -15.867951393127441,
                    20.84229850769043,
                    11.874372482299805,
                    11.643946647644043,
                    -11.172894477844238,
                    31.724824905395508,
                    1.2544541358947754,
                    8.548599243164062
                ],
                [
                    -0.8383963108062744,
                    -25.16689682006836,
                    25.72250747680664,
                    13.298633575439453,
                    -5.749906539916992,
                    -11.935359954833984,
                    0.9464650750160217,
                    18.023366928100586,
                    8.145742416381836,
                    9.86989688873291,
                    11.96485710144043,
                    -5.31158447265625,
                    -1.7386515140533447,
                    -7.482655048370361,
                    14.888566017150879
                ],
                [
                    21.63921356201172,
                    13.545679092407227,
                    -10.745291709899902,
                    -16.38050079345703,
                    -4.620095252990723,
                    21.041549682617188,
                    0.2905268371105194,
                    3.9339404106140137,
                    8.962789535522461,
                    5.2127203941345215,
                    -15.480717658996582,
                    -3.9847466945648193,
                    -7.383947372436523,
                    0.23596075177192688,
                    3.0211305618286133
                ],
                [
                    -0.60399329662323,
                    16.446218490600586,
                    -4.200226306915283,
                    2.585209846496582,
                    38.32551574707031,
                    -1.7507383823394775,
                    1.8554075956344604,
                    -22.728694915771484,
                    -13.591407775878906,
                    -21.647172927856445,
                    8.61904239654541,
                    16.804258346557617,
                    11.320096015930176,
                    -4.890147686004639,
                    -17.684566497802734
                ],
                [
                    -6.355496406555176,
                    17.22989845275879,
                    -17.786998748779297,
                    0.7115182876586914,
                    -3.306122303009033,
                    7.641057968139648,
                    30.833377838134766,
                    13.638190269470215,
                    -22.37662124633789,
                    -18.703575134277344,
                    -8.153084754943848,
                    -12.681859016418457,
                    14.344765663146973,
                    9.094367980957031,
                    5.023512363433838
                ]
            ],
            "biases": [
                -4.792718887329102,
                -18.396846771240234,
                -3.898625373840332,
                0.00867103785276413,
                -17.90066909790039,
                -21.702165603637695,
                -42.035465240478516,
                -30.646629333496094
            ]
        },
        {
            "weights": [
                [
                    -47.92305374145508,
                    -40.696537017822266,
                    5.003554821014404,
                    -9.7164945602417,
                    7.560604095458984,
                    35.697208404541016,
                    -3.426518678665161,
                    -72.24031829833984
                ],
                [
                    -34.66984939575195,
                    1.7362531423568726,
                    38.996822357177734,
                    -32.15042495727539,
                    -36.47309875488281,
                    -40.49262237548828,
                    -72.34748077392578,
                    -34.96418762207031
                ],
                [
                    1.1775126457214355,
                    -60.76337814331055,
                    -68.80957794189453,
                    54.668277740478516,
                    -1.4586565494537354,
                    -61.09288024902344,
                    -1.232081413269043,
                    -62.203895568847656
                ],
                [
                    36.26205825805664,
                    -37.15473556518555,
                    21.802555084228516,
                    -69.34285736083984,
                    34.183624267578125,
                    4.03190803527832,
                    -27.976961135864258,
                    -6.633631706237793
                ]
            ],
            "biases": [
                6.495408535003662,
                28.395753860473633,
                6.664954662322998,
                -23.982263565063477
            ]
        },
        {
            "weights": [
                [
                    2.084611177444458,
                    1.0557581186294556,
                    1.366899847984314,
                    3.9605553150177
                ],
                [
                    1.0949015617370605,
                    2.2882158756256104,
                    1.9030566215515137,
                    2.099036455154419
                ],
                [
                    -0.506944477558136,
                    1.2607847452163696,
                    0.32999399304389954,
                    -1.8049989938735962
                ]
            ],
            "biases": [
                -0.32487013936042786,
                -0.5352813005447388,
                -0.16088704764842987
            ]
        }
    ],
    "inputLookup": null,
    "inputLookupLength": 0,
    "outputLookup": null,
    "outputLookupLength": 0,
    "options": {
        "inputSize": 0,
        "outputSize": 0,
        "binaryThresh": 0.5,
        "hiddenLayers": [
            8,
            4
        ],
        "activation": "sigmoid"
    },
    "trainOpts": {
        "activation": "sigmoid",
        "iterations": 20000,
        "errorThresh": 0.005,
        "log": false,
        "logPeriod": 10,
        "leakyReluAlpha": 0.01,
        "learningRate": 0.3,
        "momentum": 0.1,
        "callbackPeriod": 10,
        "timeout": "Infinity",
        "beta1": 0.9,
        "beta2": 0.999,
        "epsilon": 1e-8
    }
}