{
    "type": "NeuralNetwork",
    "sizes": [
        5,
        8,
        4,
        3
    ],
    "layers": [
        {
            "weights": [],
            "biases": []
        },
        {
            "weights": [
                [
                    -8.501158714294434,
                    -8.670408248901367,
                    11.238444328308105,
                    -7.87949800491333,
                    6.750094890594482
                ],
                [
                    18.724254608154297,
                    6.360611438751221,
                    2.3173141479492188,
                    -6.037203788757324,
                    -9.736740112304688
                ],
                [
                    11.667012214660645,
                    2.6873605251312256,
                    -3.5724520683288574,
                    6.03273868560791,
                    -17.119552612304688
                ],
                [
                    -7.822664737701416,
                    -5.267714500427246,
                    2.198444366455078,
                    -9.164630889892578,
                    2.31491756439209
                ],
                [
                    7.576105117797852,
                    -7.262427806854248,
                    -5.687324047088623,
                    -0.6419999599456787,
                    -9.829529762268066
                ],
                [
                    15.207836151123047,
                    13.189191818237305,
                    8.257491111755371,
                    -5.920358180999756,
                    1.8079224824905396
                ],
                [
                    2.4343461990356445,
                    -4.4080705642700195,
                    3.5077006816864014,
                    2.0918145179748535,
                    2.2927467823028564
                ],
                [
                    2.448896884918213,
                    -4.259856700897217,
                    4.472525119781494,
                    -9.169374465942383,
                    11.462575912475586
                ]
            ],
            "biases": [
                -2.199138641357422,
                -12.136170387268066,
                -7.207681179046631,
                -2.8099465370178223,
                -5.020155429840088,
                -14.457864761352539,
                -5.292342185974121,
                -4.839154243469238
            ]
        },
        {
            "weights": [
                [
                    0.5528079271316528,
                    1.5192790031433105,
                    -2.2811567783355713,
                    0.8147796988487244,
                    -10.636048316955566,
                    0.1812799870967865,
                    -18.698389053344727,
                    -1.3828831911087036
                ],
                [
                    -12.280674934387207,
                    -0.8171612620353699,
                    -1.3067506551742554,
                    -12.190305709838867,
                    -3.2180016040802,
                    0.004950602538883686,
                    0.31947052478790283,
                    -0.609997570514679
                ],
                [
                    -3.051835775375366,
                    6.725063800811768,
                    -0.7634784579277039,
                    3.7870802879333496,
                    -9.220415115356445,
                    -5.907777786254883,
                    0.22271543741226196,
                    -0.8715217709541321
                ],
                [
                    1.431527853012085,
                    7.4476637840271,
                    0.20703378319740295,
                    -2.6621079444885254,
                    -11.462393760681152,
                    -12.216190338134766,
                    0.4413437247276306,
                    -2.0327646732330322
                ]
            ],
            "biases": [
                -3.2970492839813232,
                -2.928873062133789,
                -1.5924121141433716,
                -2.920511484146118
            ]
        },
        {
            "weights": [
                [
                    5.382620334625244,
                    3.729696750640869,
                    0.3369911015033722,
                    -0.7340382933616638
                ],
                [
                    2.7323966026306152,
                    -5.945714473724365,
                    -1.7601574659347534,
                    1.487157940864563
                ],
                [
                    -1.2645314931869507,
                    -2.312652587890625,
                    3.046330690383911,
                    3.7916805744171143
                ]
            ],
            "biases": [
                0.1825169026851654,
                0.47620460391044617,
                0.18727029860019684
            ]
        }
    ],
    "inputLookup": null,
    "inputLookupLength": 0,
    "outputLookup": null,
    "outputLookupLength": 0,
    "options": {
        "inputSize": 0,
        "outputSize": 0,
        "binaryThresh": 0.5,
        "hiddenLayers": [
            8,
            4
        ],
        "activation": "sigmoid"
    },
    "trainOpts": {
        "activation": "sigmoid",
        "iterations": 20000,
        "errorThresh": 0.005,
        "log": false,
        "logPeriod": 10,
        "leakyReluAlpha": 0.01,
        "learningRate": 0.3,
        "momentum": 0.1,
        "callbackPeriod": 10,
        "timeout": "Infinity",
        "beta1": 0.9,
        "beta2": 0.999,
        "epsilon": 1e-8
    }
}