{
    "type": "NeuralNetwork",
    "sizes": [
        15,
        8,
        4,
        3
    ],
    "layers": [
        {
            "weights": [],
            "biases": []
        },
        {
            "weights": [
                [
                    -25.493745803833008,
                    11.042064666748047,
                    23.081430435180664,
                    6.785916805267334,
                    13.907673835754395,
                    -17.63081169128418,
                    28.014833450317383,
                    -31.6247501373291,
                    22.50179672241211,
                    9.551551818847656,
                    -13.085199356079102,
                    28.62997055053711,
                    -8.900888442993164,
                    10.637129783630371,
                    39.84299087524414
                ],
                [
                    32.40304946899414,
                    7.914525032043457,
                    -11.430245399475098,
                    -44.633934020996094,
                    10.112614631652832,
                    27.786348342895508,
                    6.054123401641846,
                    15.293498039245605,
                    -24.69209861755371,
                    2.6637861728668213,
                    -12.334197044372559,
                    17.455020904541016,
                    23.793502807617188,
                    -5.711249351501465,
                    13.800629615783691
                ],
                [
                    -4.824094295501709,
                    -7.014729976654053,
                    -3.5685532093048096,
                    12.445123672485352,
                    11.720917701721191,
                    8.792404174804688,
                    26.765518188476562,
                    3.167553663253784,
                    -25.419349670410156,
                    -17.944612503051758,
                    -3.1398732662200928,
                    22.8901424407959,
                    -24.103782653808594,
                    17.866634368896484,
                    0.6276880502700806
                ],
                [
                    -23.70979881286621,
                    -28.711708068847656,
                    -16.323909759521484,
                    -11.149971008300781,
                    20.595775604248047,
                    27.02283477783203,
                    6.90769624710083,
                    -48.1998176574707,
                    -24.240930557250977,
                    -19.313196182250977,
                    19.7275333404541,
                    -23.883058547973633,
                    14.403189659118652,
                    -1.2527214288711548,
                    30.967910766601562
                ],
                [
                    2.6610848903656006,
                    -17.069473266601562,
                    -8.158540725708008,
                    -16.980966567993164,
                    29.601438522338867,
                    26.518169403076172,
                    17.582658767700195,
                    -7.151474952697754,
                    -22.98787498474121,
                    20.39688491821289,
                    6.737757205963135,
                    23.716388702392578,
                    22.265405654907227,
                    12.72785472869873,
                    -5.736254692077637
                ],
                [
                    -2.661078929901123,
                    15.458221435546875,
                    -39.008209228515625,
                    -33.18489074707031,
                    4.965062618255615,
                    1.7892959117889404,
                    2.7557218074798584,
                    32.024383544921875,
                    28.436697006225586,
                    6.061161518096924,
                    39.232357025146484,
                    45.99843978881836,
                    -5.547534465789795,
                    51.24037170410156,
                    -15.434331893920898
                ],
                [
                    21.841880798339844,
                    -10.868025779724121,
                    -25.098617553710938,
                    1.5688214302062988,
                    41.481815338134766,
                    37.153011322021484,
                    59.786922454833984,
                    11.094511985778809,
                    -25.090538024902344,
                    12.655928611755371,
                    34.57896041870117,
                    35.82404327392578,
                    -2.054764986038208,
                    -15.387561798095703,
                    -33.228477478027344
                ],
                [
                    27.623144149780273,
                    19.063739776611328,
                    9.080290794372559,
                    -35.417762756347656,
                    27.338701248168945,
                    -0.7285688519477844,
                    14.458377838134766,
                    -27.024959564208984,
                    16.428852081298828,
                    -23.609926223754883,
                    17.29299545288086,
                    2.985694169998169,
                    -1.5385836362838745,
                    21.544382095336914,
                    24.650625228881836
                ]
            ],
            "biases": [
                1.7886502742767334,
                -18.458236694335938,
                31.74953269958496,
                44.5926399230957,
                -0.9877352714538574,
                -40.2662467956543,
                -13.684368133544922,
                -23.405855178833008
            ]
        },
        {
            "weights": [
                [
                    -14.354299545288086,
                    -10.878740310668945,
                    -7.4528608322143555,
                    -18.481128692626953,
                    -5.598940372467041,
                    -11.002836227416992,
                    -3.9382822513580322,
                    11.058442115783691
                ],
                [
                    -28.182626724243164,
                    -2.655339479446411,
                    -8.895787239074707,
                    -19.551668167114258,
                    -27.254995346069336,
                    -25.685123443603516,
                    -1.566641926765442,
                    20.23965072631836
                ],
                [
                    -14.251461029052734,
                    11.823746681213379,
                    -37.68144607543945,
                    -13.885172843933105,
                    -32.21158218383789,
                    -34.56513977050781,
                    21.204944610595703,
                    -12.455451011657715
                ],
                [
                    0.597645103931427,
                    -46.35533142089844,
                    -13.265347480773926,
                    -30.097915649414062,
                    27.988218307495117,
                    -27.87200927734375,
                    -26.852827072143555,
                    2.465698003768921
                ]
            ],
            "biases": [
                16.827211380004883,
                29.16863441467285,
                27.545055389404297,
                10.711750984191895
            ]
        },
        {
            "weights": [
                [
                    81.4575424194336,
                    -3.379690408706665,
                    -35.91802978515625,
                    -0.609037458896637
                ],
                [
                    -1.9521100521087646,
                    -0.18465259671211243,
                    8.815523147583008,
                    77.50078582763672
                ],
                [
                    -14.636869430541992,
                    10.538394927978516,
                    -3.9543652534484863,
                    4.534999370574951
                ]
            ],
            "biases": [
                0.12206685543060303,
                -0.004166732542216778,
                0.23130148649215698
            ]
        }
    ],
    "inputLookup": null,
    "inputLookupLength": 0,
    "outputLookup": null,
    "outputLookupLength": 0,
    "options": {
        "inputSize": 0,
        "outputSize": 0,
        "binaryThresh": 0.5,
        "hiddenLayers": [
            8,
            4
        ],
        "activation": "sigmoid"
    },
    "trainOpts": {
        "activation": "sigmoid",
        "iterations": 20000,
        "errorThresh": 0.005,
        "log": false,
        "logPeriod": 10,
        "leakyReluAlpha": 0.01,
        "learningRate": 0.3,
        "momentum": 0.1,
        "callbackPeriod": 10,
        "timeout": "Infinity",
        "beta1": 0.9,
        "beta2": 0.999,
        "epsilon": 1e-8
    }
}