{
    "type": "NeuralNetwork",
    "sizes": [
        15,
        8,
        4,
        3
    ],
    "layers": [
        {
            "weights": [],
            "biases": []
        },
        {
            "weights": [
                [
                    -7.941031455993652,
                    -25.969205856323242,
                    1.1037174463272095,
                    -36.76188659667969,
                    27.761775970458984,
                    -16.117332458496094,
                    9.085784912109375,
                    19.9611759185791,
                    52.58716583251953,
                    -15.104499816894531,
                    -10.872011184692383,
                    -17.76025390625,
                    -9.630058288574219,
                    13.02242374420166,
                    27.552955627441406
                ],
                [
                    -20.12447166442871,
                    16.949508666992188,
                    0.1863795667886734,
                    -5.679833889007568,
                    38.03694152832031,
                    23.028301239013672,
                    10.856584548950195,
                    -12.977839469909668,
                    -1.3395463228225708,
                    -23.570512771606445,
                    11.366191864013672,
                    11.092109680175781,
                    -33.73041534423828,
                    29.508155822753906,
                    -33.33964920043945
                ],
                [
                    -43.518951416015625,
                    -20.828062057495117,
                    8.863767623901367,
                    -3.251176357269287,
                    20.55122947692871,
                    8.387921333312988,
                    -11.442811012268066,
                    31.89350128173828,
                    -12.329792976379395,
                    -22.845056533813477,
                    12.160632133483887,
                    -22.27104949951172,
                    -2.416086435317993,
                    -14.311039924621582,
                    3.4112753868103027
                ],
                [
                    -19.094934463500977,
                    15.318890571594238,
                    -7.2795610427856445,
                    -11.72171401977539,
                    11.099032402038574,
                    -37.425086975097656,
                    6.5030999183654785,
                    18.184839248657227,
                    -32.62017822265625,
                    -37.09319305419922,
                    34.96282196044922,
                    -3.5577266216278076,
                    3.8830626010894775,
                    49.44001007080078,
                    17.1837215423584
                ],
                [
                    -28.677955627441406,
                    -0.43533697724342346,
                    -1.8116827011108398,
                    -1.614212155342102,
                    -27.841367721557617,
                    -10.72797679901123,
                    -31.30668830871582,
                    -46.30645751953125,
                    29.300447463989258,
                    22.086769104003906,
                    3.3073699474334717,
                    -5.74208927154541,
                    -9.478737831115723,
                    40.455074310302734,
                    6.978564262390137
                ],
                [
                    11.730024337768555,
                    -8.166398048400879,
                    27.058513641357422,
                    24.096729278564453,
                    41.42660903930664,
                    15.804998397827148,
                    -15.258028984069824,
                    -5.699077129364014,
                    20.778610229492188,
                    22.06270980834961,
                    10.2395658493042,
                    -28.65927505493164,
                    -13.49167251586914,
                    -4.8421502113342285,
                    -6.742108345031738
                ],
                [
                    -5.951212406158447,
                    3.415660858154297,
                    5.638492107391357,
                    11.442375183105469,
                    -8.064496994018555,
                    5.38019323348999,
                    -8.532804489135742,
                    11.624883651733398,
                    -1.3197884559631348,
                    6.396740913391113,
                    -0.42539504170417786,
                    -12.844230651855469,
                    13.105587005615234,
                    9.579776763916016,
                    -0.398284912109375
                ],
                [
                    14.487059593200684,
                    21.329124450683594,
                    26.808080673217773,
                    -14.419700622558594,
                    28.686294555664062,
                    10.953886032104492,
                    -15.968449592590332,
                    25.785205841064453,
                    -1.6067744493484497,
                    -35.41843795776367,
                    3.4149622917175293,
                    -46.828678131103516,
                    -3.30983829498291,
                    45.04214096069336,
                    -7.074134349822998
                ]
            ],
            "biases": [
                6.639017581939697,
                -14.933420181274414,
                7.006861209869385,
                24.263290405273438,
                5.146590232849121,
                -20.006593704223633,
                -3.9164321422576904,
                11.85232925415039
            ]
        },
        {
            "weights": [
                [
                    -13.943617820739746,
                    -17.496349334716797,
                    27.26446533203125,
                    -27.90030860900879,
                    20.42963981628418,
                    -27.197477340698242,
                    -28.693880081176758,
                    39.10805130004883
                ],
                [
                    -0.9057255387306213,
                    -1.3994826078414917,
                    -2.467153549194336,
                    -38.16230773925781,
                    -48.266170501708984,
                    -3.3455145359039307,
                    -0.07283351570367813,
                    -4.829124927520752
                ],
                [
                    -26.886796951293945,
                    -33.07135009765625,
                    -4.122347354888916,
                    -19.912479400634766,
                    5.237573146820068,
                    -27.088476181030273,
                    -29.962158203125,
                    -24.956571578979492
                ],
                [
                    -0.3575853705406189,
                    -39.48042297363281,
                    23.59503746032715,
                    8.861066818237305,
                    -23.063488006591797,
                    -4.039114952087402,
                    -21.631446838378906,
                    27.605541229248047
                ]
            ],
            "biases": [
                -1.928856372833252,
                2.3941943645477295,
                23.42612075805664,
                -27.40785026550293
            ]
        },
        {
            "weights": [
                [
                    98.00758361816406,
                    -1.410313367843628,
                    50.78702926635742,
                    -0.3513736128807068
                ],
                [
                    1.450600504875183,
                    1.3754040002822876,
                    0.8757781982421875,
                    1.0266666412353516
                ],
                [
                    1.6677508354187012,
                    -2.129432201385498,
                    -2.282118558883667,
                    -0.593092143535614
                ]
            ],
            "biases": [
                0.10058321058750153,
                0.1255040168762207,
                0.39600980281829834
            ]
        }
    ],
    "inputLookup": null,
    "inputLookupLength": 0,
    "outputLookup": null,
    "outputLookupLength": 0,
    "options": {
        "inputSize": 0,
        "outputSize": 0,
        "binaryThresh": 0.5,
        "hiddenLayers": [
            8,
            4
        ],
        "activation": "sigmoid"
    },
    "trainOpts": {
        "activation": "sigmoid",
        "iterations": 20000,
        "errorThresh": 0.005,
        "log": false,
        "logPeriod": 10,
        "leakyReluAlpha": 0.01,
        "learningRate": 0.3,
        "momentum": 0.1,
        "callbackPeriod": 10,
        "timeout": "Infinity",
        "beta1": 0.9,
        "beta2": 0.999,
        "epsilon": 1e-8
    }
}