{
    "type": "NeuralNetwork",
    "sizes": [
        5,
        8,
        4,
        3
    ],
    "layers": [
        {
            "weights": [],
            "biases": []
        },
        {
            "weights": [
                [
                    -0.2889251708984375,
                    -2.4395523071289062,
                    -2.9818739891052246,
                    -7.433416843414307,
                    6.168950080871582
                ],
                [
                    14.717727661132812,
                    -10.037941932678223,
                    12.146852493286133,
                    8.284843444824219,
                    16.95556640625
                ],
                [
                    -12.224812507629395,
                    2.8393847942352295,
                    -8.17426872253418,
                    8.500946044921875,
                    -7.107901096343994
                ],
                [
                    -10.522770881652832,
                    8.913321495056152,
                    9.3494234085083,
                    8.056575775146484,
                    -5.855398178100586
                ],
                [
                    -2.2210004329681396,
                    -5.037717819213867,
                    -4.057499885559082,
                    12.991671562194824,
                    8.673702239990234
                ],
                [
                    -10.906805992126465,
                    -10.205151557922363,
                    5.677415370941162,
                    -6.459390640258789,
                    -4.950320720672607
                ],
                [
                    -2.1784543991088867,
                    -4.945286750793457,
                    7.850772380828857,
                    -7.82657527923584,
                    -6.729066371917725
                ],
                [
                    10.59843635559082,
                    12.168858528137207,
                    -4.305048942565918,
                    -8.28788948059082,
                    -4.274542808532715
                ]
            ],
            "biases": [
                -3.7088308334350586,
                -22.225318908691406,
                -0.4560794234275818,
                0.10374726355075836,
                -11.660896301269531,
                1.5105489492416382,
                -3.579315662384033,
                -11.641197204589844
            ]
        },
        {
            "weights": [
                [
                    -1.06972336769104,
                    0.06167280301451683,
                    -6.911299705505371,
                    -22.369861602783203,
                    -10.729242324829102,
                    1.2952731847763062,
                    0.8816041350364685,
                    -0.8841302990913391
                ],
                [
                    -1.429736614227295,
                    -1.6665410995483398,
                    0.12501616775989532,
                    -2.023752450942993,
                    -0.9727807641029358,
                    -1.7569561004638672,
                    0.7079991102218628,
                    -20.92719268798828
                ],
                [
                    -2.348130464553833,
                    -14.038153648376465,
                    1.4806487560272217,
                    -0.0532512329518795,
                    0.694210946559906,
                    2.507688045501709,
                    -2.312856912612915,
                    2.2677173614501953
                ],
                [
                    1.1401392221450806,
                    9.226524353027344,
                    0.12644179165363312,
                    -1.2656551599502563,
                    1.2248746156692505,
                    2.2523252964019775,
                    2.9223756790161133,
                    -1.194706678390503
                ]
            ],
            "biases": [
                -1.383432388305664,
                -0.04711331054568291,
                -3.502793550491333,
                -12.326433181762695
            ]
        },
        {
            "weights": [
                [
                    2.7705657482147217,
                    2.485675096511841,
                    0.7782591581344604,
                    -1.3499727249145508
                ],
                [
                    3.196608781814575,
                    -1.014570713043213,
                    1.8406834602355957,
                    0.3289114534854889
                ],
                [
                    0.16224439442157745,
                    1.9070605039596558,
                    2.5087735652923584,
                    1.6119099855422974
                ]
            ],
            "biases": [
                0.14734511077404022,
                0.11768031865358353,
                0.004085690714418888
            ]
        }
    ],
    "inputLookup": null,
    "inputLookupLength": 0,
    "outputLookup": null,
    "outputLookupLength": 0,
    "options": {
        "inputSize": 0,
        "outputSize": 0,
        "binaryThresh": 0.5,
        "hiddenLayers": [
            8,
            4
        ],
        "activation": "sigmoid"
    },
    "trainOpts": {
        "activation": "sigmoid",
        "iterations": 20000,
        "errorThresh": 0.005,
        "log": false,
        "logPeriod": 10,
        "leakyReluAlpha": 0.01,
        "learningRate": 0.3,
        "momentum": 0.1,
        "callbackPeriod": 10,
        "timeout": "Infinity",
        "beta1": 0.9,
        "beta2": 0.999,
        "epsilon": 1e-8
    }
}