{
    "type": "NeuralNetwork",
    "sizes": [
        5,
        8,
        4,
        3
    ],
    "layers": [
        {
            "weights": [],
            "biases": []
        },
        {
            "weights": [
                [
                    -7.409597873687744,
                    11.711270332336426,
                    -4.984365940093994,
                    -6.0611572265625,
                    10.450634956359863
                ],
                [
                    -12.81621265411377,
                    5.045623302459717,
                    5.717184066772461,
                    -10.7553071975708,
                    -14.96950626373291
                ],
                [
                    11.931388854980469,
                    -7.321745872497559,
                    -3.6674652099609375,
                    19.328035354614258,
                    11.178482055664062
                ],
                [
                    10.922830581665039,
                    10.245329856872559,
                    5.0375871658325195,
                    5.791017055511475,
                    -3.462860345840454
                ],
                [
                    10.86767578125,
                    -9.81279182434082,
                    -4.971508979797363,
                    -6.717281341552734,
                    0.13848283886909485
                ],
                [
                    -3.045645236968994,
                    -10.89284896850586,
                    -12.086297035217285,
                    -3.720188856124878,
                    7.635941028594971
                ],
                [
                    -6.693661212921143,
                    -0.820572555065155,
                    -9.808761596679688,
                    10.293373107910156,
                    4.446443557739258
                ],
                [
                    7.547341823577881,
                    -3.1337056159973145,
                    8.555863380432129,
                    -0.5856293439865112,
                    5.163626670837402
                ]
            ],
            "biases": [
                -13.240923881530762,
                -0.40145599842071533,
                -20.45432472229004,
                -20.568300247192383,
                -6.203897476196289,
                -2.2732410430908203,
                -10.185105323791504,
                -11.207723617553711
            ]
        },
        {
            "weights": [
                [
                    -3.6639273166656494,
                    -0.1687222123146057,
                    -21.892629623413086,
                    -0.11171584576368332,
                    0.02311493270099163,
                    -6.574655532836914,
                    0.12284334003925323,
                    0.04852410778403282
                ],
                [
                    -4.780765056610107,
                    8.574165344238281,
                    7.284292221069336,
                    3.589449882507324,
                    9.269131660461426,
                    -13.031750679016113,
                    -4.736861228942871,
                    0.4560578465461731
                ],
                [
                    0.6461430788040161,
                    -0.44186776876449585,
                    0.17264467477798462,
                    -0.0739697590470314,
                    -0.5202861428260803,
                    -1.2918281555175781,
                    -2.546722412109375,
                    -15.400313377380371
                ],
                [
                    1.5740703344345093,
                    -13.05858039855957,
                    -3.000654935836792,
                    2.3288862705230713,
                    1.8589552640914917,
                    1.7205629348754883,
                    1.9196579456329346,
                    -0.5062001943588257
                ]
            ],
            "biases": [
                -2.380232095718384,
                -11.477572441101074,
                -2.393847703933716,
                -3.0301084518432617
            ]
        },
        {
            "weights": [
                [
                    0.7851420640945435,
                    -0.994877278804779,
                    2.9817490577697754,
                    1.2038967609405518
                ],
                [
                    5.253639221191406,
                    -1.3409385681152344,
                    0.2647874057292938,
                    -1.2806369066238403
                ],
                [
                    -0.9738951921463013,
                    -1.561128854751587,
                    3.104013442993164,
                    -2.5810775756835938
                ]
            ],
            "biases": [
                -0.11547808349132538,
                -0.051997482776641846,
                0.09365513920783997
            ]
        }
    ],
    "inputLookup": null,
    "inputLookupLength": 0,
    "outputLookup": null,
    "outputLookupLength": 0,
    "options": {
        "inputSize": 0,
        "outputSize": 0,
        "binaryThresh": 0.5,
        "hiddenLayers": [
            8,
            4
        ],
        "activation": "sigmoid"
    },
    "trainOpts": {
        "activation": "sigmoid",
        "iterations": 20000,
        "errorThresh": 0.005,
        "log": false,
        "logPeriod": 10,
        "leakyReluAlpha": 0.01,
        "learningRate": 0.3,
        "momentum": 0.1,
        "callbackPeriod": 10,
        "timeout": "Infinity",
        "beta1": 0.9,
        "beta2": 0.999,
        "epsilon": 1e-8
    }
}