{
    "type": "NeuralNetwork",
    "sizes": [
        5,
        8,
        4,
        3
    ],
    "layers": [
        {
            "weights": [],
            "biases": []
        },
        {
            "weights": [
                [
                    5.241342544555664,
                    -8.42073917388916,
                    10.898429870605469,
                    4.258688926696777,
                    3.480116128921509
                ],
                [
                    5.7641119956970215,
                    1.2508021593093872,
                    -3.5626494884490967,
                    3.8650963306427,
                    -3.000318765640259
                ],
                [
                    5.160367488861084,
                    -5.29719877243042,
                    -9.494283676147461,
                    -5.334080219268799,
                    14.771571159362793
                ],
                [
                    0.8501990437507629,
                    8.077324867248535,
                    10.702001571655273,
                    7.797896385192871,
                    2.227590799331665
                ],
                [
                    -5.678536891937256,
                    -4.988348960876465,
                    4.892702102661133,
                    10.939440727233887,
                    3.2515368461608887
                ],
                [
                    2.4397475719451904,
                    -5.590975761413574,
                    10.296987533569336,
                    -7.3289899826049805,
                    8.695526123046875
                ],
                [
                    3.857635021209717,
                    -9.540698051452637,
                    5.77449369430542,
                    -1.4247819185256958,
                    9.090936660766602
                ],
                [
                    5.422060966491699,
                    -2.205777645111084,
                    9.26037311553955,
                    -5.042131423950195,
                    12.74615478515625
                ]
            ],
            "biases": [
                -6.886933326721191,
                -9.928689002990723,
                1.8970447778701782,
                -6.318358898162842,
                -7.774402618408203,
                -16.026325225830078,
                -5.135626316070557,
                -6.667966365814209
            ]
        },
        {
            "weights": [
                [
                    0.8105582594871521,
                    -6.664361476898193,
                    -9.423651695251465,
                    -0.4367830455303192,
                    -0.8021508455276489,
                    -2.4718053340911865,
                    -13.465124130249023,
                    -11.991217613220215
                ],
                [
                    -13.213555335998535,
                    0.1886969953775406,
                    -0.6010645627975464,
                    -1.8500715494155884,
                    -11.805150032043457,
                    0.1349296271800995,
                    -14.721832275390625,
                    -0.24324171245098114
                ],
                [
                    -0.7929026484489441,
                    -0.7207167744636536,
                    -0.741826593875885,
                    -4.699876308441162,
                    -3.671673059463501,
                    5.702281475067139,
                    -4.0622878074646,
                    7.383455753326416
                ],
                [
                    3.2054708003997803,
                    1.5523077249526978,
                    -3.126981735229492,
                    -4.715442657470703,
                    -1.841646671295166,
                    2.4279346466064453,
                    -0.5507924556732178,
                    -1.877833366394043
                ]
            ],
            "biases": [
                -1.736999273300171,
                -0.9167249202728271,
                -3.008408546447754,
                0.9706223607063293
            ]
        },
        {
            "weights": [
                [
                    0.2300042062997818,
                    0.21031272411346436,
                    1.3607999086380005,
                    2.815763473510742
                ],
                [
                    1.1646300554275513,
                    3.6450936794281006,
                    -1.068049430847168,
                    0.1632455736398697
                ],
                [
                    -4.358964443206787,
                    2.4671339988708496,
                    -0.41614675521850586,
                    -0.43707749247550964
                ]
            ],
            "biases": [
                -0.24655108153820038,
                -0.08283080160617828,
                -0.08123546838760376
            ]
        }
    ],
    "inputLookup": null,
    "inputLookupLength": 0,
    "outputLookup": null,
    "outputLookupLength": 0,
    "options": {
        "inputSize": 0,
        "outputSize": 0,
        "binaryThresh": 0.5,
        "hiddenLayers": [
            8,
            4
        ],
        "activation": "sigmoid"
    },
    "trainOpts": {
        "activation": "sigmoid",
        "iterations": 20000,
        "errorThresh": 0.005,
        "log": false,
        "logPeriod": 10,
        "leakyReluAlpha": 0.01,
        "learningRate": 0.3,
        "momentum": 0.1,
        "callbackPeriod": 10,
        "timeout": "Infinity",
        "beta1": 0.9,
        "beta2": 0.999,
        "epsilon": 1e-8
    }
}