{
    "type": "NeuralNetwork",
    "sizes": [
        5,
        8,
        4,
        1
    ],
    "layers": [
        {
            "weights": [],
            "biases": []
        },
        {
            "weights": [
                [
                    8.61835765838623,
                    2.6391961574554443,
                    -4.555508136749268,
                    2.372645854949951,
                    6.298611640930176
                ],
                [
                    3.1001956462860107,
                    2.847386598587036,
                    -3.984391927719116,
                    2.254154682159424,
                    -4.992455959320068
                ],
                [
                    -8.873954772949219,
                    7.064501762390137,
                    -1.1791361570358276,
                    11.00806713104248,
                    -3.5679845809936523
                ],
                [
                    -4.152359962463379,
                    6.407019138336182,
                    5.342453479766846,
                    -5.803249835968018,
                    1.255497932434082
                ],
                [
                    -3.021497964859009,
                    -5.294303894042969,
                    4.531645774841309,
                    -7.602965831756592,
                    2.6759769916534424
                ],
                [
                    -5.201178550720215,
                    -2.9378490447998047,
                    10.08405876159668,
                    -0.6960551142692566,
                    8.891891479492188
                ],
                [
                    12.009140968322754,
                    -7.492686748504639,
                    7.598428249359131,
                    -13.751598358154297,
                    1.8329129219055176
                ],
                [
                    0.20579464733600616,
                    -3.185558319091797,
                    -2.926848888397217,
                    -0.2366683930158615,
                    -1.1726906299591064
                ]
            ],
            "biases": [
                -13.013477325439453,
                -8.406832695007324,
                -1.3915883302688599,
                -10.851346015930176,
                -4.366765022277832,
                -7.386136531829834,
                2.7005488872528076,
                -1.693021535873413
            ]
        },
        {
            "weights": [
                [
                    -0.9991270303726196,
                    -0.9577097296714783,
                    -1.5259867906570435,
                    -4.675256252288818,
                    1.06417715549469,
                    -1.1093838214874268,
                    -1.7557268142700195,
                    1.3675341606140137
                ],
                [
                    -0.3031003177165985,
                    -2.3980493545532227,
                    -8.613107681274414,
                    5.941083908081055,
                    -1.68115234375,
                    -1.3298490047454834,
                    0.4301401674747467,
                    -2.8940420150756836
                ],
                [
                    -0.9482647776603699,
                    -1.1030077934265137,
                    -1.4220161437988281,
                    -4.89676570892334,
                    1.1659271717071533,
                    -1.1738585233688354,
                    -1.6751549243927002,
                    1.3442045450210571
                ],
                [
                    -0.9568259119987488,
                    -1.0789214372634888,
                    -1.441875696182251,
                    -4.864213943481445,
                    1.1461762189865112,
                    -1.161303162574768,
                    -1.6907334327697754,
                    1.3496049642562866
                ]
            ],
            "biases": [
                -1.085181713104248,
                -3.264200210571289,
                -1.1788749694824219,
                -1.160722017288208
            ]
        },
        {
            "weights": [
                [
                    2.860635280609131,
                    3.4481921195983887,
                    2.857405662536621,
                    2.8580191135406494
                ]
            ],
            "biases": [
                -0.2554478347301483
            ]
        }
    ],
    "inputLookup": null,
    "inputLookupLength": 0,
    "outputLookup": null,
    "outputLookupLength": 0,
    "options": {
        "inputSize": 0,
        "outputSize": 0,
        "binaryThresh": 0.5,
        "hiddenLayers": [
            8,
            4
        ],
        "activation": "sigmoid"
    },
    "trainOpts": {
        "activation": "sigmoid",
        "iterations": 20000,
        "errorThresh": 0.005,
        "log": false,
        "logPeriod": 10,
        "leakyReluAlpha": 0.01,
        "learningRate": 0.3,
        "momentum": 0.1,
        "callbackPeriod": 10,
        "timeout": "Infinity",
        "beta1": 0.9,
        "beta2": 0.999,
        "epsilon": 1e-8
    }
}