{
    "type": "NeuralNetwork",
    "sizes": [
        5,
        8,
        4,
        3
    ],
    "layers": [
        {
            "weights": [],
            "biases": []
        },
        {
            "weights": [
                [
                    -4.135760307312012,
                    -2.585145950317383,
                    -5.274641513824463,
                    12.06879997253418,
                    12.838918685913086
                ],
                [
                    -3.6650609970092773,
                    14.327245712280273,
                    11.926965713500977,
                    2.8306941986083984,
                    9.09508228302002
                ],
                [
                    -6.412439346313477,
                    11.891084671020508,
                    3.698225498199463,
                    6.654106616973877,
                    6.9907073974609375
                ],
                [
                    4.58134651184082,
                    -4.343201160430908,
                    -9.652901649475098,
                    17.588762283325195,
                    9.087560653686523
                ],
                [
                    -12.824153900146484,
                    3.863748788833618,
                    9.367700576782227,
                    5.234278202056885,
                    -13.196781158447266
                ],
                [
                    9.045610427856445,
                    9.143577575683594,
                    -1.5343818664550781,
                    5.3372578620910645,
                    -8.358638763427734
                ],
                [
                    -12.876694679260254,
                    9.902746200561523,
                    8.2186279296875,
                    -10.602472305297852,
                    12.3468599319458
                ],
                [
                    10.257136344909668,
                    -12.668672561645508,
                    6.148036479949951,
                    -0.1940799355506897,
                    6.49362325668335
                ]
            ],
            "biases": [
                -15.804255485534668,
                -20.795442581176758,
                -20.62147331237793,
                -14.776042938232422,
                9.644376754760742,
                -19.490524291992188,
                -1.8374407291412354,
                -10.793289184570312
            ]
        },
        {
            "weights": [
                [
                    7.4282989501953125,
                    -0.9747816324234009,
                    -9.929300308227539,
                    -7.135827541351318,
                    0.7528347373008728,
                    2.0691874027252197,
                    -0.30629411339759827,
                    0.957854151725769
                ],
                [
                    0.8891883492469788,
                    2.9243106842041016,
                    -2.0942418575286865,
                    -3.3072946071624756,
                    0.17384879291057587,
                    -14.85173225402832,
                    -1.7530269622802734,
                    -2.9750730991363525
                ],
                [
                    0.06688922643661499,
                    -6.569565773010254,
                    2.5122530460357666,
                    -0.8914966583251953,
                    -0.5376943349838257,
                    -12.991066932678223,
                    -0.9830135107040405,
                    -1.3501183986663818
                ],
                [
                    -6.6262969970703125,
                    -0.19237281382083893,
                    3.2779195308685303,
                    2.300330877304077,
                    -4.003922462463379,
                    -0.2870519459247589,
                    -1.7305868864059448,
                    -17.20884132385254
                ]
            ],
            "biases": [
                -2.7125046253204346,
                -2.4859273433685303,
                -1.0958271026611328,
                -0.0395929254591465
            ]
        },
        {
            "weights": [
                [
                    0.8366423845291138,
                    0.9567713141441345,
                    2.4786479473114014,
                    3.6624398231506348
                ],
                [
                    -0.41020920872688293,
                    1.9367504119873047,
                    3.1221923828125,
                    -1.0449190139770508
                ],
                [
                    2.7271883487701416,
                    -0.3656623661518097,
                    0.6990065574645996,
                    0.6130825281143188
                ]
            ],
            "biases": [
                -0.040202703326940536,
                0.0313444659113884,
                -0.06902686506509781
            ]
        }
    ],
    "inputLookup": null,
    "inputLookupLength": 0,
    "outputLookup": null,
    "outputLookupLength": 0,
    "options": {
        "inputSize": 0,
        "outputSize": 0,
        "binaryThresh": 0.5,
        "hiddenLayers": [
            8,
            4
        ],
        "activation": "sigmoid"
    },
    "trainOpts": {
        "activation": "sigmoid",
        "iterations": 20000,
        "errorThresh": 0.005,
        "log": false,
        "logPeriod": 10,
        "leakyReluAlpha": 0.01,
        "learningRate": 0.3,
        "momentum": 0.1,
        "callbackPeriod": 10,
        "timeout": "Infinity",
        "beta1": 0.9,
        "beta2": 0.999,
        "epsilon": 1e-8
    }
}