{
    "type": "NeuralNetwork",
    "sizes": [
        15,
        8,
        4,
        3
    ],
    "layers": [
        {
            "weights": [],
            "biases": []
        },
        {
            "weights": [
                [
                    5.379897117614746,
                    -4.541590690612793,
                    -0.028556406497955322,
                    30.908302307128906,
                    7.439702033996582,
                    35.44343185424805,
                    9.44612979888916,
                    24.9794864654541,
                    6.519251346588135,
                    2.123584270477295,
                    -17.856090545654297,
                    -26.45284652709961,
                    38.56958770751953,
                    20.359960556030273,
                    -11.156033515930176
                ],
                [
                    -4.7379865646362305,
                    9.759870529174805,
                    -21.47509765625,
                    2.6128945350646973,
                    5.8749613761901855,
                    3.3435025215148926,
                    -12.438036918640137,
                    32.817237854003906,
                    21.182401657104492,
                    -10.769104957580566,
                    -16.755603790283203,
                    4.59984827041626,
                    2.677732229232788,
                    50.50773239135742,
                    33.88383483886719
                ],
                [
                    -10.262150764465332,
                    -11.551517486572266,
                    8.178565979003906,
                    -1.2337627410888672,
                    2.740144729614258,
                    -12.151766777038574,
                    21.8498592376709,
                    -3.9031012058258057,
                    25.9133358001709,
                    -22.851720809936523,
                    -48.275028228759766,
                    -12.97684383392334,
                    57.7486457824707,
                    31.08810806274414,
                    -5.366149425506592
                ],
                [
                    -42.38724136352539,
                    -1.655172348022461,
                    -29.764436721801758,
                    -7.200130462646484,
                    -5.05955171585083,
                    -1.435473918914795,
                    24.40628433227539,
                    -24.059297561645508,
                    -19.6597900390625,
                    22.291112899780273,
                    24.296567916870117,
                    -2.714937686920166,
                    1.9183210134506226,
                    14.713281631469727,
                    49.7217903137207
                ],
                [
                    -29.760746002197266,
                    44.194007873535156,
                    -24.865678787231445,
                    -23.99368667602539,
                    -46.787593841552734,
                    16.564985275268555,
                    35.06023406982422,
                    46.7613410949707,
                    -2.207359552383423,
                    31.343656539916992,
                    42.33572769165039,
                    4.410898208618164,
                    -11.724767684936523,
                    -10.89690113067627,
                    -26.14069175720215
                ],
                [
                    -33.58765411376953,
                    -0.7876673936843872,
                    8.698517799377441,
                    17.685274124145508,
                    15.692046165466309,
                    19.109678268432617,
                    24.548002243041992,
                    -11.679447174072266,
                    13.995951652526855,
                    2.3698837757110596,
                    -12.445281028747559,
                    15.512131690979004,
                    -2.6075189113616943,
                    -15.50316333770752,
                    44.317115783691406
                ],
                [
                    46.409969329833984,
                    23.66825294494629,
                    -35.83024215698242,
                    -2.7977890968322754,
                    7.720870018005371,
                    4.108719825744629,
                    0.49951714277267456,
                    51.834754943847656,
                    18.139986038208008,
                    25.170063018798828,
                    -2.829705238342285,
                    3.7917680740356445,
                    20.146106719970703,
                    15.494132995605469,
                    -23.97472381591797
                ],
                [
                    57.81779861450195,
                    5.912073135375977,
                    -14.795598983764648,
                    -42.59968185424805,
                    47.75047302246094,
                    -30.53355598449707,
                    -47.81354904174805,
                    -19.39072608947754,
                    -54.255821228027344,
                    53.20716094970703,
                    15.107709884643555,
                    17.625133514404297,
                    0.9988117218017578,
                    42.60910415649414,
                    25.05840301513672
                ]
            ],
            "biases": [
                -17.378801345825195,
                -24.558456420898438,
                6.915241718292236,
                -10.348093032836914,
                -41.722225189208984,
                -13.803492546081543,
                -55.718048095703125,
                17.159536361694336
            ]
        },
        {
            "weights": [
                [
                    -68.08814239501953,
                    3.288947582244873,
                    52.334068298339844,
                    23.48267936706543,
                    -2.0659265518188477,
                    -28.56549644470215,
                    6.9657135009765625,
                    -41.657989501953125
                ],
                [
                    -3.6657543182373047,
                    -25.001018524169922,
                    -26.408239364624023,
                    24.053735733032227,
                    -48.508216857910156,
                    -24.67224884033203,
                    24.490318298339844,
                    -51.098331451416016
                ],
                [
                    -4.791385173797607,
                    -19.449155807495117,
                    -24.8087215423584,
                    21.814424514770508,
                    -46.554134368896484,
                    -21.904504776000977,
                    25.285409927368164,
                    -46.017765045166016
                ],
                [
                    6.619807720184326,
                    -15.876069068908691,
                    3.8663597106933594,
                    15.730912208557129,
                    -59.05226516723633,
                    -48.2602653503418,
                    -39.36980056762695,
                    -6.05110502243042
                ]
            ],
            "biases": [
                8.391261100769043,
                27.9786434173584,
                41.2342643737793,
                31.068387985229492
            ]
        },
        {
            "weights": [
                [
                    13.475089073181152,
                    22.714319229125977,
                    52.846229553222656,
                    -0.8138595819473267
                ],
                [
                    0.38936328887939453,
                    3.759345531463623,
                    -1.4966667890548706,
                    -0.7301685810089111
                ],
                [
                    -0.8573746681213379,
                    -36.35594940185547,
                    1.969221830368042,
                    36.02715301513672
                ]
            ],
            "biases": [
                0.023657212033867836,
                0.33236196637153625,
                0.3197381794452667
            ]
        }
    ],
    "inputLookup": null,
    "inputLookupLength": 0,
    "outputLookup": null,
    "outputLookupLength": 0,
    "options": {
        "inputSize": 0,
        "outputSize": 0,
        "binaryThresh": 0.5,
        "hiddenLayers": [
            8,
            4
        ],
        "activation": "sigmoid"
    },
    "trainOpts": {
        "activation": "sigmoid",
        "iterations": 20000,
        "errorThresh": 0.005,
        "log": false,
        "logPeriod": 10,
        "leakyReluAlpha": 0.01,
        "learningRate": 0.3,
        "momentum": 0.1,
        "callbackPeriod": 10,
        "timeout": "Infinity",
        "beta1": 0.9,
        "beta2": 0.999,
        "epsilon": 1e-8
    }
}