{
    "type": "NeuralNetwork",
    "sizes": [
        5,
        8,
        4,
        3
    ],
    "layers": [
        {
            "weights": [],
            "biases": []
        },
        {
            "weights": [
                [
                    -12.987760543823242,
                    -2.0891096591949463,
                    7.65947961807251,
                    15.99772834777832,
                    -5.756796360015869
                ],
                [
                    -5.203295707702637,
                    -10.348648071289062,
                    -3.0902822017669678,
                    12.225054740905762,
                    -6.038512706756592
                ],
                [
                    -11.254057884216309,
                    14.170342445373535,
                    -6.563121318817139,
                    8.3240327835083,
                    6.07037353515625
                ],
                [
                    -11.437813758850098,
                    2.640171766281128,
                    -10.505697250366211,
                    5.532675266265869,
                    -2.37601900100708
                ],
                [
                    -0.5004980564117432,
                    -9.309021949768066,
                    8.32756519317627,
                    17.267772674560547,
                    -12.501015663146973
                ],
                [
                    -9.885201454162598,
                    0.624797523021698,
                    -2.8194491863250732,
                    -1.9689052104949951,
                    -5.596778869628906
                ],
                [
                    4.667494773864746,
                    -9.342714309692383,
                    -4.059571266174316,
                    16.12641143798828,
                    10.344694137573242
                ],
                [
                    -8.329375267028809,
                    -6.50569486618042,
                    6.491537570953369,
                    -0.9756935238838196,
                    2.510723352432251
                ]
            ],
            "biases": [
                0.9568410515785217,
                4.591475486755371,
                -0.44625768065452576,
                -0.9767066240310669,
                -0.207365944981575,
                3.8092691898345947,
                -9.579534530639648,
                -8.316540718078613
            ]
        },
        {
            "weights": [
                [
                    -7.279151439666748,
                    -5.883102893829346,
                    -6.186893939971924,
                    -1.7305233478546143,
                    8.2808198928833,
                    -3.616929054260254,
                    -2.811152696609497,
                    -6.455443382263184
                ],
                [
                    4.6715898513793945,
                    -0.7655225992202759,
                    -0.43951788544654846,
                    -11.57512092590332,
                    -5.182811260223389,
                    -11.836189270019531,
                    4.1192145347595215,
                    0.2989461421966553
                ],
                [
                    1.4760115146636963,
                    1.6318787336349487,
                    0.5112666487693787,
                    -2.7855663299560547,
                    -2.929692268371582,
                    -1.7329524755477905,
                    0.6950482726097107,
                    -8.539106369018555
                ],
                [
                    3.7500646114349365,
                    -17.308481216430664,
                    -5.168456554412842,
                    -3.617518663406372,
                    -0.16811244189739227,
                    -8.501792907714844,
                    0.753840982913971,
                    -8.005366325378418
                ]
            ],
            "biases": [
                -9.857425689697266,
                -6.112785339355469,
                -2.5859463214874268,
                -2.686880588531494
            ]
        },
        {
            "weights": [
                [
                    1.430144190788269,
                    -2.5884015560150146,
                    -1.0947589874267578,
                    3.416489362716675
                ],
                [
                    2.1054301261901855,
                    0.4062812924385071,
                    -2.0749449729919434,
                    -0.9292745590209961
                ],
                [
                    2.3943002223968506,
                    1.5723477602005005,
                    -0.53901207447052,
                    2.758249044418335
                ]
            ],
            "biases": [
                0.35844507813453674,
                0.4527285099029541,
                0.28520357608795166
            ]
        }
    ],
    "inputLookup": null,
    "inputLookupLength": 0,
    "outputLookup": null,
    "outputLookupLength": 0,
    "options": {
        "inputSize": 0,
        "outputSize": 0,
        "binaryThresh": 0.5,
        "hiddenLayers": [
            8,
            4
        ],
        "activation": "sigmoid"
    },
    "trainOpts": {
        "activation": "sigmoid",
        "iterations": 20000,
        "errorThresh": 0.005,
        "log": false,
        "logPeriod": 10,
        "leakyReluAlpha": 0.01,
        "learningRate": 0.3,
        "momentum": 0.1,
        "callbackPeriod": 10,
        "timeout": "Infinity",
        "beta1": 0.9,
        "beta2": 0.999,
        "epsilon": 1e-8
    }
}