{
    "type": "NeuralNetwork",
    "sizes": [
        15,
        8,
        4,
        1
    ],
    "layers": [
        {
            "weights": [],
            "biases": []
        },
        {
            "weights": [
                [
                    -13.579341888427734,
                    -15.929856300354004,
                    39.28190994262695,
                    -27.01506996154785,
                    -21.00007438659668,
                    -19.668289184570312,
                    -0.4237714409828186,
                    17.629880905151367,
                    34.3532829284668,
                    12.51902961730957,
                    11.436717987060547,
                    32.75880813598633,
                    -2.9965860843658447,
                    -11.069584846496582,
                    24.05141258239746
                ],
                [
                    3.2980475425720215,
                    -24.144636154174805,
                    -8.442878723144531,
                    -22.503847122192383,
                    7.537624835968018,
                    -2.4504103660583496,
                    -5.114620208740234,
                    -7.844481468200684,
                    -23.520832061767578,
                    -3.8680741786956787,
                    9.113192558288574,
                    9.043176651000977,
                    10.539939880371094,
                    17.428268432617188,
                    22.860557556152344
                ],
                [
                    10.175873756408691,
                    -7.430753707885742,
                    3.0526862144470215,
                    -7.453076362609863,
                    0.6245860457420349,
                    14.495577812194824,
                    -2.308088779449463,
                    -8.859013557434082,
                    2.7071545124053955,
                    -18.85015869140625,
                    12.581616401672363,
                    -10.484402656555176,
                    -3.2978034019470215,
                    -8.451250076293945,
                    10.68438720703125
                ],
                [
                    16.038005828857422,
                    34.49030685424805,
                    1.769592046737671,
                    -3.682616949081421,
                    -24.962862014770508,
                    -24.516578674316406,
                    19.67243766784668,
                    16.897245407104492,
                    -29.4421443939209,
                    25.67880630493164,
                    -10.008952140808105,
                    21.259017944335938,
                    13.910394668579102,
                    4.616180419921875,
                    -7.7830023765563965
                ],
                [
                    19.453571319580078,
                    -7.3227338790893555,
                    -3.6635286808013916,
                    19.433027267456055,
                    -10.065587043762207,
                    -5.039295196533203,
                    3.015850067138672,
                    -21.30491828918457,
                    26.66963005065918,
                    -4.6468048095703125,
                    -17.284954071044922,
                    -22.41655921936035,
                    22.05295181274414,
                    -27.86553192138672,
                    16.793672561645508
                ],
                [
                    -11.24069595336914,
                    -6.7763237953186035,
                    -4.4545087814331055,
                    -11.468050956726074,
                    28.32505989074707,
                    13.202134132385254,
                    -0.6958144307136536,
                    -7.464165687561035,
                    -7.298913955688477,
                    2.0627806186676025,
                    -15.541227340698242,
                    26.89478302001953,
                    -0.31628090143203735,
                    -0.7014424800872803,
                    1.1473565101623535
                ],
                [
                    -11.234273910522461,
                    8.186174392700195,
                    -11.92022705078125,
                    -2.0660247802734375,
                    33.144371032714844,
                    -3.9369633197784424,
                    -14.403515815734863,
                    23.82370948791504,
                    16.697559356689453,
                    -16.426753997802734,
                    16.00796127319336,
                    -21.162343978881836,
                    -11.545331954956055,
                    60.936607360839844,
                    7.837427139282227
                ],
                [
                    11.939657211303711,
                    -2.6106631755828857,
                    1.25460684299469,
                    -4.43892240524292,
                    -4.934955596923828,
                    -6.020146369934082,
                    10.322015762329102,
                    -22.12954330444336,
                    20.5781307220459,
                    5.236189365386963,
                    -11.254656791687012,
                    -15.463993072509766,
                    -10.683167457580566,
                    2.493976593017578,
                    -35.2769660949707
                ]
            ],
            "biases": [
                13.719037055969238,
                -10.964052200317383,
                -12.54974365234375,
                6.437370300292969,
                9.585926055908203,
                -8.786168098449707,
                -36.308170318603516,
                2.686270236968994
            ]
        },
        {
            "weights": [
                [
                    33.2207145690918,
                    -7.361785888671875,
                    -28.424591064453125,
                    -65.04011535644531,
                    -38.8362922668457,
                    -47.31789016723633,
                    8.288790702819824,
                    36.32076644897461
                ],
                [
                    -51.021671295166016,
                    24.642362594604492,
                    -22.764863967895508,
                    0.050588469952344894,
                    13.161564826965332,
                    -26.96104621887207,
                    -58.61213302612305,
                    -45.49652099609375
                ],
                [
                    -10.427940368652344,
                    43.22000503540039,
                    -28.934959411621094,
                    -23.88011932373047,
                    -46.701229095458984,
                    62.69468307495117,
                    -48.40360641479492,
                    30.67255973815918
                ],
                [
                    -36.2961311340332,
                    -36.757545471191406,
                    -41.18305206298828,
                    22.093351364135742,
                    -46.20741653442383,
                    -3.7597718238830566,
                    -35.86456298828125,
                    -35.70396041870117
                ]
            ],
            "biases": [
                -4.374752044677734,
                37.25579833984375,
                -31.78288459777832,
                16.34139060974121
            ]
        },
        {
            "weights": [
                [
                    21.608715057373047,
                    2.133819103240967,
                    2.577329397201538,
                    2.1060333251953125
                ]
            ],
            "biases": [
                -0.2646484971046448
            ]
        }
    ],
    "inputLookup": null,
    "inputLookupLength": 0,
    "outputLookup": null,
    "outputLookupLength": 0,
    "options": {
        "inputSize": 0,
        "outputSize": 0,
        "binaryThresh": 0.5,
        "hiddenLayers": [
            8,
            4
        ],
        "activation": "sigmoid"
    },
    "trainOpts": {
        "activation": "sigmoid",
        "iterations": 20000,
        "errorThresh": 0.005,
        "log": false,
        "logPeriod": 10,
        "leakyReluAlpha": 0.01,
        "learningRate": 0.3,
        "momentum": 0.1,
        "callbackPeriod": 10,
        "timeout": "Infinity",
        "beta1": 0.9,
        "beta2": 0.999,
        "epsilon": 1e-8
    }
}