{
    "type": "NeuralNetwork",
    "sizes": [
        10,
        8,
        4,
        3
    ],
    "layers": [
        {
            "weights": [],
            "biases": []
        },
        {
            "weights": [
                [
                    25.190807342529297,
                    -5.381310939788818,
                    7.794886112213135,
                    24.08847427368164,
                    -13.187996864318848,
                    -4.951097011566162,
                    -4.453282833099365,
                    -31.519813537597656,
                    -15.451683044433594,
                    -4.449522018432617
                ],
                [
                    -1.3436012268066406,
                    -8.666963577270508,
                    -0.8413187861442566,
                    16.437969207763672,
                    -26.495737075805664,
                    -16.289505004882812,
                    36.574745178222656,
                    -12.300024032592773,
                    -2.848057270050049,
                    11.922138214111328
                ],
                [
                    9.1132230758667,
                    -1.8788191080093384,
                    22.312786102294922,
                    -19.28219985961914,
                    2.9417026042938232,
                    5.9983673095703125,
                    6.5951080322265625,
                    12.20305347442627,
                    15.877201080322266,
                    -15.284574508666992
                ],
                [
                    14.015874862670898,
                    4.315022945404053,
                    -23.195512771606445,
                    -49.68783187866211,
                    40.55513000488281,
                    20.948453903198242,
                    10.407429695129395,
                    8.607648849487305,
                    -12.710694313049316,
                    38.2372932434082
                ],
                [
                    -11.965949058532715,
                    28.099435806274414,
                    13.589205741882324,
                    0.9856821298599243,
                    39.13131332397461,
                    36.33342742919922,
                    -21.936100006103516,
                    2.541013240814209,
                    5.984500408172607,
                    -15.532706260681152
                ],
                [
                    0.547008752822876,
                    20.56846046447754,
                    -8.57340145111084,
                    18.85246467590332,
                    22.439809799194336,
                    -9.61734676361084,
                    -27.968652725219727,
                    -5.155904769897461,
                    9.091536521911621,
                    -35.5585823059082
                ],
                [
                    -25.570341110229492,
                    1.0884168148040771,
                    1.0728416442871094,
                    13.206157684326172,
                    3.7425193786621094,
                    -19.494226455688477,
                    -8.382597923278809,
                    6.155557632446289,
                    -5.114238739013672,
                    -8.17874526977539
                ],
                [
                    1.454235553741455,
                    -14.008355140686035,
                    -12.583708763122559,
                    -5.982242107391357,
                    -22.613662719726562,
                    -2.2528514862060547,
                    -7.744723796844482,
                    31.79831886291504,
                    10.606239318847656,
                    19.237335205078125
                ]
            ],
            "biases": [
                -5.832991600036621,
                -13.813118934631348,
                11.037237167358398,
                13.459507942199707,
                -38.419471740722656,
                -16.756614685058594,
                -1.9181740283966064,
                10.717791557312012
            ]
        },
        {
            "weights": [
                [
                    25.7152156829834,
                    25.23516273498535,
                    -27.063430786132812,
                    -2.1785666942596436,
                    -0.9784471988677979,
                    -0.7737269401550293,
                    -24.697904586791992,
                    -23.75998878479004
                ],
                [
                    -53.196556091308594,
                    -17.74207878112793,
                    -11.969586372375488,
                    -27.557876586914062,
                    0.16361024975776672,
                    -24.6418514251709,
                    -11.23833179473877,
                    -17.296955108642578
                ],
                [
                    -30.016279220581055,
                    -23.020517349243164,
                    24.16558837890625,
                    -43.02604293823242,
                    -22.589492797851562,
                    4.153435230255127,
                    -35.92538833618164,
                    -20.172094345092773
                ],
                [
                    -35.08501434326172,
                    -1.83138906955719,
                    -33.13797378540039,
                    27.455942153930664,
                    -32.52756118774414,
                    2.080822229385376,
                    -39.625022888183594,
                    6.786204814910889
                ]
            ],
            "biases": [
                -23.50571632385254,
                39.74867248535156,
                22.720375061035156,
                -1.2791036367416382
            ]
        },
        {
            "weights": [
                [
                    1.844240665435791,
                    1.7142131328582764,
                    0.8321189284324646,
                    1.5105924606323242
                ],
                [
                    -0.4402223229408264,
                    -0.47683316469192505,
                    1.212156891822815,
                    1.111405372619629
                ],
                [
                    -2.030825614929199,
                    -1.590868592262268,
                    0.9598376750946045,
                    -0.48663729429244995
                ]
            ],
            "biases": [
                0.11970964074134827,
                0.234800785779953,
                0.3721510171890259
            ]
        }
    ],
    "inputLookup": null,
    "inputLookupLength": 0,
    "outputLookup": null,
    "outputLookupLength": 0,
    "options": {
        "inputSize": 0,
        "outputSize": 0,
        "binaryThresh": 0.5,
        "hiddenLayers": [
            8,
            4
        ],
        "activation": "sigmoid"
    },
    "trainOpts": {
        "activation": "sigmoid",
        "iterations": 20000,
        "errorThresh": 0.005,
        "log": false,
        "logPeriod": 10,
        "leakyReluAlpha": 0.01,
        "learningRate": 0.3,
        "momentum": 0.1,
        "callbackPeriod": 10,
        "timeout": "Infinity",
        "beta1": 0.9,
        "beta2": 0.999,
        "epsilon": 1e-8
    }
}