{
    "type": "NeuralNetwork",
    "sizes": [
        10,
        8,
        4,
        1
    ],
    "layers": [
        {
            "weights": [],
            "biases": []
        },
        {
            "weights": [
                [
                    -14.131086349487305,
                    32.75917053222656,
                    -5.774659633636475,
                    8.683599472045898,
                    6.972970485687256,
                    3.113631010055542,
                    -21.794504165649414,
                    -5.882431507110596,
                    29.70293617248535,
                    -15.013690948486328
                ],
                [
                    3.204648017883301,
                    13.945055961608887,
                    3.567087411880493,
                    0.40006569027900696,
                    -6.603531360626221,
                    -28.294448852539062,
                    -0.5497970581054688,
                    15.59720516204834,
                    16.7672119140625,
                    0.5654061436653137
                ],
                [
                    -21.804136276245117,
                    27.318620681762695,
                    -4.7519612312316895,
                    -17.267230987548828,
                    -29.275867462158203,
                    2.154270887374878,
                    -5.753818035125732,
                    -3.3157668113708496,
                    32.793697357177734,
                    16.103872299194336
                ],
                [
                    33.29413604736328,
                    -10.705615997314453,
                    -20.7030029296875,
                    8.273848533630371,
                    -0.7546757459640503,
                    -49.879817962646484,
                    15.398482322692871,
                    -9.419597625732422,
                    -13.705694198608398,
                    18.126506805419922
                ],
                [
                    -24.248104095458984,
                    17.93320655822754,
                    17.974754333496094,
                    29.50727081298828,
                    -20.541948318481445,
                    -2.6916885375976562,
                    -6.361119270324707,
                    -12.857725143432617,
                    -11.480460166931152,
                    -3.920621395111084
                ],
                [
                    -9.890814781188965,
                    3.3225996494293213,
                    -31.718006134033203,
                    -1.1773625612258911,
                    30.351396560668945,
                    7.574272155761719,
                    28.73917579650879,
                    13.17309856414795,
                    14.708642959594727,
                    18.20937156677246
                ],
                [
                    -14.306446075439453,
                    -2.1638970375061035,
                    14.609396934509277,
                    -14.037636756896973,
                    1.7753427028656006,
                    13.202685356140137,
                    19.01385498046875,
                    10.096553802490234,
                    4.341848850250244,
                    -5.131538391113281
                ],
                [
                    40.502811431884766,
                    -12.253396034240723,
                    21.67622184753418,
                    18.736425399780273,
                    0.8086715936660767,
                    -10.316370964050293,
                    -13.250110626220703,
                    20.78266716003418,
                    -18.29374885559082,
                    -3.2348976135253906
                ]
            ],
            "biases": [
                -10.86080265045166,
                3.8322651386260986,
                -17.531749725341797,
                10.718632698059082,
                -22.095684051513672,
                -2.9342355728149414,
                -5.563572883605957,
                -26.462953567504883
            ]
        },
        {
            "weights": [
                [
                    -8.076727867126465,
                    28.03777503967285,
                    -3.191340923309326,
                    -20.939374923706055,
                    -18.55381202697754,
                    -32.31787872314453,
                    -25.130929946899414,
                    -3.9663476943969727
                ],
                [
                    -19.169876098632812,
                    -29.698352813720703,
                    15.126838684082031,
                    -15.976357460021973,
                    -26.49292755126953,
                    -1.4653109312057495,
                    -0.6231256127357483,
                    0.7070746421813965
                ],
                [
                    -3.777331590652466,
                    5.081820964813232,
                    -2.749497890472412,
                    -23.371227264404297,
                    -24.519153594970703,
                    21.273937225341797,
                    -22.59476089477539,
                    -32.10005569458008
                ],
                [
                    -29.08361053466797,
                    40.89010238647461,
                    -32.32258987426758,
                    -33.40237045288086,
                    -27.685104370117188,
                    17.128740310668945,
                    -31.70836067199707,
                    -30.237651824951172
                ]
            ],
            "biases": [
                10.006522178649902,
                0.23148198425769806,
                0.8216260671615601,
                1.8584219217300415
            ]
        },
        {
            "weights": [
                [
                    1.6137906312942505,
                    2.2032129764556885,
                    1.3093316555023193,
                    1.8379606008529663
                ]
            ],
            "biases": [
                -0.4672241508960724
            ]
        }
    ],
    "inputLookup": null,
    "inputLookupLength": 0,
    "outputLookup": null,
    "outputLookupLength": 0,
    "options": {
        "inputSize": 0,
        "outputSize": 0,
        "binaryThresh": 0.5,
        "hiddenLayers": [
            8,
            4
        ],
        "activation": "sigmoid"
    },
    "trainOpts": {
        "activation": "sigmoid",
        "iterations": 20000,
        "errorThresh": 0.005,
        "log": false,
        "logPeriod": 10,
        "leakyReluAlpha": 0.01,
        "learningRate": 0.3,
        "momentum": 0.1,
        "callbackPeriod": 10,
        "timeout": "Infinity",
        "beta1": 0.9,
        "beta2": 0.999,
        "epsilon": 1e-8
    }
}