{
    "type": "NeuralNetwork",
    "sizes": [
        15,
        8,
        4,
        1
    ],
    "layers": [
        {
            "weights": [],
            "biases": []
        },
        {
            "weights": [
                [
                    18.32135772705078,
                    7.574449062347412,
                    -1.815568208694458,
                    -16.56864356994629,
                    -27.220802307128906,
                    -0.7479432821273804,
                    35.19022750854492,
                    -25.433502197265625,
                    45.78143310546875,
                    -7.342617034912109,
                    -1.8481800556182861,
                    23.187734603881836,
                    28.085491180419922,
                    12.461143493652344,
                    -6.190265655517578
                ],
                [
                    15.272523880004883,
                    36.34007263183594,
                    11.696854591369629,
                    -3.1195075511932373,
                    50.9705924987793,
                    2.212780237197876,
                    -23.793352127075195,
                    22.639404296875,
                    -17.92705535888672,
                    6.384060382843018,
                    -45.492828369140625,
                    6.8672637939453125,
                    19.434431076049805,
                    -10.506855964660645,
                    14.588038444519043
                ],
                [
                    -7.672739505767822,
                    -26.77106285095215,
                    20.7141170501709,
                    -21.78281021118164,
                    11.633195877075195,
                    -3.1980600357055664,
                    17.452634811401367,
                    2.242377519607544,
                    42.553951263427734,
                    -8.082686424255371,
                    -39.225868225097656,
                    -27.49441146850586,
                    23.62712287902832,
                    -1.0122504234313965,
                    9.870662689208984
                ],
                [
                    0.050444334745407104,
                    -9.142326354980469,
                    33.671138763427734,
                    -27.20099449157715,
                    -16.15864372253418,
                    10.720803260803223,
                    -1.9299213886260986,
                    3.5902674198150635,
                    28.172788619995117,
                    -0.24644735455513,
                    -31.887737274169922,
                    -13.571794509887695,
                    -1.2197065353393555,
                    -20.498977661132812,
                    8.87059211730957
                ],
                [
                    -6.056398868560791,
                    -6.079939842224121,
                    -7.461234092712402,
                    11.777859687805176,
                    -22.11918830871582,
                    -14.22164535522461,
                    8.131346702575684,
                    27.119470596313477,
                    36.7491340637207,
                    15.139505386352539,
                    5.595764636993408,
                    10.689901351928711,
                    -28.748136520385742,
                    2.390416145324707,
                    1.8644845485687256
                ],
                [
                    7.406872272491455,
                    -21.59524154663086,
                    -15.355158805847168,
                    -0.9387094974517822,
                    -4.87257719039917,
                    10.573007583618164,
                    27.081918716430664,
                    -20.202117919921875,
                    26.2359619140625,
                    8.219040870666504,
                    -21.210277557373047,
                    16.729511260986328,
                    19.326473236083984,
                    -4.27802848815918,
                    11.263728141784668
                ],
                [
                    -24.543004989624023,
                    1.164432406425476,
                    34.31147384643555,
                    -30.115856170654297,
                    -39.59275436401367,
                    18.29478645324707,
                    31.993667602539062,
                    28.58519172668457,
                    10.374366760253906,
                    22.640514373779297,
                    46.809085845947266,
                    -35.32659149169922,
                    -17.358572006225586,
                    10.1485595703125,
                    8.677639961242676
                ],
                [
                    8.755925178527832,
                    -35.95614242553711,
                    10.944796562194824,
                    18.933841705322266,
                    -14.799020767211914,
                    9.016132354736328,
                    1.0565650463104248,
                    31.96320343017578,
                    -0.41357874870300293,
                    -5.424356937408447,
                    26.35068130493164,
                    17.32318115234375,
                    8.59708309173584,
                    6.0489091873168945,
                    -23.027517318725586
                ]
            ],
            "biases": [
                -17.321870803833008,
                8.473506927490234,
                -17.300071716308594,
                0.6336157321929932,
                -26.655290603637695,
                -15.265524864196777,
                -38.51454544067383,
                -6.851051330566406
            ]
        },
        {
            "weights": [
                [
                    -54.891475677490234,
                    -78.08966064453125,
                    34.116119384765625,
                    54.3109016418457,
                    18.855337142944336,
                    -17.173925399780273,
                    9.582618713378906,
                    29.432987213134766
                ],
                [
                    -14.42422866821289,
                    -39.811946868896484,
                    -17.22783851623535,
                    -56.92142105102539,
                    44.57268142700195,
                    -28.80516815185547,
                    -32.02052307128906,
                    -35.945072174072266
                ],
                [
                    10.727800369262695,
                    -55.83194351196289,
                    -27.877506256103516,
                    28.368749618530273,
                    -41.51988983154297,
                    67.29063415527344,
                    -16.632938385009766,
                    -57.76818084716797
                ],
                [
                    12.196553230285645,
                    5.590994358062744,
                    -7.329494476318359,
                    -48.709503173828125,
                    -45.318504333496094,
                    -43.731666564941406,
                    -42.601566314697266,
                    66.30349731445312
                ]
            ],
            "biases": [
                -5.639204978942871,
                42.44204330444336,
                -6.441583633422852,
                -28.468046188354492
            ]
        },
        {
            "weights": [
                [
                    2.4625425338745117,
                    2.288541078567505,
                    2.873706102371216,
                    1.5335644483566284
                ]
            ],
            "biases": [
                -0.6600391864776611
            ]
        }
    ],
    "inputLookup": null,
    "inputLookupLength": 0,
    "outputLookup": null,
    "outputLookupLength": 0,
    "options": {
        "inputSize": 0,
        "outputSize": 0,
        "binaryThresh": 0.5,
        "hiddenLayers": [
            8,
            4
        ],
        "activation": "sigmoid"
    },
    "trainOpts": {
        "activation": "sigmoid",
        "iterations": 20000,
        "errorThresh": 0.005,
        "log": false,
        "logPeriod": 10,
        "leakyReluAlpha": 0.01,
        "learningRate": 0.3,
        "momentum": 0.1,
        "callbackPeriod": 10,
        "timeout": "Infinity",
        "beta1": 0.9,
        "beta2": 0.999,
        "epsilon": 1e-8
    }
}