{
    "type": "NeuralNetwork",
    "sizes": [
        5,
        8,
        4,
        3
    ],
    "layers": [
        {
            "weights": [],
            "biases": []
        },
        {
            "weights": [
                [
                    6.3759565353393555,
                    -4.473708152770996,
                    -7.52985143661499,
                    -4.250710487365723,
                    -7.424864768981934
                ],
                [
                    -6.843321800231934,
                    0.6640087962150574,
                    11.970550537109375,
                    5.746524333953857,
                    14.785194396972656
                ],
                [
                    10.379056930541992,
                    -5.3409013748168945,
                    7.910577774047852,
                    10.076972007751465,
                    -6.149989128112793
                ],
                [
                    -4.754441738128662,
                    16.086505889892578,
                    -13.351092338562012,
                    8.952510833740234,
                    -17.965957641601562
                ],
                [
                    -4.231431007385254,
                    -2.61454439163208,
                    -2.789386749267578,
                    13.677152633666992,
                    -15.986141204833984
                ],
                [
                    5.709877967834473,
                    -1.3433048725128174,
                    -6.318713188171387,
                    2.4511866569519043,
                    11.000566482543945
                ],
                [
                    16.34260368347168,
                    -3.98469614982605,
                    -9.078989028930664,
                    14.480056762695312,
                    -6.993906497955322
                ],
                [
                    11.817386627197266,
                    -0.10010460019111633,
                    4.6197638511657715,
                    0.966951847076416,
                    4.094963073730469
                ]
            ],
            "biases": [
                -5.26861572265625,
                -7.925307273864746,
                -23.13119125366211,
                0.723322331905365,
                -3.263636589050293,
                -2.8888566493988037,
                -8.98848819732666,
                -9.575797080993652
            ]
        },
        {
            "weights": [
                [
                    3.1675617694854736,
                    -5.492427349090576,
                    6.200957298278809,
                    1.2410953044891357,
                    10.819761276245117,
                    -0.06730327755212784,
                    -11.417499542236328,
                    5.239922523498535
                ],
                [
                    1.9176150560379028,
                    -2.4063992500305176,
                    -6.270098686218262,
                    -10.666463851928711,
                    -5.093271732330322,
                    -0.0016515306197106838,
                    -2.072068929672241,
                    -1.3445444107055664
                ],
                [
                    -10.782469749450684,
                    -2.7974419593811035,
                    -3.523587703704834,
                    -2.584987163543701,
                    -1.3239856958389282,
                    0.044607993215322495,
                    2.316681146621704,
                    -2.227660655975342
                ],
                [
                    -1.708720326423645,
                    8.238754272460938,
                    -15.429044723510742,
                    -1.3017972707748413,
                    -1.1824887990951538,
                    -3.1687426567077637,
                    -0.2955138385295868,
                    3.1314220428466797
                ]
            ],
            "biases": [
                -7.698940753936768,
                -0.10475016385316849,
                -0.09124571084976196,
                -9.600178718566895
            ]
        },
        {
            "weights": [
                [
                    0.5085789561271667,
                    2.6602797508239746,
                    2.35479736328125,
                    0.9688450694084167
                ],
                [
                    0.6847320199012756,
                    -0.8955355286598206,
                    2.259679079055786,
                    -1.4017210006713867
                ],
                [
                    -1.6523475646972656,
                    2.3404388427734375,
                    -0.4884081482887268,
                    -1.1136242151260376
                ]
            ],
            "biases": [
                -0.31396451592445374,
                -0.172910675406456,
                -0.11221501231193542
            ]
        }
    ],
    "inputLookup": null,
    "inputLookupLength": 0,
    "outputLookup": null,
    "outputLookupLength": 0,
    "options": {
        "inputSize": 0,
        "outputSize": 0,
        "binaryThresh": 0.5,
        "hiddenLayers": [
            8,
            4
        ],
        "activation": "sigmoid"
    },
    "trainOpts": {
        "activation": "sigmoid",
        "iterations": 20000,
        "errorThresh": 0.005,
        "log": false,
        "logPeriod": 10,
        "leakyReluAlpha": 0.01,
        "learningRate": 0.3,
        "momentum": 0.1,
        "callbackPeriod": 10,
        "timeout": "Infinity",
        "beta1": 0.9,
        "beta2": 0.999,
        "epsilon": 1e-8
    }
}