{
    "type": "NeuralNetwork",
    "sizes": [
        10,
        8,
        4,
        1
    ],
    "layers": [
        {
            "weights": [],
            "biases": []
        },
        {
            "weights": [
                [
                    13.907195091247559,
                    -2.5310044288635254,
                    -24.608118057250977,
                    -5.075531959533691,
                    -18.296838760375977,
                    -21.873411178588867,
                    -44.31841278076172,
                    20.10727882385254,
                    6.887320041656494,
                    25.093791961669922
                ],
                [
                    8.015619277954102,
                    -15.135887145996094,
                    22.249954223632812,
                    -14.058865547180176,
                    -30.87061882019043,
                    33.717994689941406,
                    26.650285720825195,
                    36.13877487182617,
                    11.223054885864258,
                    -6.386973857879639
                ],
                [
                    -16.4105281829834,
                    -2.2379980087280273,
                    -27.850482940673828,
                    -17.545406341552734,
                    -4.198732376098633,
                    -17.781835556030273,
                    1.9383059740066528,
                    -10.09504222869873,
                    -11.136909484863281,
                    4.503946781158447
                ],
                [
                    8.8223876953125,
                    16.35379409790039,
                    -37.130863189697266,
                    -1.7972521781921387,
                    14.634573936462402,
                    -37.685028076171875,
                    42.576595306396484,
                    7.073383331298828,
                    37.98684310913086,
                    -6.2873992919921875
                ],
                [
                    13.000205993652344,
                    -6.97866153717041,
                    21.349912643432617,
                    -15.799345016479492,
                    -18.308502197265625,
                    24.451091766357422,
                    -10.767950057983398,
                    -20.93094825744629,
                    11.796675682067871,
                    15.694982528686523
                ],
                [
                    -7.632543087005615,
                    -1.1495251655578613,
                    32.65756607055664,
                    25.608341217041016,
                    5.791924476623535,
                    -23.502216339111328,
                    -15.359479904174805,
                    -1.3005173206329346,
                    -38.07188415527344,
                    -3.2268900871276855
                ],
                [
                    2.892336845397949,
                    -5.332547664642334,
                    -0.41824379563331604,
                    -10.430124282836914,
                    -9.792722702026367,
                    -1.5273303985595703,
                    6.9083662033081055,
                    11.088019371032715,
                    4.072502613067627,
                    5.337491989135742
                ],
                [
                    -41.64852523803711,
                    15.260632514953613,
                    24.29901695251465,
                    6.830131530761719,
                    -8.885481834411621,
                    5.204900741577148,
                    8.657910346984863,
                    43.64891815185547,
                    -3.504286050796509,
                    15.404462814331055
                ]
            ],
            "biases": [
                -14.261762619018555,
                -25.59722328186035,
                15.444247245788574,
                -8.241280555725098,
                -21.87217140197754,
                -29.468122482299805,
                1.005902647972107,
                -25.9045352935791
            ]
        },
        {
            "weights": [
                [
                    -30.416234970092773,
                    11.601460456848145,
                    -19.135337829589844,
                    -20.52989387512207,
                    -10.434833526611328,
                    -11.499007225036621,
                    3.7964749336242676,
                    -11.305967330932617
                ],
                [
                    -57.589359283447266,
                    -42.695709228515625,
                    -41.1550407409668,
                    -0.5003387928009033,
                    -29.049978256225586,
                    -35.15790557861328,
                    45.079071044921875,
                    -28.457334518432617
                ],
                [
                    -46.93524169921875,
                    -38.191654205322266,
                    -13.164860725402832,
                    -46.627471923828125,
                    10.225653648376465,
                    -3.6435396671295166,
                    27.033069610595703,
                    13.93424129486084
                ],
                [
                    14.70019245147705,
                    -2.277859687805176,
                    -12.113150596618652,
                    -10.186469078063965,
                    -9.844549179077148,
                    -4.015506744384766,
                    24.861282348632812,
                    -11.03127670288086
                ]
            ],
            "biases": [
                -0.7730371952056885,
                26.40082550048828,
                -11.794044494628906,
                -27.24053192138672
            ]
        },
        {
            "weights": [
                [
                    1.7566291093826294,
                    1.3819347620010376,
                    1.5763758420944214,
                    2.0246400833129883
                ]
            ],
            "biases": [
                -0.4227364957332611
            ]
        }
    ],
    "inputLookup": null,
    "inputLookupLength": 0,
    "outputLookup": null,
    "outputLookupLength": 0,
    "options": {
        "inputSize": 0,
        "outputSize": 0,
        "binaryThresh": 0.5,
        "hiddenLayers": [
            8,
            4
        ],
        "activation": "sigmoid"
    },
    "trainOpts": {
        "activation": "sigmoid",
        "iterations": 20000,
        "errorThresh": 0.005,
        "log": false,
        "logPeriod": 10,
        "leakyReluAlpha": 0.01,
        "learningRate": 0.3,
        "momentum": 0.1,
        "callbackPeriod": 10,
        "timeout": "Infinity",
        "beta1": 0.9,
        "beta2": 0.999,
        "epsilon": 1e-8
    }
}