{
    "type": "NeuralNetwork",
    "sizes": [
        5,
        8,
        4,
        1
    ],
    "layers": [
        {
            "weights": [],
            "biases": []
        },
        {
            "weights": [
                [
                    -2.4920380115509033,
                    -0.4633951187133789,
                    0.353298544883728,
                    -1.2070351839065552,
                    -1.1140238046646118
                ],
                [
                    -4.13168478012085,
                    0.6018030047416687,
                    1.1730796098709106,
                    -1.4933935403823853,
                    -0.9784309267997742
                ],
                [
                    -4.066416263580322,
                    -5.193999290466309,
                    8.558728218078613,
                    6.2650861740112305,
                    8.084928512573242
                ],
                [
                    -3.5147268772125244,
                    3.7673356533050537,
                    6.926342964172363,
                    -2.6121976375579834,
                    -6.313229084014893
                ],
                [
                    1.5010817050933838,
                    -3.479846477508545,
                    4.4033942222595215,
                    3.5608997344970703,
                    0.4099065661430359
                ],
                [
                    12.699002265930176,
                    -7.739868640899658,
                    5.610136985778809,
                    -1.459481954574585,
                    -3.7446587085723877
                ],
                [
                    -9.715269088745117,
                    4.352253437042236,
                    11.310023307800293,
                    -9.125784873962402,
                    4.042360305786133
                ],
                [
                    -8.307000160217285,
                    10.320932388305664,
                    -0.7555733323097229,
                    -2.301851272583008,
                    9.405769348144531
                ]
            ],
            "biases": [
                -2.3595645427703857,
                -2.8497469425201416,
                -12.694228172302246,
                -5.939685821533203,
                -8.340741157531738,
                4.048001289367676,
                -2.8244833946228027,
                -4.0652079582214355
            ]
        },
        {
            "weights": [
                [
                    0.8607794642448425,
                    0.7638158798217773,
                    -4.348453044891357,
                    -0.7280336022377014,
                    -1.6150007247924805,
                    -4.0996413230896,
                    -0.1926596611738205,
                    -4.2499165534973145
                ],
                [
                    1.0694458484649658,
                    0.5217853784561157,
                    -4.374176025390625,
                    -0.723450243473053,
                    -1.6202800273895264,
                    -4.062232494354248,
                    -0.18932633101940155,
                    -4.211032390594482
                ],
                [
                    0.9224101901054382,
                    0.6713093519210815,
                    -4.370564937591553,
                    -0.7313392758369446,
                    -1.6195378303527832,
                    -4.0709733963012695,
                    -0.18954777717590332,
                    -4.222075462341309
                ],
                [
                    -2.49576997756958,
                    -2.64103102684021,
                    -0.7342580556869507,
                    -6.707638740539551,
                    0.49462029337882996,
                    -0.22928699851036072,
                    6.654994010925293,
                    0.5603320002555847
                ]
            ],
            "biases": [
                1.350799322128296,
                1.3122895956039429,
                1.3205883502960205,
                -8.13957405090332
            ]
        },
        {
            "weights": [
                [
                    3.1134743690490723,
                    3.116938591003418,
                    3.1202454566955566,
                    1.3520675897598267
                ]
            ],
            "biases": [
                -0.08965194225311279
            ]
        }
    ],
    "inputLookup": null,
    "inputLookupLength": 0,
    "outputLookup": null,
    "outputLookupLength": 0,
    "options": {
        "inputSize": 0,
        "outputSize": 0,
        "binaryThresh": 0.5,
        "hiddenLayers": [
            8,
            4
        ],
        "activation": "sigmoid"
    },
    "trainOpts": {
        "activation": "sigmoid",
        "iterations": 20000,
        "errorThresh": 0.005,
        "log": false,
        "logPeriod": 10,
        "leakyReluAlpha": 0.01,
        "learningRate": 0.3,
        "momentum": 0.1,
        "callbackPeriod": 10,
        "timeout": "Infinity",
        "beta1": 0.9,
        "beta2": 0.999,
        "epsilon": 1e-8
    }
}