{
    "type": "NeuralNetwork",
    "sizes": [
        5,
        8,
        4,
        1
    ],
    "layers": [
        {
            "weights": [],
            "biases": []
        },
        {
            "weights": [
                [
                    -3.6647493839263916,
                    -9.748307228088379,
                    -11.553573608398438,
                    2.5269758701324463,
                    5.066986083984375
                ],
                [
                    0.023207925260066986,
                    -1.0471943616867065,
                    -2.409121513366699,
                    -5.13087272644043,
                    4.314332008361816
                ],
                [
                    3.235018730163574,
                    -0.4490978419780731,
                    -8.070943832397461,
                    1.6876124143600464,
                    -7.628654956817627
                ],
                [
                    -3.147388458251953,
                    -6.624038219451904,
                    5.487403392791748,
                    2.984058141708374,
                    -3.710348606109619
                ],
                [
                    -8.38473129272461,
                    -5.665736675262451,
                    -3.3193533420562744,
                    -2.3243019580841064,
                    -8.890262603759766
                ],
                [
                    -2.063632011413574,
                    -6.6595458984375,
                    -4.241906642913818,
                    3.3389322757720947,
                    -5.784401893615723
                ],
                [
                    11.084739685058594,
                    -14.671218872070312,
                    15.42507553100586,
                    5.271359920501709,
                    -8.382536888122559
                ],
                [
                    6.906764984130859,
                    9.22337532043457,
                    -11.286771774291992,
                    5.071023941040039,
                    0.9350942969322205
                ]
            ],
            "biases": [
                2.0753281116485596,
                -4.14544677734375,
                -2.3812084197998047,
                -2.5775811672210693,
                3.2312309741973877,
                -1.44254732131958,
                0.22082772850990295,
                -7.225489616394043
            ]
        },
        {
            "weights": [
                [
                    -0.4633694291114807,
                    -2.7771077156066895,
                    0.7444688081741333,
                    0.4416004419326782,
                    -5.044510364532471,
                    -2.9022774696350098,
                    -1.1093761920928955,
                    -0.7552483677864075
                ],
                [
                    -0.46240904927253723,
                    -2.8145229816436768,
                    0.7326163053512573,
                    0.43383243680000305,
                    -5.345551490783691,
                    -2.8727688789367676,
                    -1.1113617420196533,
                    -0.7537410259246826
                ],
                [
                    -2.6446356773376465,
                    3.3749144077301025,
                    1.5970282554626465,
                    1.157632827758789,
                    -1.3676817417144775,
                    -1.5452525615692139,
                    -1.674254298210144,
                    -1.6260396242141724
                ],
                [
                    -0.46972209215164185,
                    -2.8408403396606445,
                    0.713584840297699,
                    0.4249005615711212,
                    -5.757620811462402,
                    -2.653562307357788,
                    -1.1177533864974976,
                    -0.7504501342773438
                ]
            ],
            "biases": [
                -2.6024038791656494,
                -2.5870656967163086,
                -2.7776503562927246,
                -2.5668091773986816
            ]
        },
        {
            "weights": [
                [
                    -3.958521604537964,
                    -3.928703546524048,
                    -4.380958557128906,
                    -3.893350124359131
                ]
            ],
            "biases": [
                0.24655887484550476
            ]
        }
    ],
    "inputLookup": null,
    "inputLookupLength": 0,
    "outputLookup": null,
    "outputLookupLength": 0,
    "options": {
        "inputSize": 0,
        "outputSize": 0,
        "binaryThresh": 0.5,
        "hiddenLayers": [
            8,
            4
        ],
        "activation": "sigmoid"
    },
    "trainOpts": {
        "activation": "sigmoid",
        "iterations": 20000,
        "errorThresh": 0.005,
        "log": false,
        "logPeriod": 10,
        "leakyReluAlpha": 0.01,
        "learningRate": 0.3,
        "momentum": 0.1,
        "callbackPeriod": 10,
        "timeout": "Infinity",
        "beta1": 0.9,
        "beta2": 0.999,
        "epsilon": 1e-8
    }
}