{
    "type": "NeuralNetwork",
    "sizes": [
        10,
        8,
        4,
        3
    ],
    "layers": [
        {
            "weights": [],
            "biases": []
        },
        {
            "weights": [
                [
                    18.312143325805664,
                    8.280423164367676,
                    20.3315486907959,
                    33.048866271972656,
                    -4.8224287033081055,
                    -0.1599702090024948,
                    -25.271787643432617,
                    2.974339723587036,
                    20.334152221679688,
                    7.911785125732422
                ],
                [
                    -12.085418701171875,
                    7.066734313964844,
                    -8.105135917663574,
                    -9.99244499206543,
                    -16.19707489013672,
                    -32.364280700683594,
                    -26.011959075927734,
                    -1.3623759746551514,
                    11.166723251342773,
                    24.72199249267578
                ],
                [
                    18.11173439025879,
                    -13.52292251586914,
                    28.54187774658203,
                    19.33816909790039,
                    11.176421165466309,
                    12.761635780334473,
                    -15.138668060302734,
                    -20.959497451782227,
                    26.407686233520508,
                    20.224836349487305
                ],
                [
                    -21.18956184387207,
                    28.006187438964844,
                    57.446510314941406,
                    14.256592750549316,
                    -1.8822942972183228,
                    -39.58021926879883,
                    12.34991455078125,
                    26.476478576660156,
                    -7.243241310119629,
                    -11.497961044311523
                ],
                [
                    28.727140426635742,
                    27.980531692504883,
                    20.188432693481445,
                    -44.641170501708984,
                    8.330455780029297,
                    37.84102249145508,
                    17.631893157958984,
                    -5.369536876678467,
                    15.814875602722168,
                    -6.088833332061768
                ],
                [
                    -14.2160062789917,
                    4.797824859619141,
                    9.961915969848633,
                    -6.506306171417236,
                    -30.37934112548828,
                    -6.627702713012695,
                    1.940949559211731,
                    -11.848471641540527,
                    -13.578450202941895,
                    0.5211854577064514
                ],
                [
                    15.506684303283691,
                    8.484761238098145,
                    13.865463256835938,
                    16.009220123291016,
                    4.024281978607178,
                    39.36016845703125,
                    -28.928890228271484,
                    -22.844982147216797,
                    -7.770663738250732,
                    -32.487117767333984
                ],
                [
                    -7.905424118041992,
                    12.80422306060791,
                    19.43204116821289,
                    -0.7850869297981262,
                    -32.94050598144531,
                    -33.953426361083984,
                    -5.1216044425964355,
                    -24.400163650512695,
                    -3.6428451538085938,
                    18.81397247314453
                ]
            ],
            "biases": [
                -36.86001205444336,
                35.5662841796875,
                -41.275482177734375,
                -9.15341854095459,
                -2.995295286178589,
                10.570632934570312,
                -25.480117797851562,
                15.1300048828125
            ]
        },
        {
            "weights": [
                [
                    -19.12124252319336,
                    -16.948884963989258,
                    15.439925193786621,
                    8.61963939666748,
                    -24.420047760009766,
                    -24.540807723999023,
                    18.757802963256836,
                    29.291471481323242
                ],
                [
                    -1.285121202468872,
                    1.2335686683654785,
                    -18.985769271850586,
                    -38.00832748413086,
                    -19.22886085510254,
                    -2.8682034015655518,
                    0.8236460089683533,
                    -19.108928680419922
                ],
                [
                    -35.71160125732422,
                    -2.0613467693328857,
                    -1.1900739669799805,
                    -15.09284782409668,
                    -15.787575721740723,
                    -20.2431697845459,
                    -9.038368225097656,
                    -22.090898513793945
                ],
                [
                    6.308122158050537,
                    0.5267496109008789,
                    -6.426476001739502,
                    -11.609612464904785,
                    -3.1463980674743652,
                    -10.1929349899292,
                    -13.84433650970459,
                    1.2084754705429077
                ]
            ],
            "biases": [
                -14.546625137329102,
                16.66542625427246,
                13.339097023010254,
                -0.9720684885978699
            ]
        },
        {
            "weights": [
                [
                    44.83977127075195,
                    -0.733020544052124,
                    16.544422149658203,
                    1.7875863313674927
                ],
                [
                    -1.02088463306427,
                    2.172832489013672,
                    6.345578193664551,
                    -0.8610064387321472
                ],
                [
                    0.7141481637954712,
                    6.480245113372803,
                    -1.9133977890014648,
                    -6.421396732330322
                ]
            ],
            "biases": [
                -0.0742613896727562,
                0.03798877075314522,
                0.07659836113452911
            ]
        }
    ],
    "inputLookup": null,
    "inputLookupLength": 0,
    "outputLookup": null,
    "outputLookupLength": 0,
    "options": {
        "inputSize": 0,
        "outputSize": 0,
        "binaryThresh": 0.5,
        "hiddenLayers": [
            8,
            4
        ],
        "activation": "sigmoid"
    },
    "trainOpts": {
        "activation": "sigmoid",
        "iterations": 20000,
        "errorThresh": 0.005,
        "log": false,
        "logPeriod": 10,
        "leakyReluAlpha": 0.01,
        "learningRate": 0.3,
        "momentum": 0.1,
        "callbackPeriod": 10,
        "timeout": "Infinity",
        "beta1": 0.9,
        "beta2": 0.999,
        "epsilon": 1e-8
    }
}