{
    "type": "NeuralNetwork",
    "sizes": [
        5,
        8,
        4,
        1
    ],
    "layers": [
        {
            "weights": [],
            "biases": []
        },
        {
            "weights": [
                [
                    2.9044198989868164,
                    -5.035400390625,
                    2.466987133026123,
                    2.3468191623687744,
                    -5.5220417976379395
                ],
                [
                    5.811438083648682,
                    3.362532615661621,
                    5.8180317878723145,
                    -6.243619441986084,
                    -0.23120474815368652
                ],
                [
                    4.3029465675354,
                    -1.5454858541488647,
                    -0.3230779469013214,
                    -3.7893080711364746,
                    -1.840277075767517
                ],
                [
                    -14.580470085144043,
                    -2.8890769481658936,
                    2.9470980167388916,
                    5.598574161529541,
                    6.956793308258057
                ],
                [
                    -1.5921655893325806,
                    11.966031074523926,
                    2.0449910163879395,
                    6.618874549865723,
                    -3.3287532329559326
                ],
                [
                    1.0905128717422485,
                    -0.028954405337572098,
                    -5.6755757331848145,
                    -1.938201665878296,
                    1.3831185102462769
                ],
                [
                    20.083908081054688,
                    -4.851269721984863,
                    9.724590301513672,
                    -7.190726280212402,
                    3.3891215324401855
                ],
                [
                    -7.851156711578369,
                    -8.474105834960938,
                    5.125216960906982,
                    -1.6494948863983154,
                    3.925091505050659
                ]
            ],
            "biases": [
                -7.591454029083252,
                -12.38951301574707,
                -5.579426288604736,
                6.964890480041504,
                -13.36442756652832,
                -2.928110122680664,
                -2.236311197280884,
                -4.331882476806641
            ]
        },
        {
            "weights": [
                [
                    -1.9423249959945679,
                    0.9592517018318176,
                    0.852386474609375,
                    -0.07913747429847717,
                    -7.997681617736816,
                    -2.60058331489563,
                    -0.26821085810661316,
                    -0.46156740188598633
                ],
                [
                    -2.012706995010376,
                    0.8983369469642639,
                    0.5267380475997925,
                    -0.15546049177646637,
                    -7.80946159362793,
                    -2.743870496749878,
                    -0.26661840081214905,
                    -0.45237597823143005
                ],
                [
                    4.005733966827393,
                    0.147195503115654,
                    1.6912174224853516,
                    -6.400782585144043,
                    -0.19649647176265717,
                    -0.3705182373523712,
                    -6.608697891235352,
                    -11.431351661682129
                ],
                [
                    -0.5898711681365967,
                    2.3183093070983887,
                    -0.25024735927581787,
                    -5.370771408081055,
                    1.9708865880966187,
                    4.419947147369385,
                    -5.938862323760986,
                    7.396671295166016
                ]
            ],
            "biases": [
                -2.383751630783081,
                -2.296355724334717,
                4.310025691986084,
                2.1868507862091064
            ]
        },
        {
            "weights": [
                [
                    2.4074318408966064,
                    2.394840955734253,
                    2.273488998413086,
                    1.742266058921814
                ]
            ],
            "biases": [
                -0.5215200781822205
            ]
        }
    ],
    "inputLookup": null,
    "inputLookupLength": 0,
    "outputLookup": null,
    "outputLookupLength": 0,
    "options": {
        "inputSize": 0,
        "outputSize": 0,
        "binaryThresh": 0.5,
        "hiddenLayers": [
            8,
            4
        ],
        "activation": "sigmoid"
    },
    "trainOpts": {
        "activation": "sigmoid",
        "iterations": 20000,
        "errorThresh": 0.005,
        "log": false,
        "logPeriod": 10,
        "leakyReluAlpha": 0.01,
        "learningRate": 0.3,
        "momentum": 0.1,
        "callbackPeriod": 10,
        "timeout": "Infinity",
        "beta1": 0.9,
        "beta2": 0.999,
        "epsilon": 1e-8
    }
}