{
    "type": "NeuralNetwork",
    "sizes": [
        5,
        8,
        4,
        1
    ],
    "layers": [
        {
            "weights": [],
            "biases": []
        },
        {
            "weights": [
                [
                    14.144475936889648,
                    -3.949152946472168,
                    -10.804082870483398,
                    8.895627975463867,
                    8.794214248657227
                ],
                [
                    -3.4717419147491455,
                    0.6167669296264648,
                    -2.493011713027954,
                    -2.8435003757476807,
                    -0.1878511756658554
                ],
                [
                    3.3768672943115234,
                    -5.54647970199585,
                    6.433719635009766,
                    3.7065229415893555,
                    -7.787496089935303
                ],
                [
                    -7.6294732093811035,
                    14.887980461120605,
                    -5.079784870147705,
                    -3.970451593399048,
                    10.17672061920166
                ],
                [
                    -6.775180339813232,
                    -9.088794708251953,
                    -5.241802215576172,
                    4.915057182312012,
                    9.164083480834961
                ],
                [
                    -3.7621395587921143,
                    3.743680238723755,
                    -5.858352184295654,
                    -2.8656530380249023,
                    8.900580406188965
                ],
                [
                    -0.7306229472160339,
                    3.880162000656128,
                    9.759105682373047,
                    7.331897258758545,
                    8.5844144821167
                ],
                [
                    -1.4809681177139282,
                    -3.192913293838501,
                    0.29328659176826477,
                    -6.047837257385254,
                    -2.222127914428711
                ]
            ],
            "biases": [
                -6.13162088394165,
                -3.3142402172088623,
                -13.191189765930176,
                -8.446473121643066,
                -10.009658813476562,
                -7.3872270584106445,
                -11.764067649841309,
                0.07732892781496048
            ]
        },
        {
            "weights": [
                [
                    -1.0635499954223633,
                    -1.5218719244003296,
                    -2.4974770545959473,
                    -0.8411872386932373,
                    -6.020852565765381,
                    0.7432864308357239,
                    -0.6812084317207336,
                    -0.9277379512786865
                ],
                [
                    -1.0485038757324219,
                    -0.8084192872047424,
                    -2.5564260482788086,
                    -0.8547863960266113,
                    -6.00458288192749,
                    0.7267860174179077,
                    -0.6961345076560974,
                    -1.010481357574463
                ],
                [
                    -0.9363892674446106,
                    1.137526512145996,
                    -4.02433443069458,
                    -0.9067951440811157,
                    -6.0543389320373535,
                    0.6561409831047058,
                    -0.7785751223564148,
                    -1.3530747890472412
                ],
                [
                    -1.0602010488510132,
                    -1.3060839176177979,
                    -2.502678871154785,
                    -0.8449196219444275,
                    -6.003793716430664,
                    0.7387908697128296,
                    -0.6849469542503357,
                    -0.9507087469100952
                ]
            ],
            "biases": [
                -2.0351569652557373,
                -2.0227715969085693,
                -1.9941020011901855,
                -2.0316293239593506
            ]
        },
        {
            "weights": [
                [
                    3.1437063217163086,
                    3.135329484939575,
                    3.1449103355407715,
                    3.140587091445923
                ]
            ],
            "biases": [
                -0.8280380368232727
            ]
        }
    ],
    "inputLookup": null,
    "inputLookupLength": 0,
    "outputLookup": null,
    "outputLookupLength": 0,
    "options": {
        "inputSize": 0,
        "outputSize": 0,
        "binaryThresh": 0.5,
        "hiddenLayers": [
            8,
            4
        ],
        "activation": "sigmoid"
    },
    "trainOpts": {
        "activation": "sigmoid",
        "iterations": 20000,
        "errorThresh": 0.005,
        "log": false,
        "logPeriod": 10,
        "leakyReluAlpha": 0.01,
        "learningRate": 0.3,
        "momentum": 0.1,
        "callbackPeriod": 10,
        "timeout": "Infinity",
        "beta1": 0.9,
        "beta2": 0.999,
        "epsilon": 1e-8
    }
}