{
    "type": "NeuralNetwork",
    "sizes": [
        15,
        8,
        4,
        1
    ],
    "layers": [
        {
            "weights": [],
            "biases": []
        },
        {
            "weights": [
                [
                    16.240650177001953,
                    -19.985185623168945,
                    -1.561333179473877,
                    17.319927215576172,
                    19.717453002929688,
                    -36.0729866027832,
                    29.130586624145508,
                    12.618304252624512,
                    -33.65022277832031,
                    3.1841742992401123,
                    38.224388122558594,
                    7.007710933685303,
                    -12.283044815063477,
                    -10.32844066619873,
                    24.768386840820312
                ],
                [
                    -14.929977416992188,
                    27.269893646240234,
                    10.23720932006836,
                    -1.1069936752319336,
                    -6.4789814949035645,
                    -4.6530232429504395,
                    -7.830356597900391,
                    37.71780776977539,
                    9.977956771850586,
                    3.1445391178131104,
                    -18.492225646972656,
                    -7.360382556915283,
                    27.500757217407227,
                    -12.709792137145996,
                    30.046545028686523
                ],
                [
                    7.775162220001221,
                    -20.686548233032227,
                    16.40172004699707,
                    -6.953604698181152,
                    16.523630142211914,
                    38.72486114501953,
                    5.99254846572876,
                    27.16938018798828,
                    -7.251535892486572,
                    27.06931495666504,
                    14.255833625793457,
                    30.438751220703125,
                    19.833698272705078,
                    -31.566862106323242,
                    -5.516473770141602
                ],
                [
                    25.502901077270508,
                    -7.529779434204102,
                    -23.962547302246094,
                    -5.058032989501953,
                    -37.3745231628418,
                    2.157334804534912,
                    5.684578895568848,
                    -36.35538864135742,
                    -43.40350341796875,
                    59.01919937133789,
                    26.26995086669922,
                    -43.714412689208984,
                    -38.481327056884766,
                    -7.323469161987305,
                    36.576175689697266
                ],
                [
                    -42.85803985595703,
                    31.982473373413086,
                    9.783272743225098,
                    17.918676376342773,
                    19.920852661132812,
                    -10.738386154174805,
                    -52.35862731933594,
                    -28.778060913085938,
                    -2.0867321491241455,
                    6.312251091003418,
                    -15.720211029052734,
                    39.46665573120117,
                    -6.30731725692749,
                    20.58755111694336,
                    41.7745361328125
                ],
                [
                    29.99370574951172,
                    19.451595306396484,
                    24.50727081298828,
                    -3.5212485790252686,
                    8.965215682983398,
                    6.1116485595703125,
                    25.238513946533203,
                    -44.607452392578125,
                    -0.3943031430244446,
                    -34.19163513183594,
                    -32.27316665649414,
                    36.4029541015625,
                    32.52979278564453,
                    37.29631042480469,
                    1.1024346351623535
                ],
                [
                    -5.057771682739258,
                    -20.996007919311523,
                    -22.041627883911133,
                    5.932404041290283,
                    12.035238265991211,
                    -3.847606658935547,
                    0.35306453704833984,
                    28.89674949645996,
                    -15.945854187011719,
                    -20.75674819946289,
                    21.5918025970459,
                    11.382743835449219,
                    11.73371696472168,
                    -26.761966705322266,
                    -2.4184346199035645
                ],
                [
                    7.439988136291504,
                    -25.81758689880371,
                    6.7838239669799805,
                    0.39709416031837463,
                    13.352014541625977,
                    -23.560487747192383,
                    -16.131927490234375,
                    -5.834430694580078,
                    -31.94960594177246,
                    7.538483142852783,
                    -30.750072479248047,
                    36.19548797607422,
                    18.944847106933594,
                    -1.0490134954452515,
                    16.990028381347656
                ]
            ],
            "biases": [
                -20.236867904663086,
                -28.950584411621094,
                -17.40787124633789,
                40.9986457824707,
                -16.07737922668457,
                -31.64035415649414,
                -23.709125518798828,
                -36.77170944213867
            ]
        },
        {
            "weights": [
                [
                    -19.661855697631836,
                    -19.366527557373047,
                    -23.571950912475586,
                    -23.648611068725586,
                    -23.01874542236328,
                    -23.180402755737305,
                    -21.330289840698242,
                    22.590070724487305
                ],
                [
                    -25.857112884521484,
                    -28.234481811523438,
                    -28.046127319335938,
                    -40.63698959350586,
                    -31.890357971191406,
                    -36.71449279785156,
                    -27.922449111938477,
                    45.68183898925781
                ],
                [
                    13.149802207946777,
                    -7.201025485992432,
                    -19.464967727661133,
                    -29.873821258544922,
                    -16.51592445373535,
                    -11.631332397460938,
                    -23.7490234375,
                    -7.540248394012451
                ],
                [
                    -5.029175758361816,
                    -2.8278908729553223,
                    -5.955502033233643,
                    3.778897285461426,
                    -1.48516047000885,
                    -10.634326934814453,
                    -7.737048625946045,
                    9.20057201385498
                ]
            ],
            "biases": [
                62.79886245727539,
                70.59806060791016,
                18.01906394958496,
                2.632918357849121
            ]
        },
        {
            "weights": [
                [
                    -13.859578132629395,
                    15.432538986206055,
                    2.813505172729492,
                    2.3658316135406494
                ]
            ],
            "biases": [
                0.26112449169158936
            ]
        }
    ],
    "inputLookup": null,
    "inputLookupLength": 0,
    "outputLookup": null,
    "outputLookupLength": 0,
    "options": {
        "inputSize": 0,
        "outputSize": 0,
        "binaryThresh": 0.5,
        "hiddenLayers": [
            8,
            4
        ],
        "activation": "sigmoid"
    },
    "trainOpts": {
        "activation": "sigmoid",
        "iterations": 20000,
        "errorThresh": 0.005,
        "log": false,
        "logPeriod": 10,
        "leakyReluAlpha": 0.01,
        "learningRate": 0.3,
        "momentum": 0.1,
        "callbackPeriod": 10,
        "timeout": "Infinity",
        "beta1": 0.9,
        "beta2": 0.999,
        "epsilon": 1e-8
    }
}