{
    "type": "NeuralNetwork",
    "sizes": [
        5,
        8,
        4,
        1
    ],
    "layers": [
        {
            "weights": [],
            "biases": []
        },
        {
            "weights": [
                [
                    3.1272079944610596,
                    -7.870088577270508,
                    -5.57199239730835,
                    -1.7316093444824219,
                    9.04476547241211
                ],
                [
                    4.830785751342773,
                    4.462258815765381,
                    11.921065330505371,
                    3.276094675064087,
                    -1.2539315223693848
                ],
                [
                    4.7221221923828125,
                    -11.008999824523926,
                    6.8953752517700195,
                    5.708284378051758,
                    12.20714282989502
                ],
                [
                    -9.075404167175293,
                    -0.059660013765096664,
                    5.392904758453369,
                    -6.676070690155029,
                    -6.0940680503845215
                ],
                [
                    3.0844430923461914,
                    4.918331146240234,
                    4.907074928283691,
                    -2.927645444869995,
                    0.45423805713653564
                ],
                [
                    5.987619400024414,
                    -12.249917984008789,
                    9.505614280700684,
                    -6.541658401489258,
                    5.608944892883301
                ],
                [
                    7.1972432136535645,
                    4.410269737243652,
                    -0.6408169269561768,
                    5.677450180053711,
                    5.052341461181641
                ],
                [
                    -4.182884216308594,
                    0.06226666644215584,
                    -1.6248230934143066,
                    -5.123187065124512,
                    -2.708076238632202
                ]
            ],
            "biases": [
                -3.635298490524292,
                -8.75969123840332,
                -10.769959449768066,
                -3.4793307781219482,
                -8.677544593811035,
                -12.436173439025879,
                -20.71609115600586,
                -0.7745270729064941
            ]
        },
        {
            "weights": [
                [
                    -1.1501851081848145,
                    0.1060115396976471,
                    -1.323930025100708,
                    -5.787469863891602,
                    -1.4571155309677124,
                    1.5489662885665894,
                    -4.3790974617004395,
                    -2.282304525375366
                ],
                [
                    -3.749997138977051,
                    -5.499537944793701,
                    3.2931530475616455,
                    -5.510130405426025,
                    4.931567668914795,
                    1.3505918979644775,
                    -11.11751651763916,
                    -4.750522136688232
                ],
                [
                    1.2185516357421875,
                    -0.010653341189026833,
                    -1.5131397247314453,
                    -0.6641383171081543,
                    -4.6739044189453125,
                    1.1591665744781494,
                    -2.8699944019317627,
                    2.8807003498077393
                ],
                [
                    -0.9907785654067993,
                    0.06753342598676682,
                    -1.2993513345718384,
                    -5.828922748565674,
                    -1.3681470155715942,
                    1.4412833452224731,
                    -4.50528621673584,
                    -2.1770498752593994
                ]
            ],
            "biases": [
                -2.5528910160064697,
                -0.9864662885665894,
                -3.4130616188049316,
                -2.6403207778930664
            ]
        },
        {
            "weights": [
                [
                    3.0507404804229736,
                    1.3260462284088135,
                    3.614168405532837,
                    3.335775136947632
                ]
            ],
            "biases": [
                -0.1553851068019867
            ]
        }
    ],
    "inputLookup": null,
    "inputLookupLength": 0,
    "outputLookup": null,
    "outputLookupLength": 0,
    "options": {
        "inputSize": 0,
        "outputSize": 0,
        "binaryThresh": 0.5,
        "hiddenLayers": [
            8,
            4
        ],
        "activation": "sigmoid"
    },
    "trainOpts": {
        "activation": "sigmoid",
        "iterations": 20000,
        "errorThresh": 0.005,
        "log": false,
        "logPeriod": 10,
        "leakyReluAlpha": 0.01,
        "learningRate": 0.3,
        "momentum": 0.1,
        "callbackPeriod": 10,
        "timeout": "Infinity",
        "beta1": 0.9,
        "beta2": 0.999,
        "epsilon": 1e-8
    }
}