{
    "type": "NeuralNetwork",
    "sizes": [
        10,
        8,
        4,
        1
    ],
    "layers": [
        {
            "weights": [],
            "biases": []
        },
        {
            "weights": [
                [
                    -3.8796560764312744,
                    -14.825756072998047,
                    -37.5558967590332,
                    5.79081916809082,
                    12.85688304901123,
                    -25.95275115966797,
                    22.84207534790039,
                    11.225272178649902,
                    5.131651878356934,
                    3.9212687015533447
                ],
                [
                    3.4156343936920166,
                    -15.374082565307617,
                    26.603107452392578,
                    -13.572296142578125,
                    -14.530350685119629,
                    44.49134826660156,
                    -24.227947235107422,
                    10.673599243164062,
                    -24.01711654663086,
                    8.342547416687012
                ],
                [
                    -23.912412643432617,
                    -15.691899299621582,
                    -25.727041244506836,
                    4.9972734451293945,
                    10.865704536437988,
                    16.91596031188965,
                    14.363706588745117,
                    -17.552427291870117,
                    17.684465408325195,
                    -28.328414916992188
                ],
                [
                    7.054960250854492,
                    -10.717987060546875,
                    20.584461212158203,
                    -28.37531852722168,
                    2.4480252265930176,
                    -59.50217056274414,
                    8.003461837768555,
                    -24.258209228515625,
                    39.941856384277344,
                    -3.852480411529541
                ],
                [
                    25.71721076965332,
                    -20.47878074645996,
                    -17.5120906829834,
                    -13.59654712677002,
                    14.968279838562012,
                    -17.94845199584961,
                    3.7386581897735596,
                    -11.9562349319458,
                    -7.677736282348633,
                    12.084993362426758
                ],
                [
                    40.75227737426758,
                    -7.690671920776367,
                    -26.140178680419922,
                    -19.34452247619629,
                    11.556452751159668,
                    2.4329609870910645,
                    -18.454896926879883,
                    -18.751052856445312,
                    -49.44932556152344,
                    -15.6787748336792
                ],
                [
                    -15.154537200927734,
                    -12.006475448608398,
                    -15.056966781616211,
                    -26.73906135559082,
                    11.214045524597168,
                    -1.7197102308273315,
                    -11.66209888458252,
                    15.339652061462402,
                    -22.964391708374023,
                    -16.036619186401367
                ],
                [
                    -4.124429225921631,
                    4.603392124176025,
                    -3.8295085430145264,
                    14.165342330932617,
                    -22.348047256469727,
                    -2.752614736557007,
                    -9.283974647521973,
                    -4.608015060424805,
                    11.005433082580566,
                    -19.94993019104004
                ]
            ],
            "biases": [
                -25.884395599365234,
                -21.22158432006836,
                -32.4459342956543,
                -25.767009735107422,
                -21.118764877319336,
                -4.744804382324219,
                14.365338325500488,
                -16.357019424438477
            ]
        },
        {
            "weights": [
                [
                    12.109301567077637,
                    -1.83479905128479,
                    -10.831827163696289,
                    -9.695448875427246,
                    -14.347943305969238,
                    -1.9059429168701172,
                    13.516215324401855,
                    -0.15789726376533508
                ],
                [
                    -22.348087310791016,
                    -13.32065200805664,
                    -5.432841777801514,
                    -30.145090103149414,
                    1.6301709413528442,
                    -2.5009219646453857,
                    -4.5803399085998535,
                    -45.798580169677734
                ],
                [
                    6.477377414703369,
                    34.24663162231445,
                    -1.4621391296386719,
                    -11.574345588684082,
                    -32.41643524169922,
                    15.816849708557129,
                    -47.14793014526367,
                    20.178556442260742
                ],
                [
                    -1.8152467012405396,
                    -11.469746589660645,
                    12.81475830078125,
                    15.179454803466797,
                    -0.5853977799415588,
                    4.506227016448975,
                    -22.267013549804688,
                    -4.820023059844971
                ]
            ],
            "biases": [
                -11.303553581237793,
                1.6150954961776733,
                -19.45913314819336,
                -13.735539436340332
            ]
        },
        {
            "weights": [
                [
                    -1.9342842102050781,
                    -3.178553819656372,
                    -1.4996917247772217,
                    -2.195373058319092
                ]
            ],
            "biases": [
                2.133371114730835
            ]
        }
    ],
    "inputLookup": null,
    "inputLookupLength": 0,
    "outputLookup": null,
    "outputLookupLength": 0,
    "options": {
        "inputSize": 0,
        "outputSize": 0,
        "binaryThresh": 0.5,
        "hiddenLayers": [
            8,
            4
        ],
        "activation": "sigmoid"
    },
    "trainOpts": {
        "activation": "sigmoid",
        "iterations": 20000,
        "errorThresh": 0.005,
        "log": false,
        "logPeriod": 10,
        "leakyReluAlpha": 0.01,
        "learningRate": 0.3,
        "momentum": 0.1,
        "callbackPeriod": 10,
        "timeout": "Infinity",
        "beta1": 0.9,
        "beta2": 0.999,
        "epsilon": 1e-8
    }
}