{
    "type": "NeuralNetwork",
    "sizes": [
        10,
        8,
        4,
        1
    ],
    "layers": [
        {
            "weights": [],
            "biases": []
        },
        {
            "weights": [
                [
                    19.612733840942383,
                    -2.7575900554656982,
                    -13.399767875671387,
                    -8.069830894470215,
                    15.930523872375488,
                    -11.531075477600098,
                    29.669832229614258,
                    -9.966635704040527,
                    -19.207870483398438,
                    5.055283546447754
                ],
                [
                    -24.06420135498047,
                    29.582523345947266,
                    0.31209856271743774,
                    10.045578956604004,
                    11.289083480834961,
                    -2.1492035388946533,
                    -2.743090867996216,
                    10.28923225402832,
                    -3.745584487915039,
                    -4.821817874908447
                ],
                [
                    -6.163928031921387,
                    -10.617002487182617,
                    8.216683387756348,
                    -9.277840614318848,
                    -4.317824363708496,
                    14.188435554504395,
                    16.94537353515625,
                    5.9750518798828125,
                    5.872334003448486,
                    -5.521780967712402
                ],
                [
                    -2.347001552581787,
                    17.45219612121582,
                    6.409620761871338,
                    -15.303569793701172,
                    9.156523704528809,
                    13.546163558959961,
                    -8.97023868560791,
                    -8.274361610412598,
                    -20.563722610473633,
                    16.371929168701172
                ],
                [
                    9.180074691772461,
                    -5.979336738586426,
                    -15.399581909179688,
                    3.986992120742798,
                    -8.264710426330566,
                    -9.803746223449707,
                    13.979493141174316,
                    6.498592376708984,
                    9.212821960449219,
                    13.040285110473633
                ],
                [
                    -9.139801979064941,
                    -19.869213104248047,
                    -4.605497360229492,
                    21.45346450805664,
                    0.22193275392055511,
                    -31.005035400390625,
                    0.3885002136230469,
                    20.026798248291016,
                    0.7581709027290344,
                    -9.019400596618652
                ],
                [
                    -8.779786109924316,
                    -2.050090789794922,
                    -0.5565388798713684,
                    6.767433166503906,
                    -1.8724209070205688,
                    -6.814579010009766,
                    -22.205379486083984,
                    -9.066224098205566,
                    3.576076030731201,
                    10.653400421142578
                ],
                [
                    -6.517597675323486,
                    13.04322338104248,
                    24.041885375976562,
                    12.523473739624023,
                    -1.9552000761032104,
                    -2.2412173748016357,
                    -8.779925346374512,
                    -6.545994758605957,
                    25.16300392150879,
                    -9.277405738830566
                ]
            ],
            "biases": [
                11.425837516784668,
                -20.987504959106445,
                -7.593326091766357,
                8.076969146728516,
                -7.43315315246582,
                -1.0764752626419067,
                10.052291870117188,
                -22.133312225341797
            ]
        },
        {
            "weights": [
                [
                    0.907471776008606,
                    7.175271511077881,
                    -34.918548583984375,
                    -34.534664154052734,
                    10.160029411315918,
                    -36.811038970947266,
                    -36.760826110839844,
                    -35.75072479248047
                ],
                [
                    -18.94411277770996,
                    -22.260879516601562,
                    3.8004250526428223,
                    -22.112367630004883,
                    -21.980411529541016,
                    40.719932556152344,
                    -17.033935546875,
                    -24.701690673828125
                ],
                [
                    9.457393646240234,
                    -23.008005142211914,
                    -14.775993347167969,
                    -31.962026596069336,
                    -38.106422424316406,
                    -18.246932983398438,
                    -25.037189483642578,
                    -19.497655868530273
                ],
                [
                    -19.66143035888672,
                    -9.743646621704102,
                    -16.78129768371582,
                    -11.160249710083008,
                    -39.463924407958984,
                    -9.828035354614258,
                    36.7933349609375,
                    -13.762088775634766
                ]
            ],
            "biases": [
                24.416765213012695,
                -2.0154643058776855,
                35.999210357666016,
                -4.373291492462158
            ]
        },
        {
            "weights": [
                [
                    1.7601807117462158,
                    1.1188218593597412,
                    2.205369710922241,
                    3.1918821334838867
                ]
            ],
            "biases": [
                0.11629576236009598
            ]
        }
    ],
    "inputLookup": null,
    "inputLookupLength": 0,
    "outputLookup": null,
    "outputLookupLength": 0,
    "options": {
        "inputSize": 0,
        "outputSize": 0,
        "binaryThresh": 0.5,
        "hiddenLayers": [
            8,
            4
        ],
        "activation": "sigmoid"
    },
    "trainOpts": {
        "activation": "sigmoid",
        "iterations": 20000,
        "errorThresh": 0.005,
        "log": false,
        "logPeriod": 10,
        "leakyReluAlpha": 0.01,
        "learningRate": 0.3,
        "momentum": 0.1,
        "callbackPeriod": 10,
        "timeout": "Infinity",
        "beta1": 0.9,
        "beta2": 0.999,
        "epsilon": 1e-8
    }
}