{
    "type": "NeuralNetwork",
    "sizes": [
        10,
        8,
        4,
        3
    ],
    "layers": [
        {
            "weights": [],
            "biases": []
        },
        {
            "weights": [
                [
                    -11.028355598449707,
                    2.93009352684021,
                    -10.506562232971191,
                    11.269773483276367,
                    -1.6929094791412354,
                    -7.31697416305542,
                    -13.443882942199707,
                    -13.096428871154785,
                    17.496973037719727,
                    -8.449150085449219
                ],
                [
                    26.931373596191406,
                    19.508899688720703,
                    16.20108985900879,
                    6.284250736236572,
                    -61.47291564941406,
                    2.827284812927246,
                    -13.818198204040527,
                    13.144943237304688,
                    7.811771392822266,
                    5.843565464019775
                ],
                [
                    -28.710628509521484,
                    13.731743812561035,
                    25.10493278503418,
                    -12.001413345336914,
                    1.8834930658340454,
                    -13.254524230957031,
                    16.510541915893555,
                    13.675046920776367,
                    -3.704054832458496,
                    27.18347930908203
                ],
                [
                    25.71223258972168,
                    9.570601463317871,
                    3.3866186141967773,
                    -10.827404975891113,
                    22.56838035583496,
                    3.600001573562622,
                    8.74760913848877,
                    -9.566000938415527,
                    -25.986080169677734,
                    3.852389097213745
                ],
                [
                    -12.875651359558105,
                    -12.08614730834961,
                    -3.883139133453369,
                    13.859918594360352,
                    -6.465756893157959,
                    -7.575377464294434,
                    -3.117016315460205,
                    23.668672561645508,
                    1.1319999694824219,
                    13.158883094787598
                ],
                [
                    35.84943389892578,
                    12.976118087768555,
                    -46.46232223510742,
                    2.632338523864746,
                    3.9641289710998535,
                    31.72573471069336,
                    6.571764945983887,
                    -26.838199615478516,
                    11.382739067077637,
                    -12.602106094360352
                ],
                [
                    0.2981411814689636,
                    42.315189361572266,
                    10.169936180114746,
                    -10.596142768859863,
                    -33.35416030883789,
                    -18.884624481201172,
                    -13.254770278930664,
                    9.845647811889648,
                    -30.833900451660156,
                    24.775997161865234
                ],
                [
                    5.252469062805176,
                    32.8755989074707,
                    -50.79496383666992,
                    18.97429847717285,
                    29.466798782348633,
                    -7.041751861572266,
                    11.146403312683105,
                    -0.8101100325584412,
                    -6.074366092681885,
                    -10.288384437561035
                ]
            ],
            "biases": [
                2.7872047424316406,
                -21.059778213500977,
                -23.709518432617188,
                -3.8604955673217773,
                -1.3847672939300537,
                -11.660017967224121,
                -1.1283318996429443,
                7.348127841949463
            ]
        },
        {
            "weights": [
                [
                    -65.57560729980469,
                    35.431373596191406,
                    7.26225471496582,
                    -17.134807586669922,
                    -40.59122085571289,
                    -27.821590423583984,
                    -19.9105167388916,
                    24.643861770629883
                ],
                [
                    24.847484588623047,
                    7.176330089569092,
                    -32.70855712890625,
                    -22.951658248901367,
                    -43.81888961791992,
                    -6.520562171936035,
                    7.015115737915039,
                    28.235553741455078
                ],
                [
                    12.453771591186523,
                    -27.195262908935547,
                    -41.2598762512207,
                    24.709341049194336,
                    0.26984599232673645,
                    -52.47175216674805,
                    52.32826614379883,
                    -14.342275619506836
                ],
                [
                    -17.276456832885742,
                    -25.583776473999023,
                    -30.3457088470459,
                    -22.3133544921875,
                    -4.855551242828369,
                    -18.095491409301758,
                    18.23702621459961,
                    -9.067790985107422
                ]
            ],
            "biases": [
                -5.661498069763184,
                -30.037643432617188,
                -23.154640197753906,
                31.19585418701172
            ]
        },
        {
            "weights": [
                [
                    1.500070333480835,
                    0.38025447726249695,
                    -0.215792715549469,
                    1.0323964357376099
                ],
                [
                    -0.8429809212684631,
                    -0.23463886976242065,
                    1.7684723138809204,
                    -0.9473859667778015
                ],
                [
                    -1.305070400238037,
                    1.2569290399551392,
                    -0.006662716157734394,
                    1.98349130153656
                ]
            ],
            "biases": [
                0.21443665027618408,
                0.36484476923942566,
                0.3084753453731537
            ]
        }
    ],
    "inputLookup": null,
    "inputLookupLength": 0,
    "outputLookup": null,
    "outputLookupLength": 0,
    "options": {
        "inputSize": 0,
        "outputSize": 0,
        "binaryThresh": 0.5,
        "hiddenLayers": [
            8,
            4
        ],
        "activation": "sigmoid"
    },
    "trainOpts": {
        "activation": "sigmoid",
        "iterations": 20000,
        "errorThresh": 0.005,
        "log": false,
        "logPeriod": 10,
        "leakyReluAlpha": 0.01,
        "learningRate": 0.3,
        "momentum": 0.1,
        "callbackPeriod": 10,
        "timeout": "Infinity",
        "beta1": 0.9,
        "beta2": 0.999,
        "epsilon": 1e-8
    }
}