{
    "type": "NeuralNetwork",
    "sizes": [
        10,
        8,
        4,
        1
    ],
    "layers": [
        {
            "weights": [],
            "biases": []
        },
        {
            "weights": [
                [
                    1.0983637571334839,
                    -8.049809455871582,
                    -32.17182159423828,
                    -11.463359832763672,
                    10.043108940124512,
                    9.102178573608398,
                    -5.787261962890625,
                    7.569061756134033,
                    -19.725343704223633,
                    0.27770015597343445
                ],
                [
                    -30.00441551208496,
                    26.87311363220215,
                    -23.596046447753906,
                    -4.995904445648193,
                    -18.03720474243164,
                    10.304391860961914,
                    -15.092616081237793,
                    21.896121978759766,
                    -32.11136245727539,
                    5.108323097229004
                ],
                [
                    -4.990633487701416,
                    -10.561714172363281,
                    8.800912857055664,
                    21.355770111083984,
                    29.443126678466797,
                    -0.06836752593517303,
                    8.312763214111328,
                    2.476346731185913,
                    -22.174875259399414,
                    -37.020668029785156
                ],
                [
                    -18.877765655517578,
                    26.860353469848633,
                    9.90280532836914,
                    19.573843002319336,
                    -2.6000421047210693,
                    -5.631835460662842,
                    10.53940486907959,
                    10.759224891662598,
                    -28.33514404296875,
                    33.09575271606445
                ],
                [
                    12.779491424560547,
                    32.29737091064453,
                    14.905840873718262,
                    -12.67048454284668,
                    9.916343688964844,
                    24.387605667114258,
                    -27.884143829345703,
                    -19.084203720092773,
                    27.720016479492188,
                    -6.572279930114746
                ],
                [
                    17.798233032226562,
                    14.13011360168457,
                    1.9861706495285034,
                    -32.39696502685547,
                    -55.51008987426758,
                    -13.910259246826172,
                    -7.222174644470215,
                    -4.980443000793457,
                    -11.848119735717773,
                    35.503604888916016
                ],
                [
                    -18.341670989990234,
                    -20.61296272277832,
                    -3.6792409420013428,
                    16.375934600830078,
                    -8.513211250305176,
                    3.0985398292541504,
                    9.211119651794434,
                    11.307687759399414,
                    39.003173828125,
                    16.142131805419922
                ],
                [
                    -3.146291971206665,
                    -2.4350457191467285,
                    6.475183486938477,
                    4.924570083618164,
                    -17.46883201599121,
                    -3.8252010345458984,
                    -0.7353827357292175,
                    -2.6977341175079346,
                    6.247042179107666,
                    4.591492176055908
                ]
            ],
            "biases": [
                6.703361511230469,
                -9.28242015838623,
                -11.04125690460205,
                -29.5434513092041,
                -47.160152435302734,
                17.36163902282715,
                -35.586463928222656,
                -11.944056510925293
            ]
        },
        {
            "weights": [
                [
                    -4.175919055938721,
                    23.269487380981445,
                    -25.45343017578125,
                    15.600739479064941,
                    16.652494430541992,
                    -30.084909439086914,
                    -4.651329517364502,
                    45.154422760009766
                ],
                [
                    -30.630611419677734,
                    10.715213775634766,
                    -19.446134567260742,
                    -20.621829986572266,
                    -28.085933685302734,
                    -18.255615234375,
                    -28.45056915283203,
                    -34.47816848754883
                ],
                [
                    20.186256408691406,
                    -43.25668716430664,
                    -11.166071891784668,
                    -24.83592414855957,
                    -13.719429969787598,
                    -23.73390769958496,
                    -24.139673233032227,
                    -8.465375900268555
                ],
                [
                    -2.2092740535736084,
                    6.61011266708374,
                    -1.8391964435577393,
                    -24.41197395324707,
                    4.157404899597168,
                    22.683277130126953,
                    -17.190887451171875,
                    5.698617935180664
                ]
            ],
            "biases": [
                -27.09843635559082,
                29.516666412353516,
                4.096582412719727,
                -29.202421188354492
            ]
        },
        {
            "weights": [
                [
                    1.6205265522003174,
                    1.5613303184509277,
                    1.1152883768081665,
                    5.870462894439697
                ]
            ],
            "biases": [
                -0.49793049693107605
            ]
        }
    ],
    "inputLookup": null,
    "inputLookupLength": 0,
    "outputLookup": null,
    "outputLookupLength": 0,
    "options": {
        "inputSize": 0,
        "outputSize": 0,
        "binaryThresh": 0.5,
        "hiddenLayers": [
            8,
            4
        ],
        "activation": "sigmoid"
    },
    "trainOpts": {
        "activation": "sigmoid",
        "iterations": 20000,
        "errorThresh": 0.005,
        "log": false,
        "logPeriod": 10,
        "leakyReluAlpha": 0.01,
        "learningRate": 0.3,
        "momentum": 0.1,
        "callbackPeriod": 10,
        "timeout": "Infinity",
        "beta1": 0.9,
        "beta2": 0.999,
        "epsilon": 1e-8
    }
}