{
    "type": "NeuralNetwork",
    "sizes": [
        15,
        8,
        4,
        3
    ],
    "layers": [
        {
            "weights": [],
            "biases": []
        },
        {
            "weights": [
                [
                    13.448246955871582,
                    16.770050048828125,
                    22.691226959228516,
                    15.164607048034668,
                    -5.849769592285156,
                    -1.6204020977020264,
                    -18.685619354248047,
                    11.279413223266602,
                    -3.29219913482666,
                    5.979839324951172,
                    10.667290687561035,
                    1.803298830986023,
                    7.161123275756836,
                    9.839550018310547,
                    -19.35344886779785
                ],
                [
                    23.667898178100586,
                    47.09803771972656,
                    -21.436262130737305,
                    -32.697269439697266,
                    -0.5648545622825623,
                    9.43683910369873,
                    -27.35308074951172,
                    15.925206184387207,
                    -5.745506286621094,
                    20.68014907836914,
                    1.6660462617874146,
                    -4.5915398597717285,
                    -36.33287811279297,
                    29.168981552124023,
                    10.400116920471191
                ],
                [
                    -2.508610248565674,
                    22.03359603881836,
                    -8.330781936645508,
                    0.19121994078159332,
                    31.447404861450195,
                    -15.321280479431152,
                    -31.155508041381836,
                    36.44636535644531,
                    15.854656219482422,
                    11.901747703552246,
                    7.313631534576416,
                    -13.71101188659668,
                    16.451391220092773,
                    11.418905258178711,
                    -3.4439809322357178
                ],
                [
                    11.75745964050293,
                    -6.0267438888549805,
                    -17.26093101501465,
                    0.5353496670722961,
                    6.023608684539795,
                    -20.149227142333984,
                    24.227397918701172,
                    6.880253314971924,
                    -18.53147315979004,
                    1.5152980089187622,
                    15.074685096740723,
                    3.8994104862213135,
                    5.593040466308594,
                    -12.844413757324219,
                    6.547705173492432
                ],
                [
                    -11.776758193969727,
                    -3.7501087188720703,
                    7.6390557289123535,
                    -3.275590419769287,
                    1.807571291923523,
                    -0.8237060904502869,
                    0.9505152106285095,
                    -2.2300806045532227,
                    39.88482666015625,
                    26.3211727142334,
                    -15.755057334899902,
                    -35.21535110473633,
                    7.61536169052124,
                    -27.355649948120117,
                    -19.610700607299805
                ],
                [
                    -6.177890777587891,
                    1.0475366115570068,
                    17.87337303161621,
                    -10.475263595581055,
                    4.841552257537842,
                    16.969497680664062,
                    9.396039962768555,
                    -8.259573936462402,
                    1.873845100402832,
                    14.180707931518555,
                    -5.495210647583008,
                    5.818772792816162,
                    -7.896203994750977,
                    4.993157863616943,
                    18.092321395874023
                ],
                [
                    -0.9785769581794739,
                    8.168695449829102,
                    6.324458599090576,
                    7.936679840087891,
                    1.6430609226226807,
                    0.8736845850944519,
                    -11.677167892456055,
                    -16.886011123657227,
                    -20.25695037841797,
                    5.9670586585998535,
                    12.367910385131836,
                    8.518270492553711,
                    2.488572120666504,
                    -13.013821601867676,
                    -4.484262466430664
                ],
                [
                    8.223254203796387,
                    31.309022903442383,
                    -17.87877082824707,
                    -10.137496948242188,
                    -39.608055114746094,
                    10.38955020904541,
                    28.294143676757812,
                    6.671027660369873,
                    -13.316906929016113,
                    36.6907958984375,
                    46.99919891357422,
                    11.113548278808594,
                    -20.669818878173828,
                    -24.02945327758789,
                    -38.33590316772461
                ]
            ],
            "biases": [
                -2.3762078285217285,
                -23.80999755859375,
                -19.537179946899414,
                -11.456524848937988,
                -3.9783809185028076,
                -17.26088523864746,
                -5.881871223449707,
                -2.234421968460083
            ]
        },
        {
            "weights": [
                [
                    -30.611513137817383,
                    30.956703186035156,
                    -33.84992218017578,
                    -30.886886596679688,
                    6.54330587387085,
                    -32.99081802368164,
                    3.815032720565796,
                    3.8714232444763184
                ],
                [
                    -4.811564922332764,
                    -34.50080490112305,
                    -19.294485092163086,
                    -5.700692653656006,
                    -11.546133041381836,
                    -29.173294067382812,
                    -27.362314224243164,
                    -21.125810623168945
                ],
                [
                    -5.25558614730835,
                    -4.9131011962890625,
                    -79.13410949707031,
                    -15.934803009033203,
                    -5.969612121582031,
                    -18.30014419555664,
                    -19.623079299926758,
                    14.187444686889648
                ],
                [
                    -45.745792388916016,
                    42.9154052734375,
                    24.500947952270508,
                    33.333984375,
                    36.988555908203125,
                    -28.964256286621094,
                    23.58951187133789,
                    -60.475154876708984
                ]
            ],
            "biases": [
                20.149431228637695,
                28.09361457824707,
                6.451674461364746,
                -32.23678970336914
            ]
        },
        {
            "weights": [
                [
                    2.4464619159698486,
                    65.6927261352539,
                    -2.9406087398529053,
                    -1.673563003540039
                ],
                [
                    1.3037517070770264,
                    -0.7612471580505371,
                    1.5262714624404907,
                    2.1175458431243896
                ],
                [
                    59.70459747314453,
                    0.8773304224014282,
                    -60.95945739746094,
                    -0.7192699909210205
                ]
            ],
            "biases": [
                0.35049670934677124,
                0.21985027194023132,
                0.2877783477306366
            ]
        }
    ],
    "inputLookup": null,
    "inputLookupLength": 0,
    "outputLookup": null,
    "outputLookupLength": 0,
    "options": {
        "inputSize": 0,
        "outputSize": 0,
        "binaryThresh": 0.5,
        "hiddenLayers": [
            8,
            4
        ],
        "activation": "sigmoid"
    },
    "trainOpts": {
        "activation": "sigmoid",
        "iterations": 20000,
        "errorThresh": 0.005,
        "log": false,
        "logPeriod": 10,
        "leakyReluAlpha": 0.01,
        "learningRate": 0.3,
        "momentum": 0.1,
        "callbackPeriod": 10,
        "timeout": "Infinity",
        "beta1": 0.9,
        "beta2": 0.999,
        "epsilon": 1e-8
    }
}