{
    "type": "NeuralNetwork",
    "sizes": [
        15,
        8,
        4,
        3
    ],
    "layers": [
        {
            "weights": [],
            "biases": []
        },
        {
            "weights": [
                [
                    -12.690889358520508,
                    -17.972103118896484,
                    22.4101619720459,
                    12.55195140838623,
                    -15.228862762451172,
                    18.964946746826172,
                    -21.74983024597168,
                    7.849197864532471,
                    -52.1283073425293,
                    -4.843974590301514,
                    7.994443893432617,
                    10.604762077331543,
                    9.864821434020996,
                    -6.900834560394287,
                    -5.3374176025390625
                ],
                [
                    -4.053166389465332,
                    2.5930793285369873,
                    -0.7679766416549683,
                    28.113834381103516,
                    -16.263811111450195,
                    -2.8367371559143066,
                    -6.0867018699646,
                    24.920618057250977,
                    0.015798725187778473,
                    -8.814699172973633,
                    5.378543853759766,
                    -17.66640281677246,
                    -12.039983749389648,
                    -9.803950309753418,
                    -18.542037963867188
                ],
                [
                    4.101243495941162,
                    27.064876556396484,
                    -16.658517837524414,
                    -15.941835403442383,
                    -24.987844467163086,
                    16.584625244140625,
                    49.69721221923828,
                    7.076013565063477,
                    19.3391056060791,
                    -13.813921928405762,
                    44.6241455078125,
                    -18.486047744750977,
                    -28.407506942749023,
                    5.986778259277344,
                    -4.049482345581055
                ],
                [
                    18.064558029174805,
                    32.8574104309082,
                    8.044220924377441,
                    -15.190004348754883,
                    -22.234344482421875,
                    13.726898193359375,
                    -11.315611839294434,
                    -6.242933750152588,
                    -23.32845687866211,
                    14.727203369140625,
                    -3.879798173904419,
                    5.998252868652344,
                    19.58454132080078,
                    4.778149604797363,
                    36.73528289794922
                ],
                [
                    22.526060104370117,
                    -0.7151327133178711,
                    14.790745735168457,
                    3.0925452709198,
                    -7.350239276885986,
                    -21.203824996948242,
                    15.405230522155762,
                    3.2139015197753906,
                    -25.155181884765625,
                    -5.48676872253418,
                    2.679471254348755,
                    4.75272274017334,
                    12.844743728637695,
                    4.6407575607299805,
                    -9.400779724121094
                ],
                [
                    25.064905166625977,
                    -11.004000663757324,
                    -16.849742889404297,
                    9.69046401977539,
                    10.144320487976074,
                    -18.996740341186523,
                    55.38361358642578,
                    4.247642517089844,
                    12.433606147766113,
                    -20.348960876464844,
                    32.21967315673828,
                    -48.09086990356445,
                    16.560701370239258,
                    2.0017852783203125,
                    0.5919899940490723
                ],
                [
                    -43.18540573120117,
                    22.94750213623047,
                    -10.534034729003906,
                    -27.542890548706055,
                    -38.835018157958984,
                    23.24410629272461,
                    1.6152602434158325,
                    -21.701234817504883,
                    32.28627395629883,
                    13.98768424987793,
                    23.2496337890625,
                    27.615036010742188,
                    -11.366549491882324,
                    8.362284660339355,
                    -3.366386651992798
                ],
                [
                    1.3305861949920654,
                    -6.865235328674316,
                    7.238306999206543,
                    18.929306030273438,
                    -1.4310106039047241,
                    2.8799638748168945,
                    -20.35951805114746,
                    -20.155006408691406,
                    -10.65738296508789,
                    -5.4388628005981445,
                    -33.128448486328125,
                    2.4389171600341797,
                    8.083847999572754,
                    6.111305236816406,
                    -0.9799761176109314
                ]
            ],
            "biases": [
                -17.137693405151367,
                -16.65320587158203,
                -10.155326843261719,
                -20.33115005493164,
                3.347398042678833,
                -21.492841720581055,
                -15.156490325927734,
                4.414484024047852
            ]
        },
        {
            "weights": [
                [
                    -61.370338439941406,
                    56.13477325439453,
                    -13.606971740722656,
                    -41.38066101074219,
                    44.71774673461914,
                    -62.93166732788086,
                    -12.954362869262695,
                    -20.788196563720703
                ],
                [
                    -35.978065490722656,
                    8.789657592773438,
                    62.719791412353516,
                    -19.76467514038086,
                    -40.38310241699219,
                    -43.28882598876953,
                    -55.71875762939453,
                    28.497547149658203
                ],
                [
                    -2.9806151390075684,
                    -5.761935234069824,
                    -5.917298793792725,
                    -30.882871627807617,
                    -55.40384292602539,
                    -8.60100269317627,
                    -6.8094401359558105,
                    -0.6411505937576294
                ],
                [
                    27.01678466796875,
                    -38.743309020996094,
                    -33.35807418823242,
                    -72.62371826171875,
                    -34.92879104614258,
                    -7.1208930015563965,
                    -37.64089584350586,
                    -35.512657165527344
                ]
            ],
            "biases": [
                -24.352828979492188,
                -6.027796268463135,
                7.354137420654297,
                38.88045883178711
            ]
        },
        {
            "weights": [
                [
                    2.3450980186462402,
                    -0.7423312664031982,
                    3.2793219089508057,
                    -0.9448330402374268
                ],
                [
                    1.0470950603485107,
                    0.3364689350128174,
                    0.5286768078804016,
                    -0.2218676060438156
                ],
                [
                    -28.932247161865234,
                    -2.055067777633667,
                    -29.990903854370117,
                    31.63786506652832
                ]
            ],
            "biases": [
                -0.18457342684268951,
                -0.1828894168138504,
                -0.02179809845983982
            ]
        }
    ],
    "inputLookup": null,
    "inputLookupLength": 0,
    "outputLookup": null,
    "outputLookupLength": 0,
    "options": {
        "inputSize": 0,
        "outputSize": 0,
        "binaryThresh": 0.5,
        "hiddenLayers": [
            8,
            4
        ],
        "activation": "sigmoid"
    },
    "trainOpts": {
        "activation": "sigmoid",
        "iterations": 20000,
        "errorThresh": 0.005,
        "log": false,
        "logPeriod": 10,
        "leakyReluAlpha": 0.01,
        "learningRate": 0.3,
        "momentum": 0.1,
        "callbackPeriod": 10,
        "timeout": "Infinity",
        "beta1": 0.9,
        "beta2": 0.999,
        "epsilon": 1e-8
    }
}