{
    "type": "NeuralNetwork",
    "sizes": [
        10,
        8,
        4,
        3
    ],
    "layers": [
        {
            "weights": [],
            "biases": []
        },
        {
            "weights": [
                [
                    9.666139602661133,
                    8.931594848632812,
                    4.840184688568115,
                    4.3650383949279785,
                    -10.300359725952148,
                    -1.2398630380630493,
                    -20.7191104888916,
                    2.2990598678588867,
                    1.7023005485534668,
                    3.3560822010040283
                ],
                [
                    -11.761404037475586,
                    -10.849675178527832,
                    19.761146545410156,
                    14.159042358398438,
                    13.241066932678223,
                    8.050354957580566,
                    -18.566408157348633,
                    5.7756547927856445,
                    12.996101379394531,
                    22.609092712402344
                ],
                [
                    19.00113296508789,
                    16.306833267211914,
                    -2.467336654663086,
                    -9.645491600036621,
                    9.858948707580566,
                    13.906107902526855,
                    52.520545959472656,
                    -25.793628692626953,
                    -32.12465286254883,
                    16.317060470581055
                ],
                [
                    -24.117136001586914,
                    -15.740204811096191,
                    -1.5828700065612793,
                    21.806339263916016,
                    -34.07862854003906,
                    28.538589477539062,
                    25.327255249023438,
                    -17.37494468688965,
                    40.43287658691406,
                    -15.144137382507324
                ],
                [
                    -16.125858306884766,
                    26.597646713256836,
                    -12.207243919372559,
                    -20.353919982910156,
                    -15.906417846679688,
                    26.859508514404297,
                    27.418933868408203,
                    -6.463393688201904,
                    -16.96031951904297,
                    -3.2613182067871094
                ],
                [
                    10.128759384155273,
                    23.993431091308594,
                    -3.856682062149048,
                    35.7564697265625,
                    -23.819156646728516,
                    -4.088170528411865,
                    -11.120229721069336,
                    26.397016525268555,
                    13.46197509765625,
                    -16.49911880493164
                ],
                [
                    -6.055203437805176,
                    -12.350069046020508,
                    -5.695637226104736,
                    -2.05564546585083,
                    -9.294867515563965,
                    -22.958986282348633,
                    -5.175147533416748,
                    26.590648651123047,
                    39.4575309753418,
                    -10.904778480529785
                ],
                [
                    8.055450439453125,
                    -17.729454040527344,
                    -0.7905306816101074,
                    -17.979537963867188,
                    20.40888786315918,
                    4.974244594573975,
                    13.79358196258545,
                    -19.326221466064453,
                    1.3068755865097046,
                    -19.746543884277344
                ]
            ],
            "biases": [
                -12.074373245239258,
                -22.454862594604492,
                7.265688419342041,
                -22.36937713623047,
                -13.948731422424316,
                -32.58110809326172,
                -13.583511352539062,
                17.937429428100586
            ]
        },
        {
            "weights": [
                [
                    -32.07439041137695,
                    -32.68939971923828,
                    0.5283923745155334,
                    31.938886642456055,
                    -33.9615364074707,
                    -24.94343376159668,
                    -34.17171859741211,
                    -27.105247497558594
                ],
                [
                    -22.15045166015625,
                    -14.456748962402344,
                    -10.40512466430664,
                    -8.380600929260254,
                    -9.04643440246582,
                    -7.2216715812683105,
                    -1.5206596851348877,
                    -7.2870941162109375
                ],
                [
                    -41.050743103027344,
                    -5.9606146812438965,
                    -17.713726043701172,
                    6.759122848510742,
                    -1.1673219203948975,
                    -6.308786392211914,
                    10.983469009399414,
                    27.742952346801758
                ],
                [
                    27.0419864654541,
                    -31.127840042114258,
                    -50.84895324707031,
                    -14.857619285583496,
                    26.24673843383789,
                    -4.091660022735596,
                    -49.00279235839844,
                    -3.27553653717041
                ]
            ],
            "biases": [
                25.563169479370117,
                13.588042259216309,
                -21.060375213623047,
                26.961776733398438
            ]
        },
        {
            "weights": [
                [
                    2.402176856994629,
                    24.90331268310547,
                    0.6687843203544617,
                    1.09819495677948
                ],
                [
                    -0.5641338229179382,
                    38.37126159667969,
                    0.19584064185619354,
                    0.05768929049372673
                ],
                [
                    0.6245827078819275,
                    -3.0245048999786377,
                    1.4228835105895996,
                    1.5020829439163208
                ]
            ],
            "biases": [
                -0.19171017408370972,
                0.0811806172132492,
                -0.18751932680606842
            ]
        }
    ],
    "inputLookup": null,
    "inputLookupLength": 0,
    "outputLookup": null,
    "outputLookupLength": 0,
    "options": {
        "inputSize": 0,
        "outputSize": 0,
        "binaryThresh": 0.5,
        "hiddenLayers": [
            8,
            4
        ],
        "activation": "sigmoid"
    },
    "trainOpts": {
        "activation": "sigmoid",
        "iterations": 20000,
        "errorThresh": 0.005,
        "log": false,
        "logPeriod": 10,
        "leakyReluAlpha": 0.01,
        "learningRate": 0.3,
        "momentum": 0.1,
        "callbackPeriod": 10,
        "timeout": "Infinity",
        "beta1": 0.9,
        "beta2": 0.999,
        "epsilon": 1e-8
    }
}