{
    "type": "NeuralNetwork",
    "sizes": [
        15,
        8,
        4,
        3
    ],
    "layers": [
        {
            "weights": [],
            "biases": []
        },
        {
            "weights": [
                [
                    -8.350431442260742,
                    -1.2311451435089111,
                    -21.989356994628906,
                    3.9229397773742676,
                    -22.77227020263672,
                    25.07826805114746,
                    22.26340675354004,
                    20.813297271728516,
                    8.111970901489258,
                    22.6130428314209,
                    -7.486210823059082,
                    -5.769815921783447,
                    -10.9047212600708,
                    -21.345340728759766,
                    -3.9253671169281006
                ],
                [
                    20.59943389892578,
                    -20.9499454498291,
                    -17.8873291015625,
                    -0.6440283060073853,
                    39.285255432128906,
                    -6.191025257110596,
                    2.2808804512023926,
                    6.080587863922119,
                    23.491107940673828,
                    8.765558242797852,
                    7.055262088775635,
                    -13.40352725982666,
                    -5.164905071258545,
                    -2.820073127746582,
                    39.42807388305664
                ],
                [
                    -16.911968231201172,
                    13.347349166870117,
                    40.04502868652344,
                    20.391401290893555,
                    -4.059332370758057,
                    32.75838851928711,
                    14.832759857177734,
                    -22.493135452270508,
                    -0.346353679895401,
                    23.809757232666016,
                    -18.071704864501953,
                    40.08842468261719,
                    -18.83447265625,
                    46.385459899902344,
                    -57.58034133911133
                ],
                [
                    -7.0519795417785645,
                    -10.85904598236084,
                    -32.206607818603516,
                    -5.519810199737549,
                    20.465055465698242,
                    -40.91450119018555,
                    -48.704349517822266,
                    -25.59676742553711,
                    7.215949058532715,
                    -1.1956254243850708,
                    -8.39974308013916,
                    11.90323543548584,
                    33.51386260986328,
                    25.894983291625977,
                    -18.8027400970459
                ],
                [
                    27.230531692504883,
                    -4.899908542633057,
                    23.841520309448242,
                    -10.895577430725098,
                    -3.657322406768799,
                    11.951228141784668,
                    -12.542250633239746,
                    -19.57303237915039,
                    36.016937255859375,
                    -29.611047744750977,
                    34.01063919067383,
                    -7.648776531219482,
                    29.38558578491211,
                    -9.263105392456055,
                    -16.693452835083008
                ],
                [
                    -4.1822052001953125,
                    -2.3267931938171387,
                    5.032781600952148,
                    -13.700302124023438,
                    9.746169090270996,
                    27.494956970214844,
                    2.2121264934539795,
                    -4.717401027679443,
                    5.2586565017700195,
                    -11.301786422729492,
                    7.701565742492676,
                    5.015348434448242,
                    14.691741943359375,
                    2.693791627883911,
                    -11.624838829040527
                ],
                [
                    15.248740196228027,
                    15.793021202087402,
                    -15.241472244262695,
                    -50.16447448730469,
                    34.37338638305664,
                    0.6740339398384094,
                    -14.560639381408691,
                    34.66914367675781,
                    -22.200197219848633,
                    -22.3198184967041,
                    17.984169006347656,
                    -5.960371971130371,
                    -23.379642486572266,
                    10.29544734954834,
                    33.93864059448242
                ],
                [
                    -25.580257415771484,
                    24.61231803894043,
                    61.04861831665039,
                    30.48057746887207,
                    -36.80022048950195,
                    7.826677322387695,
                    -13.093306541442871,
                    -12.665992736816406,
                    -15.932188987731934,
                    18.841867446899414,
                    -13.186012268066406,
                    15.156758308410645,
                    57.03200912475586,
                    6.351746082305908,
                    -7.707749366760254
                ]
            ],
            "biases": [
                -10.450483322143555,
                -22.174909591674805,
                -18.523853302001953,
                26.773590087890625,
                6.900106430053711,
                -9.443096160888672,
                -13.035033226013184,
                8.193147659301758
            ]
        },
        {
            "weights": [
                [
                    -30.81822967529297,
                    18.514144897460938,
                    -21.61630630493164,
                    -27.061166763305664,
                    -10.087008476257324,
                    14.22078800201416,
                    -28.141225814819336,
                    -57.26921463012695
                ],
                [
                    -32.591461181640625,
                    -21.797470092773438,
                    -24.24595069885254,
                    -15.77892017364502,
                    -15.899768829345703,
                    14.930123329162598,
                    -33.58970642089844,
                    -46.19970703125
                ],
                [
                    -35.64285659790039,
                    -18.252479553222656,
                    -31.996917724609375,
                    -15.962325096130371,
                    -17.352903366088867,
                    12.976445198059082,
                    -15.836812973022461,
                    -7.861735820770264
                ],
                [
                    10.863506317138672,
                    -52.08945083618164,
                    -49.25541305541992,
                    47.24262237548828,
                    -49.913055419921875,
                    48.43169403076172,
                    5.289055347442627,
                    -9.586654663085938
                ]
            ],
            "biases": [
                13.329399108886719,
                66.50447845458984,
                39.135318756103516,
                -3.4233133792877197
            ]
        },
        {
            "weights": [
                [
                    21.20555877685547,
                    64.52484893798828,
                    72.84626007080078,
                    0.1663786619901657
                ],
                [
                    -1.6553738117218018,
                    2.3734004497528076,
                    -1.6283833980560303,
                    2.5749006271362305
                ],
                [
                    -9.766122817993164,
                    8.709762573242188,
                    1.00892972946167,
                    48.97276306152344
                ]
            ],
            "biases": [
                -0.18752114474773407,
                -0.051458947360515594,
                -0.21210931241512299
            ]
        }
    ],
    "inputLookup": null,
    "inputLookupLength": 0,
    "outputLookup": null,
    "outputLookupLength": 0,
    "options": {
        "inputSize": 0,
        "outputSize": 0,
        "binaryThresh": 0.5,
        "hiddenLayers": [
            8,
            4
        ],
        "activation": "sigmoid"
    },
    "trainOpts": {
        "activation": "sigmoid",
        "iterations": 20000,
        "errorThresh": 0.005,
        "log": false,
        "logPeriod": 10,
        "leakyReluAlpha": 0.01,
        "learningRate": 0.3,
        "momentum": 0.1,
        "callbackPeriod": 10,
        "timeout": "Infinity",
        "beta1": 0.9,
        "beta2": 0.999,
        "epsilon": 1e-8
    }
}