{
    "type": "NeuralNetwork",
    "sizes": [
        15,
        8,
        4,
        3
    ],
    "layers": [
        {
            "weights": [],
            "biases": []
        },
        {
            "weights": [
                [
                    -15.104182243347168,
                    16.817768096923828,
                    19.44242286682129,
                    8.057162284851074,
                    -51.49578857421875,
                    -41.1463508605957,
                    1.7534149885177612,
                    12.952754974365234,
                    -4.569081783294678,
                    -25.202810287475586,
                    36.156307220458984,
                    2.915292978286743,
                    -14.495746612548828,
                    11.655278205871582,
                    -34.878501892089844
                ],
                [
                    17.724868774414062,
                    -17.18695068359375,
                    -1.2586473226547241,
                    48.34477615356445,
                    32.44314193725586,
                    -18.523479461669922,
                    -12.652647018432617,
                    -11.897258758544922,
                    17.44576644897461,
                    5.234472751617432,
                    -40.424774169921875,
                    -20.054176330566406,
                    39.797122955322266,
                    18.406429290771484,
                    -21.36504554748535
                ],
                [
                    -13.867835998535156,
                    -14.583544731140137,
                    -33.46874237060547,
                    6.167172908782959,
                    -17.059951782226562,
                    11.309826850891113,
                    22.15239715576172,
                    35.86138153076172,
                    3.012690544128418,
                    17.016447067260742,
                    -29.561899185180664,
                    11.044079780578613,
                    21.269311904907227,
                    17.43266487121582,
                    16.697574615478516
                ],
                [
                    7.583148956298828,
                    36.58588790893555,
                    40.66456985473633,
                    30.481828689575195,
                    -3.2919676303863525,
                    9.480826377868652,
                    23.643238067626953,
                    12.51384162902832,
                    -33.15400695800781,
                    -33.39219284057617,
                    -6.606596946716309,
                    20.772676467895508,
                    -5.6848931312561035,
                    11.007776260375977,
                    -16.469127655029297
                ],
                [
                    22.392292022705078,
                    35.33428955078125,
                    -26.89092254638672,
                    1.7387783527374268,
                    26.495027542114258,
                    34.08507537841797,
                    -29.104633331298828,
                    -8.857934951782227,
                    32.6353645324707,
                    29.469036102294922,
                    26.31325912475586,
                    2.4417097568511963,
                    -34.53828048706055,
                    -19.633174896240234,
                    13.059782981872559
                ],
                [
                    17.270370483398438,
                    -11.455363273620605,
                    -6.405980110168457,
                    -17.977872848510742,
                    -15.863941192626953,
                    7.158830642700195,
                    -11.49547290802002,
                    21.446876525878906,
                    7.335484504699707,
                    -0.9331184029579163,
                    -10.766253471374512,
                    4.671665191650391,
                    20.619060516357422,
                    3.268085241317749,
                    18.448955535888672
                ],
                [
                    39.19552230834961,
                    -4.224323749542236,
                    16.875192642211914,
                    12.419276237487793,
                    4.388713836669922,
                    43.03512191772461,
                    -15.583849906921387,
                    -0.057542022317647934,
                    22.230318069458008,
                    -59.53587341308594,
                    -17.57512092590332,
                    -19.3366641998291,
                    31.083803176879883,
                    7.222743988037109,
                    2.705944776535034
                ],
                [
                    14.250070571899414,
                    5.998215675354004,
                    19.649290084838867,
                    -32.83628845214844,
                    -12.175642013549805,
                    -18.51751136779785,
                    23.151987075805664,
                    -13.348933219909668,
                    50.065452575683594,
                    28.438077926635742,
                    4.1949639320373535,
                    -13.434896469116211,
                    7.998586654663086,
                    5.435349464416504,
                    1.6788095235824585
                ]
            ],
            "biases": [
                -3.2994303703308105,
                -21.778703689575195,
                25.22965431213379,
                -22.7635555267334,
                -40.063297271728516,
                0.7437349557876587,
                -37.305419921875,
                8.371054649353027
            ]
        },
        {
            "weights": [
                [
                    -35.626346588134766,
                    -21.663969039916992,
                    -40.88829040527344,
                    -25.578384399414062,
                    -37.520416259765625,
                    1.8449764251708984,
                    20.19322967529297,
                    8.266464233398438
                ],
                [
                    -19.495397567749023,
                    -18.928953170776367,
                    12.346895217895508,
                    -20.83908462524414,
                    -22.29200553894043,
                    -37.77567672729492,
                    2.355565309524536,
                    -18.66231346130371
                ],
                [
                    -1.675270915031433,
                    -22.648042678833008,
                    -38.552574157714844,
                    -27.21270179748535,
                    -14.855307579040527,
                    37.19256591796875,
                    18.94237518310547,
                    -40.38249206542969
                ],
                [
                    20.554779052734375,
                    -30.405376434326172,
                    -21.22985076904297,
                    -23.941486358642578,
                    -40.956451416015625,
                    -31.007572174072266,
                    42.08879089355469,
                    16.516494750976562
                ]
            ],
            "biases": [
                28.170305252075195,
                23.931041717529297,
                21.236284255981445,
                0.5292021036148071
            ]
        },
        {
            "weights": [
                [
                    22.44214630126953,
                    58.92493438720703,
                    -0.48738133907318115,
                    1.552315354347229
                ],
                [
                    3.622187376022339,
                    1.693784475326538,
                    43.205833435058594,
                    -56.842987060546875
                ],
                [
                    1.1182382106781006,
                    -0.760029137134552,
                    -2.0582571029663086,
                    0.05976984649896622
                ]
            ],
            "biases": [
                -0.5091087818145752,
                -0.22261525690555573,
                -0.22867345809936523
            ]
        }
    ],
    "inputLookup": null,
    "inputLookupLength": 0,
    "outputLookup": null,
    "outputLookupLength": 0,
    "options": {
        "inputSize": 0,
        "outputSize": 0,
        "binaryThresh": 0.5,
        "hiddenLayers": [
            8,
            4
        ],
        "activation": "sigmoid"
    },
    "trainOpts": {
        "activation": "sigmoid",
        "iterations": 20000,
        "errorThresh": 0.005,
        "log": false,
        "logPeriod": 10,
        "leakyReluAlpha": 0.01,
        "learningRate": 0.3,
        "momentum": 0.1,
        "callbackPeriod": 10,
        "timeout": "Infinity",
        "beta1": 0.9,
        "beta2": 0.999,
        "epsilon": 1e-8
    }
}