{
    "type": "NeuralNetwork",
    "sizes": [
        5,
        8,
        4,
        3
    ],
    "layers": [
        {
            "weights": [],
            "biases": []
        },
        {
            "weights": [
                [
                    7.45682954788208,
                    4.14424991607666,
                    4.924500465393066,
                    -1.2871066331863403,
                    -12.507079124450684
                ],
                [
                    14.7022066116333,
                    -3.0483336448669434,
                    -6.225104331970215,
                    -9.880659103393555,
                    6.663353443145752
                ],
                [
                    5.788999557495117,
                    1.9162399768829346,
                    -7.734100341796875,
                    -8.174392700195312,
                    -2.8865745067596436
                ],
                [
                    -13.68494701385498,
                    9.488248825073242,
                    -3.448840379714966,
                    -12.119044303894043,
                    7.286747932434082
                ],
                [
                    11.632817268371582,
                    11.76613998413086,
                    2.368204355239868,
                    3.7440128326416016,
                    -10.651572227478027
                ],
                [
                    -6.598391532897949,
                    -0.8907028436660767,
                    -6.667384147644043,
                    10.441530227661133,
                    -1.1937106847763062
                ],
                [
                    3.635002374649048,
                    10.10096549987793,
                    1.438529372215271,
                    -6.809633731842041,
                    -7.042313098907471
                ],
                [
                    -4.4304070472717285,
                    6.962709426879883,
                    -8.761616706848145,
                    12.736550331115723,
                    -1.3332606554031372
                ]
            ],
            "biases": [
                -5.480345249176025,
                -8.959742546081543,
                -2.1816980838775635,
                -1.2952178716659546,
                -8.746293067932129,
                -4.7749128341674805,
                -4.223936080932617,
                -5.604043483734131
            ]
        },
        {
            "weights": [
                [
                    -1.0533467531204224,
                    -7.141963005065918,
                    7.217141628265381,
                    -15.033251762390137,
                    0.8099926710128784,
                    -1.4787744283676147,
                    -1.4797348976135254,
                    0.06796453148126602
                ],
                [
                    2.7421340942382812,
                    1.8253177404403687,
                    -0.4251132309436798,
                    -5.13792085647583,
                    -8.172822952270508,
                    -5.144201278686523,
                    -6.676107883453369,
                    -1.692867398262024
                ],
                [
                    -10.83261489868164,
                    -6.3692708015441895,
                    2.1276156902313232,
                    -1.4144171476364136,
                    -0.9104225039482117,
                    -4.968307971954346,
                    -1.7336699962615967,
                    -10.564338684082031
                ],
                [
                    -0.035691145807504654,
                    -0.48716673254966736,
                    -7.993090629577637,
                    0.11207924038171768,
                    -13.785301208496094,
                    2.48323655128479,
                    0.8535934090614319,
                    -2.914290428161621
                ]
            ],
            "biases": [
                -2.395416498184204,
                -3.672715187072754,
                -2.1597297191619873,
                -2.9065816402435303
            ]
        },
        {
            "weights": [
                [
                    -0.8774815201759338,
                    -0.05588342249393463,
                    5.809791088104248,
                    -2.7552928924560547
                ],
                [
                    -3.503465175628662,
                    -3.800276279449463,
                    2.9195210933685303,
                    -1.6093252897262573
                ],
                [
                    3.294902801513672,
                    -0.30392444133758545,
                    1.0588666200637817,
                    4.5115838050842285
                ]
            ],
            "biases": [
                0.21632105112075806,
                0.3049109876155853,
                -0.05988367646932602
            ]
        }
    ],
    "inputLookup": null,
    "inputLookupLength": 0,
    "outputLookup": null,
    "outputLookupLength": 0,
    "options": {
        "inputSize": 0,
        "outputSize": 0,
        "binaryThresh": 0.5,
        "hiddenLayers": [
            8,
            4
        ],
        "activation": "sigmoid"
    },
    "trainOpts": {
        "activation": "sigmoid",
        "iterations": 20000,
        "errorThresh": 0.005,
        "log": false,
        "logPeriod": 10,
        "leakyReluAlpha": 0.01,
        "learningRate": 0.3,
        "momentum": 0.1,
        "callbackPeriod": 10,
        "timeout": "Infinity",
        "beta1": 0.9,
        "beta2": 0.999,
        "epsilon": 1e-8
    }
}