{
    "type": "NeuralNetwork",
    "sizes": [
        5,
        8,
        4,
        3
    ],
    "layers": [
        {
            "weights": [],
            "biases": []
        },
        {
            "weights": [
                [
                    -6.2996320724487305,
                    15.730610847473145,
                    17.710132598876953,
                    -4.27604341506958,
                    10.077186584472656
                ],
                [
                    -5.4371337890625,
                    8.033343315124512,
                    -6.972107887268066,
                    0.299189031124115,
                    7.4589056968688965
                ],
                [
                    8.57638168334961,
                    18.17157745361328,
                    -12.167288780212402,
                    12.740788459777832,
                    -5.089907169342041
                ],
                [
                    0.929016649723053,
                    -5.9521307945251465,
                    -10.072407722473145,
                    2.387948751449585,
                    -5.340339183807373
                ],
                [
                    7.644516944885254,
                    6.518762111663818,
                    11.659563064575195,
                    -15.216983795166016,
                    -12.230897903442383
                ],
                [
                    -6.256801605224609,
                    10.732752799987793,
                    -18.041706085205078,
                    -2.6786088943481445,
                    -7.516236782073975
                ],
                [
                    -2.840566635131836,
                    -7.4599199295043945,
                    5.6501264572143555,
                    -6.741846084594727,
                    -6.5281476974487305
                ],
                [
                    12.315572738647461,
                    -5.300651550292969,
                    8.901856422424316,
                    14.395440101623535,
                    3.8611974716186523
                ]
            ],
            "biases": [
                -19.622177124023438,
                -13.024213790893555,
                -19.54513168334961,
                0.21869640052318573,
                -12.950338363647461,
                2.0709586143493652,
                0.10275102406740189,
                -28.339149475097656
            ]
        },
        {
            "weights": [
                [
                    1.9643410444259644,
                    -2.443974494934082,
                    3.232027769088745,
                    -0.8164480924606323,
                    -0.17873868346214294,
                    -0.2585899233818054,
                    1.2829407453536987,
                    -1.3331817388534546
                ],
                [
                    1.4617445468902588,
                    -4.989487171173096,
                    -2.8719425201416016,
                    3.1697933673858643,
                    1.1377172470092773,
                    -6.16601037979126,
                    -2.0050013065338135,
                    0.7476863861083984
                ],
                [
                    0.3146973252296448,
                    -8.100020408630371,
                    0.41899991035461426,
                    -0.24756544828414917,
                    -9.762653350830078,
                    -1.6280075311660767,
                    1.2124643325805664,
                    -8.97536563873291
                ],
                [
                    2.4847512245178223,
                    -3.2099571228027344,
                    -1.2071022987365723,
                    2.0517990589141846,
                    -10.853582382202148,
                    3.704787254333496,
                    -7.299510478973389,
                    2.398266315460205
                ]
            ],
            "biases": [
                -4.884402275085449,
                -3.6729671955108643,
                -2.8693394660949707,
                -4.994449138641357
            ]
        },
        {
            "weights": [
                [
                    -0.09610868245363235,
                    -0.7492682337760925,
                    5.047459125518799,
                    0.17394717037677765
                ],
                [
                    -2.5931692123413086,
                    0.1792353391647339,
                    -0.9057661294937134,
                    1.4698816537857056
                ],
                [
                    -0.33702775835990906,
                    -2.615152597427368,
                    -1.944996953010559,
                    -2.6287026405334473
                ]
            ],
            "biases": [
                -0.1126515343785286,
                0.011688001453876495,
                0.2418850213289261
            ]
        }
    ],
    "inputLookup": null,
    "inputLookupLength": 0,
    "outputLookup": null,
    "outputLookupLength": 0,
    "options": {
        "inputSize": 0,
        "outputSize": 0,
        "binaryThresh": 0.5,
        "hiddenLayers": [
            8,
            4
        ],
        "activation": "sigmoid"
    },
    "trainOpts": {
        "activation": "sigmoid",
        "iterations": 20000,
        "errorThresh": 0.005,
        "log": false,
        "logPeriod": 10,
        "leakyReluAlpha": 0.01,
        "learningRate": 0.3,
        "momentum": 0.1,
        "callbackPeriod": 10,
        "timeout": "Infinity",
        "beta1": 0.9,
        "beta2": 0.999,
        "epsilon": 1e-8
    }
}