{
    "type": "NeuralNetwork",
    "sizes": [
        10,
        8,
        4,
        1
    ],
    "layers": [
        {
            "weights": [],
            "biases": []
        },
        {
            "weights": [
                [
                    14.459172248840332,
                    9.00580883026123,
                    19.864782333374023,
                    10.845516204833984,
                    -15.369871139526367,
                    37.096954345703125,
                    -11.738417625427246,
                    -9.883672714233398,
                    34.41857147216797,
                    3.5926554203033447
                ],
                [
                    -23.148853302001953,
                    -13.077688217163086,
                    -7.931004047393799,
                    -21.408090591430664,
                    20.702613830566406,
                    -14.969049453735352,
                    29.932796478271484,
                    16.72198486328125,
                    12.930602073669434,
                    37.13100814819336
                ],
                [
                    25.315996170043945,
                    -7.501763343811035,
                    -17.94610595703125,
                    29.309389114379883,
                    -28.207082748413086,
                    -41.779483795166016,
                    -1.8479968309402466,
                    2.128410816192627,
                    -22.90047836303711,
                    10.449904441833496
                ],
                [
                    -21.47751808166504,
                    11.166001319885254,
                    -7.10252571105957,
                    9.163451194763184,
                    -1.0901390314102173,
                    -41.638458251953125,
                    7.8787031173706055,
                    22.41887092590332,
                    -31.934234619140625,
                    -8.740312576293945
                ],
                [
                    -11.185614585876465,
                    -26.102237701416016,
                    -17.567195892333984,
                    15.147320747375488,
                    2.3058760166168213,
                    -0.6338708400726318,
                    4.410614967346191,
                    20.544424057006836,
                    17.746353149414062,
                    -5.725956916809082
                ],
                [
                    -13.501677513122559,
                    10.312418937683105,
                    -20.020307540893555,
                    -18.467931747436523,
                    2.5957908630371094,
                    -14.863262176513672,
                    -6.838344097137451,
                    16.811767578125,
                    -18.510902404785156,
                    16.768871307373047
                ],
                [
                    -26.684040069580078,
                    4.125088214874268,
                    -29.189781188964844,
                    42.32200622558594,
                    -10.530634880065918,
                    -24.544004440307617,
                    21.312475204467773,
                    -30.045574188232422,
                    4.657536506652832,
                    -3.6048948764801025
                ],
                [
                    -17.83107566833496,
                    -2.4861888885498047,
                    8.500131607055664,
                    -9.71376895904541,
                    -5.694042682647705,
                    16.579618453979492,
                    -10.460294723510742,
                    27.04242515563965,
                    -20.2203426361084,
                    -17.87531089782715
                ]
            ],
            "biases": [
                -34.33955764770508,
                6.533042907714844,
                -17.49527931213379,
                -1.3691656589508057,
                -23.277700424194336,
                2.4213244915008545,
                -17.451263427734375,
                -23.469146728515625
            ]
        },
        {
            "weights": [
                [
                    -9.930326461791992,
                    52.13111114501953,
                    -33.16213607788086,
                    -13.508349418640137,
                    -43.11323547363281,
                    -32.86002731323242,
                    -8.760675430297852,
                    22.604013442993164
                ],
                [
                    1.0388370752334595,
                    -30.091550827026367,
                    12.683619499206543,
                    -19.452856063842773,
                    13.626081466674805,
                    18.13872528076172,
                    39.59531021118164,
                    25.48662757873535
                ],
                [
                    -24.374835968017578,
                    -23.314817428588867,
                    -21.54621696472168,
                    -35.49125289916992,
                    4.849761009216309,
                    -42.689212799072266,
                    -16.89426040649414,
                    -11.560558319091797
                ],
                [
                    -20.252656936645508,
                    -28.88494110107422,
                    -31.933950424194336,
                    -2.169856071472168,
                    -19.024246215820312,
                    28.24561882019043,
                    -23.47806739807129,
                    -24.88945960998535
                ]
            ],
            "biases": [
                -41.80241394042969,
                -21.7655029296875,
                20.412612915039062,
                21.706851959228516
            ]
        },
        {
            "weights": [
                [
                    1.873318076133728,
                    2.4229800701141357,
                    3.2014377117156982,
                    1.1073378324508667
                ]
            ],
            "biases": [
                -0.6958756446838379
            ]
        }
    ],
    "inputLookup": null,
    "inputLookupLength": 0,
    "outputLookup": null,
    "outputLookupLength": 0,
    "options": {
        "inputSize": 0,
        "outputSize": 0,
        "binaryThresh": 0.5,
        "hiddenLayers": [
            8,
            4
        ],
        "activation": "sigmoid"
    },
    "trainOpts": {
        "activation": "sigmoid",
        "iterations": 20000,
        "errorThresh": 0.005,
        "log": false,
        "logPeriod": 10,
        "leakyReluAlpha": 0.01,
        "learningRate": 0.3,
        "momentum": 0.1,
        "callbackPeriod": 10,
        "timeout": "Infinity",
        "beta1": 0.9,
        "beta2": 0.999,
        "epsilon": 1e-8
    }
}