{
    "type": "NeuralNetwork",
    "sizes": [
        5,
        8,
        4,
        1
    ],
    "layers": [
        {
            "weights": [],
            "biases": []
        },
        {
            "weights": [
                [
                    2.8155248165130615,
                    -2.87715744972229,
                    0.39558446407318115,
                    -1.671860694885254,
                    -0.9849725961685181
                ],
                [
                    -17.6955509185791,
                    1.2017372846603394,
                    9.800408363342285,
                    -4.843100070953369,
                    6.9786376953125
                ],
                [
                    3.581756591796875,
                    -2.7151734828948975,
                    0.24088667333126068,
                    6.576452732086182,
                    3.9412550926208496
                ],
                [
                    4.118762969970703,
                    5.285256862640381,
                    0.11731076240539551,
                    5.876875400543213,
                    2.319240093231201
                ],
                [
                    -1.439847707748413,
                    -0.4528445899486542,
                    -0.33174803853034973,
                    -2.9336516857147217,
                    4.072332859039307
                ],
                [
                    -5.5281662940979,
                    7.017413139343262,
                    -2.530836582183838,
                    -5.790558815002441,
                    -10.89700698852539
                ],
                [
                    2.2243611812591553,
                    -3.1119725704193115,
                    -3.2969441413879395,
                    -3.276283025741577,
                    0.8226840496063232
                ],
                [
                    5.235329627990723,
                    -2.3882555961608887,
                    8.123147964477539,
                    3.8577122688293457,
                    4.337128639221191
                ]
            ],
            "biases": [
                -4.365596294403076,
                -5.8905110359191895,
                -11.71017074584961,
                -16.434024810791016,
                -4.102613925933838,
                -2.1478123664855957,
                -4.0965752601623535,
                -18.249631881713867
            ]
        },
        {
            "weights": [
                [
                    -3.966564416885376,
                    -10.931635856628418,
                    -1.292429804801941,
                    -9.16780948638916,
                    -7.008789539337158,
                    -0.07627314329147339,
                    -2.058952569961548,
                    0.08093058317899704
                ],
                [
                    1.6867574453353882,
                    0.13013052940368652,
                    0.5245241522789001,
                    -0.5375671982765198,
                    1.0129941701889038,
                    -8.92895221710205,
                    0.3121400475502014,
                    -7.8612446784973145
                ],
                [
                    2.016144275665283,
                    -0.2636309564113617,
                    -10.446547508239746,
                    2.569106340408325,
                    0.6914746165275574,
                    -5.5714216232299805,
                    -2.997509002685547,
                    -3.8661046028137207
                ],
                [
                    -2.0452499389648438,
                    -8.533480644226074,
                    -0.6512402296066284,
                    -8.295839309692383,
                    1.1578574180603027,
                    0.7777479290962219,
                    -0.08331125229597092,
                    0.20330476760864258
                ]
            ],
            "biases": [
                -2.387422800064087,
                -2.9006667137145996,
                -2.6761844158172607,
                -2.7332468032836914
            ]
        },
        {
            "weights": [
                [
                    4.193198204040527,
                    2.9397330284118652,
                    3.8897969722747803,
                    3.4391160011291504
                ]
            ],
            "biases": [
                -0.24696290493011475
            ]
        }
    ],
    "inputLookup": null,
    "inputLookupLength": 0,
    "outputLookup": null,
    "outputLookupLength": 0,
    "options": {
        "inputSize": 0,
        "outputSize": 0,
        "binaryThresh": 0.5,
        "hiddenLayers": [
            8,
            4
        ],
        "activation": "sigmoid"
    },
    "trainOpts": {
        "activation": "sigmoid",
        "iterations": 20000,
        "errorThresh": 0.005,
        "log": false,
        "logPeriod": 10,
        "leakyReluAlpha": 0.01,
        "learningRate": 0.3,
        "momentum": 0.1,
        "callbackPeriod": 10,
        "timeout": "Infinity",
        "beta1": 0.9,
        "beta2": 0.999,
        "epsilon": 1e-8
    }
}