{
    "type": "NeuralNetwork",
    "sizes": [
        10,
        8,
        4,
        3
    ],
    "layers": [
        {
            "weights": [],
            "biases": []
        },
        {
            "weights": [
                [
                    -11.583022117614746,
                    17.63755226135254,
                    9.42117977142334,
                    -9.85484790802002,
                    7.6286540031433105,
                    -23.61927032470703,
                    15.562533378601074,
                    -18.37259292602539,
                    8.269484519958496,
                    1.5872185230255127
                ],
                [
                    -11.279003143310547,
                    -5.734743118286133,
                    10.259186744689941,
                    2.5285303592681885,
                    -5.268391132354736,
                    7.188663005828857,
                    -9.456048011779785,
                    1.6430003643035889,
                    9.88985538482666,
                    19.217601776123047
                ],
                [
                    2.605870246887207,
                    -14.396120071411133,
                    13.47523021697998,
                    53.37653350830078,
                    -20.450149536132812,
                    40.384124755859375,
                    -19.230859756469727,
                    -5.594089508056641,
                    31.75840950012207,
                    -9.196061134338379
                ],
                [
                    1.7492517232894897,
                    -4.839763164520264,
                    10.53418254852295,
                    -50.446109771728516,
                    -21.379762649536133,
                    19.854650497436523,
                    4.432450771331787,
                    25.77412223815918,
                    -21.389406204223633,
                    34.60826110839844
                ],
                [
                    -4.468572616577148,
                    -13.470227241516113,
                    -24.962770462036133,
                    25.15235137939453,
                    50.91392517089844,
                    -65.1644287109375,
                    3.895463466644287,
                    -6.1130266189575195,
                    7.000047206878662,
                    13.622586250305176
                ],
                [
                    -35.28068542480469,
                    -37.99583053588867,
                    14.295172691345215,
                    -5.135169982910156,
                    9.065276145935059,
                    -44.24877166748047,
                    29.703649520874023,
                    46.59256362915039,
                    19.49846649169922,
                    16.174631118774414
                ],
                [
                    1.2452303171157837,
                    16.382387161254883,
                    -21.585067749023438,
                    -24.576704025268555,
                    16.455657958984375,
                    -8.21878719329834,
                    0.4221387207508087,
                    -15.020133018493652,
                    -21.388992309570312,
                    5.840517997741699
                ],
                [
                    19.272098541259766,
                    -16.365938186645508,
                    -1.177213430404663,
                    20.46387481689453,
                    26.391386032104492,
                    2.422245502471924,
                    13.338085174560547,
                    6.903044700622559,
                    3.0627453327178955,
                    15.703289031982422
                ]
            ],
            "biases": [
                -9.585626602172852,
                -15.582047462463379,
                -26.24173355102539,
                -16.511781692504883,
                -19.242385864257812,
                11.873562812805176,
                5.078197479248047,
                -8.286910057067871
            ]
        },
        {
            "weights": [
                [
                    3.8588478565216064,
                    42.448978424072266,
                    -45.18918228149414,
                    -27.536487579345703,
                    -3.695866107940674,
                    -28.253854751586914,
                    -6.7342658042907715,
                    -24.273252487182617
                ],
                [
                    -16.5517578125,
                    -6.084661960601807,
                    -37.15957260131836,
                    -30.539304733276367,
                    -30.655630111694336,
                    -4.047863960266113,
                    -27.41777992248535,
                    13.452022552490234
                ],
                [
                    -29.943267822265625,
                    -56.77499771118164,
                    0.26971760392189026,
                    -10.189024925231934,
                    -0.6562084555625916,
                    9.065203666687012,
                    -1.225080132484436,
                    -11.675495147705078
                ],
                [
                    -33.78987503051758,
                    -35.95744323730469,
                    -47.20490264892578,
                    -17.61898422241211,
                    -17.214563369750977,
                    -29.220273971557617,
                    -50.456485748291016,
                    31.928640365600586
                ]
            ],
            "biases": [
                27.47066879272461,
                28.342260360717773,
                -0.2923974096775055,
                15.492424011230469
            ]
        },
        {
            "weights": [
                [
                    0.695383608341217,
                    -0.5456083416938782,
                    3.4519970417022705,
                    2.1454665660858154
                ],
                [
                    0.8021891117095947,
                    1.69479501247406,
                    -1.7738683223724365,
                    -2.1126341819763184
                ],
                [
                    0.6916590332984924,
                    -0.5134977698326111,
                    27.877399444580078,
                    1.0993897914886475
                ]
            ],
            "biases": [
                0.09693677723407745,
                -0.13934162259101868,
                -0.020472561940550804
            ]
        }
    ],
    "inputLookup": null,
    "inputLookupLength": 0,
    "outputLookup": null,
    "outputLookupLength": 0,
    "options": {
        "inputSize": 0,
        "outputSize": 0,
        "binaryThresh": 0.5,
        "hiddenLayers": [
            8,
            4
        ],
        "activation": "sigmoid"
    },
    "trainOpts": {
        "activation": "sigmoid",
        "iterations": 20000,
        "errorThresh": 0.005,
        "log": false,
        "logPeriod": 10,
        "leakyReluAlpha": 0.01,
        "learningRate": 0.3,
        "momentum": 0.1,
        "callbackPeriod": 10,
        "timeout": "Infinity",
        "beta1": 0.9,
        "beta2": 0.999,
        "epsilon": 1e-8
    }
}