{
    "type": "NeuralNetwork",
    "sizes": [
        10,
        8,
        4,
        1
    ],
    "layers": [
        {
            "weights": [],
            "biases": []
        },
        {
            "weights": [
                [
                    17.61309242248535,
                    -5.988376140594482,
                    7.896096706390381,
                    29.33279800415039,
                    -17.72500991821289,
                    5.205512523651123,
                    -0.6558849811553955,
                    17.224884033203125,
                    6.279001235961914,
                    13.165322303771973
                ],
                [
                    25.086458206176758,
                    -0.19982154667377472,
                    41.998531341552734,
                    -26.956846237182617,
                    20.723777770996094,
                    -7.543063640594482,
                    -3.62687349319458,
                    -37.685020446777344,
                    -15.578310012817383,
                    -5.985440254211426
                ],
                [
                    18.968915939331055,
                    10.76937198638916,
                    3.608297824859619,
                    -10.191118240356445,
                    -16.041833877563477,
                    -10.5132417678833,
                    5.460489749908447,
                    3.1067426204681396,
                    -7.581230163574219,
                    -19.324047088623047
                ],
                [
                    24.372053146362305,
                    -2.2928812503814697,
                    -6.14213752746582,
                    -17.190906524658203,
                    6.822747707366943,
                    24.151065826416016,
                    30.6712703704834,
                    7.400571346282959,
                    18.036853790283203,
                    4.994112014770508
                ],
                [
                    -8.2559814453125,
                    6.642571449279785,
                    -21.85245704650879,
                    -4.716396331787109,
                    -17.377939224243164,
                    -22.81055450439453,
                    11.484195709228516,
                    -10.21461009979248,
                    -31.916046142578125,
                    -10.857351303100586
                ],
                [
                    -0.12573255598545074,
                    -6.068101406097412,
                    16.066112518310547,
                    -4.9737114906311035,
                    6.693700790405273,
                    8.9861478805542,
                    -8.760414123535156,
                    19.882041931152344,
                    -21.630382537841797,
                    -13.82297134399414
                ],
                [
                    -5.949610710144043,
                    -6.484801769256592,
                    -4.629654407501221,
                    -8.824296951293945,
                    -3.198215961456299,
                    10.465147018432617,
                    -3.8162930011749268,
                    -3.9441094398498535,
                    1.553305983543396,
                    13.18702507019043
                ],
                [
                    -16.563161849975586,
                    23.428985595703125,
                    -9.65643310546875,
                    -15.716035842895508,
                    -12.891254425048828,
                    14.431232452392578,
                    2.3481438159942627,
                    1.2908196449279785,
                    12.970207214355469,
                    20.70343589782715
                ]
            ],
            "biases": [
                -37.54844665527344,
                -19.544336318969727,
                -6.497365951538086,
                -0.7744410634040833,
                27.133384704589844,
                -29.97142219543457,
                3.636634111404419,
                7.5155439376831055
            ]
        },
        {
            "weights": [
                [
                    -32.969783782958984,
                    -9.460103988647461,
                    -27.946104049682617,
                    -11.421298027038574,
                    -10.914921760559082,
                    8.902456283569336,
                    -55.32034683227539,
                    0.7958315014839172
                ],
                [
                    -17.44080924987793,
                    -6.621118068695068,
                    -21.869522094726562,
                    -21.073827743530273,
                    -15.586869239807129,
                    -35.50116729736328,
                    30.2864990234375,
                    -42.571388244628906
                ],
                [
                    -18.782983779907227,
                    -33.700321197509766,
                    47.01056671142578,
                    -13.597813606262207,
                    -33.405025482177734,
                    -27.787322998046875,
                    6.101279258728027,
                    -12.474701881408691
                ],
                [
                    1.3156743049621582,
                    6.074735641479492,
                    19.684608459472656,
                    -34.09153747558594,
                    -13.08566665649414,
                    23.8907413482666,
                    23.85063934326172,
                    11.982139587402344
                ]
            ],
            "biases": [
                10.395149230957031,
                38.84294128417969,
                11.304883003234863,
                -24.58977508544922
            ]
        },
        {
            "weights": [
                [
                    2.4880688190460205,
                    1.2094680070877075,
                    1.2161712646484375,
                    1.6138733625411987
                ]
            ],
            "biases": [
                -0.45136699080467224
            ]
        }
    ],
    "inputLookup": null,
    "inputLookupLength": 0,
    "outputLookup": null,
    "outputLookupLength": 0,
    "options": {
        "inputSize": 0,
        "outputSize": 0,
        "binaryThresh": 0.5,
        "hiddenLayers": [
            8,
            4
        ],
        "activation": "sigmoid"
    },
    "trainOpts": {
        "activation": "sigmoid",
        "iterations": 20000,
        "errorThresh": 0.005,
        "log": false,
        "logPeriod": 10,
        "leakyReluAlpha": 0.01,
        "learningRate": 0.3,
        "momentum": 0.1,
        "callbackPeriod": 10,
        "timeout": "Infinity",
        "beta1": 0.9,
        "beta2": 0.999,
        "epsilon": 1e-8
    }
}