{
    "type": "NeuralNetwork",
    "sizes": [
        15,
        8,
        4,
        1
    ],
    "layers": [
        {
            "weights": [],
            "biases": []
        },
        {
            "weights": [
                [
                    -41.67302703857422,
                    1.4753013849258423,
                    -34.64125442504883,
                    -39.34784698486328,
                    14.09134578704834,
                    1.1646188497543335,
                    -5.359881401062012,
                    -4.989907741546631,
                    -3.2175188064575195,
                    37.84978103637695,
                    -23.92119026184082,
                    -0.7980178594589233,
                    -23.199548721313477,
                    -13.562883377075195,
                    -6.5165605545043945
                ],
                [
                    42.01910400390625,
                    -12.686769485473633,
                    0.33204105496406555,
                    -26.61425018310547,
                    -2.403815984725952,
                    9.84449577331543,
                    -1.3346210718154907,
                    7.470364093780518,
                    35.84537887573242,
                    44.66368103027344,
                    5.4814372062683105,
                    -17.214473724365234,
                    2.8710315227508545,
                    -16.77288246154785,
                    -55.387367248535156
                ],
                [
                    -2.697930097579956,
                    33.002601623535156,
                    15.538896560668945,
                    -9.84175968170166,
                    -2.487762212753296,
                    -8.059228897094727,
                    11.807798385620117,
                    -0.6505942344665527,
                    -9.617449760437012,
                    -29.295654296875,
                    -23.604167938232422,
                    22.968708038330078,
                    10.979042053222656,
                    18.882429122924805,
                    32.391578674316406
                ],
                [
                    -32.90126419067383,
                    -15.875651359558105,
                    -9.294066429138184,
                    1.2925832271575928,
                    28.170385360717773,
                    1.765716552734375,
                    4.832881927490234,
                    30.481441497802734,
                    4.687008380889893,
                    -15.548789978027344,
                    54.708736419677734,
                    -6.536589622497559,
                    -45.81461715698242,
                    3.1779658794403076,
                    -50.360435485839844
                ],
                [
                    21.13119125366211,
                    -9.933188438415527,
                    8.704505920410156,
                    15.10639476776123,
                    10.423731803894043,
                    15.661203384399414,
                    24.442644119262695,
                    -42.27341079711914,
                    -11.789022445678711,
                    9.474379539489746,
                    -33.1780891418457,
                    -18.957460403442383,
                    28.168975830078125,
                    -32.09904479980469,
                    -37.722957611083984
                ],
                [
                    13.83165454864502,
                    -3.3210999965667725,
                    -59.56126022338867,
                    12.336862564086914,
                    -33.146244049072266,
                    14.996313095092773,
                    -37.11630630493164,
                    -5.731907844543457,
                    7.2132439613342285,
                    10.598023414611816,
                    30.659896850585938,
                    28.17085838317871,
                    -7.440873146057129,
                    -40.73908615112305,
                    11.025755882263184
                ],
                [
                    -54.42475509643555,
                    -6.280998706817627,
                    46.395904541015625,
                    18.540800094604492,
                    -40.37915802001953,
                    1.5775574445724487,
                    13.003294944763184,
                    -42.8675537109375,
                    -40.89058303833008,
                    -30.806270599365234,
                    32.398101806640625,
                    7.450859069824219,
                    -18.166521072387695,
                    -10.969808578491211,
                    16.062768936157227
                ],
                [
                    -11.438258171081543,
                    -13.919795036315918,
                    -15.581876754760742,
                    19.294374465942383,
                    -7.356806755065918,
                    -37.886444091796875,
                    -42.99709701538086,
                    9.452458381652832,
                    -19.492868423461914,
                    10.399813652038574,
                    -27.356719970703125,
                    -1.5997096300125122,
                    18.34331512451172,
                    -7.579702854156494,
                    10.83297061920166
                ]
            ],
            "biases": [
                11.430548667907715,
                -20.719219207763672,
                -51.583457946777344,
                -0.6778551936149597,
                -21.3624267578125,
                -25.49234962463379,
                -19.67502212524414,
                8.04937744140625
            ]
        },
        {
            "weights": [
                [
                    -9.621617317199707,
                    -6.54189920425415,
                    29.581409454345703,
                    -8.917463302612305,
                    -16.078432083129883,
                    -8.342925071716309,
                    -8.094066619873047,
                    -6.9554829597473145
                ],
                [
                    -28.408405303955078,
                    38.18497848510742,
                    -6.5752387046813965,
                    13.321005821228027,
                    -37.0478515625,
                    -24.04658317565918,
                    25.67230224609375,
                    -35.23750305175781
                ],
                [
                    -46.36168670654297,
                    -55.11745834350586,
                    -45.320579528808594,
                    -46.47862243652344,
                    -58.068119049072266,
                    -33.36500930786133,
                    -49.20058059692383,
                    -46.32074737548828
                ],
                [
                    -18.79859733581543,
                    -29.805307388305664,
                    -40.30115509033203,
                    -8.789636611938477,
                    -27.411325454711914,
                    -17.910789489746094,
                    -21.251502990722656,
                    -12.479207992553711
                ]
            ],
            "biases": [
                -26.338560104370117,
                -18.678911209106445,
                50.07188034057617,
                24.98032569885254
            ]
        },
        {
            "weights": [
                [
                    14.008709907531738,
                    -0.6127611994743347,
                    -15.058753967285156,
                    12.757309913635254
                ]
            ],
            "biases": [
                0.27879050374031067
            ]
        }
    ],
    "inputLookup": null,
    "inputLookupLength": 0,
    "outputLookup": null,
    "outputLookupLength": 0,
    "options": {
        "inputSize": 0,
        "outputSize": 0,
        "binaryThresh": 0.5,
        "hiddenLayers": [
            8,
            4
        ],
        "activation": "sigmoid"
    },
    "trainOpts": {
        "activation": "sigmoid",
        "iterations": 20000,
        "errorThresh": 0.005,
        "log": false,
        "logPeriod": 10,
        "leakyReluAlpha": 0.01,
        "learningRate": 0.3,
        "momentum": 0.1,
        "callbackPeriod": 10,
        "timeout": "Infinity",
        "beta1": 0.9,
        "beta2": 0.999,
        "epsilon": 1e-8
    }
}