{
    "type": "NeuralNetwork",
    "sizes": [
        10,
        8,
        4,
        3
    ],
    "layers": [
        {
            "weights": [],
            "biases": []
        },
        {
            "weights": [
                [
                    -10.855899810791016,
                    11.354703903198242,
                    -17.944887161254883,
                    -8.92292594909668,
                    9.68880558013916,
                    10.195402145385742,
                    -10.632752418518066,
                    9.015910148620605,
                    -12.189773559570312,
                    -2.5590767860412598
                ],
                [
                    -13.087698936462402,
                    -16.334827423095703,
                    21.454641342163086,
                    -1.835214376449585,
                    -18.380699157714844,
                    29.04800033569336,
                    -24.24762725830078,
                    15.338194847106934,
                    -9.71979808807373,
                    -6.603325366973877
                ],
                [
                    -12.397211074829102,
                    3.126260280609131,
                    -28.67293930053711,
                    18.42584228515625,
                    -13.68367862701416,
                    -7.7465925216674805,
                    33.80784225463867,
                    -0.22456973791122437,
                    -4.84577751159668,
                    -4.799283504486084
                ],
                [
                    25.152488708496094,
                    10.529533386230469,
                    23.429792404174805,
                    -39.88777160644531,
                    -14.044981002807617,
                    9.179502487182617,
                    -16.818025588989258,
                    -4.987214088439941,
                    17.565052032470703,
                    -29.730398178100586
                ],
                [
                    11.561491012573242,
                    14.503087997436523,
                    45.99815368652344,
                    -0.7647078633308411,
                    -15.101374626159668,
                    -7.427024841308594,
                    -31.93787956237793,
                    21.394269943237305,
                    17.55433464050293,
                    -20.93692398071289
                ],
                [
                    -2.2978453636169434,
                    16.93248176574707,
                    -25.628992080688477,
                    18.536766052246094,
                    -22.355144500732422,
                    7.791098117828369,
                    35.123291015625,
                    -19.020864486694336,
                    22.92997932434082,
                    -44.430660247802734
                ],
                [
                    -25.348730087280273,
                    -14.070734024047852,
                    17.360031127929688,
                    5.276157379150391,
                    -13.775933265686035,
                    -7.685879707336426,
                    6.7078375816345215,
                    6.547993183135986,
                    -1.4118118286132812,
                    5.349588871002197
                ],
                [
                    9.831034660339355,
                    16.704668045043945,
                    -6.582281112670898,
                    10.785527229309082,
                    1.673635721206665,
                    16.324337005615234,
                    8.04616641998291,
                    15.557415008544922,
                    9.877421379089355,
                    -23.741844177246094
                ]
            ],
            "biases": [
                1.7994768619537354,
                -16.152692794799805,
                -1.7220109701156616,
                -0.6082049608230591,
                7.639847755432129,
                11.877084732055664,
                -15.04344367980957,
                -2.28897762298584
            ]
        },
        {
            "weights": [
                [
                    -5.763909339904785,
                    14.493843078613281,
                    -8.537629127502441,
                    0.053821220993995667,
                    -34.19937515258789,
                    -17.970333099365234,
                    11.452512741088867,
                    -12.703630447387695
                ],
                [
                    -1.458162784576416,
                    -5.831814289093018,
                    -41.38878631591797,
                    1.923162817955017,
                    -6.8828253746032715,
                    4.803513526916504,
                    4.315816879272461,
                    -5.960958480834961
                ],
                [
                    29.478740692138672,
                    26.944974899291992,
                    -4.530007362365723,
                    -14.933547019958496,
                    -15.822273254394531,
                    19.181909561157227,
                    -6.924689292907715,
                    -29.481264114379883
                ],
                [
                    -26.931686401367188,
                    15.666594505310059,
                    -49.29694747924805,
                    -21.050363540649414,
                    -21.147567749023438,
                    20.57429313659668,
                    -44.295127868652344,
                    -26.444589614868164
                ]
            ],
            "biases": [
                8.540060043334961,
                1.5977740287780762,
                -12.336441040039062,
                26.380491256713867
            ]
        },
        {
            "weights": [
                [
                    -3.5588607788085938,
                    5.338444232940674,
                    0.5420202016830444,
                    0.845284104347229
                ],
                [
                    4.034317970275879,
                    -3.0044803619384766,
                    1.7376466989517212,
                    -0.15977886319160461
                ],
                [
                    0.16899241507053375,
                    5.796093463897705,
                    0.24201253056526184,
                    -6.1734209060668945
                ]
            ],
            "biases": [
                0.146602064371109,
                0.05979155749082565,
                0.13003799319267273
            ]
        }
    ],
    "inputLookup": null,
    "inputLookupLength": 0,
    "outputLookup": null,
    "outputLookupLength": 0,
    "options": {
        "inputSize": 0,
        "outputSize": 0,
        "binaryThresh": 0.5,
        "hiddenLayers": [
            8,
            4
        ],
        "activation": "sigmoid"
    },
    "trainOpts": {
        "activation": "sigmoid",
        "iterations": 20000,
        "errorThresh": 0.005,
        "log": false,
        "logPeriod": 10,
        "leakyReluAlpha": 0.01,
        "learningRate": 0.3,
        "momentum": 0.1,
        "callbackPeriod": 10,
        "timeout": "Infinity",
        "beta1": 0.9,
        "beta2": 0.999,
        "epsilon": 1e-8
    }
}