{
    "type": "NeuralNetwork",
    "sizes": [
        10,
        8,
        4,
        1
    ],
    "layers": [
        {
            "weights": [],
            "biases": []
        },
        {
            "weights": [
                [
                    -18.208419799804688,
                    8.718456268310547,
                    -9.51184368133545,
                    -9.52618408203125,
                    8.797097206115723,
                    30.7545108795166,
                    -32.97041702270508,
                    -20.120283126831055,
                    1.8299375772476196,
                    21.43410873413086
                ],
                [
                    9.45859432220459,
                    -4.2041401863098145,
                    -10.4100341796875,
                    -22.10515785217285,
                    0.4561862051486969,
                    -39.24161148071289,
                    -32.810813903808594,
                    32.537593841552734,
                    30.576507568359375,
                    15.6591796875
                ],
                [
                    -20.233640670776367,
                    14.824453353881836,
                    34.19587326049805,
                    45.03876495361328,
                    7.4360809326171875,
                    -4.787331581115723,
                    -14.132379531860352,
                    -7.034832954406738,
                    23.270427703857422,
                    -13.628182411193848
                ],
                [
                    11.744766235351562,
                    -7.694137096405029,
                    -6.355330467224121,
                    7.35520601272583,
                    -0.12514445185661316,
                    -1.0341991186141968,
                    -4.724026203155518,
                    31.503700256347656,
                    -20.1324520111084,
                    1.7244675159454346
                ],
                [
                    13.161229133605957,
                    8.409411430358887,
                    -15.545456886291504,
                    -13.71362590789795,
                    2.367825746536255,
                    -1.3323763608932495,
                    6.312924385070801,
                    -6.21942663192749,
                    25.145849227905273,
                    17.55086326599121
                ],
                [
                    -1.5409705638885498,
                    -11.752976417541504,
                    34.168312072753906,
                    -19.155996322631836,
                    -13.980401039123535,
                    -16.55519676208496,
                    26.10509490966797,
                    -36.39146041870117,
                    -13.305377006530762,
                    41.589637756347656
                ],
                [
                    10.60195541381836,
                    1.0808360576629639,
                    -3.4635567665100098,
                    -2.6256914138793945,
                    11.88992977142334,
                    -9.45470142364502,
                    2.568338394165039,
                    8.187474250793457,
                    3.6573686599731445,
                    -7.167021751403809
                ],
                [
                    -0.5635747313499451,
                    -2.7236390113830566,
                    -14.73509407043457,
                    12.99445915222168,
                    -18.04267120361328,
                    19.684560775756836,
                    12.419859886169434,
                    9.596747398376465,
                    11.157038688659668,
                    12.560564041137695
                ]
            ],
            "biases": [
                -10.910195350646973,
                -6.848021984100342,
                -21.854307174682617,
                -13.200742721557617,
                -33.756473541259766,
                7.612119674682617,
                -0.6626332402229309,
                -43.2438850402832
            ]
        },
        {
            "weights": [
                [
                    -23.4201717376709,
                    32.14651107788086,
                    -14.190105438232422,
                    -13.60851764678955,
                    11.133142471313477,
                    -13.064629554748535,
                    -11.56124496459961,
                    23.301759719848633
                ],
                [
                    -66.1651382446289,
                    20.894258499145508,
                    -29.11894989013672,
                    31.994691848754883,
                    -55.00182342529297,
                    -27.46916389465332,
                    -30.829431533813477,
                    -25.54442024230957
                ],
                [
                    -61.24344253540039,
                    -12.587284088134766,
                    -2.6300487518310547,
                    -82.3563003540039,
                    -26.139986038208008,
                    -7.084700584411621,
                    16.89763069152832,
                    18.145761489868164
                ],
                [
                    28.630943298339844,
                    -23.659976959228516,
                    -15.821428298950195,
                    -8.157816886901855,
                    15.89319133758545,
                    -36.225181579589844,
                    -43.233154296875,
                    -53.507904052734375
                ]
            ],
            "biases": [
                -19.88332176208496,
                28.50723648071289,
                10.159671783447266,
                26.074159622192383
            ]
        },
        {
            "weights": [
                [
                    3.222898006439209,
                    1.6290901899337769,
                    1.1156535148620605,
                    1.313310146331787
                ]
            ],
            "biases": [
                -1.4268392324447632
            ]
        }
    ],
    "inputLookup": null,
    "inputLookupLength": 0,
    "outputLookup": null,
    "outputLookupLength": 0,
    "options": {
        "inputSize": 0,
        "outputSize": 0,
        "binaryThresh": 0.5,
        "hiddenLayers": [
            8,
            4
        ],
        "activation": "sigmoid"
    },
    "trainOpts": {
        "activation": "sigmoid",
        "iterations": 20000,
        "errorThresh": 0.005,
        "log": false,
        "logPeriod": 10,
        "leakyReluAlpha": 0.01,
        "learningRate": 0.3,
        "momentum": 0.1,
        "callbackPeriod": 10,
        "timeout": "Infinity",
        "beta1": 0.9,
        "beta2": 0.999,
        "epsilon": 1e-8
    }
}