{
    "type": "NeuralNetwork",
    "sizes": [
        10,
        8,
        4,
        1
    ],
    "layers": [
        {
            "weights": [],
            "biases": []
        },
        {
            "weights": [
                [
                    18.671733856201172,
                    33.14570999145508,
                    -17.596006393432617,
                    6.94429349899292,
                    -19.91019058227539,
                    0.4042288362979889,
                    -22.895971298217773,
                    -12.819663047790527,
                    42.991310119628906,
                    6.107826232910156
                ],
                [
                    -18.38344955444336,
                    -4.9283366203308105,
                    11.589927673339844,
                    -11.624044418334961,
                    -3.7407069206237793,
                    5.934464454650879,
                    20.49555015563965,
                    3.111741065979004,
                    21.5130558013916,
                    10.82903003692627
                ],
                [
                    -25.381105422973633,
                    11.828322410583496,
                    21.351545333862305,
                    17.655391693115234,
                    -3.720921754837036,
                    0.1909613311290741,
                    11.239927291870117,
                    31.731523513793945,
                    -1.0221843719482422,
                    -23.01506233215332
                ],
                [
                    -13.409553527832031,
                    -11.473747253417969,
                    -17.056318283081055,
                    -27.412328720092773,
                    1.8419172763824463,
                    -8.541872024536133,
                    1.5514155626296997,
                    12.087333679199219,
                    3.015038013458252,
                    9.239572525024414
                ],
                [
                    0.47634658217430115,
                    12.12860107421875,
                    -0.9017873406410217,
                    -17.18523406982422,
                    9.350131034851074,
                    1.890203595161438,
                    -17.506568908691406,
                    -9.505146026611328,
                    -8.262277603149414,
                    -2.244032144546509
                ],
                [
                    16.144182205200195,
                    -7.662688732147217,
                    15.868474006652832,
                    -8.717135429382324,
                    -12.963933944702148,
                    -15.857725143432617,
                    1.0140680074691772,
                    -24.200862884521484,
                    -12.666391372680664,
                    -2.623509407043457
                ],
                [
                    25.119295120239258,
                    25.85053062438965,
                    -9.86489486694336,
                    8.256611824035645,
                    22.23794174194336,
                    -3.9736056327819824,
                    -26.183311462402344,
                    25.221214294433594,
                    -15.345067977905273,
                    26.016979217529297
                ],
                [
                    -9.048521041870117,
                    0.9622179269790649,
                    7.059139251708984,
                    15.829319953918457,
                    15.567185401916504,
                    30.554378509521484,
                    12.189753532409668,
                    -6.683244228363037,
                    -17.76193618774414,
                    3.5840234756469727
                ]
            ],
            "biases": [
                11.81467342376709,
                -6.119900226593018,
                -18.81789207458496,
                -2.022216796875,
                -1.7265881299972534,
                6.49235725402832,
                -36.214534759521484,
                -14.465363502502441
            ]
        },
        {
            "weights": [
                [
                    -28.29245948791504,
                    14.704854965209961,
                    -5.137537479400635,
                    -13.476330757141113,
                    -17.861230850219727,
                    -22.877830505371094,
                    -5.740414619445801,
                    -19.08000946044922
                ],
                [
                    4.1473388671875,
                    -23.388389587402344,
                    -23.170135498046875,
                    8.035477638244629,
                    -19.683940887451172,
                    -16.052305221557617,
                    -16.141447067260742,
                    -13.713212966918945
                ],
                [
                    -8.760148048400879,
                    -36.49709701538086,
                    0.6834005117416382,
                    -8.588932991027832,
                    1.6007705926895142,
                    0.01659208908677101,
                    -2.054455518722534,
                    -3.851505756378174
                ],
                [
                    -19.420516967773438,
                    20.07842254638672,
                    -31.901809692382812,
                    -28.360811233520508,
                    -16.624698638916016,
                    -28.80489730834961,
                    -16.429431915283203,
                    -20.32192611694336
                ]
            ],
            "biases": [
                9.519051551818848,
                12.168387413024902,
                6.651135444641113,
                18.134979248046875
            ]
        },
        {
            "weights": [
                [
                    1.459554672241211,
                    2.4432361125946045,
                    2.146533489227295,
                    1.945834994316101
                ]
            ],
            "biases": [
                -0.08806471526622772
            ]
        }
    ],
    "inputLookup": null,
    "inputLookupLength": 0,
    "outputLookup": null,
    "outputLookupLength": 0,
    "options": {
        "inputSize": 0,
        "outputSize": 0,
        "binaryThresh": 0.5,
        "hiddenLayers": [
            8,
            4
        ],
        "activation": "sigmoid"
    },
    "trainOpts": {
        "activation": "sigmoid",
        "iterations": 20000,
        "errorThresh": 0.005,
        "log": false,
        "logPeriod": 10,
        "leakyReluAlpha": 0.01,
        "learningRate": 0.3,
        "momentum": 0.1,
        "callbackPeriod": 10,
        "timeout": "Infinity",
        "beta1": 0.9,
        "beta2": 0.999,
        "epsilon": 1e-8
    }
}