{
    "type": "NeuralNetwork",
    "sizes": [
        5,
        8,
        4,
        1
    ],
    "layers": [
        {
            "weights": [],
            "biases": []
        },
        {
            "weights": [
                [
                    -2.000746488571167,
                    -0.5963843464851379,
                    3.1888599395751953,
                    6.810446739196777,
                    -4.475071907043457
                ],
                [
                    8.397684097290039,
                    17.694982528686523,
                    6.082220077514648,
                    -13.725919723510742,
                    -4.9102396965026855
                ],
                [
                    -2.15472412109375,
                    -5.8358330726623535,
                    4.5755438804626465,
                    14.669946670532227,
                    -5.379931449890137
                ],
                [
                    -3.3622519969940186,
                    -5.870039463043213,
                    -1.6046473979949951,
                    8.56753921508789,
                    6.911755084991455
                ],
                [
                    0.7710802555084229,
                    -0.018660876899957657,
                    6.296238899230957,
                    -6.977928161621094,
                    7.68439245223999
                ],
                [
                    -6.605289459228516,
                    1.268162488937378,
                    4.251729965209961,
                    1.4170540571212769,
                    5.249952793121338
                ],
                [
                    4.056873798370361,
                    -6.260494232177734,
                    3.055703639984131,
                    -9.075234413146973,
                    5.594156265258789
                ],
                [
                    0.9630148410797119,
                    -3.6935806274414062,
                    -7.065031051635742,
                    6.040853023529053,
                    -3.9083163738250732
                ]
            ],
            "biases": [
                -7.740232944488525,
                -12.39111614227295,
                0.3119048476219177,
                -9.408228874206543,
                -12.353204727172852,
                -9.543096542358398,
                -5.390556812286377,
                -3.2601425647735596
            ]
        },
        {
            "weights": [
                [
                    -0.08638600260019302,
                    -1.1450051069259644,
                    -1.1740213632583618,
                    -0.34128838777542114,
                    -6.6598124504089355,
                    -1.0567220449447632,
                    -2.01666522026062,
                    -2.397247791290283
                ],
                [
                    -1.6310439109802246,
                    -7.099312782287598,
                    1.704120397567749,
                    -1.4146418571472168,
                    -1.2560231685638428,
                    -1.0057815313339233,
                    1.961497187614441,
                    0.14543651044368744
                ],
                [
                    -1.633772850036621,
                    -7.1070404052734375,
                    1.7061140537261963,
                    -1.4149833917617798,
                    -1.2563713788986206,
                    -1.0057306289672852,
                    1.962934136390686,
                    0.14582525193691254
                ],
                [
                    -0.1295192688703537,
                    -1.133667230606079,
                    -1.147867202758789,
                    -0.34632954001426697,
                    -6.589600086212158,
                    -1.0817828178405762,
                    -2.0544023513793945,
                    -2.5814056396484375
                ]
            ],
            "biases": [
                -1.898354172706604,
                -4.404697895050049,
                -4.4046244621276855,
                -1.9071526527404785
            ]
        },
        {
            "weights": [
                [
                    3.808835744857788,
                    3.1621286869049072,
                    3.15793776512146,
                    3.820460081100464
                ]
            ],
            "biases": [
                -0.5299485921859741
            ]
        }
    ],
    "inputLookup": null,
    "inputLookupLength": 0,
    "outputLookup": null,
    "outputLookupLength": 0,
    "options": {
        "inputSize": 0,
        "outputSize": 0,
        "binaryThresh": 0.5,
        "hiddenLayers": [
            8,
            4
        ],
        "activation": "sigmoid"
    },
    "trainOpts": {
        "activation": "sigmoid",
        "iterations": 20000,
        "errorThresh": 0.005,
        "log": false,
        "logPeriod": 10,
        "leakyReluAlpha": 0.01,
        "learningRate": 0.3,
        "momentum": 0.1,
        "callbackPeriod": 10,
        "timeout": "Infinity",
        "beta1": 0.9,
        "beta2": 0.999,
        "epsilon": 1e-8
    }
}