{
    "type": "NeuralNetwork",
    "sizes": [
        15,
        8,
        4,
        3
    ],
    "layers": [
        {
            "weights": [],
            "biases": []
        },
        {
            "weights": [
                [
                    -29.9372501373291,
                    35.03794479370117,
                    39.61691665649414,
                    19.159957885742188,
                    18.914461135864258,
                    39.30522918701172,
                    -44.87443542480469,
                    16.51795768737793,
                    -11.832399368286133,
                    -24.373210906982422,
                    -6.1823835372924805,
                    39.4305305480957,
                    -16.67435646057129,
                    -33.745079040527344,
                    -87.53532409667969
                ],
                [
                    1.4686208963394165,
                    -10.080422401428223,
                    -4.532567501068115,
                    20.61957359313965,
                    34.530616760253906,
                    -3.174905776977539,
                    42.19343566894531,
                    -2.1400537490844727,
                    -16.633533477783203,
                    -13.908895492553711,
                    -1.1061127185821533,
                    -22.826990127563477,
                    22.14463233947754,
                    52.09587478637695,
                    9.28237247467041
                ],
                [
                    -11.885893821716309,
                    22.394996643066406,
                    -17.72454833984375,
                    -43.145286560058594,
                    11.64354419708252,
                    43.60353088378906,
                    -25.22001838684082,
                    -8.939166069030762,
                    -0.6869200468063354,
                    -10.380661964416504,
                    -13.380156517028809,
                    -22.043052673339844,
                    -2.6471807956695557,
                    34.89202117919922,
                    -27.356164932250977
                ],
                [
                    13.363799095153809,
                    12.34708023071289,
                    -28.630598068237305,
                    -27.431093215942383,
                    10.308432579040527,
                    15.332449913024902,
                    0.9939957857131958,
                    13.648056030273438,
                    10.21657943725586,
                    6.40565299987793,
                    24.675745010375977,
                    -14.162468910217285,
                    4.365812301635742,
                    -4.764481544494629,
                    -7.977386951446533
                ],
                [
                    -6.635512828826904,
                    5.067053318023682,
                    -3.331008195877075,
                    -29.55533790588379,
                    -2.096407175064087,
                    24.469606399536133,
                    -36.827964782714844,
                    2.5931665897369385,
                    -14.153268814086914,
                    -0.034114498645067215,
                    15.653160095214844,
                    22.69780921936035,
                    20.015222549438477,
                    -5.520042419433594,
                    28.44349479675293
                ],
                [
                    3.0090339183807373,
                    -16.130468368530273,
                    -2.3518364429473877,
                    -12.208346366882324,
                    -14.61690902709961,
                    17.788387298583984,
                    -11.578689575195312,
                    -23.775238037109375,
                    -21.61210060119629,
                    -4.645819187164307,
                    -4.58073616027832,
                    -11.697661399841309,
                    -2.9650704860687256,
                    27.03543472290039,
                    -0.009220266714692116
                ],
                [
                    -22.80591583251953,
                    5.623084545135498,
                    26.296871185302734,
                    -16.697202682495117,
                    7.798159122467041,
                    -21.608266830444336,
                    -4.946303844451904,
                    -3.966355085372925,
                    -37.53376770019531,
                    -1.0599650144577026,
                    32.23956298828125,
                    -0.8114588856697083,
                    -6.394922733306885,
                    -12.725860595703125,
                    -28.723360061645508
                ],
                [
                    -43.66584777832031,
                    31.046031951904297,
                    54.29616928100586,
                    14.319602966308594,
                    13.451040267944336,
                    -3.1459596157073975,
                    -10.750577926635742,
                    29.676902770996094,
                    -26.676109313964844,
                    26.774938583374023,
                    -12.087528228759766,
                    2.0465431213378906,
                    -4.047473430633545,
                    -6.394236087799072,
                    -25.54840850830078
                ]
            ],
            "biases": [
                30.496410369873047,
                -23.214115142822266,
                12.390219688415527,
                -7.00434684753418,
                -15.52962589263916,
                31.696672439575195,
                1.3448542356491089,
                -24.335824966430664
            ]
        },
        {
            "weights": [
                [
                    -33.300628662109375,
                    -23.745283126831055,
                    -22.419111251831055,
                    -42.32257843017578,
                    -13.01486873626709,
                    -38.97983932495117,
                    -1.4997962713241577,
                    -10.79150390625
                ],
                [
                    -41.37038040161133,
                    -10.668756484985352,
                    -34.245330810546875,
                    54.0604133605957,
                    -16.527236938476562,
                    -22.600318908691406,
                    -16.54252052307129,
                    55.64113998413086
                ],
                [
                    -58.11811447143555,
                    -32.32623291015625,
                    49.503997802734375,
                    -28.716806411743164,
                    -22.491769790649414,
                    -26.367639541625977,
                    34.166099548339844,
                    3.6505579948425293
                ],
                [
                    -40.70161437988281,
                    -40.5847282409668,
                    0.40984442830085754,
                    2.7594497203826904,
                    -45.236385345458984,
                    -52.25179672241211,
                    47.0698356628418,
                    -43.361629486083984
                ]
            ],
            "biases": [
                31.880741119384766,
                -39.151092529296875,
                24.27314567565918,
                34.623802185058594
            ]
        },
        {
            "weights": [
                [
                    38.30487060546875,
                    -1.7790536880493164,
                    0.1552165448665619,
                    30.220117568969727
                ],
                [
                    -0.6037417650222778,
                    -0.3913276195526123,
                    53.33236312866211,
                    -0.7368146777153015
                ],
                [
                    -0.6309449076652527,
                    -0.49503403902053833,
                    1.446005940437317,
                    1.5197449922561646
                ]
            ],
            "biases": [
                0.024280600249767303,
                -0.08913108706474304,
                -0.0369960218667984
            ]
        }
    ],
    "inputLookup": null,
    "inputLookupLength": 0,
    "outputLookup": null,
    "outputLookupLength": 0,
    "options": {
        "inputSize": 0,
        "outputSize": 0,
        "binaryThresh": 0.5,
        "hiddenLayers": [
            8,
            4
        ],
        "activation": "sigmoid"
    },
    "trainOpts": {
        "activation": "sigmoid",
        "iterations": 20000,
        "errorThresh": 0.005,
        "log": false,
        "logPeriod": 10,
        "leakyReluAlpha": 0.01,
        "learningRate": 0.3,
        "momentum": 0.1,
        "callbackPeriod": 10,
        "timeout": "Infinity",
        "beta1": 0.9,
        "beta2": 0.999,
        "epsilon": 1e-8
    }
}