{
    "type": "NeuralNetwork",
    "sizes": [
        10,
        8,
        4,
        3
    ],
    "layers": [
        {
            "weights": [],
            "biases": []
        },
        {
            "weights": [
                [
                    -6.081403732299805,
                    8.600109100341797,
                    -4.053440570831299,
                    -0.2474084049463272,
                    23.781007766723633,
                    -25.806617736816406,
                    -19.558847427368164,
                    22.76829719543457,
                    6.405349254608154,
                    -1.1855837106704712
                ],
                [
                    6.795948028564453,
                    -1.2950471639633179,
                    -9.692686080932617,
                    2.906792640686035,
                    1.4648464918136597,
                    -14.443915367126465,
                    22.185123443603516,
                    -32.71092224121094,
                    21.954755783081055,
                    24.0354061126709
                ],
                [
                    11.201725959777832,
                    22.433303833007812,
                    22.771026611328125,
                    -14.568812370300293,
                    -30.643802642822266,
                    -30.028175354003906,
                    13.938679695129395,
                    -17.530080795288086,
                    14.026906967163086,
                    -24.562847137451172
                ],
                [
                    27.97454071044922,
                    1.4213520288467407,
                    -16.918344497680664,
                    -46.63944625854492,
                    31.08547019958496,
                    -3.1376209259033203,
                    -18.054534912109375,
                    11.987316131591797,
                    10.9511079788208,
                    -8.217076301574707
                ],
                [
                    8.417622566223145,
                    10.064157485961914,
                    -8.983901977539062,
                    50.1728515625,
                    -4.326903343200684,
                    -36.428035736083984,
                    14.174637794494629,
                    1.6233974695205688,
                    22.023832321166992,
                    -13.694374084472656
                ],
                [
                    20.016918182373047,
                    13.53624153137207,
                    12.970622062683105,
                    28.975603103637695,
                    -8.358637809753418,
                    -23.88849639892578,
                    20.603635787963867,
                    -24.49460792541504,
                    13.301774978637695,
                    7.1045708656311035
                ],
                [
                    10.723433494567871,
                    -21.06039047241211,
                    -23.450286865234375,
                    -8.821846008300781,
                    -1.9264570474624634,
                    20.79266357421875,
                    -23.108905792236328,
                    -23.60904312133789,
                    35.1378059387207,
                    23.130708694458008
                ],
                [
                    15.632640838623047,
                    33.288883209228516,
                    38.71525573730469,
                    18.212053298950195,
                    17.770954132080078,
                    7.868631839752197,
                    27.919294357299805,
                    10.091412544250488,
                    -9.813122749328613,
                    -20.87517547607422
                ]
            ],
            "biases": [
                -1.9180728197097778,
                -24.432323455810547,
                -4.5739426612854,
                -14.037432670593262,
                -27.223949432373047,
                -21.023818969726562,
                0.09414750337600708,
                -74.21866607666016
            ]
        },
        {
            "weights": [
                [
                    -30.90920639038086,
                    -25.44961166381836,
                    -7.138336181640625,
                    -0.5803408622741699,
                    -23.174137115478516,
                    23.41672706604004,
                    15.361958503723145,
                    -0.1068841964006424
                ],
                [
                    -41.261741638183594,
                    35.26950454711914,
                    -6.08699369430542,
                    38.54705047607422,
                    28.982425689697266,
                    -25.530305862426758,
                    -41.71202850341797,
                    -43.153358459472656
                ],
                [
                    -18.389190673828125,
                    -22.399534225463867,
                    -20.888439178466797,
                    2.6827964782714844,
                    -35.16701889038086,
                    23.823949813842773,
                    -9.113993644714355,
                    -9.332396507263184
                ],
                [
                    -10.156035423278809,
                    -53.86035919189453,
                    13.105446815490723,
                    10.036737442016602,
                    46.796173095703125,
                    -46.209232330322266,
                    -59.328338623046875,
                    -12.662764549255371
                ]
            ],
            "biases": [
                -19.294769287109375,
                2.7371082305908203,
                -6.310218811035156,
                0.24828825891017914
            ]
        },
        {
            "weights": [
                [
                    0.25904032588005066,
                    1.6161826848983765,
                    0.9728612899780273,
                    -0.2131500095129013
                ],
                [
                    22.095075607299805,
                    0.03687798231840134,
                    -21.27396011352539,
                    1.6054579019546509
                ],
                [
                    1.873744249343872,
                    -0.5299122333526611,
                    -3.055453300476074,
                    0.33793118596076965
                ]
            ],
            "biases": [
                -0.21547967195510864,
                -0.2693878412246704,
                0.007975179702043533
            ]
        }
    ],
    "inputLookup": null,
    "inputLookupLength": 0,
    "outputLookup": null,
    "outputLookupLength": 0,
    "options": {
        "inputSize": 0,
        "outputSize": 0,
        "binaryThresh": 0.5,
        "hiddenLayers": [
            8,
            4
        ],
        "activation": "sigmoid"
    },
    "trainOpts": {
        "activation": "sigmoid",
        "iterations": 20000,
        "errorThresh": 0.005,
        "log": false,
        "logPeriod": 10,
        "leakyReluAlpha": 0.01,
        "learningRate": 0.3,
        "momentum": 0.1,
        "callbackPeriod": 10,
        "timeout": "Infinity",
        "beta1": 0.9,
        "beta2": 0.999,
        "epsilon": 1e-8
    }
}