{
    "type": "NeuralNetwork",
    "sizes": [
        5,
        8,
        4,
        1
    ],
    "layers": [
        {
            "weights": [],
            "biases": []
        },
        {
            "weights": [
                [
                    3.9713568687438965,
                    2.2187185287475586,
                    2.0003466606140137,
                    -2.9252405166625977,
                    0.9706293344497681
                ],
                [
                    4.740543365478516,
                    1.853034496307373,
                    2.421971321105957,
                    -3.2011470794677734,
                    1.6568706035614014
                ],
                [
                    6.536093235015869,
                    1.448405385017395,
                    4.307075500488281,
                    -5.025594234466553,
                    3.549485445022583
                ],
                [
                    3.755510091781616,
                    2.4261436462402344,
                    1.7661206722259521,
                    -2.900773525238037,
                    0.5007508397102356
                ],
                [
                    5.834903717041016,
                    1.4788801670074463,
                    3.4575424194335938,
                    -3.9695677757263184,
                    2.796982765197754
                ],
                [
                    2.976275682449341,
                    2.98054838180542,
                    1.0017213821411133,
                    -2.5308241844177246,
                    -0.5641313195228577
                ],
                [
                    4.8862714767456055,
                    1.3141298294067383,
                    3.2994465827941895,
                    -4.005796432495117,
                    2.858567476272583
                ],
                [
                    3.7508418560028076,
                    3.727294445037842,
                    1.2351412773132324,
                    -2.91512131690979,
                    -1.094089150428772
                ]
            ],
            "biases": [
                -1.3820666074752808,
                -1.422351360321045,
                -1.8533300161361694,
                -1.3041272163391113,
                -1.8322690725326538,
                -1.2334686517715454,
                -1.6024624109268188,
                -1.086429238319397
            ]
        },
        {
            "weights": [
                [
                    -1.6956615447998047,
                    -2.071013927459717,
                    -3.668795108795166,
                    -1.5344501733779907,
                    -2.7886300086975098,
                    -1.1535134315490723,
                    -2.5345921516418457,
                    -1.519132375717163
                ],
                [
                    -1.562187910079956,
                    -1.8742406368255615,
                    -3.745062828063965,
                    -1.5968372821807861,
                    -2.7671263217926025,
                    -1.2375057935714722,
                    -2.6731462478637695,
                    -1.4972721338272095
                ],
                [
                    -1.6147607564926147,
                    -1.9741029739379883,
                    -3.7832303047180176,
                    -1.3308137655258179,
                    -2.9866137504577637,
                    -1.1006262302398682,
                    -2.4492361545562744,
                    -1.556428074836731
                ],
                [
                    -1.599982500076294,
                    -2.0305261611938477,
                    -3.6815919876098633,
                    -1.5559252500534058,
                    -2.8996241092681885,
                    -1.1185699701309204,
                    -2.544459342956543,
                    -1.483627200126648
                ]
            ],
            "biases": [
                -2.9980416297912598,
                -3.0009963512420654,
                -3.0113131999969482,
                -3.004319906234741
            ]
        },
        {
            "weights": [
                [
                    2.929903507232666,
                    2.936373710632324,
                    2.9408669471740723,
                    2.936117172241211
                ]
            ],
            "biases": [
                0.14044231176376343
            ]
        }
    ],
    "inputLookup": null,
    "inputLookupLength": 0,
    "outputLookup": null,
    "outputLookupLength": 0,
    "options": {
        "inputSize": 0,
        "outputSize": 0,
        "binaryThresh": 0.5,
        "hiddenLayers": [
            8,
            4
        ],
        "activation": "sigmoid"
    },
    "trainOpts": {
        "activation": "sigmoid",
        "iterations": 20000,
        "errorThresh": 0.005,
        "log": false,
        "logPeriod": 10,
        "leakyReluAlpha": 0.01,
        "learningRate": 0.3,
        "momentum": 0.1,
        "callbackPeriod": 10,
        "timeout": "Infinity",
        "beta1": 0.9,
        "beta2": 0.999,
        "epsilon": 1e-8
    }
}