{
    "type": "NeuralNetwork",
    "sizes": [
        15,
        8,
        4,
        1
    ],
    "layers": [
        {
            "weights": [],
            "biases": []
        },
        {
            "weights": [
                [
                    15.638777732849121,
                    -32.74811935424805,
                    35.845916748046875,
                    15.281610488891602,
                    -20.226633071899414,
                    -6.9179582595825195,
                    -0.6714826822280884,
                    -4.861432075500488,
                    -25.30729103088379,
                    -38.23320388793945,
                    -1.7050056457519531,
                    3.766658306121826,
                    -12.299530029296875,
                    -21.59247398376465,
                    45.87173080444336
                ],
                [
                    17.574256896972656,
                    3.906839609146118,
                    23.66020965576172,
                    -44.073360443115234,
                    29.9359130859375,
                    49.603946685791016,
                    -27.612037658691406,
                    -17.43198585510254,
                    -3.791940450668335,
                    -27.711219787597656,
                    -44.050628662109375,
                    67.82154083251953,
                    16.23517608642578,
                    46.241661071777344,
                    28.048357009887695
                ],
                [
                    2.778066873550415,
                    26.019582748413086,
                    13.279768943786621,
                    -10.92508316040039,
                    -9.67377758026123,
                    -8.287639617919922,
                    4.581011772155762,
                    37.58462142944336,
                    -20.7808780670166,
                    -35.940093994140625,
                    -1.9931286573410034,
                    -4.299227714538574,
                    -29.266780853271484,
                    -32.02449417114258,
                    -2.083864688873291
                ],
                [
                    -23.57988929748535,
                    -42.423973083496094,
                    -34.487815856933594,
                    79.93389892578125,
                    16.576068878173828,
                    -38.13961410522461,
                    -33.79538345336914,
                    -7.091436862945557,
                    6.605531692504883,
                    -24.270402908325195,
                    -5.04855489730835,
                    -9.369433403015137,
                    2.3286471366882324,
                    16.453105926513672,
                    59.124366760253906
                ],
                [
                    4.603671550750732,
                    -33.7452278137207,
                    -8.873458862304688,
                    6.980179309844971,
                    -20.16634178161621,
                    -26.035154342651367,
                    26.452077865600586,
                    31.401235580444336,
                    43.450435638427734,
                    14.217620849609375,
                    10.718315124511719,
                    -6.6280198097229,
                    10.135048866271973,
                    -2.152470350265503,
                    -37.751590728759766
                ],
                [
                    -39.34654998779297,
                    -15.271280288696289,
                    55.826759338378906,
                    -37.4700927734375,
                    -29.617015838623047,
                    -34.071937561035156,
                    58.181640625,
                    23.656822204589844,
                    22.874547958374023,
                    11.78966236114502,
                    -1.4383386373519897,
                    4.878462314605713,
                    2.452770948410034,
                    33.853729248046875,
                    42.592464447021484
                ],
                [
                    -0.5415220856666565,
                    -11.537351608276367,
                    22.72412872314453,
                    8.847848892211914,
                    -4.892708778381348,
                    -2.763193130493164,
                    9.748822212219238,
                    -4.134858131408691,
                    8.739838600158691,
                    -37.54067611694336,
                    22.21587371826172,
                    -13.683782577514648,
                    -37.8309326171875,
                    13.763690948486328,
                    13.181448936462402
                ],
                [
                    16.758935928344727,
                    -21.97199821472168,
                    -35.035499572753906,
                    -22.41560173034668,
                    0.8567830920219421,
                    7.730768203735352,
                    -19.921207427978516,
                    20.578889846801758,
                    6.807043552398682,
                    5.673104286193848,
                    34.29667663574219,
                    -34.998374938964844,
                    -18.211511611938477,
                    9.516731262207031,
                    -18.906904220581055
                ]
            ],
            "biases": [
                -9.269061088562012,
                -40.524009704589844,
                10.038025856018066,
                7.550093650817871,
                -19.933176040649414,
                -19.311010360717773,
                -8.964940071105957,
                -15.060449600219727
            ]
        },
        {
            "weights": [
                [
                    19.480260848999023,
                    -20.46489715576172,
                    6.922451496124268,
                    -23.67707633972168,
                    -10.6175537109375,
                    7.734259605407715,
                    -32.00370407104492,
                    -11.977656364440918
                ],
                [
                    -23.455928802490234,
                    -44.02254867553711,
                    -34.86402130126953,
                    -44.38410949707031,
                    -32.83635711669922,
                    -43.014198303222656,
                    32.275577545166016,
                    -36.24728775024414
                ],
                [
                    -11.573798179626465,
                    -8.304896354675293,
                    17.700393676757812,
                    -27.1938533782959,
                    -29.35999870300293,
                    -23.432767868041992,
                    8.67833137512207,
                    9.408293724060059
                ],
                [
                    -16.921077728271484,
                    -33.833534240722656,
                    -24.909000396728516,
                    -35.59231185913086,
                    -25.735870361328125,
                    -33.58504104614258,
                    10.09221363067627,
                    -18.276029586791992
                ]
            ],
            "biases": [
                -9.274497985839844,
                48.64446258544922,
                -7.729252815246582,
                56.08372116088867
            ]
        },
        {
            "weights": [
                [
                    1.8598599433898926,
                    16.60715675354004,
                    1.5729879140853882,
                    -14.090754508972168
                ]
            ],
            "biases": [
                0.18365584313869476
            ]
        }
    ],
    "inputLookup": null,
    "inputLookupLength": 0,
    "outputLookup": null,
    "outputLookupLength": 0,
    "options": {
        "inputSize": 0,
        "outputSize": 0,
        "binaryThresh": 0.5,
        "hiddenLayers": [
            8,
            4
        ],
        "activation": "sigmoid"
    },
    "trainOpts": {
        "activation": "sigmoid",
        "iterations": 20000,
        "errorThresh": 0.005,
        "log": false,
        "logPeriod": 10,
        "leakyReluAlpha": 0.01,
        "learningRate": 0.3,
        "momentum": 0.1,
        "callbackPeriod": 10,
        "timeout": "Infinity",
        "beta1": 0.9,
        "beta2": 0.999,
        "epsilon": 1e-8
    }
}