{
    "type": "NeuralNetwork",
    "sizes": [
        15,
        8,
        4,
        3
    ],
    "layers": [
        {
            "weights": [],
            "biases": []
        },
        {
            "weights": [
                [
                    21.014387130737305,
                    3.6240174770355225,
                    49.60309982299805,
                    12.489702224731445,
                    -20.663908004760742,
                    -13.973843574523926,
                    2.1651363372802734,
                    -3.3662426471710205,
                    -25.601037979125977,
                    -9.029121398925781,
                    13.909930229187012,
                    24.79719352722168,
                    -1.9722347259521484,
                    64.58039855957031,
                    -4.751506328582764
                ],
                [
                    -24.56740379333496,
                    25.26468276977539,
                    12.498619079589844,
                    -19.67413330078125,
                    23.88436508178711,
                    11.369961738586426,
                    -0.9900617003440857,
                    -9.608861923217773,
                    -21.524057388305664,
                    19.286439895629883,
                    -28.98673439025879,
                    25.43872833251953,
                    -14.53765869140625,
                    -17.56269645690918,
                    -24.30781364440918
                ],
                [
                    6.712844371795654,
                    -14.395594596862793,
                    8.86237621307373,
                    -16.413177490234375,
                    -4.849469184875488,
                    19.037729263305664,
                    9.431049346923828,
                    -1.1058709621429443,
                    -16.841796875,
                    9.060858726501465,
                    12.790505409240723,
                    -11.161118507385254,
                    7.557263374328613,
                    5.953774452209473,
                    19.40775489807129
                ],
                [
                    24.307538986206055,
                    -13.591547966003418,
                    30.112224578857422,
                    -6.7296576499938965,
                    -9.932174682617188,
                    -3.9610886573791504,
                    -16.801359176635742,
                    -11.73686408996582,
                    -3.8744568824768066,
                    -7.404059410095215,
                    -0.07307522743940353,
                    12.338663101196289,
                    20.20761489868164,
                    -5.759324550628662,
                    23.19550895690918
                ],
                [
                    -10.848625183105469,
                    3.004086494445801,
                    -12.936094284057617,
                    42.23521423339844,
                    -32.485008239746094,
                    4.301896095275879,
                    -5.890336036682129,
                    -15.855366706848145,
                    21.109155654907227,
                    1.881399154663086,
                    15.238445281982422,
                    -19.21792984008789,
                    -40.452903747558594,
                    17.70303726196289,
                    -11.029393196105957
                ],
                [
                    2.4719271659851074,
                    -9.1170654296875,
                    -18.412992477416992,
                    -5.380466461181641,
                    30.593223571777344,
                    -6.561227798461914,
                    -31.567922592163086,
                    -21.855239868164062,
                    11.207025527954102,
                    21.264829635620117,
                    -6.929063320159912,
                    8.232708930969238,
                    -21.664533615112305,
                    -14.118049621582031,
                    5.831241130828857
                ],
                [
                    17.651582717895508,
                    6.4912004470825195,
                    -14.13277530670166,
                    28.456409454345703,
                    34.046844482421875,
                    -19.481311798095703,
                    10.156281471252441,
                    31.57654571533203,
                    37.574100494384766,
                    -1.358994722366333,
                    4.448586940765381,
                    8.713028907775879,
                    18.408695220947266,
                    -39.999576568603516,
                    12.400238990783691
                ],
                [
                    -9.79195785522461,
                    36.045955657958984,
                    8.007322311401367,
                    -14.144048690795898,
                    -1.5825729370117188,
                    34.243309020996094,
                    17.987823486328125,
                    1.1569663286209106,
                    -13.206042289733887,
                    23.82776641845703,
                    -0.6345309019088745,
                    -2.3734521865844727,
                    1.1700552701950073,
                    -13.393311500549316,
                    -19.259185791015625
                ]
            ],
            "biases": [
                -53.186710357666016,
                7.414838790893555,
                -14.769771575927734,
                -41.947845458984375,
                -5.189562797546387,
                -12.622336387634277,
                -58.64620590209961,
                -8.346111297607422
            ]
        },
        {
            "weights": [
                [
                    -13.416727066040039,
                    -40.92317199707031,
                    -2.7622008323669434,
                    -27.87643051147461,
                    -23.426910400390625,
                    -10.679316520690918,
                    -60.63359832763672,
                    -15.70857048034668
                ],
                [
                    -38.58921432495117,
                    -31.309946060180664,
                    -32.508033752441406,
                    -47.49041748046875,
                    33.6192626953125,
                    -7.338933944702148,
                    19.993505477905273,
                    -40.554080963134766
                ],
                [
                    -18.692319869995117,
                    -17.427457809448242,
                    -16.590641021728516,
                    -29.12716293334961,
                    -69.79763793945312,
                    47.62720489501953,
                    -36.43899154663086,
                    44.3610954284668
                ],
                [
                    -23.028549194335938,
                    -31.18932342529297,
                    -55.80500793457031,
                    35.20702362060547,
                    3.709350824356079,
                    -16.469806671142578,
                    -30.27873992919922,
                    0.5896372199058533
                ]
            ],
            "biases": [
                27.41768455505371,
                -14.910834312438965,
                -8.955903053283691,
                17.68583869934082
            ]
        },
        {
            "weights": [
                [
                    -0.3586217761039734,
                    1.8088682889938354,
                    1.073317289352417,
                    2.947969675064087
                ],
                [
                    0.9802210927009583,
                    -0.11836202442646027,
                    1.4363853931427002,
                    0.7002241611480713
                ],
                [
                    47.40928649902344,
                    1.085707187652588,
                    -0.5478467345237732,
                    -1.16840398311615
                ]
            ],
            "biases": [
                -0.18323500454425812,
                -0.1092916950583458,
                -0.08850155770778656
            ]
        }
    ],
    "inputLookup": null,
    "inputLookupLength": 0,
    "outputLookup": null,
    "outputLookupLength": 0,
    "options": {
        "inputSize": 0,
        "outputSize": 0,
        "binaryThresh": 0.5,
        "hiddenLayers": [
            8,
            4
        ],
        "activation": "sigmoid"
    },
    "trainOpts": {
        "activation": "sigmoid",
        "iterations": 20000,
        "errorThresh": 0.005,
        "log": false,
        "logPeriod": 10,
        "leakyReluAlpha": 0.01,
        "learningRate": 0.3,
        "momentum": 0.1,
        "callbackPeriod": 10,
        "timeout": "Infinity",
        "beta1": 0.9,
        "beta2": 0.999,
        "epsilon": 1e-8
    }
}