{
    "type": "NeuralNetwork",
    "sizes": [
        5,
        8,
        4,
        1
    ],
    "layers": [
        {
            "weights": [],
            "biases": []
        },
        {
            "weights": [
                [
                    -4.402932167053223,
                    6.51545524597168,
                    5.643222332000732,
                    2.806670904159546,
                    -3.312884569168091
                ],
                [
                    1.9936208724975586,
                    -1.254207968711853,
                    0.7058942914009094,
                    0.5199108719825745,
                    -1.9768822193145752
                ],
                [
                    -6.600396156311035,
                    11.781349182128906,
                    -4.48858642578125,
                    7.614933013916016,
                    -12.066622734069824
                ],
                [
                    4.416528701782227,
                    10.867145538330078,
                    9.192194938659668,
                    4.2938055992126465,
                    0.5710659623146057
                ],
                [
                    -7.995408058166504,
                    1.573054313659668,
                    14.301776885986328,
                    -8.111762046813965,
                    12.548545837402344
                ],
                [
                    0.7713608741760254,
                    -0.059914328157901764,
                    0.7979267239570618,
                    -2.1605775356292725,
                    -4.043505668640137
                ],
                [
                    -4.9322190284729,
                    2.5306386947631836,
                    -2.691391706466675,
                    -8.681144714355469,
                    9.582161903381348
                ],
                [
                    6.185400009155273,
                    -3.9472076892852783,
                    -0.43026232719421387,
                    4.904006004333496,
                    5.168609619140625
                ]
            ],
            "biases": [
                -10.194229125976562,
                -3.3679873943328857,
                7.170652389526367,
                -20.73952865600586,
                -10.698678016662598,
                -7.607699394226074,
                -8.814139366149902,
                -11.266509056091309
            ]
        },
        {
            "weights": [
                [
                    -2.190431594848633,
                    -2.5151591300964355,
                    -0.09337590634822845,
                    1.2555527687072754,
                    -0.2699098289012909,
                    0.6930821537971497,
                    -7.3134074211120605,
                    -9.229433059692383
                ],
                [
                    -0.05716399848461151,
                    0.9373745322227478,
                    -0.41328972578048706,
                    -9.660867691040039,
                    -0.6122071743011475,
                    1.998785138130188,
                    -1.112077236175537,
                    -0.28820371627807617
                ],
                [
                    0.8234205842018127,
                    1.1491141319274902,
                    -7.9516215324401855,
                    7.679373741149902,
                    -7.240029335021973,
                    -0.7957026362419128,
                    0.4367329776287079,
                    0.7515084743499756
                ],
                [
                    -1.9350348711013794,
                    -2.5442755222320557,
                    -0.8014585971832275,
                    -9.664643287658691,
                    -0.8002232909202576,
                    -2.7192251682281494,
                    -1.4198064804077148,
                    -1.5522056818008423
                ]
            ],
            "biases": [
                -2.081151008605957,
                -3.0540590286254883,
                -2.4268717765808105,
                -2.1292731761932373
            ]
        },
        {
            "weights": [
                [
                    2.495849132537842,
                    3.7752673625946045,
                    2.247861862182617,
                    3.5954887866973877
                ]
            ],
            "biases": [
                -0.040180254727602005
            ]
        }
    ],
    "inputLookup": null,
    "inputLookupLength": 0,
    "outputLookup": null,
    "outputLookupLength": 0,
    "options": {
        "inputSize": 0,
        "outputSize": 0,
        "binaryThresh": 0.5,
        "hiddenLayers": [
            8,
            4
        ],
        "activation": "sigmoid"
    },
    "trainOpts": {
        "activation": "sigmoid",
        "iterations": 20000,
        "errorThresh": 0.005,
        "log": false,
        "logPeriod": 10,
        "leakyReluAlpha": 0.01,
        "learningRate": 0.3,
        "momentum": 0.1,
        "callbackPeriod": 10,
        "timeout": "Infinity",
        "beta1": 0.9,
        "beta2": 0.999,
        "epsilon": 1e-8
    }
}