{
    "type": "NeuralNetwork",
    "sizes": [
        15,
        8,
        4,
        3
    ],
    "layers": [
        {
            "weights": [],
            "biases": []
        },
        {
            "weights": [
                [
                    -6.17905330657959,
                    18.77039909362793,
                    -21.11547088623047,
                    2.12320876121521,
                    14.754730224609375,
                    20.327497482299805,
                    14.392789840698242,
                    14.640534400939941,
                    17.41119956970215,
                    13.615425109863281,
                    -3.2436482906341553,
                    -5.004524230957031,
                    -13.468769073486328,
                    4.621968746185303,
                    15.433122634887695
                ],
                [
                    7.938716411590576,
                    -1.7840632200241089,
                    20.142210006713867,
                    5.8652544021606445,
                    -23.013097763061523,
                    -11.427108764648438,
                    15.228252410888672,
                    -2.683964490890503,
                    -16.097867965698242,
                    25.520401000976562,
                    -4.685784339904785,
                    2.105860710144043,
                    -4.253715991973877,
                    16.670799255371094,
                    5.250941276550293
                ],
                [
                    -17.551313400268555,
                    25.471479415893555,
                    10.577590942382812,
                    39.57358169555664,
                    -19.167400360107422,
                    14.238786697387695,
                    -4.414892673492432,
                    29.935272216796875,
                    0.9111192226409912,
                    14.10438060760498,
                    34.62245559692383,
                    11.472049713134766,
                    -10.049982070922852,
                    7.791665077209473,
                    -9.775016784667969
                ],
                [
                    -4.40260648727417,
                    -14.08034610748291,
                    -6.094090461730957,
                    -31.956279754638672,
                    -28.849767684936523,
                    -17.30145263671875,
                    -9.49482250213623,
                    -27.422119140625,
                    27.479488372802734,
                    -2.7086243629455566,
                    14.932353973388672,
                    0.6202046275138855,
                    -6.850622177124023,
                    -51.504329681396484,
                    29.076457977294922
                ],
                [
                    0.5462467670440674,
                    35.21660232543945,
                    -18.9785213470459,
                    1.1815080642700195,
                    -0.00842390488833189,
                    -19.409814834594727,
                    16.94742202758789,
                    27.728281021118164,
                    21.321346282958984,
                    35.496002197265625,
                    9.648841857910156,
                    5.248000621795654,
                    -18.285066604614258,
                    -10.178502082824707,
                    18.142105102539062
                ],
                [
                    12.90893268585205,
                    -7.791809558868408,
                    -1.0788031816482544,
                    -10.812610626220703,
                    -5.981618881225586,
                    -5.395951747894287,
                    -2.8465709686279297,
                    9.50381088256836,
                    1.8659030199050903,
                    3.941199779510498,
                    -0.5146535634994507,
                    6.863001346588135,
                    -0.987317681312561,
                    -3.0569841861724854,
                    -1.8471072912216187
                ],
                [
                    -30.215835571289062,
                    25.902664184570312,
                    8.8080472946167,
                    0.5439643263816833,
                    29.566593170166016,
                    46.977596282958984,
                    -6.018636703491211,
                    0.9713215231895447,
                    59.46957015991211,
                    -48.043113708496094,
                    41.76300048828125,
                    -15.262433052062988,
                    11.856282234191895,
                    -47.30200958251953,
                    32.95614242553711
                ],
                [
                    4.185883045196533,
                    3.700263500213623,
                    17.150651931762695,
                    3.394834518432617,
                    27.75857925415039,
                    -4.813109397888184,
                    30.063329696655273,
                    3.796910285949707,
                    11.02673625946045,
                    16.736652374267578,
                    0.07108094543218613,
                    22.235509872436523,
                    17.927230834960938,
                    -30.153907775878906,
                    -23.900545120239258
                ]
            ],
            "biases": [
                -20.01443862915039,
                -19.412687301635742,
                -7.738458633422852,
                16.45926856994629,
                -42.77649688720703,
                -1.9917449951171875,
                10.45807933807373,
                8.130265235900879
            ]
        },
        {
            "weights": [
                [
                    -24.038002014160156,
                    3.378376007080078,
                    -23.43709373474121,
                    25.518590927124023,
                    -34.44147872924805,
                    -10.445777893066406,
                    -51.426170349121094,
                    -22.420673370361328
                ],
                [
                    -51.227699279785156,
                    -46.904083251953125,
                    -21.37590980529785,
                    16.489418029785156,
                    30.223154067993164,
                    -47.24506759643555,
                    14.798439025878906,
                    -7.074650764465332
                ],
                [
                    -10.375021934509277,
                    -50.487152099609375,
                    11.503585815429688,
                    2.7553977966308594,
                    11.159521102905273,
                    -37.756072998046875,
                    -52.391597747802734,
                    -1.5372426509857178
                ],
                [
                    -37.615718841552734,
                    -0.43794453144073486,
                    -53.95071029663086,
                    -13.79041576385498,
                    40.60187911987305,
                    46.24775695800781,
                    14.801491737365723,
                    -55.60407257080078
                ]
            ],
            "biases": [
                42.444580078125,
                13.738089561462402,
                39.12395095825195,
                7.730630874633789
            ]
        },
        {
            "weights": [
                [
                    3.0279910564422607,
                    0.2692827582359314,
                    2.952427625656128,
                    2.6857354640960693
                ],
                [
                    -2.8409833908081055,
                    1.9318668842315674,
                    3.743335247039795,
                    30.553144454956055
                ],
                [
                    22.92009925842285,
                    2.0344462394714355,
                    -0.11159880459308624,
                    0.5230392813682556
                ]
            ],
            "biases": [
                -0.2516055703163147,
                -0.20435449481010437,
                -0.09412126243114471
            ]
        }
    ],
    "inputLookup": null,
    "inputLookupLength": 0,
    "outputLookup": null,
    "outputLookupLength": 0,
    "options": {
        "inputSize": 0,
        "outputSize": 0,
        "binaryThresh": 0.5,
        "hiddenLayers": [
            8,
            4
        ],
        "activation": "sigmoid"
    },
    "trainOpts": {
        "activation": "sigmoid",
        "iterations": 20000,
        "errorThresh": 0.005,
        "log": false,
        "logPeriod": 10,
        "leakyReluAlpha": 0.01,
        "learningRate": 0.3,
        "momentum": 0.1,
        "callbackPeriod": 10,
        "timeout": "Infinity",
        "beta1": 0.9,
        "beta2": 0.999,
        "epsilon": 1e-8
    }
}