{
    "type": "NeuralNetwork",
    "sizes": [
        5,
        8,
        4,
        1
    ],
    "layers": [
        {
            "weights": [],
            "biases": []
        },
        {
            "weights": [
                [
                    -3.586885929107666,
                    -3.6095123291015625,
                    1.7871475219726562,
                    -3.3962769508361816,
                    2.751434326171875
                ],
                [
                    5.324457168579102,
                    4.575233459472656,
                    9.210944175720215,
                    7.108761787414551,
                    3.7222728729248047
                ],
                [
                    7.923673629760742,
                    3.927072048187256,
                    4.388658046722412,
                    -5.363772392272949,
                    3.7110304832458496
                ],
                [
                    -3.18615984916687,
                    5.833262920379639,
                    5.096519947052002,
                    4.441265106201172,
                    -1.5299599170684814
                ],
                [
                    -9.615394592285156,
                    4.056675910949707,
                    2.521663188934326,
                    -7.048541069030762,
                    10.372663497924805
                ],
                [
                    -8.58357048034668,
                    -10.923504829406738,
                    3.1624841690063477,
                    -0.6964600086212158,
                    3.931950807571411
                ],
                [
                    4.502595901489258,
                    -13.7467679977417,
                    5.12981653213501,
                    8.352092742919922,
                    2.729584217071533
                ],
                [
                    -3.426500082015991,
                    -4.532293796539307,
                    2.8755781650543213,
                    -3.965597152709961,
                    3.7091102600097656
                ]
            ],
            "biases": [
                -6.168558120727539,
                -20.449016571044922,
                -9.53027057647705,
                -13.300172805786133,
                6.760414123535156,
                -1.8252538442611694,
                3.1395039558410645,
                -6.932124137878418
            ]
        },
        {
            "weights": [
                [
                    0.8218725919723511,
                    -2.1945643424987793,
                    -0.596200168132782,
                    -4.124377250671387,
                    -1.5736827850341797,
                    1.4117038249969482,
                    -1.6525757312774658,
                    0.5945076942443848
                ],
                [
                    0.7869715690612793,
                    -2.3759899139404297,
                    -0.6079895496368408,
                    -3.850184440612793,
                    -1.5501195192337036,
                    1.3735729455947876,
                    -1.6275287866592407,
                    0.6271283030509949
                ],
                [
                    0.6675266027450562,
                    -2.1599936485290527,
                    -0.5941075682640076,
                    -4.183520793914795,
                    -1.5779857635498047,
                    1.4204058647155762,
                    -1.657697081565857,
                    0.6460389494895935
                ],
                [
                    0.6704976558685303,
                    -2.174193859100342,
                    -0.5949767231941223,
                    -4.151336669921875,
                    -1.5760194063186646,
                    1.4172160625457764,
                    -1.6553007364273071,
                    0.6471084952354431
                ]
            ],
            "biases": [
                -1.2853156328201294,
                -1.3240972757339478,
                -1.2777124643325806,
                -1.281174659729004
            ]
        },
        {
            "weights": [
                [
                    3.2219114303588867,
                    3.249488592147827,
                    3.217487335205078,
                    3.219385862350464
                ]
            ],
            "biases": [
                -0.5551161170005798
            ]
        }
    ],
    "inputLookup": null,
    "inputLookupLength": 0,
    "outputLookup": null,
    "outputLookupLength": 0,
    "options": {
        "inputSize": 0,
        "outputSize": 0,
        "binaryThresh": 0.5,
        "hiddenLayers": [
            8,
            4
        ],
        "activation": "sigmoid"
    },
    "trainOpts": {
        "activation": "sigmoid",
        "iterations": 20000,
        "errorThresh": 0.005,
        "log": false,
        "logPeriod": 10,
        "leakyReluAlpha": 0.01,
        "learningRate": 0.3,
        "momentum": 0.1,
        "callbackPeriod": 10,
        "timeout": "Infinity",
        "beta1": 0.9,
        "beta2": 0.999,
        "epsilon": 1e-8
    }
}