{
    "type": "NeuralNetwork",
    "sizes": [
        10,
        8,
        4,
        1
    ],
    "layers": [
        {
            "weights": [],
            "biases": []
        },
        {
            "weights": [
                [
                    -15.164399147033691,
                    -41.230140686035156,
                    -11.565760612487793,
                    7.503642559051514,
                    0.5764920115470886,
                    23.755205154418945,
                    -7.723276138305664,
                    35.71858215332031,
                    -8.240278244018555,
                    33.271907806396484
                ],
                [
                    18.51721954345703,
                    -22.607709884643555,
                    18.39352035522461,
                    -2.869042158126831,
                    -15.286303520202637,
                    -23.793542861938477,
                    -4.54306697845459,
                    -1.8993513584136963,
                    6.7089433670043945,
                    -13.79512882232666
                ],
                [
                    3.458726644515991,
                    11.271530151367188,
                    21.609909057617188,
                    18.142017364501953,
                    -3.505966901779175,
                    -33.6422004699707,
                    5.176049709320068,
                    8.328839302062988,
                    -25.976652145385742,
                    -15.971081733703613
                ],
                [
                    -13.103752136230469,
                    -21.192956924438477,
                    -7.321441650390625,
                    39.08134078979492,
                    -8.673800468444824,
                    -9.512530326843262,
                    35.1572151184082,
                    -16.049110412597656,
                    19.189599990844727,
                    11.097785949707031
                ],
                [
                    -6.783255100250244,
                    -14.359111785888672,
                    0.17691408097743988,
                    15.807724952697754,
                    -5.720311164855957,
                    -5.919067859649658,
                    19.640783309936523,
                    4.553314685821533,
                    -16.859066009521484,
                    -3.050422430038452
                ],
                [
                    -11.229716300964355,
                    12.361812591552734,
                    3.564753770828247,
                    8.39026927947998,
                    8.298669815063477,
                    12.55765438079834,
                    -4.91595983505249,
                    -5.179662704467773,
                    -8.38302230834961,
                    6.328854560852051
                ],
                [
                    38.49259567260742,
                    10.417498588562012,
                    -1.377074956893921,
                    -5.192123889923096,
                    -38.22233200073242,
                    -13.994967460632324,
                    27.125064849853516,
                    7.133040904998779,
                    22.21710205078125,
                    -8.039778709411621
                ],
                [
                    8.707368850708008,
                    -6.673433303833008,
                    -5.016272068023682,
                    -17.2326602935791,
                    21.463918685913086,
                    10.282148361206055,
                    24.284923553466797,
                    21.50718116760254,
                    -6.1511945724487305,
                    -7.304592132568359
                ]
            ],
            "biases": [
                -17.116397857666016,
                -6.244114398956299,
                5.379516124725342,
                -9.266447067260742,
                -10.87133502960205,
                -5.483644008636475,
                -1.356694221496582,
                6.49753475189209
            ]
        },
        {
            "weights": [
                [
                    -14.073371887207031,
                    24.886552810668945,
                    -11.897071838378906,
                    -45.581424713134766,
                    45.935367584228516,
                    12.64138126373291,
                    -11.505163192749023,
                    -40.13888931274414
                ],
                [
                    -12.173721313476562,
                    -43.66753005981445,
                    -6.293286323547363,
                    -0.5615875720977783,
                    -2.28770112991333,
                    -54.809391021728516,
                    -1.8325159549713135,
                    16.287010192871094
                ],
                [
                    -22.882944107055664,
                    -7.981451988220215,
                    -49.65484619140625,
                    35.801063537597656,
                    30.505701065063477,
                    -22.6981143951416,
                    -23.680313110351562,
                    -23.93301773071289
                ],
                [
                    12.94544792175293,
                    10.587884902954102,
                    0.5314620733261108,
                    -26.841306686401367,
                    27.75994873046875,
                    -16.908838272094727,
                    -30.415573120117188,
                    1.009607195854187
                ]
            ],
            "biases": [
                40.267822265625,
                -1.9377398490905762,
                11.750410079956055,
                1.6948615312576294
            ]
        },
        {
            "weights": [
                [
                    1.0070853233337402,
                    0.8447899222373962,
                    2.634262800216675,
                    1.190185308456421
                ]
            ],
            "biases": [
                -0.5478374361991882
            ]
        }
    ],
    "inputLookup": null,
    "inputLookupLength": 0,
    "outputLookup": null,
    "outputLookupLength": 0,
    "options": {
        "inputSize": 0,
        "outputSize": 0,
        "binaryThresh": 0.5,
        "hiddenLayers": [
            8,
            4
        ],
        "activation": "sigmoid"
    },
    "trainOpts": {
        "activation": "sigmoid",
        "iterations": 20000,
        "errorThresh": 0.005,
        "log": false,
        "logPeriod": 10,
        "leakyReluAlpha": 0.01,
        "learningRate": 0.3,
        "momentum": 0.1,
        "callbackPeriod": 10,
        "timeout": "Infinity",
        "beta1": 0.9,
        "beta2": 0.999,
        "epsilon": 1e-8
    }
}