{
    "type": "NeuralNetwork",
    "sizes": [
        15,
        8,
        4,
        1
    ],
    "layers": [
        {
            "weights": [],
            "biases": []
        },
        {
            "weights": [
                [
                    -0.8666614294052124,
                    19.412879943847656,
                    0.10805810987949371,
                    -31.951093673706055,
                    25.108121871948242,
                    18.249237060546875,
                    -12.96346378326416,
                    -1.1099464893341064,
                    20.646215438842773,
                    -8.210490226745605,
                    5.411482810974121,
                    -34.558067321777344,
                    -6.510993957519531,
                    -11.950390815734863,
                    25.443050384521484
                ],
                [
                    -21.554792404174805,
                    5.325285911560059,
                    3.6415603160858154,
                    -25.542585372924805,
                    24.365633010864258,
                    -14.347661972045898,
                    0.35467979311943054,
                    21.955230712890625,
                    -13.936165809631348,
                    -7.35493278503418,
                    -21.164958953857422,
                    27.241626739501953,
                    13.341896057128906,
                    -8.577686309814453,
                    20.281429290771484
                ],
                [
                    -29.590518951416016,
                    -5.993827819824219,
                    22.129369735717773,
                    1.2915972471237183,
                    -6.97803258895874,
                    -25.50889778137207,
                    -0.6918790936470032,
                    36.60161590576172,
                    -15.91954231262207,
                    2.6815128326416016,
                    -6.6064629554748535,
                    25.6192569732666,
                    -18.062837600708008,
                    -37.04697036743164,
                    -6.675146579742432
                ],
                [
                    -1.599112629890442,
                    -6.758666038513184,
                    8.884771347045898,
                    -23.599929809570312,
                    -2.779768943786621,
                    -17.5850830078125,
                    -15.56837272644043,
                    40.03712844848633,
                    12.744111061096191,
                    14.400909423828125,
                    -37.85016632080078,
                    39.526878356933594,
                    -20.1650390625,
                    20.74237823486328,
                    10.79262924194336
                ],
                [
                    16.26020050048828,
                    -16.85846519470215,
                    31.871036529541016,
                    41.041046142578125,
                    -11.197585105895996,
                    -3.312168598175049,
                    10.120779991149902,
                    -12.583443641662598,
                    -4.119552135467529,
                    -6.0928215980529785,
                    -12.848990440368652,
                    30.613208770751953,
                    -7.31134033203125,
                    38.71302032470703,
                    -28.87723731994629
                ],
                [
                    10.4457426071167,
                    -15.28564453125,
                    -1.4747155904769897,
                    -1.9429978132247925,
                    -19.062082290649414,
                    -4.966511249542236,
                    15.738142967224121,
                    10.298219680786133,
                    15.522377014160156,
                    6.96454381942749,
                    -3.5122523307800293,
                    -1.0560874938964844,
                    26.02191925048828,
                    33.298095703125,
                    8.753700256347656
                ],
                [
                    -3.3341643810272217,
                    -35.83478927612305,
                    -6.064702033996582,
                    -0.5303996801376343,
                    -12.606264114379883,
                    -17.50748062133789,
                    7.106204986572266,
                    3.7719955444335938,
                    12.000385284423828,
                    -42.8144416809082,
                    25.080402374267578,
                    -22.666889190673828,
                    0.29468104243278503,
                    10.847965240478516,
                    -7.446836948394775
                ],
                [
                    46.836612701416016,
                    -20.16653060913086,
                    -34.967254638671875,
                    3.654759168624878,
                    -12.368413925170898,
                    -29.19176483154297,
                    -6.790650844573975,
                    38.56440734863281,
                    8.731660842895508,
                    -24.288631439208984,
                    33.62263870239258,
                    22.629558563232422,
                    24.899568557739258,
                    -30.30124855041504,
                    7.345645904541016
                ]
            ],
            "biases": [
                -28.97110366821289,
                -9.733861923217773,
                20.09824562072754,
                -22.87148666381836,
                12.699135780334473,
                -14.954500198364258,
                2.4519972801208496,
                -10.31641674041748
            ]
        },
        {
            "weights": [
                [
                    -6.225661754608154,
                    31.354692459106445,
                    -53.682960510253906,
                    30.74275779724121,
                    -17.186872482299805,
                    -18.706857681274414,
                    -28.68372917175293,
                    13.953757286071777
                ],
                [
                    -32.4822998046875,
                    -34.75453567504883,
                    -32.433692932128906,
                    35.080623626708984,
                    -25.84576416015625,
                    -35.69733810424805,
                    35.15201950073242,
                    -52.10261535644531
                ],
                [
                    -52.57334899902344,
                    34.99303436279297,
                    -22.835935592651367,
                    -23.623586654663086,
                    -54.002708435058594,
                    4.521058559417725,
                    11.327972412109375,
                    -6.1543354988098145
                ],
                [
                    -40.53371810913086,
                    8.30097770690918,
                    -15.872652053833008,
                    7.622643947601318,
                    -17.97760581970215,
                    -58.79239273071289,
                    -15.838776588439941,
                    11.054738998413086
                ]
            ],
            "biases": [
                -25.911386489868164,
                54.33011245727539,
                12.256518363952637,
                10.227493286132812
            ]
        },
        {
            "weights": [
                [
                    1.4652777910232544,
                    26.92165756225586,
                    18.116514205932617,
                    2.4606447219848633
                ]
            ],
            "biases": [
                -0.2856610417366028
            ]
        }
    ],
    "inputLookup": null,
    "inputLookupLength": 0,
    "outputLookup": null,
    "outputLookupLength": 0,
    "options": {
        "inputSize": 0,
        "outputSize": 0,
        "binaryThresh": 0.5,
        "hiddenLayers": [
            8,
            4
        ],
        "activation": "sigmoid"
    },
    "trainOpts": {
        "activation": "sigmoid",
        "iterations": 20000,
        "errorThresh": 0.005,
        "log": false,
        "logPeriod": 10,
        "leakyReluAlpha": 0.01,
        "learningRate": 0.3,
        "momentum": 0.1,
        "callbackPeriod": 10,
        "timeout": "Infinity",
        "beta1": 0.9,
        "beta2": 0.999,
        "epsilon": 1e-8
    }
}