{
    "type": "NeuralNetwork",
    "sizes": [
        15,
        8,
        4,
        3
    ],
    "layers": [
        {
            "weights": [],
            "biases": []
        },
        {
            "weights": [
                [
                    -17.256681442260742,
                    -23.234485626220703,
                    -0.8965880274772644,
                    41.0836181640625,
                    17.10309410095215,
                    -36.54783248901367,
                    -8.124374389648438,
                    19.359790802001953,
                    2.203094959259033,
                    -28.309642791748047,
                    -17.442718505859375,
                    18.790544509887695,
                    -1.8629149198532104,
                    -16.694995880126953,
                    5.842248439788818
                ],
                [
                    -35.85719299316406,
                    -3.0762462615966797,
                    -18.111846923828125,
                    -32.080867767333984,
                    -33.599918365478516,
                    3.4949378967285156,
                    -0.3392319679260254,
                    -11.152493476867676,
                    9.985922813415527,
                    20.488664627075195,
                    -36.709388732910156,
                    9.045089721679688,
                    21.626066207885742,
                    -7.025782585144043,
                    -14.019259452819824
                ],
                [
                    -12.71083927154541,
                    16.502426147460938,
                    -11.967789649963379,
                    -24.532623291015625,
                    35.24359130859375,
                    -18.929407119750977,
                    56.73269271850586,
                    -29.532482147216797,
                    -47.28148651123047,
                    11.70020866394043,
                    13.784132957458496,
                    -14.197589874267578,
                    19.594730377197266,
                    -0.23349085450172424,
                    -34.73314666748047
                ],
                [
                    -28.97384262084961,
                    10.164386749267578,
                    -34.07957077026367,
                    31.95779037475586,
                    17.062904357910156,
                    16.268386840820312,
                    27.916683197021484,
                    5.139718532562256,
                    30.35568618774414,
                    27.077959060668945,
                    -1.258982539176941,
                    -15.334026336669922,
                    50.52329635620117,
                    26.401382446289062,
                    27.26053810119629
                ],
                [
                    11.469858169555664,
                    -17.31313133239746,
                    -8.675540924072266,
                    -27.444997787475586,
                    -13.992764472961426,
                    -12.368474960327148,
                    5.015024662017822,
                    -25.41272735595703,
                    -5.060013294219971,
                    -9.900654792785645,
                    23.355379104614258,
                    14.413270950317383,
                    14.660630226135254,
                    26.39533042907715,
                    -14.912002563476562
                ],
                [
                    -20.13926887512207,
                    -6.479934215545654,
                    -11.429655075073242,
                    36.93128967285156,
                    8.81742000579834,
                    26.229969024658203,
                    64.81562805175781,
                    7.176448822021484,
                    -5.768509864807129,
                    -4.146380424499512,
                    -27.906658172607422,
                    20.820253372192383,
                    35.65580368041992,
                    -15.499049186706543,
                    -1.1132845878601074
                ],
                [
                    -5.770824909210205,
                    -14.776422500610352,
                    30.975309371948242,
                    15.401009559631348,
                    -24.026247024536133,
                    35.285499572753906,
                    28.003761291503906,
                    -35.06060028076172,
                    -12.05158805847168,
                    6.332540512084961,
                    10.42555046081543,
                    -16.581968307495117,
                    6.401676654815674,
                    -14.090157508850098,
                    -5.145872592926025
                ],
                [
                    46.011470794677734,
                    -15.568831443786621,
                    -71.06659698486328,
                    5.472525119781494,
                    18.929737091064453,
                    11.560273170471191,
                    13.932950973510742,
                    9.128989219665527,
                    1.9521995782852173,
                    -77.71110534667969,
                    23.268115997314453,
                    19.150955200195312,
                    -8.085894584655762,
                    -8.512187957763672,
                    -19.93387222290039
                ]
            ],
            "biases": [
                17.20709800720215,
                16.636592864990234,
                32.24713134765625,
                -14.202634811401367,
                16.877321243286133,
                -54.926979064941406,
                -23.123554229736328,
                11.102994918823242
            ]
        },
        {
            "weights": [
                [
                    -22.541418075561523,
                    -34.17099380493164,
                    -36.29714584350586,
                    -24.04710578918457,
                    34.097251892089844,
                    45.49271774291992,
                    -29.540287017822266,
                    -27.493043899536133
                ],
                [
                    -11.786853790283203,
                    -2.192502737045288,
                    -12.46701431274414,
                    -14.324305534362793,
                    4.908001899719238,
                    2.2336478233337402,
                    -11.040546417236328,
                    -21.173471450805664
                ],
                [
                    -33.03584671020508,
                    -37.855106353759766,
                    -8.804424285888672,
                    -32.51041793823242,
                    7.091740608215332,
                    -1.4287961721420288,
                    -34.24532699584961,
                    -33.098609924316406
                ],
                [
                    -10.536260604858398,
                    -3.451737880706787,
                    -29.30289649963379,
                    -67.71711730957031,
                    26.326570510864258,
                    -3.1723108291625977,
                    -45.85260772705078,
                    -69.3775405883789
                ]
            ],
            "biases": [
                -2.7870259284973145,
                11.520846366882324,
                29.47456932067871,
                44.90634536743164
            ]
        },
        {
            "weights": [
                [
                    -41.91444396972656,
                    -0.4137255549430847,
                    41.207584381103516,
                    1.408228874206543
                ],
                [
                    -1.7390433549880981,
                    5.000870704650879,
                    -5.390496730804443,
                    1.3872716426849365
                ],
                [
                    -1.0770015716552734,
                    -12.384023666381836,
                    -15.841208457946777,
                    27.00261688232422
                ]
            ],
            "biases": [
                0.2917023003101349,
                0.2549746036529541,
                0.3161877691745758
            ]
        }
    ],
    "inputLookup": null,
    "inputLookupLength": 0,
    "outputLookup": null,
    "outputLookupLength": 0,
    "options": {
        "inputSize": 0,
        "outputSize": 0,
        "binaryThresh": 0.5,
        "hiddenLayers": [
            8,
            4
        ],
        "activation": "sigmoid"
    },
    "trainOpts": {
        "activation": "sigmoid",
        "iterations": 20000,
        "errorThresh": 0.005,
        "log": false,
        "logPeriod": 10,
        "leakyReluAlpha": 0.01,
        "learningRate": 0.3,
        "momentum": 0.1,
        "callbackPeriod": 10,
        "timeout": "Infinity",
        "beta1": 0.9,
        "beta2": 0.999,
        "epsilon": 1e-8
    }
}