{
    "type": "NeuralNetwork",
    "sizes": [
        5,
        8,
        4,
        3
    ],
    "layers": [
        {
            "weights": [],
            "biases": []
        },
        {
            "weights": [
                [
                    4.062657356262207,
                    -3.917128324508667,
                    -5.261311054229736,
                    -7.726962089538574,
                    3.80061674118042
                ],
                [
                    -12.456535339355469,
                    5.740284442901611,
                    8.672834396362305,
                    8.261741638183594,
                    -2.3069674968719482
                ],
                [
                    7.952446460723877,
                    8.932765007019043,
                    3.8162965774536133,
                    10.166203498840332,
                    -1.444541573524475
                ],
                [
                    5.784335613250732,
                    -0.9522492289543152,
                    7.043954849243164,
                    8.483452796936035,
                    7.906676292419434
                ],
                [
                    -7.053008556365967,
                    1.8354766368865967,
                    -0.30816906690597534,
                    -7.158370018005371,
                    -4.883504390716553
                ],
                [
                    3.528148651123047,
                    8.389945030212402,
                    -5.2841572761535645,
                    4.59436559677124,
                    11.608479499816895
                ],
                [
                    -13.011463165283203,
                    15.877379417419434,
                    -7.331619739532471,
                    6.521995544433594,
                    6.257363796234131
                ],
                [
                    6.992239475250244,
                    10.084648132324219,
                    -1.5492095947265625,
                    1.4150190353393555,
                    7.104389190673828
                ]
            ],
            "biases": [
                -4.77266788482666,
                -8.595065116882324,
                -12.895232200622559,
                -17.65776824951172,
                -1.0207083225250244,
                -4.709253787994385,
                2.198371648788452,
                -13.902615547180176
            ]
        },
        {
            "weights": [
                [
                    -1.7188162803649902,
                    0.010279912501573563,
                    -0.3148289620876312,
                    -13.039966583251953,
                    -1.5169706344604492,
                    0.4289267063140869,
                    -0.5936837196350098,
                    -12.184859275817871
                ],
                [
                    2.857895851135254,
                    -9.7617769241333,
                    -5.214778900146484,
                    2.6167759895324707,
                    2.0488364696502686,
                    0.12567800283432007,
                    5.321194648742676,
                    3.342374086380005
                ],
                [
                    -1.936169981956482,
                    1.3396928310394287,
                    -1.2837202548980713,
                    -1.008260726928711,
                    0.05946638807654381,
                    -15.789313316345215,
                    -0.20286418497562408,
                    -3.545788526535034
                ],
                [
                    -3.4285268783569336,
                    -4.524530410766602,
                    4.372715473175049,
                    -1.650829553604126,
                    -8.571134567260742,
                    -1.5642071962356567,
                    4.114348411560059,
                    -4.636202812194824
                ]
            ],
            "biases": [
                -1.7803268432617188,
                -8.140617370605469,
                -2.6863420009613037,
                -4.438007354736328
            ]
        },
        {
            "weights": [
                [
                    1.273388385772705,
                    1.7864900827407837,
                    2.5355536937713623,
                    1.987080454826355
                ],
                [
                    2.804826021194458,
                    0.26266828179359436,
                    2.9230237007141113,
                    -1.2421382665634155
                ],
                [
                    3.180021047592163,
                    0.32365724444389343,
                    -2.4498705863952637,
                    1.8915404081344604
                ]
            ],
            "biases": [
                0.08814312517642975,
                0.18369363248348236,
                0.049579448997974396
            ]
        }
    ],
    "inputLookup": null,
    "inputLookupLength": 0,
    "outputLookup": null,
    "outputLookupLength": 0,
    "options": {
        "inputSize": 0,
        "outputSize": 0,
        "binaryThresh": 0.5,
        "hiddenLayers": [
            8,
            4
        ],
        "activation": "sigmoid"
    },
    "trainOpts": {
        "activation": "sigmoid",
        "iterations": 20000,
        "errorThresh": 0.005,
        "log": false,
        "logPeriod": 10,
        "leakyReluAlpha": 0.01,
        "learningRate": 0.3,
        "momentum": 0.1,
        "callbackPeriod": 10,
        "timeout": "Infinity",
        "beta1": 0.9,
        "beta2": 0.999,
        "epsilon": 1e-8
    }
}