{
    "type": "NeuralNetwork",
    "sizes": [
        5,
        8,
        4,
        1
    ],
    "layers": [
        {
            "weights": [],
            "biases": []
        },
        {
            "weights": [
                [
                    2.228581428527832,
                    -2.596757173538208,
                    0.6189059019088745,
                    4.752208232879639,
                    6.922938823699951
                ],
                [
                    -4.195168972015381,
                    -4.314301490783691,
                    3.8228776454925537,
                    -4.811824321746826,
                    -4.489417552947998
                ],
                [
                    -6.245676517486572,
                    0.5794826149940491,
                    -0.5678205490112305,
                    1.1555571556091309,
                    -1.481034517288208
                ],
                [
                    -6.554533958435059,
                    3.6890366077423096,
                    -4.36752462387085,
                    -4.69581937789917,
                    2.445509195327759
                ],
                [
                    14.682037353515625,
                    8.216368675231934,
                    9.507974624633789,
                    -3.2157251834869385,
                    5.344996929168701
                ],
                [
                    -5.406216621398926,
                    -3.5469233989715576,
                    0.48783355951309204,
                    -2.117976188659668,
                    -0.392628937959671
                ],
                [
                    -8.66496467590332,
                    5.8218560218811035,
                    14.798083305358887,
                    -6.444240093231201,
                    -13.80176830291748
                ],
                [
                    -2.614253044128418,
                    -4.23093843460083,
                    -4.022547245025635,
                    -5.571253299713135,
                    4.169253826141357
                ]
            ],
            "biases": [
                -12.409553527832031,
                -4.131711006164551,
                -2.283133029937744,
                -5.65416955947876,
                -23.967771530151367,
                -1.1145392656326294,
                16.211116790771484,
                -4.984488010406494
            ]
        },
        {
            "weights": [
                [
                    -5.091676235198975,
                    0.7976787090301514,
                    -2.971721887588501,
                    -3.437533378601074,
                    -1.1236507892608643,
                    -2.489320993423462,
                    3.6484756469726562,
                    1.1585856676101685
                ],
                [
                    -5.06107234954834,
                    0.7928096652030945,
                    -2.9730377197265625,
                    -3.4417059421539307,
                    -1.1124522686004639,
                    -2.4866039752960205,
                    3.7637507915496826,
                    1.1822028160095215
                ],
                [
                    -1.3324288129806519,
                    -3.3937442302703857,
                    2.3743042945861816,
                    2.2566280364990234,
                    -3.1954128742218018,
                    4.407805919647217,
                    -3.11407208442688,
                    -3.9756343364715576
                ],
                [
                    -5.077274322509766,
                    0.8332244753837585,
                    -2.9732303619384766,
                    -3.4314897060394287,
                    -1.1131600141525269,
                    -2.479417562484741,
                    3.758894443511963,
                    1.2411812543869019
                ]
            ],
            "biases": [
                -6.237733364105225,
                -6.355591773986816,
                0.5783267021179199,
                -6.354340553283691
            ]
        },
        {
            "weights": [
                [
                    3.251354217529297,
                    3.255002021789551,
                    1.6054896116256714,
                    3.255709171295166
                ]
            ],
            "biases": [
                -0.48861563205718994
            ]
        }
    ],
    "inputLookup": null,
    "inputLookupLength": 0,
    "outputLookup": null,
    "outputLookupLength": 0,
    "options": {
        "inputSize": 0,
        "outputSize": 0,
        "binaryThresh": 0.5,
        "hiddenLayers": [
            8,
            4
        ],
        "activation": "sigmoid"
    },
    "trainOpts": {
        "activation": "sigmoid",
        "iterations": 20000,
        "errorThresh": 0.005,
        "log": false,
        "logPeriod": 10,
        "leakyReluAlpha": 0.01,
        "learningRate": 0.3,
        "momentum": 0.1,
        "callbackPeriod": 10,
        "timeout": "Infinity",
        "beta1": 0.9,
        "beta2": 0.999,
        "epsilon": 1e-8
    }
}