{
    "type": "NeuralNetwork",
    "sizes": [
        10,
        8,
        4,
        1
    ],
    "layers": [
        {
            "weights": [],
            "biases": []
        },
        {
            "weights": [
                [
                    36.23554992675781,
                    -8.93364429473877,
                    -13.397429466247559,
                    -16.37133026123047,
                    -7.370256423950195,
                    -10.78001880645752,
                    7.134269714355469,
                    -2.109952688217163,
                    -8.025630950927734,
                    -27.493942260742188
                ],
                [
                    -10.097146034240723,
                    -3.9367575645446777,
                    -15.04892349243164,
                    3.177888870239258,
                    1.3467037677764893,
                    -1.3560539484024048,
                    -10.706624984741211,
                    -6.627051830291748,
                    -7.731475830078125,
                    -10.074360847473145
                ],
                [
                    -11.201170921325684,
                    16.93874168395996,
                    -27.740633010864258,
                    -10.773569107055664,
                    23.584278106689453,
                    -9.322166442871094,
                    -14.6412353515625,
                    -10.010409355163574,
                    7.8376545906066895,
                    -19.46697425842285
                ],
                [
                    17.43012809753418,
                    -37.32143020629883,
                    -28.14740753173828,
                    4.773804187774658,
                    -23.471967697143555,
                    6.671169757843018,
                    -1.8973886966705322,
                    -7.159821033477783,
                    -15.690699577331543,
                    8.634400367736816
                ],
                [
                    26.10749053955078,
                    1.7554848194122314,
                    -4.560835838317871,
                    13.570011138916016,
                    3.502835988998413,
                    -13.439518928527832,
                    -8.470932006835938,
                    -13.712272644042969,
                    19.89417839050293,
                    -10.310648918151855
                ],
                [
                    17.399822235107422,
                    0.1940346509218216,
                    2.4689252376556396,
                    -17.3193416595459,
                    14.827300071716309,
                    7.767338752746582,
                    -8.725975036621094,
                    -10.313506126403809,
                    -33.80664825439453,
                    -6.632352352142334
                ],
                [
                    -20.0192928314209,
                    14.586688041687012,
                    -21.908052444458008,
                    -18.209579467773438,
                    17.34549903869629,
                    -12.11401081085205,
                    4.083267688751221,
                    3.3300085067749023,
                    15.711737632751465,
                    1.9866517782211304
                ],
                [
                    -44.238128662109375,
                    -10.403676986694336,
                    37.77414321899414,
                    -9.429208755493164,
                    4.914010047912598,
                    31.730628967285156,
                    -1.0345396995544434,
                    26.512353897094727,
                    -20.531402587890625,
                    22.626590728759766
                ]
            ],
            "biases": [
                -7.174056529998779,
                9.685904502868652,
                0.15185214579105377,
                -1.2625566720962524,
                -23.61762237548828,
                -1.5758471488952637,
                -19.52616310119629,
                -16.539716720581055
            ]
        },
        {
            "weights": [
                [
                    -8.721210479736328,
                    -19.04897689819336,
                    27.176523208618164,
                    -3.76600980758667,
                    -9.265430450439453,
                    -5.424708366394043,
                    -12.799125671386719,
                    -5.850037574768066
                ],
                [
                    -15.72296142578125,
                    -32.814781188964844,
                    -1.795580267906189,
                    -18.25665283203125,
                    -2.0610949993133545,
                    -40.63869857788086,
                    -16.93988609313965,
                    11.694543838500977
                ],
                [
                    -24.533411026000977,
                    -27.586389541625977,
                    -4.645791053771973,
                    -29.576732635498047,
                    -26.693248748779297,
                    -26.01738929748535,
                    -37.05075454711914,
                    -31.19756317138672
                ],
                [
                    -31.878324508666992,
                    -24.35301971435547,
                    -25.21753692626953,
                    17.146631240844727,
                    17.450822830200195,
                    28.237335205078125,
                    -16.41513442993164,
                    -4.825649261474609
                ]
            ],
            "biases": [
                -15.648789405822754,
                -11.390860557556152,
                23.542898178100586,
                -16.509981155395508
            ]
        },
        {
            "weights": [
                [
                    -2.51092267036438,
                    -1.2947485446929932,
                    -2.2701897621154785,
                    -0.4857275187969208
                ]
            ],
            "biases": [
                0.8416430950164795
            ]
        }
    ],
    "inputLookup": null,
    "inputLookupLength": 0,
    "outputLookup": null,
    "outputLookupLength": 0,
    "options": {
        "inputSize": 0,
        "outputSize": 0,
        "binaryThresh": 0.5,
        "hiddenLayers": [
            8,
            4
        ],
        "activation": "sigmoid"
    },
    "trainOpts": {
        "activation": "sigmoid",
        "iterations": 20000,
        "errorThresh": 0.005,
        "log": false,
        "logPeriod": 10,
        "leakyReluAlpha": 0.01,
        "learningRate": 0.3,
        "momentum": 0.1,
        "callbackPeriod": 10,
        "timeout": "Infinity",
        "beta1": 0.9,
        "beta2": 0.999,
        "epsilon": 1e-8
    }
}