{
    "type": "NeuralNetwork",
    "sizes": [
        15,
        8,
        4,
        3
    ],
    "layers": [
        {
            "weights": [],
            "biases": []
        },
        {
            "weights": [
                [
                    17.83966064453125,
                    16.11941146850586,
                    2.5925559997558594,
                    17.81656265258789,
                    -7.067384243011475,
                    -16.093435287475586,
                    -9.923064231872559,
                    -5.929989337921143,
                    3.473456859588623,
                    1.79844331741333,
                    -5.138854503631592,
                    2.295109510421753,
                    1.650994896888733,
                    6.37498664855957,
                    1.5080454349517822
                ],
                [
                    11.77981185913086,
                    -31.84286117553711,
                    -9.950095176696777,
                    13.79726791381836,
                    10.199090003967285,
                    10.016695976257324,
                    9.99885368347168,
                    14.704286575317383,
                    7.819745063781738,
                    -22.343637466430664,
                    13.081819534301758,
                    -23.83535385131836,
                    -18.773521423339844,
                    25.521533966064453,
                    27.624494552612305
                ],
                [
                    7.083744525909424,
                    16.467086791992188,
                    -8.841992378234863,
                    -2.285281181335449,
                    -6.809783458709717,
                    -9.120028495788574,
                    -27.55645179748535,
                    -1.0926170349121094,
                    -8.374074935913086,
                    10.618766784667969,
                    -10.601191520690918,
                    15.196165084838867,
                    -6.773103713989258,
                    9.38084602355957,
                    0.2398206740617752
                ],
                [
                    8.374276161193848,
                    28.590394973754883,
                    -15.885109901428223,
                    -5.057098865509033,
                    6.428580284118652,
                    35.05194091796875,
                    -36.174163818359375,
                    7.848598003387451,
                    25.357494354248047,
                    -20.301088333129883,
                    16.302715301513672,
                    35.38022994995117,
                    11.154609680175781,
                    -39.33174514770508,
                    40.593505859375
                ],
                [
                    -7.312058448791504,
                    1.579171895980835,
                    -2.8738210201263428,
                    20.57338523864746,
                    -12.08445930480957,
                    1.3484162092208862,
                    -9.279387474060059,
                    -7.546939849853516,
                    -2.88592529296875,
                    -8.020987510681152,
                    4.442877292633057,
                    -5.108950614929199,
                    -0.20013663172721863,
                    -0.09506606310606003,
                    9.701505661010742
                ],
                [
                    -6.6841206550598145,
                    9.670387268066406,
                    4.689864635467529,
                    -8.149994850158691,
                    -3.216832160949707,
                    -10.264229774475098,
                    17.618030548095703,
                    28.710182189941406,
                    -41.298030853271484,
                    25.796802520751953,
                    -1.3387173414230347,
                    -0.580769956111908,
                    3.5526890754699707,
                    6.548122882843018,
                    -0.5814653038978577
                ],
                [
                    -22.766813278198242,
                    15.448385238647461,
                    -24.431032180786133,
                    15.723175048828125,
                    -9.061103820800781,
                    -1.2901808023452759,
                    -9.880903244018555,
                    12.592687606811523,
                    -18.215003967285156,
                    -4.704432487487793,
                    -17.63823890686035,
                    9.068899154663086,
                    -5.26294469833374,
                    18.0061092376709,
                    4.61683988571167
                ],
                [
                    -35.685951232910156,
                    19.1678466796875,
                    -5.585090637207031,
                    40.04908752441406,
                    -12.031423568725586,
                    44.98050308227539,
                    -11.388647079467773,
                    -48.02111053466797,
                    9.58687686920166,
                    -15.307796478271484,
                    4.977674961090088,
                    39.56655502319336,
                    -21.540102005004883,
                    20.949539184570312,
                    -23.093408584594727
                ]
            ],
            "biases": [
                -11.828758239746094,
                -5.084193706512451,
                0.1349940001964569,
                19.767974853515625,
                -12.85294246673584,
                12.293906211853027,
                -7.468441963195801,
                1.4104969501495361
            ]
        },
        {
            "weights": [
                [
                    -20.432777404785156,
                    -4.1736249923706055,
                    18.37604522705078,
                    -30.60629653930664,
                    23.007001876831055,
                    -19.403581619262695,
                    19.43746566772461,
                    -2.569723606109619
                ],
                [
                    -73.80675506591797,
                    -31.38377571105957,
                    -53.820987701416016,
                    -15.469032287597656,
                    28.897953033447266,
                    -3.7865872383117676,
                    8.966854095458984,
                    0.39556053280830383
                ],
                [
                    -22.379228591918945,
                    -3.126091480255127,
                    27.784151077270508,
                    -6.170652389526367,
                    -24.1063232421875,
                    -30.615402221679688,
                    -2.268219470977783,
                    -37.21522521972656
                ],
                [
                    -10.184486389160156,
                    37.799049377441406,
                    -3.017435312271118,
                    -16.4436092376709,
                    3.5241169929504395,
                    -14.044638633728027,
                    -42.5837516784668,
                    -23.591569900512695
                ]
            ],
            "biases": [
                10.592158317565918,
                17.531314849853516,
                10.606371879577637,
                -16.96491241455078
            ]
        },
        {
            "weights": [
                [
                    2.560180902481079,
                    1.3707737922668457,
                    56.20463180541992,
                    59.12380599975586
                ],
                [
                    84.63556671142578,
                    2.081949234008789,
                    1.8949016332626343,
                    -0.38434943556785583
                ],
                [
                    -0.0007457311730831861,
                    3.001932382583618,
                    1.8745073080062866,
                    0.9959666132926941
                ]
            ],
            "biases": [
                -0.021172983571887016,
                -0.055340420454740524,
                -0.11332909762859344
            ]
        }
    ],
    "inputLookup": null,
    "inputLookupLength": 0,
    "outputLookup": null,
    "outputLookupLength": 0,
    "options": {
        "inputSize": 0,
        "outputSize": 0,
        "binaryThresh": 0.5,
        "hiddenLayers": [
            8,
            4
        ],
        "activation": "sigmoid"
    },
    "trainOpts": {
        "activation": "sigmoid",
        "iterations": 20000,
        "errorThresh": 0.005,
        "log": false,
        "logPeriod": 10,
        "leakyReluAlpha": 0.01,
        "learningRate": 0.3,
        "momentum": 0.1,
        "callbackPeriod": 10,
        "timeout": "Infinity",
        "beta1": 0.9,
        "beta2": 0.999,
        "epsilon": 1e-8
    }
}