{
    "type": "NeuralNetwork",
    "sizes": [
        15,
        8,
        4,
        1
    ],
    "layers": [
        {
            "weights": [],
            "biases": []
        },
        {
            "weights": [
                [
                    -17.06034278869629,
                    -23.04734230041504,
                    -25.32666778564453,
                    -18.839176177978516,
                    4.688107967376709,
                    -4.277531147003174,
                    13.670134544372559,
                    20.812105178833008,
                    -22.36437225341797,
                    15.14871883392334,
                    -15.462517738342285,
                    -0.994554877281189,
                    -16.18169403076172,
                    -10.857292175292969,
                    -13.66692066192627
                ],
                [
                    -22.506973266601562,
                    19.392515182495117,
                    -8.036109924316406,
                    18.0310115814209,
                    1.7878557443618774,
                    -1.4543447494506836,
                    8.215780258178711,
                    24.82637596130371,
                    11.84584903717041,
                    -14.555307388305664,
                    1.3053396940231323,
                    -7.09696102142334,
                    18.414793014526367,
                    21.390180587768555,
                    28.913631439208984
                ],
                [
                    10.860515594482422,
                    -4.876872539520264,
                    27.833606719970703,
                    -16.816020965576172,
                    -25.45709991455078,
                    10.675250053405762,
                    -12.042744636535645,
                    12.267702102661133,
                    0.8575297594070435,
                    9.13948917388916,
                    5.098904609680176,
                    11.650721549987793,
                    11.509305000305176,
                    -15.764615058898926,
                    0.7818938493728638
                ],
                [
                    -8.547778129577637,
                    3.396770477294922,
                    12.896449089050293,
                    0.02239205129444599,
                    -2.3290343284606934,
                    -9.716958999633789,
                    -21.551448822021484,
                    -8.55624771118164,
                    10.858302116394043,
                    -48.39849090576172,
                    -0.025856446474790573,
                    24.92782211303711,
                    -3.7735960483551025,
                    10.690218925476074,
                    0.5916198492050171
                ],
                [
                    0.10045897215604782,
                    8.726839065551758,
                    11.830004692077637,
                    -22.588733673095703,
                    7.4431352615356445,
                    -13.626886367797852,
                    8.756367683410645,
                    -13.186288833618164,
                    19.625755310058594,
                    6.663594722747803,
                    -15.192397117614746,
                    -31.0317325592041,
                    -9.183277130126953,
                    -19.215662002563477,
                    -22.899274826049805
                ],
                [
                    16.334327697753906,
                    2.2586538791656494,
                    41.46968460083008,
                    8.5093412399292,
                    6.754378318786621,
                    2.125983476638794,
                    -15.521178245544434,
                    -3.255753755569458,
                    -3.474323272705078,
                    7.692730903625488,
                    -8.555315017700195,
                    2.9049243927001953,
                    6.426246166229248,
                    12.688940048217773,
                    -10.947076797485352
                ],
                [
                    12.326388359069824,
                    3.3130710124969482,
                    -15.288691520690918,
                    -17.579185485839844,
                    29.071067810058594,
                    -4.676453113555908,
                    15.647408485412598,
                    -13.048055648803711,
                    11.8266019821167,
                    -2.3332133293151855,
                    -1.800054669380188,
                    15.737606048583984,
                    3.997582197189331,
                    -16.791963577270508,
                    1.6886600255966187
                ],
                [
                    22.14521026611328,
                    -17.77157211303711,
                    3.6615288257598877,
                    16.527612686157227,
                    17.5706844329834,
                    -11.995174407958984,
                    -0.34841322898864746,
                    2.684556722640991,
                    12.864145278930664,
                    -1.2347439527511597,
                    6.995061874389648,
                    -14.766629219055176,
                    -3.0776219367980957,
                    -5.748924255371094,
                    2.3260602951049805
                ]
            ],
            "biases": [
                12.481335639953613,
                -41.02959060668945,
                -10.766851425170898,
                0.7982989549636841,
                0.9652292132377625,
                3.6411802768707275,
                -12.723164558410645,
                -21.53036880493164
            ]
        },
        {
            "weights": [
                [
                    -56.18135452270508,
                    -41.62460708618164,
                    14.387898445129395,
                    -48.71586608886719,
                    -27.447032928466797,
                    36.09895324707031,
                    23.543237686157227,
                    -47.346309661865234
                ],
                [
                    0.27869072556495667,
                    -0.5585541725158691,
                    37.859004974365234,
                    -39.21501159667969,
                    0.7961341738700867,
                    -45.16522979736328,
                    -48.61652374267578,
                    -8.906448364257812
                ],
                [
                    -37.97551345825195,
                    -36.02073669433594,
                    -48.161067962646484,
                    -36.154258728027344,
                    -37.48453903198242,
                    -1.896643042564392,
                    32.25914764404297,
                    -46.94994354248047
                ],
                [
                    -8.062142372131348,
                    -40.91014862060547,
                    -78.05728149414062,
                    67.88863372802734,
                    45.02399444580078,
                    -49.52252960205078,
                    -47.60230255126953,
                    38.3165283203125
                ]
            ],
            "biases": [
                -30.994491577148438,
                5.942268371582031,
                6.157128810882568,
                21.408977508544922
            ]
        },
        {
            "weights": [
                [
                    1.6768176555633545,
                    3.9266107082366943,
                    2.132344961166382,
                    2.9026219844818115
                ]
            ],
            "biases": [
                -0.5571127533912659
            ]
        }
    ],
    "inputLookup": null,
    "inputLookupLength": 0,
    "outputLookup": null,
    "outputLookupLength": 0,
    "options": {
        "inputSize": 0,
        "outputSize": 0,
        "binaryThresh": 0.5,
        "hiddenLayers": [
            8,
            4
        ],
        "activation": "sigmoid"
    },
    "trainOpts": {
        "activation": "sigmoid",
        "iterations": 20000,
        "errorThresh": 0.005,
        "log": false,
        "logPeriod": 10,
        "leakyReluAlpha": 0.01,
        "learningRate": 0.3,
        "momentum": 0.1,
        "callbackPeriod": 10,
        "timeout": "Infinity",
        "beta1": 0.9,
        "beta2": 0.999,
        "epsilon": 1e-8
    }
}