{
    "type": "NeuralNetwork",
    "sizes": [
        15,
        8,
        4,
        1
    ],
    "layers": [
        {
            "weights": [],
            "biases": []
        },
        {
            "weights": [
                [
                    15.389532089233398,
                    -21.924083709716797,
                    23.975019454956055,
                    -9.6780424118042,
                    -5.93034029006958,
                    5.989957332611084,
                    3.180867910385132,
                    7.396518230438232,
                    22.3584041595459,
                    5.111512660980225,
                    15.92055892944336,
                    14.095170021057129,
                    9.564306259155273,
                    -39.08837127685547,
                    15.77111530303955
                ],
                [
                    -18.85332679748535,
                    -33.546051025390625,
                    25.01285743713379,
                    1.0386481285095215,
                    4.4142985343933105,
                    18.011667251586914,
                    32.98328399658203,
                    -3.857534408569336,
                    -29.098169326782227,
                    -30.103046417236328,
                    -4.565722465515137,
                    29.9387149810791,
                    -9.675518989562988,
                    4.253825664520264,
                    21.061229705810547
                ],
                [
                    23.05552864074707,
                    -18.14052391052246,
                    2.4234659671783447,
                    24.436662673950195,
                    -36.346858978271484,
                    -4.847721576690674,
                    -0.7464451193809509,
                    17.96054458618164,
                    9.333688735961914,
                    5.4742350578308105,
                    7.01325798034668,
                    -19.866687774658203,
                    25.372228622436523,
                    31.246843338012695,
                    12.941679954528809
                ],
                [
                    13.784401893615723,
                    21.63783073425293,
                    -17.22802734375,
                    18.431434631347656,
                    0.7310242056846619,
                    -16.619260787963867,
                    13.241461753845215,
                    8.62834358215332,
                    7.62900447845459,
                    13.152545928955078,
                    10.766132354736328,
                    -2.5874247550964355,
                    0.5981212258338928,
                    -6.585099697113037,
                    0.7698665261268616
                ],
                [
                    41.330692291259766,
                    -20.57547950744629,
                    12.324883460998535,
                    8.831807136535645,
                    -7.633155345916748,
                    -0.7360910177230835,
                    19.79629898071289,
                    29.761064529418945,
                    -28.89411735534668,
                    -1.6585487127304077,
                    16.583688735961914,
                    -18.559301376342773,
                    3.9649953842163086,
                    -6.217567443847656,
                    -16.853660583496094
                ],
                [
                    -7.565243244171143,
                    -11.771300315856934,
                    25.2640380859375,
                    9.13504409790039,
                    29.36835289001465,
                    -14.849481582641602,
                    9.780426025390625,
                    42.901023864746094,
                    -4.864192008972168,
                    -40.8133430480957,
                    -7.165808200836182,
                    -12.701009750366211,
                    -32.08559799194336,
                    -5.475835800170898,
                    -5.607636451721191
                ],
                [
                    9.97887897491455,
                    -7.587246417999268,
                    -3.2797789573669434,
                    27.961807250976562,
                    -2.8216068744659424,
                    -36.47651290893555,
                    16.9401912689209,
                    27.680644989013672,
                    20.83088493347168,
                    -3.7160940170288086,
                    3.109128475189209,
                    5.170515060424805,
                    -16.093421936035156,
                    -19.575735092163086,
                    -2.5334653854370117
                ],
                [
                    1.4783728122711182,
                    9.083511352539062,
                    29.334699630737305,
                    14.18681812286377,
                    -8.858603477478027,
                    11.673566818237305,
                    -5.292012691497803,
                    -11.976639747619629,
                    11.643857955932617,
                    40.957916259765625,
                    -7.287047386169434,
                    15.709059715270996,
                    -3.7418832778930664,
                    20.192068099975586,
                    -18.21977424621582
                ]
            ],
            "biases": [
                11.081575393676758,
                -23.371522903442383,
                3.427676200866699,
                -17.82485008239746,
                -5.617528915405273,
                -8.021637916564941,
                -3.6455209255218506,
                1.3539265394210815
            ]
        },
        {
            "weights": [
                [
                    11.702988624572754,
                    -12.921072006225586,
                    -21.631332397460938,
                    -32.865234375,
                    22.240673065185547,
                    -40.0860481262207,
                    25.089860916137695,
                    -47.95088195800781
                ],
                [
                    -56.498634338378906,
                    -23.925172805786133,
                    -42.21245193481445,
                    -18.872953414916992,
                    -14.887594223022461,
                    -39.132999420166016,
                    35.283817291259766,
                    30.98701286315918
                ],
                [
                    15.728952407836914,
                    -50.87202453613281,
                    -17.643207550048828,
                    -50.4102783203125,
                    58.088077545166016,
                    27.05049705505371,
                    -22.806001663208008,
                    -28.508563995361328
                ],
                [
                    14.931178092956543,
                    -25.24227523803711,
                    15.451858520507812,
                    16.03423500061035,
                    13.28549575805664,
                    -42.84455871582031,
                    15.532546043395996,
                    -30.9753360748291
                ]
            ],
            "biases": [
                26.098751068115234,
                24.1934757232666,
                -16.772151947021484,
                -40.12995147705078
            ]
        },
        {
            "weights": [
                [
                    21.86639404296875,
                    24.709726333618164,
                    2.4345104694366455,
                    0.7677062749862671
                ]
            ],
            "biases": [
                -0.3280327618122101
            ]
        }
    ],
    "inputLookup": null,
    "inputLookupLength": 0,
    "outputLookup": null,
    "outputLookupLength": 0,
    "options": {
        "inputSize": 0,
        "outputSize": 0,
        "binaryThresh": 0.5,
        "hiddenLayers": [
            8,
            4
        ],
        "activation": "sigmoid"
    },
    "trainOpts": {
        "activation": "sigmoid",
        "iterations": 20000,
        "errorThresh": 0.005,
        "log": false,
        "logPeriod": 10,
        "leakyReluAlpha": 0.01,
        "learningRate": 0.3,
        "momentum": 0.1,
        "callbackPeriod": 10,
        "timeout": "Infinity",
        "beta1": 0.9,
        "beta2": 0.999,
        "epsilon": 1e-8
    }
}