{
    "type": "NeuralNetwork",
    "sizes": [
        5,
        8,
        4,
        1
    ],
    "layers": [
        {
            "weights": [],
            "biases": []
        },
        {
            "weights": [
                [
                    -10.502366065979004,
                    8.600784301757812,
                    -7.546646595001221,
                    7.997558116912842,
                    2.3504741191864014
                ],
                [
                    16.77788543701172,
                    -7.6619439125061035,
                    11.499190330505371,
                    -6.330590724945068,
                    3.868335723876953
                ],
                [
                    3.140995740890503,
                    -1.2913669347763062,
                    -3.521195650100708,
                    -1.113320231437683,
                    -3.007073163986206
                ],
                [
                    -8.336653709411621,
                    5.85130500793457,
                    2.0505757331848145,
                    -3.3707287311553955,
                    4.823619365692139
                ],
                [
                    4.208903789520264,
                    10.554996490478516,
                    5.556636810302734,
                    -1.611511468887329,
                    -2.0918004512786865
                ],
                [
                    -0.5882702469825745,
                    1.5918657779693604,
                    -2.459477663040161,
                    -1.0569186210632324,
                    -1.3235949277877808
                ],
                [
                    -0.1949923038482666,
                    -7.180386066436768,
                    9.863951683044434,
                    -4.412417411804199,
                    12.068902015686035
                ],
                [
                    2.2082810401916504,
                    2.3029136657714844,
                    3.241171360015869,
                    -7.231744289398193,
                    2.9123973846435547
                ]
            ],
            "biases": [
                2.5411770343780518,
                -7.352546215057373,
                -2.3640503883361816,
                -9.509047508239746,
                -4.614381790161133,
                -3.1230828762054443,
                -7.570010662078857,
                -5.754264831542969
            ]
        },
        {
            "weights": [
                [
                    -1.173599123954773,
                    -1.7148996591567993,
                    -1.0798786878585815,
                    -3.112964630126953,
                    -0.9833980798721313,
                    -0.6090394258499146,
                    -1.48436439037323,
                    1.5793274641036987
                ],
                [
                    -2.7993505001068115,
                    -2.8100080490112305,
                    -0.9240097403526306,
                    -3.0553014278411865,
                    -0.5290697813034058,
                    -0.8474582433700562,
                    -0.8426033854484558,
                    -0.02341288886964321
                ],
                [
                    -2.7236013412475586,
                    -2.7935097217559814,
                    -0.765276312828064,
                    -3.27443528175354,
                    -0.5437686443328857,
                    -1.0268287658691406,
                    -0.8297410607337952,
                    0.116153784096241
                ],
                [
                    -2.550665855407715,
                    -2.6146721839904785,
                    -0.8542515635490417,
                    -3.2010908126831055,
                    -0.5960783362388611,
                    -0.8791928887367249,
                    -0.9064085483551025,
                    0.2418026179075241
                ]
            ],
            "biases": [
                -0.999909520149231,
                0.054739322513341904,
                0.0028254822827875614,
                -0.12222845107316971
            ]
        },
        {
            "weights": [
                [
                    2.6737024784088135,
                    3.242115020751953,
                    3.2179150581359863,
                    3.1587321758270264
                ]
            ],
            "biases": [
                -0.19094593822956085
            ]
        }
    ],
    "inputLookup": null,
    "inputLookupLength": 0,
    "outputLookup": null,
    "outputLookupLength": 0,
    "options": {
        "inputSize": 0,
        "outputSize": 0,
        "binaryThresh": 0.5,
        "hiddenLayers": [
            8,
            4
        ],
        "activation": "sigmoid"
    },
    "trainOpts": {
        "activation": "sigmoid",
        "iterations": 20000,
        "errorThresh": 0.005,
        "log": false,
        "logPeriod": 10,
        "leakyReluAlpha": 0.01,
        "learningRate": 0.3,
        "momentum": 0.1,
        "callbackPeriod": 10,
        "timeout": "Infinity",
        "beta1": 0.9,
        "beta2": 0.999,
        "epsilon": 1e-8
    }
}