{
    "type": "NeuralNetwork",
    "sizes": [
        15,
        8,
        4,
        3
    ],
    "layers": [
        {
            "weights": [],
            "biases": []
        },
        {
            "weights": [
                [
                    -49.47117233276367,
                    36.8105354309082,
                    58.5598258972168,
                    -17.06360626220703,
                    -3.484984874725342,
                    9.261971473693848,
                    -13.762913703918457,
                    0.5265467166900635,
                    -0.4716176390647888,
                    2.5843443870544434,
                    21.55943489074707,
                    20.27111053466797,
                    -25.121835708618164,
                    23.38425064086914,
                    -36.69404983520508
                ],
                [
                    -21.293498992919922,
                    16.187562942504883,
                    -0.27332204580307007,
                    1.6067073345184326,
                    24.883941650390625,
                    16.480606079101562,
                    1.3521188497543335,
                    11.08786678314209,
                    23.695728302001953,
                    -21.896865844726562,
                    -12.915300369262695,
                    10.945847511291504,
                    -13.171828269958496,
                    6.875207424163818,
                    1.702695608139038
                ],
                [
                    -14.021440505981445,
                    -29.73526954650879,
                    -10.671201705932617,
                    -10.931432723999023,
                    -32.16263961791992,
                    36.00724792480469,
                    30.484291076660156,
                    2.370718479156494,
                    -16.11179542541504,
                    -9.311198234558105,
                    28.991586685180664,
                    13.01873779296875,
                    18.175411224365234,
                    -46.67012405395508,
                    -5.535143852233887
                ],
                [
                    -29.26630210876465,
                    9.973760604858398,
                    5.864584445953369,
                    26.705686569213867,
                    -25.43057632446289,
                    23.053491592407227,
                    -23.654314041137695,
                    25.129676818847656,
                    3.77725887298584,
                    33.069175720214844,
                    14.415513038635254,
                    3.2269670963287354,
                    23.520463943481445,
                    8.11959457397461,
                    2.6924290657043457
                ],
                [
                    34.91413879394531,
                    -35.20779037475586,
                    21.678569793701172,
                    37.03140640258789,
                    -1.1737282276153564,
                    -5.046651840209961,
                    9.259025573730469,
                    24.121368408203125,
                    6.827166557312012,
                    51.37474060058594,
                    23.376632690429688,
                    -14.200312614440918,
                    -26.256683349609375,
                    -12.95352840423584,
                    -20.195270538330078
                ],
                [
                    -40.0897331237793,
                    -9.77147388458252,
                    -12.710628509521484,
                    -7.081904411315918,
                    30.56955909729004,
                    37.88535690307617,
                    52.11421585083008,
                    32.68141174316406,
                    3.345069169998169,
                    -20.2747745513916,
                    -19.49744415283203,
                    10.798194885253906,
                    13.341996192932129,
                    9.074675559997559,
                    -9.030129432678223
                ],
                [
                    -25.041919708251953,
                    -5.569464683532715,
                    10.344037055969238,
                    13.174844741821289,
                    -15.669181823730469,
                    45.51765441894531,
                    31.525239944458008,
                    12.894756317138672,
                    17.524152755737305,
                    -37.39939498901367,
                    25.889768600463867,
                    13.579119682312012,
                    13.372479438781738,
                    25.43858528137207,
                    -42.9845085144043
                ],
                [
                    -5.702273845672607,
                    11.334095001220703,
                    2.026811361312866,
                    29.850862503051758,
                    1.3321588039398193,
                    -0.35882556438446045,
                    -20.1816349029541,
                    23.92268180847168,
                    -15.390374183654785,
                    2.641301155090332,
                    -15.908919334411621,
                    -5.62652063369751,
                    -5.898967742919922,
                    13.3626708984375,
                    7.070323467254639
                ]
            ],
            "biases": [
                1.3475253582000732,
                -47.803646087646484,
                -17.365524291992188,
                18.193307876586914,
                -12.378305435180664,
                -36.33820343017578,
                -5.608832836151123,
                -12.824871063232422
            ]
        },
        {
            "weights": [
                [
                    -29.3164119720459,
                    -33.44225311279297,
                    -15.066020965576172,
                    -25.862831115722656,
                    -19.06467056274414,
                    -29.067699432373047,
                    20.74913787841797,
                    -18.878997802734375
                ],
                [
                    -22.86250877380371,
                    -7.752285957336426,
                    -13.747108459472656,
                    -31.718286514282227,
                    -40.70623016357422,
                    -19.849571228027344,
                    22.306135177612305,
                    -39.26581954956055
                ],
                [
                    8.04261302947998,
                    -32.16816711425781,
                    8.041848182678223,
                    -37.127925872802734,
                    -24.83684539794922,
                    3.110884428024292,
                    -8.605050086975098,
                    38.42192459106445
                ],
                [
                    -18.76453971862793,
                    16.74492835998535,
                    20.210729598999023,
                    -28.46416664123535,
                    -10.523089408874512,
                    -27.319501876831055,
                    16.520694732666016,
                    10.592940330505371
                ]
            ],
            "biases": [
                23.887216567993164,
                28.87139320373535,
                -3.276726722717285,
                -1.4614496231079102
            ]
        },
        {
            "weights": [
                [
                    20.182891845703125,
                    -19.9316349029541,
                    2.6115360260009766,
                    26.224639892578125
                ],
                [
                    47.293212890625,
                    13.956937789916992,
                    39.03980255126953,
                    -61.984100341796875
                ],
                [
                    -1.3670895099639893,
                    2.642357349395752,
                    2.658201217651367,
                    -1.9482816457748413
                ]
            ],
            "biases": [
                -0.1765512377023697,
                -0.19852907955646515,
                -0.1959477812051773
            ]
        }
    ],
    "inputLookup": null,
    "inputLookupLength": 0,
    "outputLookup": null,
    "outputLookupLength": 0,
    "options": {
        "inputSize": 0,
        "outputSize": 0,
        "binaryThresh": 0.5,
        "hiddenLayers": [
            8,
            4
        ],
        "activation": "sigmoid"
    },
    "trainOpts": {
        "activation": "sigmoid",
        "iterations": 20000,
        "errorThresh": 0.005,
        "log": false,
        "logPeriod": 10,
        "leakyReluAlpha": 0.01,
        "learningRate": 0.3,
        "momentum": 0.1,
        "callbackPeriod": 10,
        "timeout": "Infinity",
        "beta1": 0.9,
        "beta2": 0.999,
        "epsilon": 1e-8
    }
}