{
    "type": "NeuralNetwork",
    "sizes": [
        15,
        8,
        4,
        3
    ],
    "layers": [
        {
            "weights": [],
            "biases": []
        },
        {
            "weights": [
                [
                    10.99445629119873,
                    16.26987075805664,
                    23.74783706665039,
                    -8.418333053588867,
                    -12.021177291870117,
                    -13.585918426513672,
                    -7.354551792144775,
                    15.84447956085205,
                    0.36300942301750183,
                    -16.88663101196289,
                    -27.926589965820312,
                    -0.7371207475662231,
                    15.955315589904785,
                    -2.400704860687256,
                    -2.4259743690490723
                ],
                [
                    9.688281059265137,
                    7.195870876312256,
                    6.648131847381592,
                    -23.63810157775879,
                    -7.807507514953613,
                    2.9995014667510986,
                    -9.48404598236084,
                    24.357770919799805,
                    -45.18754577636719,
                    41.058616638183594,
                    -29.208011627197266,
                    19.733905792236328,
                    -21.376873016357422,
                    13.80825138092041,
                    17.217872619628906
                ],
                [
                    21.209001541137695,
                    -6.877382278442383,
                    20.421655654907227,
                    12.191629409790039,
                    2.944441080093384,
                    13.239069938659668,
                    -2.3943605422973633,
                    -4.119414329528809,
                    -29.688451766967773,
                    -16.146886825561523,
                    -5.47125768661499,
                    3.6991965770721436,
                    15.589488983154297,
                    -16.852094650268555,
                    -26.65090560913086
                ],
                [
                    -4.880817890167236,
                    -16.58654022216797,
                    20.875568389892578,
                    26.814912796020508,
                    -22.757951736450195,
                    15.375810623168945,
                    -20.899599075317383,
                    -0.6302783489227295,
                    -1.8367334604263306,
                    -20.383211135864258,
                    39.60072708129883,
                    17.012733459472656,
                    -5.05673360824585,
                    -3.9116833209991455,
                    -18.30885124206543
                ],
                [
                    -11.98034954071045,
                    38.46753692626953,
                    -12.93917465209961,
                    -3.7477667331695557,
                    8.004301071166992,
                    14.870548248291016,
                    21.932655334472656,
                    -8.667680740356445,
                    -0.3728844225406647,
                    4.138067722320557,
                    -21.39910316467285,
                    -11.854090690612793,
                    13.438675880432129,
                    28.75923728942871,
                    30.02055549621582
                ],
                [
                    3.6164050102233887,
                    -15.719263076782227,
                    22.777196884155273,
                    11.21660327911377,
                    6.891005516052246,
                    -2.955836534500122,
                    -33.10383224487305,
                    9.868193626403809,
                    -1.1645333766937256,
                    -34.18484878540039,
                    -9.798653602600098,
                    -19.61469078063965,
                    -11.257519721984863,
                    9.037379264831543,
                    -0.38451704382896423
                ],
                [
                    17.455211639404297,
                    -11.45981502532959,
                    21.053287506103516,
                    -12.200499534606934,
                    -3.4991486072540283,
                    -13.127511978149414,
                    7.424468994140625,
                    7.468996524810791,
                    22.667936325073242,
                    -25.2778263092041,
                    29.011554718017578,
                    -4.318756580352783,
                    35.31288146972656,
                    -7.8152689933776855,
                    27.68559455871582
                ],
                [
                    -23.81193733215332,
                    -22.640966415405273,
                    8.264171600341797,
                    30.285648345947266,
                    12.750039100646973,
                    -42.38791275024414,
                    7.6880950927734375,
                    19.285123825073242,
                    56.62470245361328,
                    -3.0172555446624756,
                    30.58252716064453,
                    -2.304783344268799,
                    -18.321611404418945,
                    15.976295471191406,
                    1.9280407428741455
                ]
            ],
            "biases": [
                -18.440832138061523,
                19.724205017089844,
                -3.8554513454437256,
                -18.657045364379883,
                -17.440645217895508,
                -18.592498779296875,
                -18.495878219604492,
                -4.113816261291504
            ]
        },
        {
            "weights": [
                [
                    20.263614654541016,
                    -48.09503936767578,
                    -7.526473522186279,
                    -40.26320266723633,
                    -31.292062759399414,
                    11.919830322265625,
                    -19.893047332763672,
                    -9.37334156036377
                ],
                [
                    38.71537780761719,
                    2.499354124069214,
                    -30.751544952392578,
                    -33.72960662841797,
                    -34.489295959472656,
                    -5.987743854522705,
                    -72.48297882080078,
                    0.3565782308578491
                ],
                [
                    -31.69698715209961,
                    -24.895570755004883,
                    -33.17555236816406,
                    9.392694473266602,
                    -49.03676986694336,
                    43.80659103393555,
                    23.278949737548828,
                    -72.21337127685547
                ],
                [
                    -4.078334331512451,
                    -34.82577896118164,
                    37.23096466064453,
                    -42.68082809448242,
                    -39.41714859008789,
                    19.06139373779297,
                    8.65510368347168,
                    -17.039939880371094
                ]
            ],
            "biases": [
                35.98515319824219,
                32.29507827758789,
                51.55510330200195,
                -10.418363571166992
            ]
        },
        {
            "weights": [
                [
                    33.77317810058594,
                    1.8095444440841675,
                    1.0514757633209229,
                    54.13826370239258
                ],
                [
                    29.817916870117188,
                    1.4705395698547363,
                    1.4611401557922363,
                    -5.838605880737305
                ],
                [
                    -2.514293670654297,
                    1.491661787033081,
                    1.32171630859375,
                    2.8653199672698975
                ]
            ],
            "biases": [
                0.004372727125883102,
                -0.015204409137368202,
                0.0796969085931778
            ]
        }
    ],
    "inputLookup": null,
    "inputLookupLength": 0,
    "outputLookup": null,
    "outputLookupLength": 0,
    "options": {
        "inputSize": 0,
        "outputSize": 0,
        "binaryThresh": 0.5,
        "hiddenLayers": [
            8,
            4
        ],
        "activation": "sigmoid"
    },
    "trainOpts": {
        "activation": "sigmoid",
        "iterations": 20000,
        "errorThresh": 0.005,
        "log": false,
        "logPeriod": 10,
        "leakyReluAlpha": 0.01,
        "learningRate": 0.3,
        "momentum": 0.1,
        "callbackPeriod": 10,
        "timeout": "Infinity",
        "beta1": 0.9,
        "beta2": 0.999,
        "epsilon": 1e-8
    }
}