{
    "type": "NeuralNetwork",
    "sizes": [
        10,
        8,
        4,
        3
    ],
    "layers": [
        {
            "weights": [],
            "biases": []
        },
        {
            "weights": [
                [
                    34.80134201049805,
                    -0.7504889965057373,
                    10.146289825439453,
                    -7.619800567626953,
                    2.4659652709960938,
                    -7.890655994415283,
                    -6.402641296386719,
                    49.53114318847656,
                    11.250365257263184,
                    -19.625343322753906
                ],
                [
                    8.474897384643555,
                    30.090940475463867,
                    -7.941830635070801,
                    -9.44606876373291,
                    -32.725589752197266,
                    -1.6352484226226807,
                    22.04735565185547,
                    6.9288859367370605,
                    -28.20827865600586,
                    -21.89146614074707
                ],
                [
                    2.019439220428467,
                    -3.239832878112793,
                    15.57304573059082,
                    5.924045085906982,
                    -29.228307723999023,
                    16.389488220214844,
                    23.56256866455078,
                    -21.798446655273438,
                    20.607858657836914,
                    6.44959831237793
                ],
                [
                    12.243765830993652,
                    -51.57142639160156,
                    44.404335021972656,
                    32.11727523803711,
                    3.8647122383117676,
                    26.78777313232422,
                    3.5390655994415283,
                    23.24163055419922,
                    -2.140260934829712,
                    9.401113510131836
                ],
                [
                    12.007111549377441,
                    12.270490646362305,
                    0.7494250535964966,
                    -34.09591293334961,
                    24.43352508544922,
                    -12.634943008422852,
                    -9.072580337524414,
                    -10.826892852783203,
                    -1.8485493659973145,
                    6.939126968383789
                ],
                [
                    -6.891584873199463,
                    27.47101402282715,
                    13.565149307250977,
                    -25.205734252929688,
                    -2.369248628616333,
                    32.53414535522461,
                    18.115957260131836,
                    20.018163681030273,
                    5.539373397827148,
                    -36.25699996948242
                ],
                [
                    -21.53389549255371,
                    34.34956741333008,
                    22.358503341674805,
                    -4.329806804656982,
                    29.926443099975586,
                    -3.927520275115967,
                    2.10855770111084,
                    -15.914510726928711,
                    -15.522680282592773,
                    3.7948288917541504
                ],
                [
                    5.68087100982666,
                    4.938851356506348,
                    -18.972469329833984,
                    0.8754592537879944,
                    16.32695198059082,
                    -5.1990838050842285,
                    -0.5890123248100281,
                    -1.9662538766860962,
                    6.057384014129639,
                    9.950030326843262
                ]
            ],
            "biases": [
                -43.56140899658203,
                -0.012504734098911285,
                -22.861568450927734,
                -13.702853202819824,
                -0.6358404159545898,
                -32.163970947265625,
                -2.6587390899658203,
                -2.4390456676483154
            ]
        },
        {
            "weights": [
                [
                    -10.399677276611328,
                    -3.900378942489624,
                    -38.06822204589844,
                    -50.17085266113281,
                    -34.24510955810547,
                    40.89099884033203,
                    9.722482681274414,
                    -18.011878967285156
                ],
                [
                    -11.932144165039062,
                    -29.59092140197754,
                    -19.617931365966797,
                    -26.375144958496094,
                    -8.559844970703125,
                    -39.72560119628906,
                    -22.972984313964844,
                    -17.19818687438965
                ],
                [
                    -4.266012668609619,
                    -50.41508102416992,
                    -10.43917179107666,
                    -8.008628845214844,
                    63.3326416015625,
                    6.559606075286865,
                    -23.265644073486328,
                    -68.17365264892578
                ],
                [
                    -30.468385696411133,
                    1.4389747381210327,
                    -30.424535751342773,
                    -45.7321662902832,
                    -30.418638229370117,
                    1.5991674661636353,
                    -19.439266204833984,
                    37.85324478149414
                ]
            ],
            "biases": [
                13.75053596496582,
                48.788291931152344,
                15.92691421508789,
                9.768696784973145
            ]
        },
        {
            "weights": [
                [
                    1.4717363119125366,
                    1.9183415174484253,
                    -0.04178207367658615,
                    -0.38904669880867004
                ],
                [
                    -0.38165223598480225,
                    0.23044496774673462,
                    1.5822941064834595,
                    1.6089242696762085
                ],
                [
                    -1.3805997371673584,
                    -0.040106359869241714,
                    0.2808336317539215,
                    1.4238593578338623
                ]
            ],
            "biases": [
                -0.2791128158569336,
                -0.32978031039237976,
                -0.16639284789562225
            ]
        }
    ],
    "inputLookup": null,
    "inputLookupLength": 0,
    "outputLookup": null,
    "outputLookupLength": 0,
    "options": {
        "inputSize": 0,
        "outputSize": 0,
        "binaryThresh": 0.5,
        "hiddenLayers": [
            8,
            4
        ],
        "activation": "sigmoid"
    },
    "trainOpts": {
        "activation": "sigmoid",
        "iterations": 20000,
        "errorThresh": 0.005,
        "log": false,
        "logPeriod": 10,
        "leakyReluAlpha": 0.01,
        "learningRate": 0.3,
        "momentum": 0.1,
        "callbackPeriod": 10,
        "timeout": "Infinity",
        "beta1": 0.9,
        "beta2": 0.999,
        "epsilon": 1e-8
    }
}