{
    "type": "NeuralNetwork",
    "sizes": [
        5,
        8,
        4,
        1
    ],
    "layers": [
        {
            "weights": [],
            "biases": []
        },
        {
            "weights": [
                [
                    -9.985145568847656,
                    1.649575114250183,
                    7.9448442459106445,
                    6.407330513000488,
                    14.281920433044434
                ],
                [
                    1.8603739738464355,
                    -9.724159240722656,
                    8.35221004486084,
                    -9.023645401000977,
                    10.261300086975098
                ],
                [
                    2.217268943786621,
                    -0.16728119552135468,
                    10.396583557128906,
                    -11.372797012329102,
                    7.71912145614624
                ],
                [
                    -3.917466640472412,
                    -3.124208450317383,
                    1.131509780883789,
                    -4.693370342254639,
                    0.22085584700107574
                ],
                [
                    0.9515503644943237,
                    -5.672529220581055,
                    -2.551372766494751,
                    3.0588507652282715,
                    0.31580421328544617
                ],
                [
                    -0.9280641674995422,
                    -7.086755275726318,
                    4.006296634674072,
                    -3.972801685333252,
                    4.104994297027588
                ],
                [
                    2.6530096530914307,
                    -8.54037094116211,
                    6.5039520263671875,
                    -3.069652795791626,
                    13.841329574584961
                ],
                [
                    -4.957469940185547,
                    -3.9738712310791016,
                    -6.163762092590332,
                    -2.1238603591918945,
                    12.663416862487793
                ]
            ],
            "biases": [
                -2.5139622688293457,
                -6.547374725341797,
                -2.6722357273101807,
                -2.432957649230957,
                -5.095016956329346,
                -2.7755653858184814,
                -5.14117431640625,
                -3.6118147373199463
            ]
        },
        {
            "weights": [
                [
                    -0.20291022956371307,
                    5.632142066955566,
                    -4.019062519073486,
                    2.5062766075134277,
                    2.158535957336426,
                    -1.250026822090149,
                    -1.3140195608139038,
                    0.9547359943389893
                ],
                [
                    -3.111392021179199,
                    4.110951900482178,
                    -6.741843223571777,
                    -1.8596680164337158,
                    0.5133558511734009,
                    4.995851516723633,
                    -1.372454285621643,
                    2.581076145172119
                ],
                [
                    -0.20086078345775604,
                    6.213800430297852,
                    -5.19906759262085,
                    2.3933093547821045,
                    0.24250361323356628,
                    -1.1974505186080933,
                    -0.7604056596755981,
                    1.003373146057129
                ],
                [
                    -1.392772912979126,
                    4.96612024307251,
                    0.05137597396969795,
                    -1.4519264698028564,
                    -6.533483028411865,
                    -2.265171527862549,
                    -4.300512790679932,
                    -7.980506420135498
                ]
            ],
            "biases": [
                -3.1687824726104736,
                -1.992818832397461,
                -3.044649362564087,
                -1.477234959602356
            ]
        },
        {
            "weights": [
                [
                    2.436347007751465,
                    2.2677993774414062,
                    2.212338924407959,
                    2.3726274967193604
                ]
            ],
            "biases": [
                0.008815161883831024
            ]
        }
    ],
    "inputLookup": null,
    "inputLookupLength": 0,
    "outputLookup": null,
    "outputLookupLength": 0,
    "options": {
        "inputSize": 0,
        "outputSize": 0,
        "binaryThresh": 0.5,
        "hiddenLayers": [
            8,
            4
        ],
        "activation": "sigmoid"
    },
    "trainOpts": {
        "activation": "sigmoid",
        "iterations": 20000,
        "errorThresh": 0.005,
        "log": false,
        "logPeriod": 10,
        "leakyReluAlpha": 0.01,
        "learningRate": 0.3,
        "momentum": 0.1,
        "callbackPeriod": 10,
        "timeout": "Infinity",
        "beta1": 0.9,
        "beta2": 0.999,
        "epsilon": 1e-8
    }
}