{
    "type": "NeuralNetwork",
    "sizes": [
        10,
        8,
        4,
        3
    ],
    "layers": [
        {
            "weights": [],
            "biases": []
        },
        {
            "weights": [
                [
                    -14.900710105895996,
                    27.632293701171875,
                    -18.355989456176758,
                    9.831622123718262,
                    -4.463219165802002,
                    -0.19562755525112152,
                    -15.229448318481445,
                    -3.002638101577759,
                    12.318380355834961,
                    3.7751004695892334
                ],
                [
                    -18.017667770385742,
                    2.3510725498199463,
                    15.210823059082031,
                    4.68074893951416,
                    22.11443519592285,
                    -34.72665023803711,
                    19.566740036010742,
                    5.349521636962891,
                    24.335613250732422,
                    -4.199326515197754
                ],
                [
                    -2.6012847423553467,
                    14.155994415283203,
                    -6.588447570800781,
                    20.305198669433594,
                    -21.646833419799805,
                    -13.275687217712402,
                    -14.771757125854492,
                    -20.890592575073242,
                    13.628745079040527,
                    11.798897743225098
                ],
                [
                    -11.75549030303955,
                    30.236587524414062,
                    24.192861557006836,
                    -10.836137771606445,
                    -5.10390043258667,
                    -7.26892614364624,
                    -22.489727020263672,
                    -4.36606502532959,
                    -11.401664733886719,
                    -32.55107879638672
                ],
                [
                    -13.51952838897705,
                    -1.8711224794387817,
                    -1.5770395994186401,
                    4.528669834136963,
                    0.5763736963272095,
                    10.467796325683594,
                    12.302230834960938,
                    -1.9073201417922974,
                    -3.0769689083099365,
                    4.9941840171813965
                ],
                [
                    -17.82454490661621,
                    13.243948936462402,
                    -15.684112548828125,
                    8.048598289489746,
                    15.638511657714844,
                    -21.733707427978516,
                    -9.894810676574707,
                    -7.3433098793029785,
                    7.834871768951416,
                    44.150291442871094
                ],
                [
                    -9.978869438171387,
                    10.315065383911133,
                    18.66663932800293,
                    18.604297637939453,
                    -1.1383670568466187,
                    14.983688354492188,
                    -14.6412935256958,
                    -9.224774360656738,
                    -7.273411750793457,
                    -15.509697914123535
                ],
                [
                    7.193960189819336,
                    22.82710075378418,
                    -19.580150604248047,
                    0.7899779677391052,
                    22.565662384033203,
                    -24.88716697692871,
                    -1.968885898590088,
                    10.605549812316895,
                    15.190855979919434,
                    9.66043758392334
                ]
            ],
            "biases": [
                -6.972062587738037,
                -3.923492670059204,
                16.268369674682617,
                15.64011001586914,
                9.18520736694336,
                2.5652973651885986,
                -8.867202758789062,
                -12.392107009887695
            ]
        },
        {
            "weights": [
                [
                    30.343130111694336,
                    0.45903050899505615,
                    -5.398107528686523,
                    -12.709142684936523,
                    -44.16337966918945,
                    1.5104706287384033,
                    17.105098724365234,
                    -40.78218078613281
                ],
                [
                    0.7867341637611389,
                    -33.10252380371094,
                    -26.421045303344727,
                    -30.04339027404785,
                    23.901487350463867,
                    -30.73004150390625,
                    -2.9260191917419434,
                    -23.313703536987305
                ],
                [
                    14.72181510925293,
                    -0.039556536823511124,
                    -16.878732681274414,
                    -15.2980375289917,
                    -20.125404357910156,
                    -33.12056350708008,
                    -8.680780410766602,
                    8.291942596435547
                ],
                [
                    -3.679996967315674,
                    -9.2134370803833,
                    -6.502730846405029,
                    -29.462989807128906,
                    -2.6469945907592773,
                    -7.854979038238525,
                    -16.216318130493164,
                    -2.1117801666259766
                ]
            ],
            "biases": [
                13.605978012084961,
                1.5074305534362793,
                4.603453636169434,
                7.540190696716309
            ]
        },
        {
            "weights": [
                [
                    1.8723419904708862,
                    -0.7188054919242859,
                    43.06344985961914,
                    1.275782823562622
                ],
                [
                    0.7078278064727783,
                    -32.660831451416016,
                    -0.23857073485851288,
                    34.08066177368164
                ],
                [
                    1.1460224390029907,
                    2.4634947776794434,
                    2.054828405380249,
                    -1.0929462909698486
                ]
            ],
            "biases": [
                0.19079115986824036,
                0.21062766015529633,
                0.14803767204284668
            ]
        }
    ],
    "inputLookup": null,
    "inputLookupLength": 0,
    "outputLookup": null,
    "outputLookupLength": 0,
    "options": {
        "inputSize": 0,
        "outputSize": 0,
        "binaryThresh": 0.5,
        "hiddenLayers": [
            8,
            4
        ],
        "activation": "sigmoid"
    },
    "trainOpts": {
        "activation": "sigmoid",
        "iterations": 20000,
        "errorThresh": 0.005,
        "log": false,
        "logPeriod": 10,
        "leakyReluAlpha": 0.01,
        "learningRate": 0.3,
        "momentum": 0.1,
        "callbackPeriod": 10,
        "timeout": "Infinity",
        "beta1": 0.9,
        "beta2": 0.999,
        "epsilon": 1e-8
    }
}