{
    "type": "NeuralNetwork",
    "sizes": [
        5,
        8,
        4,
        1
    ],
    "layers": [
        {
            "weights": [],
            "biases": []
        },
        {
            "weights": [
                [
                    4.655261993408203,
                    3.5024635791778564,
                    -1.4200139045715332,
                    5.559703826904297,
                    4.550897598266602
                ],
                [
                    9.943161010742188,
                    -9.603877067565918,
                    -2.981829881668091,
                    -11.387179374694824,
                    6.491272926330566
                ],
                [
                    -2.323430299758911,
                    -2.7599897384643555,
                    7.361079216003418,
                    3.3630483150482178,
                    4.140316486358643
                ],
                [
                    -9.149203300476074,
                    10.018302917480469,
                    3.9921276569366455,
                    11.987386703491211,
                    5.387434959411621
                ],
                [
                    -0.32963597774505615,
                    6.278754234313965,
                    1.7175524234771729,
                    6.664458274841309,
                    -0.14619877934455872
                ],
                [
                    0.9981116652488708,
                    1.758749008178711,
                    0.38920828700065613,
                    3.930253505706787,
                    -1.4947855472564697
                ],
                [
                    -3.8359696865081787,
                    -6.165760517120361,
                    7.688850402832031,
                    -2.5434696674346924,
                    3.365312099456787
                ],
                [
                    2.121609926223755,
                    4.447315216064453,
                    0.408259779214859,
                    -5.948516845703125,
                    -7.670811653137207
                ]
            ],
            "biases": [
                -17.977420806884766,
                7.338986873626709,
                -10.733376502990723,
                -9.188865661621094,
                -11.674199104309082,
                -6.674705505371094,
                -10.005250930786133,
                -4.2793474197387695
            ]
        },
        {
            "weights": [
                [
                    -4.359070777893066,
                    -1.4282532930374146,
                    -1.095524549484253,
                    -0.9917342066764832,
                    -0.9736286401748657,
                    -0.3457525074481964,
                    -3.9416093826293945,
                    -0.8489933609962463
                ],
                [
                    -4.320907115936279,
                    -1.4313136339187622,
                    -1.0963783264160156,
                    -0.9931180477142334,
                    -0.9785799384117126,
                    -0.33623000979423523,
                    -3.959902763366699,
                    -0.8448686599731445
                ],
                [
                    -4.694840908050537,
                    -1.4071029424667358,
                    -1.0253757238388062,
                    -0.9826861023902893,
                    -0.9256510734558105,
                    -0.5044019222259521,
                    -4.356477737426758,
                    -0.8816307187080383
                ],
                [
                    -4.762456893920898,
                    -1.4025099277496338,
                    -1.0261119604110718,
                    -0.9803341031074524,
                    -0.9190274477005005,
                    -0.518012285232544,
                    -4.322594165802002,
                    -0.8885419964790344
                ]
            ],
            "biases": [
                -1.969216227531433,
                -1.9656816720962524,
                -1.9742740392684937,
                -1.9777815341949463
            ]
        },
        {
            "weights": [
                [
                    4.0350141525268555,
                    4.027743816375732,
                    4.061492919921875,
                    4.064725875854492
                ]
            ],
            "biases": [
                0.041857730597257614
            ]
        }
    ],
    "inputLookup": null,
    "inputLookupLength": 0,
    "outputLookup": null,
    "outputLookupLength": 0,
    "options": {
        "inputSize": 0,
        "outputSize": 0,
        "binaryThresh": 0.5,
        "hiddenLayers": [
            8,
            4
        ],
        "activation": "sigmoid"
    },
    "trainOpts": {
        "activation": "sigmoid",
        "iterations": 20000,
        "errorThresh": 0.005,
        "log": false,
        "logPeriod": 10,
        "leakyReluAlpha": 0.01,
        "learningRate": 0.3,
        "momentum": 0.1,
        "callbackPeriod": 10,
        "timeout": "Infinity",
        "beta1": 0.9,
        "beta2": 0.999,
        "epsilon": 1e-8
    }
}