{
    "type": "NeuralNetwork",
    "sizes": [
        10,
        8,
        4,
        1
    ],
    "layers": [
        {
            "weights": [],
            "biases": []
        },
        {
            "weights": [
                [
                    -20.108671188354492,
                    -13.977977752685547,
                    -7.793271064758301,
                    -24.78183937072754,
                    -19.503263473510742,
                    -1.1052186489105225,
                    4.124298572540283,
                    -4.138729095458984,
                    7.121358871459961,
                    -11.093005180358887
                ],
                [
                    -14.677440643310547,
                    -14.764225959777832,
                    -27.802656173706055,
                    7.5909504890441895,
                    -26.768491744995117,
                    -6.967060089111328,
                    -1.5670602321624756,
                    12.046369552612305,
                    9.655366897583008,
                    22.782243728637695
                ],
                [
                    10.691287994384766,
                    -12.406496047973633,
                    26.907670974731445,
                    -1.9522210359573364,
                    13.848570823669434,
                    -6.747946739196777,
                    21.836925506591797,
                    -3.87587571144104,
                    -39.11783218383789,
                    29.348068237304688
                ],
                [
                    -24.556930541992188,
                    22.17632293701172,
                    16.065425872802734,
                    20.195165634155273,
                    9.639008522033691,
                    -8.987183570861816,
                    23.297014236450195,
                    20.768367767333984,
                    -20.91847801208496,
                    -6.71721076965332
                ],
                [
                    21.38315773010254,
                    -9.715154647827148,
                    -0.688730776309967,
                    2.2716546058654785,
                    -28.71772003173828,
                    10.21683406829834,
                    8.582610130310059,
                    3.6993651390075684,
                    31.41537094116211,
                    -7.947047233581543
                ],
                [
                    5.612431049346924,
                    -12.021251678466797,
                    -21.174346923828125,
                    -20.21462059020996,
                    -10.482134819030762,
                    -15.59481430053711,
                    3.7651422023773193,
                    -3.7294888496398926,
                    2.1374967098236084,
                    0.7694411873817444
                ],
                [
                    6.555487632751465,
                    23.734956741333008,
                    -0.19498538970947266,
                    -2.9158644676208496,
                    9.472908973693848,
                    9.003877639770508,
                    -23.37908935546875,
                    -20.439062118530273,
                    -8.832012176513672,
                    6.945979595184326
                ],
                [
                    -7.610708236694336,
                    -8.385313987731934,
                    28.49068260192871,
                    5.781038761138916,
                    6.8502936363220215,
                    14.201558113098145,
                    7.037811756134033,
                    27.763689041137695,
                    16.884109497070312,
                    15.414886474609375
                ]
            ],
            "biases": [
                13.566139221191406,
                -15.728116035461426,
                3.3772788047790527,
                -25.01195526123047,
                -14.807391166687012,
                7.057199478149414,
                5.079076290130615,
                -48.99020004272461
            ]
        },
        {
            "weights": [
                [
                    -13.31947135925293,
                    20.218002319335938,
                    12.359811782836914,
                    5.782588005065918,
                    -0.472337007522583,
                    8.302844047546387,
                    -10.98840045928955,
                    -8.338141441345215
                ],
                [
                    6.614301681518555,
                    31.660320281982422,
                    -14.637033462524414,
                    -10.644022941589355,
                    -20.906414031982422,
                    -16.08521270751953,
                    -4.137226581573486,
                    -12.348519325256348
                ],
                [
                    -27.94577407836914,
                    -12.30300235748291,
                    -11.91930103302002,
                    -25.198373794555664,
                    -24.81348419189453,
                    -19.885190963745117,
                    -23.902847290039062,
                    -14.574776649475098
                ],
                [
                    -14.039693832397461,
                    -15.603455543518066,
                    -35.692962646484375,
                    -12.49335765838623,
                    -12.542675971984863,
                    -1.7321654558181763,
                    -13.471796989440918,
                    -20.28419303894043
                ]
            ],
            "biases": [
                -28.517196655273438,
                27.664575576782227,
                37.20245361328125,
                26.004817962646484
            ]
        },
        {
            "weights": [
                [
                    2.4811601638793945,
                    -0.5905320048332214,
                    3.1280438899993896,
                    2.5892553329467773
                ]
            ],
            "biases": [
                -0.23475608229637146
            ]
        }
    ],
    "inputLookup": null,
    "inputLookupLength": 0,
    "outputLookup": null,
    "outputLookupLength": 0,
    "options": {
        "inputSize": 0,
        "outputSize": 0,
        "binaryThresh": 0.5,
        "hiddenLayers": [
            8,
            4
        ],
        "activation": "sigmoid"
    },
    "trainOpts": {
        "activation": "sigmoid",
        "iterations": 20000,
        "errorThresh": 0.005,
        "log": false,
        "logPeriod": 10,
        "leakyReluAlpha": 0.01,
        "learningRate": 0.3,
        "momentum": 0.1,
        "callbackPeriod": 10,
        "timeout": "Infinity",
        "beta1": 0.9,
        "beta2": 0.999,
        "epsilon": 1e-8
    }
}