{
    "type": "NeuralNetwork",
    "sizes": [
        15,
        8,
        4,
        1
    ],
    "layers": [
        {
            "weights": [],
            "biases": []
        },
        {
            "weights": [
                [
                    -36.06747055053711,
                    17.160808563232422,
                    9.786456108093262,
                    6.592258453369141,
                    -27.09667205810547,
                    37.32209014892578,
                    61.21516799926758,
                    12.03564739227295,
                    -6.651682376861572,
                    0.16215817630290985,
                    -25.590229034423828,
                    33.845863342285156,
                    11.582371711730957,
                    -3.4142861366271973,
                    -25.66752815246582
                ],
                [
                    -10.166406631469727,
                    -6.78167200088501,
                    30.102638244628906,
                    -7.112580299377441,
                    -8.381767272949219,
                    3.0676980018615723,
                    -11.792441368103027,
                    -11.000006675720215,
                    -15.794445991516113,
                    -11.64787769317627,
                    37.83329772949219,
                    18.90460205078125,
                    31.322233200073242,
                    -0.5810926556587219,
                    15.432649612426758
                ],
                [
                    12.689288139343262,
                    3.2095460891723633,
                    -8.918128967285156,
                    -15.185468673706055,
                    -32.172306060791016,
                    17.627099990844727,
                    25.059072494506836,
                    -11.570052146911621,
                    -25.027748107910156,
                    -4.171384334564209,
                    -0.9716601967811584,
                    6.320755481719971,
                    22.6983699798584,
                    13.347201347351074,
                    18.512765884399414
                ],
                [
                    29.06416893005371,
                    21.830705642700195,
                    -3.2653584480285645,
                    11.292502403259277,
                    15.104545593261719,
                    -23.772974014282227,
                    -1.7279707193374634,
                    -10.243471145629883,
                    -0.08762543648481369,
                    22.555458068847656,
                    24.538787841796875,
                    -16.673776626586914,
                    -10.949959754943848,
                    -11.26679801940918,
                    15.436762809753418
                ],
                [
                    20.21875,
                    -15.17700481414795,
                    3.247080087661743,
                    -17.494548797607422,
                    2.0087249279022217,
                    22.32773208618164,
                    11.892889976501465,
                    30.08744239807129,
                    26.99382781982422,
                    -40.16771697998047,
                    -6.470251560211182,
                    -0.38664183020591736,
                    7.621497631072998,
                    13.475403785705566,
                    16.54046630859375
                ],
                [
                    6.200501918792725,
                    7.545397758483887,
                    -3.03916597366333,
                    14.132852554321289,
                    -6.452422618865967,
                    4.75322961807251,
                    -2.4496383666992188,
                    -9.032001495361328,
                    -8.073835372924805,
                    6.7463274002075195,
                    -5.009298324584961,
                    3.4289355278015137,
                    3.217660427093506,
                    -13.498376846313477,
                    -5.465649127960205
                ],
                [
                    6.288908004760742,
                    7.688836097717285,
                    38.0395393371582,
                    21.726839065551758,
                    -1.9030810594558716,
                    -2.921032190322876,
                    42.76751708984375,
                    7.354905605316162,
                    -10.740700721740723,
                    -19.19158172607422,
                    -8.416055679321289,
                    -14.918885231018066,
                    3.0942375659942627,
                    -43.0368537902832,
                    -17.430076599121094
                ],
                [
                    -14.739212989807129,
                    -28.442657470703125,
                    11.716324806213379,
                    3.751986503601074,
                    1.263197422027588,
                    14.270635604858398,
                    7.927241325378418,
                    -11.570849418640137,
                    3.472764015197754,
                    0.6851863861083984,
                    -14.71269702911377,
                    0.7479618787765503,
                    11.563283920288086,
                    7.24745512008667,
                    -1.5325020551681519
                ]
            ],
            "biases": [
                -32.097408294677734,
                6.654494762420654,
                -25.060190200805664,
                -7.011530876159668,
                -33.78033447265625,
                -11.504230499267578,
                -37.8686637878418,
                -7.131855010986328
            ]
        },
        {
            "weights": [
                [
                    -42.85819625854492,
                    -3.3923189640045166,
                    8.157089233398438,
                    -60.566001892089844,
                    -2.4237356185913086,
                    19.52082633972168,
                    15.946486473083496,
                    56.643123626708984
                ],
                [
                    -9.436647415161133,
                    -17.460851669311523,
                    -39.031227111816406,
                    -19.640872955322266,
                    -34.04803466796875,
                    -47.33660888671875,
                    -32.27181625366211,
                    -17.11895751953125
                ],
                [
                    -39.787132263183594,
                    -33.95988845825195,
                    52.79355239868164,
                    -7.0063581466674805,
                    -21.79180145263672,
                    -23.207963943481445,
                    54.94500732421875,
                    -48.62096405029297
                ],
                [
                    -29.420856475830078,
                    -23.937480926513672,
                    37.22095489501953,
                    -48.567970275878906,
                    -14.172883033752441,
                    20.17626190185547,
                    -18.06468391418457,
                    -35.90913009643555
                ]
            ],
            "biases": [
                -17.20556640625,
                36.644447326660156,
                -7.245739459991455,
                26.76748275756836
            ]
        },
        {
            "weights": [
                [
                    1.3050734996795654,
                    2.1863393783569336,
                    21.939865112304688,
                    17.99074935913086
                ]
            ],
            "biases": [
                -0.3305024802684784
            ]
        }
    ],
    "inputLookup": null,
    "inputLookupLength": 0,
    "outputLookup": null,
    "outputLookupLength": 0,
    "options": {
        "inputSize": 0,
        "outputSize": 0,
        "binaryThresh": 0.5,
        "hiddenLayers": [
            8,
            4
        ],
        "activation": "sigmoid"
    },
    "trainOpts": {
        "activation": "sigmoid",
        "iterations": 20000,
        "errorThresh": 0.005,
        "log": false,
        "logPeriod": 10,
        "leakyReluAlpha": 0.01,
        "learningRate": 0.3,
        "momentum": 0.1,
        "callbackPeriod": 10,
        "timeout": "Infinity",
        "beta1": 0.9,
        "beta2": 0.999,
        "epsilon": 1e-8
    }
}