{
    "type": "NeuralNetwork",
    "sizes": [
        5,
        8,
        4,
        3
    ],
    "layers": [
        {
            "weights": [],
            "biases": []
        },
        {
            "weights": [
                [
                    7.6336774826049805,
                    -1.317679524421692,
                    7.19704008102417,
                    -7.413478374481201,
                    9.373255729675293
                ],
                [
                    3.575911283493042,
                    0.5831993222236633,
                    10.422101974487305,
                    -4.928363800048828,
                    12.567876815795898
                ],
                [
                    1.1823574304580688,
                    8.61182689666748,
                    -12.73994255065918,
                    -4.092611312866211,
                    9.688285827636719
                ],
                [
                    8.740141868591309,
                    -10.949259757995605,
                    -12.304237365722656,
                    8.786434173583984,
                    17.27537727355957
                ],
                [
                    -8.700823783874512,
                    5.475063800811768,
                    -7.7852582931518555,
                    -3.5138275623321533,
                    3.5380752086639404
                ],
                [
                    13.647237777709961,
                    -4.367529392242432,
                    8.662203788757324,
                    -11.23784351348877,
                    17.378292083740234
                ],
                [
                    4.152416229248047,
                    15.946137428283691,
                    12.453420639038086,
                    -6.500766277313232,
                    7.086572170257568
                ],
                [
                    2.183157205581665,
                    12.874040603637695,
                    -12.033892631530762,
                    10.230134963989258,
                    -2.8620431423187256
                ]
            ],
            "biases": [
                -4.590135097503662,
                -15.734858512878418,
                -2.820160150527954,
                -2.8229563236236572,
                -4.47216796875,
                -0.5553451776504517,
                -16.825666427612305,
                -5.114255905151367
            ]
        },
        {
            "weights": [
                [
                    -3.687741994857788,
                    -2.4586021900177,
                    4.310767650604248,
                    0.28349569439888,
                    -5.706156253814697,
                    -0.21057043969631195,
                    2.4507884979248047,
                    -4.255516529083252
                ],
                [
                    -0.04768644645810127,
                    0.6693547964096069,
                    -11.145600318908691,
                    -10.392473220825195,
                    -3.000969648361206,
                    -0.5325208306312561,
                    -0.16991524398326874,
                    -12.664222717285156
                ],
                [
                    3.30263614654541,
                    -5.3301591873168945,
                    0.48426130414009094,
                    4.769113063812256,
                    -0.26887160539627075,
                    -8.356680870056152,
                    5.445309638977051,
                    -5.228949069976807
                ],
                [
                    -3.127230644226074,
                    -5.528414726257324,
                    -7.805257320404053,
                    -8.174378395080566,
                    -2.43459415435791,
                    2.053892135620117,
                    -5.938773155212402,
                    5.005468845367432
                ]
            ],
            "biases": [
                -1.212155818939209,
                -2.442739963531494,
                -1.4048205614089966,
                -1.862847924232483
            ]
        },
        {
            "weights": [
                [
                    1.1419402360916138,
                    4.862427234649658,
                    -0.20109927654266357,
                    -0.6249421834945679
                ],
                [
                    0.5821189880371094,
                    0.8303127288818359,
                    1.24837327003479,
                    2.278695583343506
                ],
                [
                    0.33277463912963867,
                    -2.024837017059326,
                    -1.6617491245269775,
                    3.5407063961029053
                ]
            ],
            "biases": [
                -0.09878301620483398,
                -0.20087352395057678,
                0.03982954099774361
            ]
        }
    ],
    "inputLookup": null,
    "inputLookupLength": 0,
    "outputLookup": null,
    "outputLookupLength": 0,
    "options": {
        "inputSize": 0,
        "outputSize": 0,
        "binaryThresh": 0.5,
        "hiddenLayers": [
            8,
            4
        ],
        "activation": "sigmoid"
    },
    "trainOpts": {
        "activation": "sigmoid",
        "iterations": 20000,
        "errorThresh": 0.005,
        "log": false,
        "logPeriod": 10,
        "leakyReluAlpha": 0.01,
        "learningRate": 0.3,
        "momentum": 0.1,
        "callbackPeriod": 10,
        "timeout": "Infinity",
        "beta1": 0.9,
        "beta2": 0.999,
        "epsilon": 1e-8
    }
}