{
    "type": "NeuralNetwork",
    "sizes": [
        5,
        8,
        4,
        3
    ],
    "layers": [
        {
            "weights": [],
            "biases": []
        },
        {
            "weights": [
                [
                    9.43117618560791,
                    8.381468772888184,
                    4.446948051452637,
                    -7.983929634094238,
                    -3.7356009483337402
                ],
                [
                    11.727201461791992,
                    6.908547401428223,
                    -4.987495422363281,
                    -1.5513323545455933,
                    -10.15856647491455
                ],
                [
                    15.805633544921875,
                    -6.372283458709717,
                    3.2902565002441406,
                    -10.43251895904541,
                    -19.216381072998047
                ],
                [
                    2.4801905155181885,
                    4.616062164306641,
                    -3.72450852394104,
                    6.423122882843018,
                    -1.5233350992202759
                ],
                [
                    -10.474506378173828,
                    -7.668593883514404,
                    10.810969352722168,
                    -3.158829689025879,
                    -6.190019607543945
                ],
                [
                    -2.427168607711792,
                    1.1797831058502197,
                    5.1444220542907715,
                    5.633288860321045,
                    6.530877113342285
                ],
                [
                    -5.449580192565918,
                    -2.0704243183135986,
                    -0.8064801096916199,
                    4.437891960144043,
                    -3.623769760131836
                ],
                [
                    -6.186646461486816,
                    9.814850807189941,
                    -6.677900314331055,
                    4.864446640014648,
                    11.3275728225708
                ]
            ],
            "biases": [
                -18.028606414794922,
                -10.732988357543945,
                2.5967681407928467,
                -7.010910511016846,
                0.7947295904159546,
                -13.860748291015625,
                -3.6804535388946533,
                -20.086374282836914
            ]
        },
        {
            "weights": [
                [
                    -5.075943946838379,
                    -13.783835411071777,
                    -0.5750781297683716,
                    0.13001786172389984,
                    -0.2195870578289032,
                    -15.769915580749512,
                    -0.6918922662734985,
                    0.15128152072429657
                ],
                [
                    -3.8583757877349854,
                    1.69204843044281,
                    -2.116061210632324,
                    -0.7037073373794556,
                    -1.6922599077224731,
                    0.3196525573730469,
                    0.8399136662483215,
                    -12.282811164855957
                ],
                [
                    -6.249640464782715,
                    -5.1363043785095215,
                    -12.775814056396484,
                    0.5899859666824341,
                    -7.795438766479492,
                    0.925140917301178,
                    -14.66554069519043,
                    -1.1302822828292847
                ],
                [
                    -6.3140153884887695,
                    -5.123047828674316,
                    -6.078267574310303,
                    -15.5166015625,
                    -1.529697060585022,
                    -6.436001300811768,
                    -2.972262382507324,
                    -9.13541316986084
                ]
            ],
            "biases": [
                -2.563462972640991,
                -1.8218271732330322,
                -2.5033211708068848,
                -1.9835478067398071
            ]
        },
        {
            "weights": [
                [
                    4.496753692626953,
                    3.5729949474334717,
                    -1.031823992729187,
                    -2.3386549949645996
                ],
                [
                    5.175472736358643,
                    -2.923624038696289,
                    -0.2958890497684479,
                    3.986851930618286
                ],
                [
                    -0.18127046525478363,
                    0.24846312403678894,
                    -3.4689881801605225,
                    -3.256099224090576
                ]
            ],
            "biases": [
                -0.0197076965123415,
                0.21620748937129974,
                0.2702428996562958
            ]
        }
    ],
    "inputLookup": null,
    "inputLookupLength": 0,
    "outputLookup": null,
    "outputLookupLength": 0,
    "options": {
        "inputSize": 0,
        "outputSize": 0,
        "binaryThresh": 0.5,
        "hiddenLayers": [
            8,
            4
        ],
        "activation": "sigmoid"
    },
    "trainOpts": {
        "activation": "sigmoid",
        "iterations": 20000,
        "errorThresh": 0.005,
        "log": false,
        "logPeriod": 10,
        "leakyReluAlpha": 0.01,
        "learningRate": 0.3,
        "momentum": 0.1,
        "callbackPeriod": 10,
        "timeout": "Infinity",
        "beta1": 0.9,
        "beta2": 0.999,
        "epsilon": 1e-8
    }
}