{
    "type": "NeuralNetwork",
    "sizes": [
        15,
        8,
        4,
        3
    ],
    "layers": [
        {
            "weights": [],
            "biases": []
        },
        {
            "weights": [
                [
                    36.343345642089844,
                    -8.123493194580078,
                    30.469181060791016,
                    32.468685150146484,
                    4.217829704284668,
                    -53.63292694091797,
                    -22.50005340576172,
                    19.703174591064453,
                    27.061519622802734,
                    -17.993572235107422,
                    3.7727458477020264,
                    -29.567331314086914,
                    19.181589126586914,
                    -12.888376235961914,
                    22.659299850463867
                ],
                [
                    48.40888214111328,
                    15.969839096069336,
                    2.0253114700317383,
                    -9.24225902557373,
                    2.645504951477051,
                    7.143825531005859,
                    -15.189973831176758,
                    0.5177472233772278,
                    22.5806941986084,
                    -16.80280876159668,
                    25.251346588134766,
                    -19.620084762573242,
                    21.95784568786621,
                    -28.159042358398438,
                    12.639073371887207
                ],
                [
                    -1.9753350019454956,
                    -1.2237299680709839,
                    16.383573532104492,
                    11.433172225952148,
                    1.8471792936325073,
                    -20.241300582885742,
                    4.096508026123047,
                    2.0546011924743652,
                    -11.743606567382812,
                    2.903066396713257,
                    4.209362030029297,
                    3.2582035064697266,
                    10.831864356994629,
                    23.876169204711914,
                    -11.004732131958008
                ],
                [
                    3.591773509979248,
                    18.616954803466797,
                    -1.8861262798309326,
                    -18.96573829650879,
                    35.81365966796875,
                    -24.933794021606445,
                    -19.843486785888672,
                    36.168521881103516,
                    8.893952369689941,
                    -2.325413942337036,
                    17.207576751708984,
                    -9.101820945739746,
                    -23.728404998779297,
                    -9.660951614379883,
                    3.7336623668670654
                ],
                [
                    0.5361148118972778,
                    -38.342586517333984,
                    10.531774520874023,
                    2.515043258666992,
                    23.547964096069336,
                    -9.472496032714844,
                    13.95848560333252,
                    16.25177574157715,
                    -25.92160987854004,
                    25.657493591308594,
                    -27.499826431274414,
                    13.883746147155762,
                    -3.22066593170166,
                    13.679365158081055,
                    51.67323684692383
                ],
                [
                    29.308990478515625,
                    -8.09101390838623,
                    21.281505584716797,
                    -0.11494908481836319,
                    -24.405900955200195,
                    19.342504501342773,
                    8.58245849609375,
                    -22.809179306030273,
                    25.027860641479492,
                    -7.156257152557373,
                    -19.627225875854492,
                    1.0718506574630737,
                    4.940019607543945,
                    10.976381301879883,
                    8.282196044921875
                ],
                [
                    15.28990650177002,
                    -8.58414363861084,
                    -1.7303309440612793,
                    43.791343688964844,
                    18.297698974609375,
                    -12.936267852783203,
                    3.8784940242767334,
                    4.071550369262695,
                    -2.769796848297119,
                    -9.212848663330078,
                    -11.755446434020996,
                    12.979490280151367,
                    11.979013442993164,
                    10.462434768676758,
                    15.031209945678711
                ],
                [
                    23.896024703979492,
                    -15.031083106994629,
                    -0.4773886501789093,
                    -8.077159881591797,
                    12.5153226852417,
                    8.33594036102295,
                    6.106701850891113,
                    -18.19862937927246,
                    -5.860448837280273,
                    -8.805712699890137,
                    -16.200740814208984,
                    -10.52941608428955,
                    13.63112735748291,
                    17.988298416137695,
                    0.6503323912620544
                ]
            ],
            "biases": [
                -28.493127822875977,
                -7.3392744064331055,
                -12.641814231872559,
                -33.40391540527344,
                -0.33119726181030273,
                -27.890050888061523,
                -18.741416931152344,
                -27.338666915893555
            ]
        },
        {
            "weights": [
                [
                    -10.769952774047852,
                    6.5934929847717285,
                    -40.606300354003906,
                    5.346012592315674,
                    -55.382843017578125,
                    -37.6876106262207,
                    34.637062072753906,
                    -37.62864303588867
                ],
                [
                    1.7947579622268677,
                    -32.57625198364258,
                    33.31591796875,
                    -43.26479721069336,
                    -1.497666358947754,
                    -38.192138671875,
                    -41.55472946166992,
                    -0.5459920763969421
                ],
                [
                    53.138370513916016,
                    -54.479312896728516,
                    -53.35285568237305,
                    -47.85054397583008,
                    -52.97770309448242,
                    -51.97885513305664,
                    9.67764949798584,
                    56.02878189086914
                ],
                [
                    1.5521588325500488,
                    -7.603041172027588,
                    9.95634651184082,
                    -49.55802917480469,
                    1.515622615814209,
                    -17.517812728881836,
                    -34.75155258178711,
                    -15.926382064819336
                ]
            ],
            "biases": [
                -3.2619919776916504,
                4.492728233337402,
                41.40818786621094,
                2.9694833755493164
            ]
        },
        {
            "weights": [
                [
                    0.11199850589036942,
                    8.468538284301758,
                    67.820556640625,
                    -6.2769012451171875
                ],
                [
                    -1.2002276182174683,
                    2.4432713985443115,
                    0.9223751425743103,
                    -2.730293035507202
                ],
                [
                    -0.12294834107160568,
                    -23.76301383972168,
                    4.545700550079346,
                    23.233261108398438
                ]
            ],
            "biases": [
                0.13834494352340698,
                0.2664533257484436,
                0.14164482057094574
            ]
        }
    ],
    "inputLookup": null,
    "inputLookupLength": 0,
    "outputLookup": null,
    "outputLookupLength": 0,
    "options": {
        "inputSize": 0,
        "outputSize": 0,
        "binaryThresh": 0.5,
        "hiddenLayers": [
            8,
            4
        ],
        "activation": "sigmoid"
    },
    "trainOpts": {
        "activation": "sigmoid",
        "iterations": 20000,
        "errorThresh": 0.005,
        "log": false,
        "logPeriod": 10,
        "leakyReluAlpha": 0.01,
        "learningRate": 0.3,
        "momentum": 0.1,
        "callbackPeriod": 10,
        "timeout": "Infinity",
        "beta1": 0.9,
        "beta2": 0.999,
        "epsilon": 1e-8
    }
}