{
    "type": "NeuralNetwork",
    "sizes": [
        20,
        2,
        1
    ],
    "layers": [
        {
            "weights": [],
            "biases": []
        },
        {
            "weights": [
                [
                    -4.567076206207275,
                    33.173484802246094,
                    8.559356689453125,
                    -36.73137664794922,
                    58.35692596435547,
                    -17.47240447998047,
                    11.541869163513184,
                    4.3687052726745605,
                    38.65925216674805,
                    -44.653594970703125,
                    -8.999795913696289,
                    -7.434402942657471,
                    -9.161483764648438,
                    4.966206073760986,
                    20.370515823364258,
                    -41.686954498291016,
                    -9.932989120483398,
                    -14.508856773376465,
                    36.5545768737793,
                    23.96638298034668
                ],
                [
                    -22.109100341796875,
                    34.51383972167969,
                    -44.6428108215332,
                    2.9485793113708496,
                    21.32095718383789,
                    -5.731532096862793,
                    -37.956298828125,
                    -16.222055435180664,
                    9.162923812866211,
                    11.036419868469238,
                    -16.84841537475586,
                    25.103919982910156,
                    -31.339969635009766,
                    -31.832765579223633,
                    19.64447593688965,
                    -3.4632527828216553,
                    21.387346267700195,
                    -7.518065452575684,
                    26.069477081298828,
                    25.916851043701172
                ]
            ],
            "biases": [
                -12.742194175720215,
                -58.362510681152344
            ]
        },
        {
            "weights": [
                [
                    -0.9817258715629578,
                    2.691129446029663
                ]
            ],
            "biases": [
                0.49931755661964417
            ]
        }
    ],
    "inputLookup": null,
    "inputLookupLength": 0,
    "outputLookup": null,
    "outputLookupLength": 0,
    "options": {
        "inputSize": 0,
        "outputSize": 0,
        "binaryThresh": 0.5,
        "hiddenLayers": [
            2
        ]
    },
    "trainOpts": {
        "activation": "sigmoid",
        "iterations": 20000,
        "errorThresh": 0.005,
        "log": false,
        "logPeriod": 10,
        "leakyReluAlpha": 0.01,
        "learningRate": 0.3,
        "momentum": 0.1,
        "callbackPeriod": 10,
        "timeout": "Infinity",
        "beta1": 0.9,
        "beta2": 0.999,
        "epsilon": 1e-8
    }
}