{
    "type": "NeuralNetwork",
    "sizes": [
        20,
        2,
        1
    ],
    "layers": [
        {
            "weights": [],
            "biases": []
        },
        {
            "weights": [
                [
                    -1.5770405530929565,
                    -6.817058563232422,
                    3.219388961791992,
                    13.9180908203125,
                    48.08781433105469,
                    -31.87791633605957,
                    -29.598587036132812,
                    -18.642101287841797,
                    -11.509665489196777,
                    -24.425371170043945,
                    -8.884556770324707,
                    -5.1603569984436035,
                    -36.42835998535156,
                    9.67586898803711,
                    -36.97832107543945,
                    32.084808349609375,
                    -44.83561706542969,
                    15.604942321777344,
                    -57.54743957519531,
                    -38.353248596191406
                ],
                [
                    -55.709896087646484,
                    -2.7950797080993652,
                    22.747514724731445,
                    -16.873889923095703,
                    15.956280708312988,
                    -14.440488815307617,
                    17.733110427856445,
                    15.041518211364746,
                    20.1108341217041,
                    -15.334094047546387,
                    -35.731475830078125,
                    -28.81084442138672,
                    6.361722469329834,
                    -31.193208694458008,
                    -36.29999542236328,
                    19.331520080566406,
                    -57.13321304321289,
                    -59.361019134521484,
                    -12.05887508392334,
                    -13.064992904663086
                ]
            ],
            "biases": [
                -11.56843376159668,
                0.8901197910308838
            ]
        },
        {
            "weights": [
                [
                    2.4898319244384766,
                    2.14928936958313
                ]
            ],
            "biases": [
                -0.036606691777706146
            ]
        }
    ],
    "inputLookup": null,
    "inputLookupLength": 0,
    "outputLookup": null,
    "outputLookupLength": 0,
    "options": {
        "inputSize": 0,
        "outputSize": 0,
        "binaryThresh": 0.5,
        "hiddenLayers": [
            2
        ]
    },
    "trainOpts": {
        "activation": "sigmoid",
        "iterations": 20000,
        "errorThresh": 0.005,
        "log": false,
        "logPeriod": 10,
        "leakyReluAlpha": 0.01,
        "learningRate": 0.3,
        "momentum": 0.1,
        "callbackPeriod": 10,
        "timeout": "Infinity",
        "beta1": 0.9,
        "beta2": 0.999,
        "epsilon": 1e-8
    }
}