{
    "type": "NeuralNetwork",
    "sizes": [
        14,
        4,
        8,
        1
    ],
    "layers": [
        {
            "weights": [],
            "biases": []
        },
        {
            "weights": [
                [
                    -61.9285888671875,
                    14.703360557556152,
                    13.549568176269531,
                    36.118797302246094,
                    23.171289443969727,
                    46.228397369384766,
                    26.721866607666016,
                    7.7662858963012695,
                    44.23854446411133,
                    26.31121826171875,
                    -4.672875881195068,
                    -15.169477462768555,
                    -9.025496482849121,
                    -7.105751991271973
                ],
                [
                    23.967910766601562,
                    -7.5818352699279785,
                    28.216615676879883,
                    -4.867904186248779,
                    -18.700950622558594,
                    -21.39904022216797,
                    -17.48773765563965,
                    23.636842727661133,
                    13.213582038879395,
                    21.710901260375977,
                    20.139644622802734,
                    25.93433380126953,
                    17.975635528564453,
                    -5.17390775680542
                ],
                [
                    13.06181526184082,
                    3.1729114055633545,
                    2.71899151802063,
                    -11.19550895690918,
                    5.764406681060791,
                    -16.889503479003906,
                    11.926880836486816,
                    6.268568515777588,
                    -7.71593713760376,
                    6.4650726318359375,
                    10.795913696289062,
                    8.771310806274414,
                    33.643951416015625,
                    13.233917236328125
                ],
                [
                    23.499216079711914,
                    19.599279403686523,
                    -0.20441731810569763,
                    -6.311661720275879,
                    14.799689292907715,
                    46.940185546875,
                    6.173596382141113,
                    -24.838138580322266,
                    -10.427116394042969,
                    -16.78936004638672,
                    0.459457665681839,
                    7.666549205780029,
                    -18.633010864257812,
                    5.877305030822754
                ]
            ],
            "biases": [
                -19.954858779907227,
                -46.135562896728516,
                -52.06224060058594,
                -7.182277202606201
            ]
        },
        {
            "weights": [
                [
                    -1.309227705001831,
                    19.345205307006836,
                    -35.297325134277344,
                    -48.61646270751953
                ],
                [
                    -28.01654624938965,
                    -27.474824905395508,
                    54.24573516845703,
                    -28.21989631652832
                ],
                [
                    -7.3684468269348145,
                    -53.946598052978516,
                    -52.09624481201172,
                    -7.452291965484619
                ],
                [
                    -0.46442291140556335,
                    -34.49799346923828,
                    -21.942087173461914,
                    -0.35432764887809753
                ],
                [
                    -3.248055934906006,
                    19.361927032470703,
                    -4.206202507019043,
                    33.06379318237305
                ],
                [
                    -0.5520489811897278,
                    -33.46537780761719,
                    -21.616485595703125,
                    -0.3060993552207947
                ],
                [
                    -0.5751621127128601,
                    -33.1922492980957,
                    -21.531463623046875,
                    -0.292249470949173
                ],
                [
                    6.2787933349609375,
                    2.4566662311553955,
                    18.302217483520508,
                    -19.10692596435547
                ]
            ],
            "biases": [
                -19.283491134643555,
                -27.234312057495117,
                5.911963939666748,
                -3.0549094676971436,
                -51.35951614379883,
                -3.005788803100586,
                -2.9982848167419434,
                -28.996829986572266
            ]
        },
        {
            "weights": [
                [
                    1.5549325942993164,
                    0.9496133923530579,
                    1.4381496906280518,
                    4.0668110847473145,
                    0.8582069277763367,
                    3.9566774368286133,
                    3.94341778755188,
                    1.2954972982406616
                ]
            ],
            "biases": [
                -0.4309546947479248
            ]
        }
    ],
    "inputLookup": null,
    "inputLookupLength": 0,
    "outputLookup": null,
    "outputLookupLength": 0,
    "options": {
        "inputSize": 0,
        "outputSize": 0,
        "binaryThresh": 0.5,
        "hiddenLayers": [
            4,
            8
        ]
    },
    "trainOpts": {
        "activation": "sigmoid",
        "iterations": 20000,
        "errorThresh": 0.005,
        "log": false,
        "logPeriod": 10,
        "leakyReluAlpha": 0.01,
        "learningRate": 0.3,
        "momentum": 0.1,
        "callbackPeriod": 10,
        "timeout": "Infinity",
        "beta1": 0.9,
        "beta2": 0.999,
        "epsilon": 1e-8
    }
}