{
    "type": "NeuralNetwork",
    "sizes": [
        7,
        4,
        8,
        1
    ],
    "layers": [
        {
            "weights": [],
            "biases": []
        },
        {
            "weights": [
                [
                    -9.835347175598145,
                    5.508444786071777,
                    7.806230545043945,
                    17.90874671936035,
                    20.675880432128906,
                    -1.445191502571106,
                    16.356786727905273
                ],
                [
                    5.253536224365234,
                    25.5268611907959,
                    11.316628456115723,
                    -6.684049129486084,
                    -15.797759056091309,
                    1.3055262565612793,
                    -18.643938064575195
                ],
                [
                    28.051372528076172,
                    8.851921081542969,
                    2.2057154178619385,
                    14.239570617675781,
                    9.302717208862305,
                    21.11714744567871,
                    4.91433048248291
                ],
                [
                    -15.247611999511719,
                    -5.66320276260376,
                    -16.811626434326172,
                    -12.799468040466309,
                    -7.653661727905273,
                    8.158188819885254,
                    -1.6573537588119507
                ]
            ],
            "biases": [
                -26.962892532348633,
                12.604931831359863,
                -42.26103973388672,
                2.1512746810913086
            ]
        },
        {
            "weights": [
                [
                    -9.096322059631348,
                    -0.2048303335905075,
                    -1.2039263248443604,
                    -0.589886486530304
                ],
                [
                    -0.9282552003860474,
                    -1.801152229309082,
                    -0.8868688941001892,
                    -0.7877840399742126
                ],
                [
                    -8.391209602355957,
                    2.866844415664673,
                    -1.4521032571792603,
                    -0.7017138600349426
                ],
                [
                    13.194765090942383,
                    0.3267422020435333,
                    -10.212559700012207,
                    -3.1236724853515625
                ],
                [
                    -9.051071166992188,
                    -0.20629560947418213,
                    -1.202461838722229,
                    -0.5891897082328796
                ],
                [
                    -9.1553316116333,
                    -0.20379063487052917,
                    -1.204725980758667,
                    -0.590204656124115
                ],
                [
                    -0.9285194277763367,
                    -1.8009361028671265,
                    -0.8864771723747253,
                    -0.7876129746437073
                ],
                [
                    -0.928444504737854,
                    -1.8014323711395264,
                    -0.8868245482444763,
                    -0.7880304455757141
                ]
            ],
            "biases": [
                -4.230635166168213,
                -3.4696154594421387,
                -7.086544036865234,
                -16.979915618896484,
                -4.237478733062744,
                -4.236417770385742,
                -3.470024585723877,
                -3.4589126110076904
            ]
        },
        {
            "weights": [
                [
                    5.258753776550293,
                    5.250080585479736,
                    4.53865385055542,
                    3.571030616760254,
                    5.299041271209717,
                    5.288157939910889,
                    5.252274513244629,
                    5.195512294769287
                ]
            ],
            "biases": [
                -0.3567410111427307
            ]
        }
    ],
    "inputLookup": null,
    "inputLookupLength": 0,
    "outputLookup": null,
    "outputLookupLength": 0,
    "options": {
        "inputSize": 0,
        "outputSize": 0,
        "binaryThresh": 0.5,
        "hiddenLayers": [
            4,
            8
        ]
    },
    "trainOpts": {
        "activation": "sigmoid",
        "iterations": 20000,
        "errorThresh": 0.005,
        "log": false,
        "logPeriod": 10,
        "leakyReluAlpha": 0.01,
        "learningRate": 0.3,
        "momentum": 0.1,
        "callbackPeriod": 10,
        "timeout": "Infinity",
        "beta1": 0.9,
        "beta2": 0.999,
        "epsilon": 1e-8
    }
}