{
    "type": "NeuralNetwork",
    "sizes": [
        21,
        4,
        8,
        1
    ],
    "layers": [
        {
            "weights": [],
            "biases": []
        },
        {
            "weights": [
                [
                    15.134282112121582,
                    3.3765997886657715,
                    50.68571853637695,
                    30.84937858581543,
                    55.518592834472656,
                    62.9923095703125,
                    13.084649085998535,
                    11.249338150024414,
                    5.058928966522217,
                    -15.917119026184082,
                    -3.0656049251556396,
                    -6.863230228424072,
                    26.84015464782715,
                    -24.31551742553711,
                    13.683209419250488,
                    -14.20167064666748,
                    11.267175674438477,
                    -12.25706958770752,
                    -29.96702003479004,
                    7.690907001495361,
                    41.09837341308594
                ],
                [
                    -9.608023643493652,
                    -23.06711196899414,
                    0.6393647193908691,
                    8.825538635253906,
                    3.052570343017578,
                    15.694494247436523,
                    23.668127059936523,
                    -31.347015380859375,
                    -24.45316505432129,
                    33.81645584106445,
                    17.96295738220215,
                    19.524433135986328,
                    68.50664520263672,
                    22.19192123413086,
                    -4.226139545440674,
                    15.755295753479004,
                    -0.26321426033973694,
                    34.410133361816406,
                    -18.367074966430664,
                    -3.593724250793457,
                    8.11253833770752
                ],
                [
                    20.58077621459961,
                    38.83414077758789,
                    -16.179162979125977,
                    21.31247901916504,
                    18.29430389404297,
                    -24.050100326538086,
                    0.10064636170864105,
                    18.766433715820312,
                    -14.238968849182129,
                    -32.794708251953125,
                    1.467997431755066,
                    -12.570446968078613,
                    -22.221593856811523,
                    3.390303611755371,
                    10.401997566223145,
                    26.33000373840332,
                    25.754119873046875,
                    7.6261887550354,
                    67.38562774658203,
                    32.98271560668945,
                    17.89160919189453
                ],
                [
                    15.978686332702637,
                    16.777263641357422,
                    18.273456573486328,
                    -11.144389152526855,
                    -15.222352981567383,
                    14.567047119140625,
                    -3.0732340812683105,
                    28.293729782104492,
                    62.203392028808594,
                    41.183441162109375,
                    -5.490804195404053,
                    33.291812896728516,
                    5.340764045715332,
                    18.0012264251709,
                    10.927278518676758,
                    0.6575180292129517,
                    10.953335762023926,
                    8.202195167541504,
                    -16.688730239868164,
                    -2.6639130115509033,
                    -15.514705657958984
                ]
            ],
            "biases": [
                -12.20985221862793,
                -29.333946228027344,
                -91.19712829589844,
                -92.33692932128906
            ]
        },
        {
            "weights": [
                [
                    15.84342098236084,
                    1.2882426977157593,
                    -43.88456344604492,
                    -43.49557113647461
                ],
                [
                    -30.885969161987305,
                    -61.69227600097656,
                    -31.42316246032715,
                    -32.13645553588867
                ],
                [
                    16.620065689086914,
                    -40.356658935546875,
                    -3.4039857387542725,
                    15.248801231384277
                ],
                [
                    9.46452522277832,
                    -1.232785701751709,
                    6.518265724182129,
                    -4.096063613891602
                ],
                [
                    -9.89358901977539,
                    17.886259078979492,
                    -9.874737739562988,
                    -35.10346221923828
                ],
                [
                    -31.98794937133789,
                    64.87003326416016,
                    -31.527231216430664,
                    23.192502975463867
                ],
                [
                    9.462389945983887,
                    -1.2330739498138428,
                    6.519792556762695,
                    -4.095583438873291
                ],
                [
                    9.485041618347168,
                    -1.2338134050369263,
                    6.530520439147949,
                    -4.089319229125977
                ]
            ],
            "biases": [
                -16.940452575683594,
                30.48064422607422,
                -30.79391860961914,
                -18.84532928466797,
                -17.47303581237793,
                -58.477657318115234,
                -18.844688415527344,
                -18.879924774169922
            ]
        },
        {
            "weights": [
                [
                    1.1938495635986328,
                    2.6870996952056885,
                    0.7327484488487244,
                    3.251553773880005,
                    1.2789125442504883,
                    1.1197282075881958,
                    3.2514681816101074,
                    3.2567837238311768
                ]
            ],
            "biases": [
                -0.43733400106430054
            ]
        }
    ],
    "inputLookup": null,
    "inputLookupLength": 0,
    "outputLookup": null,
    "outputLookupLength": 0,
    "options": {
        "inputSize": 0,
        "outputSize": 0,
        "binaryThresh": 0.5,
        "hiddenLayers": [
            4,
            8
        ]
    },
    "trainOpts": {
        "activation": "sigmoid",
        "iterations": 20000,
        "errorThresh": 0.005,
        "log": false,
        "logPeriod": 10,
        "leakyReluAlpha": 0.01,
        "learningRate": 0.3,
        "momentum": 0.1,
        "callbackPeriod": 10,
        "timeout": "Infinity",
        "beta1": 0.9,
        "beta2": 0.999,
        "epsilon": 1e-8
    }
}