{
    "type": "NeuralNetwork",
    "sizes": [
        17,
        4,
        8,
        1
    ],
    "layers": [
        {
            "weights": [],
            "biases": []
        },
        {
            "weights": [
                [
                    30.256824493408203,
                    -15.501192092895508,
                    -20.972232818603516,
                    31.80263900756836,
                    -25.52580451965332,
                    -37.12040328979492,
                    -10.953784942626953,
                    -4.405262470245361,
                    -28.633907318115234,
                    1.653766393661499,
                    15.148649215698242,
                    -2.99025297164917,
                    3.530686140060425,
                    -0.3048095405101776,
                    57.34941482543945,
                    37.420223236083984,
                    19.6977596282959
                ],
                [
                    1.997934341430664,
                    14.83828353881836,
                    12.003650665283203,
                    30.80481719970703,
                    21.862192153930664,
                    8.62391471862793,
                    1.2348512411117554,
                    6.563588619232178,
                    26.775562286376953,
                    -7.140892505645752,
                    -8.203863143920898,
                    0.5565025210380554,
                    -17.671550750732422,
                    1.7123993635177612,
                    31.3971004486084,
                    -10.909568786621094,
                    -8.530853271484375
                ],
                [
                    -14.481703758239746,
                    5.081301212310791,
                    45.02387619018555,
                    -4.391842365264893,
                    13.633487701416016,
                    29.85126495361328,
                    5.0197296142578125,
                    -20.913976669311523,
                    14.824252128601074,
                    39.369850158691406,
                    16.557498931884766,
                    3.2985527515411377,
                    -6.014001846313477,
                    13.029385566711426,
                    -36.93330383300781,
                    14.270097732543945,
                    14.332049369812012
                ],
                [
                    -1.9845702648162842,
                    12.217324256896973,
                    0.634779155254364,
                    -34.288124084472656,
                    15.20159912109375,
                    11.912529945373535,
                    11.265877723693848,
                    26.865623474121094,
                    17.793628692626953,
                    -4.1533989906311035,
                    -3.437194585800171,
                    28.92392921447754,
                    24.73331642150879,
                    7.615918159484863,
                    -21.292871475219727,
                    -12.453250885009766,
                    -15.845590591430664
                ]
            ],
            "biases": [
                -37.94135665893555,
                -46.09571838378906,
                -56.956390380859375,
                -6.073712348937988
            ]
        },
        {
            "weights": [
                [
                    -47.838958740234375,
                    22.213205337524414,
                    -0.9416487812995911,
                    6.505428791046143
                ],
                [
                    14.010910034179688,
                    -1.8521114587783813,
                    5.267769813537598,
                    -29.81858253479004
                ],
                [
                    -10.152453422546387,
                    -33.426849365234375,
                    -0.3440062403678894,
                    2.1257941722869873
                ],
                [
                    0.5093944668769836,
                    -1.4087384939193726,
                    -1.8879259824752808,
                    3.2433359622955322
                ],
                [
                    -13.063867568969727,
                    -2.318434476852417,
                    32.03645324707031,
                    -3.801121234893799
                ],
                [
                    -10.412891387939453,
                    -36.223228454589844,
                    -0.3632274568080902,
                    2.1370582580566406
                ],
                [
                    -42.4921760559082,
                    79.63269805908203,
                    -46.560577392578125,
                    -53.199363708496094
                ],
                [
                    -15.583494186401367,
                    -69.86917877197266,
                    -72.99080657958984,
                    -18.739564895629883
                ]
            ],
            "biases": [
                -30.50323486328125,
                -20.785125732421875,
                -4.37741231918335,
                -5.800552845001221,
                -31.319063186645508,
                -4.3487467765808105,
                -37.734825134277344,
                15.835783004760742
            ]
        },
        {
            "weights": [
                [
                    1.0808805227279663,
                    1.5229883193969727,
                    2.5223591327667236,
                    1.7196539640426636,
                    1.2302181720733643,
                    2.4766759872436523,
                    1.3985408544540405,
                    1.4625738859176636
                ]
            ],
            "biases": [
                -0.44630375504493713
            ]
        }
    ],
    "inputLookup": null,
    "inputLookupLength": 0,
    "outputLookup": null,
    "outputLookupLength": 0,
    "options": {
        "inputSize": 0,
        "outputSize": 0,
        "binaryThresh": 0.5,
        "hiddenLayers": [
            4,
            8
        ]
    },
    "trainOpts": {
        "activation": "sigmoid",
        "iterations": 20000,
        "errorThresh": 0.005,
        "log": false,
        "logPeriod": 10,
        "leakyReluAlpha": 0.01,
        "learningRate": 0.3,
        "momentum": 0.1,
        "callbackPeriod": 10,
        "timeout": "Infinity",
        "beta1": 0.9,
        "beta2": 0.999,
        "epsilon": 1e-8
    }
}