{
    "type": "NeuralNetwork",
    "sizes": [
        20,
        4,
        8,
        1
    ],
    "layers": [
        {
            "weights": [],
            "biases": []
        },
        {
            "weights": [
                [
                    -9.74468994140625,
                    4.518046855926514,
                    22.574378967285156,
                    -27.920907974243164,
                    -8.753400802612305,
                    -13.878205299377441,
                    -13.028761863708496,
                    -15.321043968200684,
                    19.560781478881836,
                    -18.913108825683594,
                    -3.3399224281311035,
                    11.381251335144043,
                    5.649944305419922,
                    -4.045614719390869,
                    -7.125729560852051,
                    10.154783248901367,
                    14.728450775146484,
                    13.857521057128906,
                    36.73105239868164,
                    19.544408798217773
                ],
                [
                    10.289826393127441,
                    -0.38018152117729187,
                    -36.50031280517578,
                    6.611678123474121,
                    33.50349426269531,
                    38.54851531982422,
                    63.494876861572266,
                    46.55293655395508,
                    2.4523324966430664,
                    2.01010799407959,
                    25.18528175354004,
                    30.651336669921875,
                    -19.246213912963867,
                    -0.8311249017715454,
                    6.79904317855835,
                    -4.98167085647583,
                    10.626378059387207,
                    36.8861083984375,
                    -31.571155548095703,
                    -15.668974876403809
                ],
                [
                    44.91770553588867,
                    1.4627721309661865,
                    -8.736140251159668,
                    44.680442810058594,
                    4.320526123046875,
                    -15.185601234436035,
                    4.795641899108887,
                    -4.296445369720459,
                    -10.61135196685791,
                    31.824628829956055,
                    4.060267448425293,
                    -28.790307998657227,
                    10.871010780334473,
                    12.574960708618164,
                    1.9149620532989502,
                    4.717255592346191,
                    -5.893834590911865,
                    19.263551712036133,
                    -5.183865547180176,
                    3.8984739780426025
                ],
                [
                    0.9086818695068359,
                    -0.580049991607666,
                    9.066039085388184,
                    0.31791943311691284,
                    7.314516067504883,
                    33.32265090942383,
                    -30.515111923217773,
                    16.786602020263672,
                    24.790607452392578,
                    19.043420791625977,
                    3.09382700920105,
                    38.23246765136719,
                    41.15085983276367,
                    9.191417694091797,
                    39.39853286743164,
                    0.16419711709022522,
                    16.818023681640625,
                    -35.51295471191406,
                    -4.459296703338623,
                    -10.087752342224121
                ]
            ],
            "biases": [
                -11.948935508728027,
                -66.54861450195312,
                -39.21466827392578,
                -41.97019958496094
            ]
        },
        {
            "weights": [
                [
                    -4.8077287673950195,
                    -22.45263671875,
                    -59.59537124633789,
                    37.22391891479492
                ],
                [
                    -16.760478973388672,
                    5.663102626800537,
                    -0.3179317116737366,
                    7.57319974899292
                ],
                [
                    -65.74494171142578,
                    -14.970939636230469,
                    58.38081359863281,
                    -14.58955192565918
                ],
                [
                    4.670703411102295,
                    10.973092079162598,
                    -2.6385250091552734,
                    -2.488550901412964
                ],
                [
                    -49.90403366088867,
                    24.1474552154541,
                    -36.0809211730957,
                    -3.8963935375213623
                ],
                [
                    -33.310848236083984,
                    -41.043487548828125,
                    -55.48930740356445,
                    -46.50803756713867
                ],
                [
                    31.144989013671875,
                    -3.2667596340179443,
                    3.935225009918213,
                    -22.493186950683594
                ],
                [
                    6.567914962768555,
                    -14.538308143615723,
                    -13.021947860717773,
                    17.646102905273438
                ]
            ],
            "biases": [
                -32.186641693115234,
                -16.079999923706055,
                -44.11132049560547,
                -16.057512283325195,
                -22.576608657836914,
                31.118337631225586,
                -34.91062927246094,
                -26.8071231842041
            ]
        },
        {
            "weights": [
                [
                    1.3269379138946533,
                    2.283709764480591,
                    1.1905770301818848,
                    1.4759931564331055,
                    1.9257112741470337,
                    10.524288177490234,
                    0.8005710244178772,
                    2.666152000427246
                ]
            ],
            "biases": [
                -0.44836047291755676
            ]
        }
    ],
    "inputLookup": null,
    "inputLookupLength": 0,
    "outputLookup": null,
    "outputLookupLength": 0,
    "options": {
        "inputSize": 0,
        "outputSize": 0,
        "binaryThresh": 0.5,
        "hiddenLayers": [
            4,
            8
        ]
    },
    "trainOpts": {
        "activation": "sigmoid",
        "iterations": 20000,
        "errorThresh": 0.005,
        "log": false,
        "logPeriod": 10,
        "leakyReluAlpha": 0.01,
        "learningRate": 0.3,
        "momentum": 0.1,
        "callbackPeriod": 10,
        "timeout": "Infinity",
        "beta1": 0.9,
        "beta2": 0.999,
        "epsilon": 1e-8
    }
}