{
    "type": "NeuralNetwork",
    "sizes": [
        9,
        4,
        8,
        1
    ],
    "layers": [
        {
            "weights": [],
            "biases": []
        },
        {
            "weights": [
                [
                    9.151363372802734,
                    -2.53568959236145,
                    7.495794296264648,
                    -5.458818435668945,
                    6.28936767578125,
                    7.003109931945801,
                    5.89384126663208,
                    5.60248327255249,
                    11.955275535583496
                ],
                [
                    -4.868105411529541,
                    2.7056057453155518,
                    4.436951637268066,
                    8.708556175231934,
                    7.09014368057251,
                    -1.9696462154388428,
                    9.987276077270508,
                    10.152061462402344,
                    -0.4687657952308655
                ],
                [
                    30.516557693481445,
                    22.259056091308594,
                    11.078224182128906,
                    32.844329833984375,
                    14.326632499694824,
                    5.527535915374756,
                    -19.744552612304688,
                    -11.796321868896484,
                    -18.866106033325195
                ],
                [
                    46.51261520385742,
                    26.169809341430664,
                    -18.362436294555664,
                    -6.226967811584473,
                    -23.80210304260254,
                    46.48781967163086,
                    -15.581982612609863,
                    -21.435802459716797,
                    34.07896041870117
                ]
            ],
            "biases": [
                -36.45952224731445,
                -20.55638313293457,
                -17.904817581176758,
                -3.7816781997680664
            ]
        },
        {
            "weights": [
                [
                    -12.343897819519043,
                    -11.210112571716309,
                    -1.3765990734100342,
                    -0.8796482086181641
                ],
                [
                    -2.316437244415283,
                    -0.9565760493278503,
                    16.906522750854492,
                    -1.3725266456604004
                ],
                [
                    -2.3213143348693848,
                    -0.9541800618171692,
                    16.94583511352539,
                    -1.3741153478622437
                ],
                [
                    -2.3213183879852295,
                    -0.9534335732460022,
                    16.97749137878418,
                    -1.3735488653182983
                ],
                [
                    24.917957305908203,
                    -3.5026705265045166,
                    -24.997034072875977,
                    -2.0434889793395996
                ],
                [
                    -14.988481521606445,
                    4.416688442230225,
                    -32.324642181396484,
                    -0.01687505468726158
                ],
                [
                    -31.189102172851562,
                    -41.228878021240234,
                    -2.3155677318573,
                    22.232519149780273
                ],
                [
                    2.598609209060669,
                    -2.1184396743774414,
                    -22.219829559326172,
                    -25.5494327545166
                ]
            ],
            "biases": [
                -2.616971969604492,
                -19.44837760925293,
                -19.488521575927734,
                -19.523448944091797,
                -23.260154724121094,
                -6.135044574737549,
                -23.874156951904297,
                -2.243995189666748
            ]
        },
        {
            "weights": [
                [
                    3.921266555786133,
                    2.9022769927978516,
                    2.9043478965759277,
                    2.9107635021209717,
                    1.4877208471298218,
                    1.4228326082229614,
                    2.1560795307159424,
                    4.2170538902282715
                ]
            ],
            "biases": [
                -0.44497767090797424
            ]
        }
    ],
    "inputLookup": null,
    "inputLookupLength": 0,
    "outputLookup": null,
    "outputLookupLength": 0,
    "options": {
        "inputSize": 0,
        "outputSize": 0,
        "binaryThresh": 0.5,
        "hiddenLayers": [
            4,
            8
        ]
    },
    "trainOpts": {
        "activation": "sigmoid",
        "iterations": 20000,
        "errorThresh": 0.005,
        "log": false,
        "logPeriod": 10,
        "leakyReluAlpha": 0.01,
        "learningRate": 0.3,
        "momentum": 0.1,
        "callbackPeriod": 10,
        "timeout": "Infinity",
        "beta1": 0.9,
        "beta2": 0.999,
        "epsilon": 1e-8
    }
}