{
    "type": "NeuralNetwork",
    "sizes": [
        6,
        4,
        8,
        1
    ],
    "layers": [
        {
            "weights": [],
            "biases": []
        },
        {
            "weights": [
                [
                    0.9060828685760498,
                    5.740744113922119,
                    5.283162593841553,
                    11.197803497314453,
                    3.369502067565918,
                    19.43427276611328
                ],
                [
                    -5.287817001342773,
                    -9.292665481567383,
                    6.7896504402160645,
                    -1.6821445226669312,
                    4.837335586547852,
                    0.11448653787374496
                ],
                [
                    13.383598327636719,
                    4.463465213775635,
                    -3.4674394130706787,
                    -9.257960319519043,
                    4.4326066970825195,
                    -13.996100425720215
                ],
                [
                    6.30863618850708,
                    9.340859413146973,
                    8.90828800201416,
                    12.710160255432129,
                    3.1176533699035645,
                    3.4466850757598877
                ]
            ],
            "biases": [
                -21.508968353271484,
                -2.9857048988342285,
                8.405527114868164,
                -19.03527069091797
            ]
        },
        {
            "weights": [
                [
                    -1.2249046564102173,
                    0.6135706305503845,
                    -1.1938139200210571,
                    -1.0695871114730835
                ],
                [
                    0.21530501544475555,
                    -0.43264415860176086,
                    -0.4401211738586426,
                    -10.037439346313477
                ],
                [
                    -0.9940099120140076,
                    0.26444849371910095,
                    -1.358277440071106,
                    -1.180206060409546
                ],
                [
                    -1.2263779640197754,
                    0.6171931028366089,
                    -1.192259430885315,
                    -1.0687624216079712
                ],
                [
                    -0.5892875790596008,
                    -14.706589698791504,
                    -0.17239655554294586,
                    -7.734264373779297
                ],
                [
                    -1.2287871837615967,
                    0.6192474961280823,
                    -1.192706823348999,
                    -1.067708969116211
                ],
                [
                    -0.5814763307571411,
                    -14.47099781036377,
                    -0.16819879412651062,
                    -7.700928211212158
                ],
                [
                    -3.9955389499664307,
                    -13.67192554473877,
                    -3.3420214653015137,
                    7.487826347351074
                ]
            ],
            "biases": [
                -4.096726894378662,
                -4.521956443786621,
                -3.8856003284454346,
                -4.094174385070801,
                -4.0644707679748535,
                -4.091052532196045,
                -4.0772809982299805,
                -6.456673622131348
            ]
        },
        {
            "weights": [
                [
                    5.022935390472412,
                    5.168368816375732,
                    5.146723747253418,
                    4.995676040649414,
                    5.609983921051025,
                    4.978480815887451,
                    5.615139007568359,
                    2.6129515171051025
                ]
            ],
            "biases": [
                -0.361619234085083
            ]
        }
    ],
    "inputLookup": null,
    "inputLookupLength": 0,
    "outputLookup": null,
    "outputLookupLength": 0,
    "options": {
        "inputSize": 0,
        "outputSize": 0,
        "binaryThresh": 0.5,
        "hiddenLayers": [
            4,
            8
        ]
    },
    "trainOpts": {
        "activation": "sigmoid",
        "iterations": 20000,
        "errorThresh": 0.005,
        "log": false,
        "logPeriod": 10,
        "leakyReluAlpha": 0.01,
        "learningRate": 0.3,
        "momentum": 0.1,
        "callbackPeriod": 10,
        "timeout": "Infinity",
        "beta1": 0.9,
        "beta2": 0.999,
        "epsilon": 1e-8
    }
}