{
    "type": "NeuralNetwork",
    "sizes": [
        5,
        10,
        1
    ],
    "layers": [
        {
            "weights": [],
            "biases": []
        },
        {
            "weights": [
                [
                    -4.426426410675049,
                    -4.6524882316589355,
                    -4.554784297943115,
                    -4.031988143920898,
                    -0.44150158762931824
                ],
                [
                    5.213154315948486,
                    3.4453885555267334,
                    -4.0943427085876465,
                    -7.676565647125244,
                    -7.44677734375
                ],
                [
                    -0.5932461023330688,
                    0.5751962661743164,
                    -6.3340373039245605,
                    -4.481541156768799,
                    1.18020761013031
                ],
                [
                    3.4136712551116943,
                    -1.1218639612197876,
                    -2.757984161376953,
                    -5.6396403312683105,
                    1.6796337366104126
                ],
                [
                    -7.289840221405029,
                    3.1886403560638428,
                    -7.706125736236572,
                    5.596707820892334,
                    -7.261285781860352
                ],
                [
                    0.019462455064058304,
                    -6.8472113609313965,
                    4.590716361999512,
                    -6.746845722198486,
                    1.2058587074279785
                ],
                [
                    -2.011767864227295,
                    -6.273723602294922,
                    1.7288379669189453,
                    -0.10348114371299744,
                    -4.570053577423096
                ],
                [
                    2.218672275543213,
                    -9.495440483093262,
                    -5.8784379959106445,
                    3.5146989822387695,
                    4.651068210601807
                ],
                [
                    -1.3100167512893677,
                    3.7954559326171875,
                    -1.8314132690429688,
                    7.887756824493408,
                    -4.485008239746094
                ],
                [
                    1.2493406534194946,
                    -4.640050888061523,
                    -2.2365264892578125,
                    2.7467904090881348,
                    -3.7902936935424805
                ]
            ],
            "biases": [
                -3.0055952072143555,
                -8.102742195129395,
                -3.8660576343536377,
                -6.2780680656433105,
                -7.924890041351318,
                -6.366034984588623,
                -4.270063877105713,
                -8.818804740905762,
                -10.551492691040039,
                -6.417294979095459
            ]
        },
        {
            "weights": [
                [
                    -2.9334330558776855,
                    -1.1216100454330444,
                    2.1411311626434326,
                    1.5425623655319214,
                    -1.2844257354736328,
                    1.1712850332260132,
                    2.317577362060547,
                    1.311913013458252,
                    1.3463629484176636,
                    -1.566566824913025
                ]
            ],
            "biases": [
                -0.4885554611682892
            ]
        }
    ],
    "inputLookup": null,
    "inputLookupLength": 0,
    "outputLookup": null,
    "outputLookupLength": 0,
    "options": {
        "inputSize": 0,
        "outputSize": 0,
        "binaryThresh": 0.5,
        "hiddenLayers": [
            10
        ]
    },
    "trainOpts": {
        "activation": "sigmoid",
        "iterations": 20000,
        "errorThresh": 0.005,
        "log": false,
        "logPeriod": 10,
        "leakyReluAlpha": 0.01,
        "learningRate": 0.3,
        "momentum": 0.1,
        "callbackPeriod": 10,
        "timeout": "Infinity",
        "beta1": 0.9,
        "beta2": 0.999,
        "epsilon": 1e-8
    }
}