{
    "type": "NeuralNetwork",
    "sizes": [
        10,
        10,
        1
    ],
    "layers": [
        {
            "weights": [],
            "biases": []
        },
        {
            "weights": [
                [
                    1.6226696968078613,
                    -3.4529240131378174,
                    -49.57902145385742,
                    26.91843032836914,
                    -0.5647257566452026,
                    40.62446975708008,
                    -4.765132427215576,
                    -33.429710388183594,
                    17.502182006835938,
                    -21.886857986450195
                ],
                [
                    -17.212127685546875,
                    -4.4578447341918945,
                    -15.688167572021484,
                    -11.393656730651855,
                    -11.839923858642578,
                    -1.717110276222229,
                    -24.367368698120117,
                    -15.8475980758667,
                    1.5146489143371582,
                    6.1268815994262695
                ],
                [
                    -15.703717231750488,
                    0.26357501745224,
                    19.105697631835938,
                    -32.51102066040039,
                    8.427764892578125,
                    -43.73493194580078,
                    -20.45965576171875,
                    -8.978147506713867,
                    37.793663024902344,
                    -12.935444831848145
                ],
                [
                    -20.29804229736328,
                    15.481986045837402,
                    -23.93535614013672,
                    -9.296740531921387,
                    -37.21480941772461,
                    27.8320369720459,
                    0.49860021471977234,
                    -4.993571758270264,
                    -10.721796989440918,
                    6.405498027801514
                ],
                [
                    -5.275212287902832,
                    15.04011344909668,
                    -41.73835754394531,
                    -40.51434326171875,
                    7.497556209564209,
                    -17.9105224609375,
                    5.420093536376953,
                    -20.18520164489746,
                    3.1083908081054688,
                    -30.934762954711914
                ],
                [
                    -4.909030914306641,
                    0.8138099312782288,
                    -24.15386390686035,
                    -38.087459564208984,
                    -19.001768112182617,
                    -4.670155048370361,
                    29.477115631103516,
                    0.15580448508262634,
                    -16.23429298400879,
                    -9.688701629638672
                ],
                [
                    -43.74492645263672,
                    -14.541847229003906,
                    9.196908950805664,
                    -21.238540649414062,
                    -35.721885681152344,
                    -3.0688538551330566,
                    -11.517809867858887,
                    -25.633983612060547,
                    36.88957214355469,
                    -3.4868736267089844
                ],
                [
                    10.469775199890137,
                    59.65240478515625,
                    5.600862503051758,
                    -34.02619552612305,
                    13.6489839553833,
                    -23.132278442382812,
                    -8.108427047729492,
                    -7.9042253494262695,
                    -21.139543533325195,
                    8.437841415405273
                ],
                [
                    -23.60973358154297,
                    -9.43833065032959,
                    1.3077328205108643,
                    -8.056116104125977,
                    -6.860908031463623,
                    -22.405712127685547,
                    -22.639820098876953,
                    -13.128948211669922,
                    20.778697967529297,
                    -0.4179593026638031
                ],
                [
                    -5.215437412261963,
                    -46.14441680908203,
                    16.087726593017578,
                    39.801292419433594,
                    -9.71996021270752,
                    -8.317907333374023,
                    -21.014068603515625,
                    15.846441268920898,
                    -30.81505012512207,
                    24.33641815185547
                ]
            ],
            "biases": [
                9.530867576599121,
                10.804460525512695,
                -11.784199714660645,
                -14.827949523925781,
                18.475858688354492,
                4.1786417961120605,
                -7.071399688720703,
                -1.9228614568710327,
                0.32036206126213074,
                -39.92734909057617
            ]
        },
        {
            "weights": [
                [
                    1.737932801246643,
                    4.752691268920898,
                    3.530329942703247,
                    -3.1722373962402344,
                    -3.7629194259643555,
                    3.0281643867492676,
                    5.107097625732422,
                    1.5753066539764404,
                    -9.162220001220703,
                    3.270890474319458
                ]
            ],
            "biases": [
                -2.3624279499053955
            ]
        }
    ],
    "inputLookup": null,
    "inputLookupLength": 0,
    "outputLookup": null,
    "outputLookupLength": 0,
    "options": {
        "inputSize": 0,
        "outputSize": 0,
        "binaryThresh": 0.5,
        "hiddenLayers": [
            10
        ]
    },
    "trainOpts": {
        "activation": "sigmoid",
        "iterations": 20000,
        "errorThresh": 0.005,
        "log": false,
        "logPeriod": 10,
        "leakyReluAlpha": 0.01,
        "learningRate": 0.3,
        "momentum": 0.1,
        "callbackPeriod": 10,
        "timeout": "Infinity",
        "beta1": 0.9,
        "beta2": 0.999,
        "epsilon": 1e-8
    }
}