{
    "type": "NeuralNetwork",
    "sizes": [
        20,
        10,
        1
    ],
    "layers": [
        {
            "weights": [],
            "biases": []
        },
        {
            "weights": [
                [
                    1.3706353902816772,
                    -9.602911949157715,
                    -29.522279739379883,
                    -25.622697830200195,
                    -11.452644348144531,
                    -26.73479652404785,
                    -7.677071571350098,
                    -19.554821014404297,
                    25.03873634338379,
                    -42.3839111328125,
                    -14.277815818786621,
                    -32.6483268737793,
                    -13.078283309936523,
                    -33.249114990234375,
                    14.654950141906738,
                    -11.741597175598145,
                    -7.666536331176758,
                    -7.9288105964660645,
                    -14.930686950683594,
                    33.826904296875
                ],
                [
                    -30.231855392456055,
                    -2.7629377841949463,
                    -3.9154250621795654,
                    -50.26258850097656,
                    2.9248805046081543,
                    4.074268341064453,
                    -16.084068298339844,
                    6.114724636077881,
                    -3.368988037109375,
                    -31.168516159057617,
                    24.638355255126953,
                    -15.826268196105957,
                    -27.050180435180664,
                    10.415127754211426,
                    -11.419112205505371,
                    1.5044851303100586,
                    8.741292953491211,
                    -15.229758262634277,
                    -0.7872422337532043,
                    -18.385986328125
                ],
                [
                    12.971573829650879,
                    32.75457000732422,
                    -7.06017541885376,
                    -26.237550735473633,
                    -24.816701889038086,
                    -7.496794700622559,
                    35.8338623046875,
                    51.07646179199219,
                    -39.56795883178711,
                    -62.51395034790039,
                    -33.27568435668945,
                    -23.53420639038086,
                    19.855661392211914,
                    11.829733848571777,
                    -26.17818260192871,
                    -26.07792091369629,
                    -44.66788101196289,
                    4.31156587600708,
                    15.481234550476074,
                    -43.523582458496094
                ],
                [
                    -10.633153915405273,
                    -0.12095048278570175,
                    -5.7475714683532715,
                    5.178837299346924,
                    -35.83342361450195,
                    24.37329864501953,
                    2.029715061187744,
                    -28.907766342163086,
                    -64.11952209472656,
                    -35.012062072753906,
                    7.154341220855713,
                    25.445154190063477,
                    16.60222053527832,
                    -4.474667549133301,
                    9.948870658874512,
                    -37.1403923034668,
                    16.29534912109375,
                    -33.08940124511719,
                    -21.155672073364258,
                    35.80760192871094
                ],
                [
                    -14.996091842651367,
                    19.936870574951172,
                    -12.117526054382324,
                    -58.53150939941406,
                    10.604345321655273,
                    -37.66567611694336,
                    -25.0239315032959,
                    -9.39785099029541,
                    0.13450942933559418,
                    -13.268364906311035,
                    -19.328205108642578,
                    24.161378860473633,
                    -5.509204864501953,
                    29.136796951293945,
                    30.097675323486328,
                    -31.081754684448242,
                    2.6264407634735107,
                    -17.1519775390625,
                    -9.218841552734375,
                    -30.323232650756836
                ],
                [
                    -0.7778530120849609,
                    8.49992847442627,
                    -5.569411754608154,
                    -17.958349227905273,
                    -11.447563171386719,
                    -10.24521255493164,
                    -1.9407068490982056,
                    0.2823214828968048,
                    -26.572879791259766,
                    -23.93773078918457,
                    -23.21143341064453,
                    -2.866652727127075,
                    -5.129486560821533,
                    -12.825604438781738,
                    21.276514053344727,
                    -20.717384338378906,
                    -5.993958950042725,
                    -15.715710639953613,
                    17.30477523803711,
                    -38.6870231628418
                ],
                [
                    -16.687026977539062,
                    18.76493263244629,
                    -2.28261137008667,
                    0.051888808608055115,
                    -9.395586967468262,
                    -8.67148208618164,
                    -19.810680389404297,
                    -5.230704307556152,
                    -6.790733814239502,
                    1.6610599756240845,
                    -6.500197410583496,
                    1.4768472909927368,
                    0.6964780688285828,
                    4.259751796722412,
                    -3.441103935241699,
                    2.4133732318878174,
                    -10.931443214416504,
                    10.855137825012207,
                    -4.459572792053223,
                    -12.7390718460083
                ],
                [
                    11.441692352294922,
                    -5.225882530212402,
                    -5.833705902099609,
                    -13.81840991973877,
                    -3.069748878479004,
                    8.676016807556152,
                    5.840958595275879,
                    -0.2886946201324463,
                    -16.7338924407959,
                    10.511614799499512,
                    -2.753889322280884,
                    -16.656387329101562,
                    -33.93241882324219,
                    7.521199703216553,
                    -27.910612106323242,
                    6.905159950256348,
                    13.582048416137695,
                    -11.89892292022705,
                    -2.865582227706909,
                    -30.58050537109375
                ],
                [
                    -1.301080584526062,
                    -2.393831491470337,
                    -1.9268367290496826,
                    -46.08451843261719,
                    -20.09969711303711,
                    15.15898323059082,
                    -17.034454345703125,
                    -1.7735904455184937,
                    -38.57879638671875,
                    11.623822212219238,
                    7.977556228637695,
                    -40.85525894165039,
                    -41.906864166259766,
                    21.980690002441406,
                    -26.021358489990234,
                    11.163487434387207,
                    28.526832580566406,
                    5.636066436767578,
                    14.434134483337402,
                    -25.71723747253418
                ],
                [
                    -2.2391483783721924,
                    -10.586395263671875,
                    -30.077014923095703,
                    -13.3412446975708,
                    -6.602013111114502,
                    3.3515210151672363,
                    2.425351858139038,
                    1.137276291847229,
                    -2.809168577194214,
                    4.668203830718994,
                    -18.478361129760742,
                    -15.305277824401855,
                    -12.898469924926758,
                    22.98021697998047,
                    -8.504766464233398,
                    -16.41278076171875,
                    4.95192813873291,
                    15.832538604736328,
                    17.955171585083008,
                    27.293859481811523
                ]
            ],
            "biases": [
                17.068252563476562,
                7.59608268737793,
                6.9411091804504395,
                -25.190603256225586,
                -7.727709770202637,
                18.989248275756836,
                -13.813179016113281,
                -3.0801103115081787,
                3.672807216644287,
                -33.910640716552734
            ]
        },
        {
            "weights": [
                [
                    48.32731628417969,
                    -34.08538055419922,
                    2.306103467941284,
                    2.4816880226135254,
                    44.91259765625,
                    -47.88671875,
                    -72.84281158447266,
                    -35.60575485229492,
                    34.24324035644531,
                    -34.127315521240234
                ]
            ],
            "biases": [
                -0.3563564419746399
            ]
        }
    ],
    "inputLookup": null,
    "inputLookupLength": 0,
    "outputLookup": null,
    "outputLookupLength": 0,
    "options": {
        "inputSize": 0,
        "outputSize": 0,
        "binaryThresh": 0.5,
        "hiddenLayers": [
            10
        ]
    },
    "trainOpts": {
        "activation": "sigmoid",
        "iterations": 20000,
        "errorThresh": 0.005,
        "log": false,
        "logPeriod": 10,
        "leakyReluAlpha": 0.01,
        "learningRate": 0.3,
        "momentum": 0.1,
        "callbackPeriod": 10,
        "timeout": "Infinity",
        "beta1": 0.9,
        "beta2": 0.999,
        "epsilon": 1e-8
    }
}