{
    "type": "NeuralNetwork",
    "sizes": [
        20,
        10,
        1
    ],
    "layers": [
        {
            "weights": [],
            "biases": []
        },
        {
            "weights": [
                [
                    -3.554922342300415,
                    -5.909964561462402,
                    -5.2737226486206055,
                    6.281962871551514,
                    0.9330266118049622,
                    6.381221771240234,
                    -2.6512904167175293,
                    -5.427670955657959,
                    0.2237618863582611,
                    5.678551197052002,
                    -2.111994504928589,
                    -5.273044586181641,
                    -1.0080963373184204,
                    -4.819077968597412,
                    -1.6071208715438843,
                    -13.831544876098633,
                    -7.4174628257751465,
                    3.4977400302886963,
                    -4.129566669464111,
                    7.448022842407227
                ],
                [
                    -10.17367935180664,
                    -41.6580924987793,
                    19.956083297729492,
                    -16.40279197692871,
                    -22.694175720214844,
                    -13.097494125366211,
                    -19.787160873413086,
                    -24.20115852355957,
                    3.238724946975708,
                    -22.55512809753418,
                    -15.409392356872559,
                    -2.208237886428833,
                    -0.06450509279966354,
                    -18.773656845092773,
                    11.216376304626465,
                    17.78025245666504,
                    -5.612473011016846,
                    17.623760223388672,
                    12.862834930419922,
                    7.626100063323975
                ],
                [
                    -27.239398956298828,
                    -23.012067794799805,
                    0.18899543583393097,
                    3.0770180225372314,
                    -18.81822967529297,
                    -44.58925247192383,
                    13.387341499328613,
                    2.6008737087249756,
                    -23.003816604614258,
                    18.475238800048828,
                    -2.8783466815948486,
                    16.996232986450195,
                    5.284486770629883,
                    7.162476062774658,
                    14.939742088317871,
                    -21.312353134155273,
                    -19.95124626159668,
                    14.578791618347168,
                    4.8817057609558105,
                    -7.008636474609375
                ],
                [
                    -7.216798305511475,
                    -10.041950225830078,
                    -36.823455810546875,
                    1.562591552734375,
                    -0.18560172617435455,
                    -8.104604721069336,
                    12.315413475036621,
                    -12.460075378417969,
                    22.338876724243164,
                    0.17937806248664856,
                    9.692621231079102,
                    21.358631134033203,
                    -20.727685928344727,
                    -20.711076736450195,
                    8.920660018920898,
                    -27.08497428894043,
                    -28.017780303955078,
                    -9.787715911865234,
                    -3.311112403869629,
                    31.893634796142578
                ],
                [
                    8.584441184997559,
                    -13.02092170715332,
                    -12.498527526855469,
                    35.22822952270508,
                    -12.514463424682617,
                    -0.6316400170326233,
                    -36.38711929321289,
                    9.083746910095215,
                    10.536585807800293,
                    14.851922035217285,
                    -14.30137825012207,
                    -1.0593169927597046,
                    13.839276313781738,
                    -32.71445846557617,
                    -9.978083610534668,
                    -7.478132247924805,
                    -15.799332618713379,
                    -5.533665180206299,
                    -4.89011812210083,
                    1.0749256610870361
                ],
                [
                    -18.12558937072754,
                    -36.96807098388672,
                    3.532468795776367,
                    8.516946792602539,
                    4.611588001251221,
                    -2.1146981716156006,
                    47.77370834350586,
                    -15.396263122558594,
                    -19.135591506958008,
                    -21.471683502197266,
                    -9.98106861114502,
                    -13.891648292541504,
                    -8.620909690856934,
                    -17.210886001586914,
                    -29.04991340637207,
                    2.9619500637054443,
                    -2.922934055328369,
                    9.104182243347168,
                    19.46491241455078,
                    -2.2172722816467285
                ],
                [
                    -2.8042001724243164,
                    -9.462249755859375,
                    2.798806667327881,
                    6.914900779724121,
                    -11.177054405212402,
                    -6.5828471183776855,
                    -3.163621425628662,
                    -9.07534122467041,
                    -18.323301315307617,
                    3.315873384475708,
                    -5.007861614227295,
                    -1.838630199432373,
                    5.4684014320373535,
                    -6.204338073730469,
                    9.896327018737793,
                    -3.782134532928467,
                    -14.294124603271484,
                    14.033987045288086,
                    -2.1640961170196533,
                    -1.7944719791412354
                ],
                [
                    -22.004955291748047,
                    5.8813323974609375,
                    5.948505878448486,
                    10.963069915771484,
                    -15.594321250915527,
                    -1.4380210638046265,
                    -29.209022521972656,
                    -5.312607765197754,
                    -14.623896598815918,
                    -25.281169891357422,
                    -2.6662211418151855,
                    -7.439905166625977,
                    -9.442719459533691,
                    5.030901908874512,
                    2.507411241531372,
                    16.6474552154541,
                    -6.720167636871338,
                    -3.987811326980591,
                    -7.844241142272949,
                    -5.481103420257568
                ],
                [
                    -9.011528015136719,
                    -1.497619867324829,
                    -0.7879775166511536,
                    12.847270011901855,
                    9.345318794250488,
                    6.569912433624268,
                    -2.0216991901397705,
                    -6.094854354858398,
                    -0.519547700881958,
                    -7.490135669708252,
                    -13.646604537963867,
                    2.1353869438171387,
                    -1.9714949131011963,
                    -2.185105800628662,
                    -7.722207069396973,
                    20.117019653320312,
                    -8.57653522491455,
                    -11.50924015045166,
                    -3.713479518890381,
                    -17.981691360473633
                ],
                [
                    -24.8680362701416,
                    -9.109787940979004,
                    -13.76223373413086,
                    -0.7142521739006042,
                    1.190984845161438,
                    15.486248970031738,
                    -15.782499313354492,
                    6.134790420532227,
                    -1.554616928100586,
                    12.147265434265137,
                    -8.69864273071289,
                    -2.096146583557129,
                    -33.991310119628906,
                    -1.2863882780075073,
                    -10.943897247314453,
                    11.823607444763184,
                    7.246011734008789,
                    -15.575650215148926,
                    0.12072456628084183,
                    16.17686653137207
                ]
            ],
            "biases": [
                1.8023900985717773,
                21.017580032348633,
                -2.606550455093384,
                -2.0861382484436035,
                -7.101771354675293,
                -17.5093994140625,
                0.0012077235151082277,
                2.5592639446258545,
                -11.890652656555176,
                -11.84439754486084
            ]
        },
        {
            "weights": [
                [
                    -59.23588562011719,
                    -35.85609817504883,
                    -20.996234893798828,
                    20.367582321166992,
                    38.39994430541992,
                    43.52706527709961,
                    62.16454315185547,
                    43.52166748046875,
                    -47.37226867675781,
                    38.44481658935547
                ]
            ],
            "biases": [
                0.020873889327049255
            ]
        }
    ],
    "inputLookup": null,
    "inputLookupLength": 0,
    "outputLookup": null,
    "outputLookupLength": 0,
    "options": {
        "inputSize": 0,
        "outputSize": 0,
        "binaryThresh": 0.5,
        "hiddenLayers": [
            10
        ]
    },
    "trainOpts": {
        "activation": "sigmoid",
        "iterations": 20000,
        "errorThresh": 0.005,
        "log": false,
        "logPeriod": 10,
        "leakyReluAlpha": 0.01,
        "learningRate": 0.3,
        "momentum": 0.1,
        "callbackPeriod": 10,
        "timeout": "Infinity",
        "beta1": 0.9,
        "beta2": 0.999,
        "epsilon": 1e-8
    }
}