{
    "type": "NeuralNetwork",
    "sizes": [
        20,
        10,
        1
    ],
    "layers": [
        {
            "weights": [],
            "biases": []
        },
        {
            "weights": [
                [
                    2.288674831390381,
                    6.624521255493164,
                    -5.051762580871582,
                    5.008607387542725,
                    8.92696762084961,
                    -3.6052892208099365,
                    0.3302239179611206,
                    5.035233974456787,
                    -11.706010818481445,
                    -1.708224892616272,
                    -8.403536796569824,
                    -1.1713249683380127,
                    -4.058943271636963,
                    -4.5453901290893555,
                    2.2197749614715576,
                    10.049796104431152,
                    1.1119266748428345,
                    -4.339457988739014,
                    9.570006370544434,
                    -0.560260534286499
                ],
                [
                    -0.6646345257759094,
                    4.062417507171631,
                    -6.263118743896484,
                    1.1897205114364624,
                    -0.7119686007499695,
                    -7.168296813964844,
                    -6.86466646194458,
                    -2.4174675941467285,
                    3.12074613571167,
                    -1.099142074584961,
                    -2.4822704792022705,
                    -1.990193247795105,
                    -2.7764699459075928,
                    -5.131396770477295,
                    0.49447134137153625,
                    1.894343376159668,
                    0.8577142357826233,
                    -13.888742446899414,
                    3.6463963985443115,
                    1.236451268196106
                ],
                [
                    -9.319917678833008,
                    5.03844690322876,
                    -1.6032180786132812,
                    4.7662763595581055,
                    1.3462231159210205,
                    1.101565957069397,
                    0.4648772180080414,
                    -12.613529205322266,
                    -2.743330240249634,
                    -3.022512674331665,
                    10.26314926147461,
                    -8.124787330627441,
                    -6.057261943817139,
                    -9.754475593566895,
                    9.064105033874512,
                    -14.895012855529785,
                    0.28916051983833313,
                    -12.465669631958008,
                    1.330245852470398,
                    1.1254379749298096
                ],
                [
                    0.7508800625801086,
                    -1.6959682703018188,
                    -3.244943857192993,
                    -19.910573959350586,
                    8.449685096740723,
                    2.8933610916137695,
                    -3.6507115364074707,
                    12.98781967163086,
                    3.2196009159088135,
                    -2.6756324768066406,
                    -5.175867557525635,
                    4.821310043334961,
                    1.7572575807571411,
                    -14.846282958984375,
                    5.4026970863342285,
                    -13.74505615234375,
                    -7.673583507537842,
                    11.815253257751465,
                    -0.7020422220230103,
                    4.7644453048706055
                ],
                [
                    -6.246592998504639,
                    2.422379493713379,
                    4.064968109130859,
                    4.771075248718262,
                    -12.574905395507812,
                    6.844493865966797,
                    -8.83156681060791,
                    -8.799406051635742,
                    2.5504884719848633,
                    -1.57137131690979,
                    -0.5867622494697571,
                    -3.366748809814453,
                    -8.588311195373535,
                    11.10771369934082,
                    -7.704680442810059,
                    -6.58925199508667,
                    -0.07277286052703857,
                    -9.503207206726074,
                    -8.578326225280762,
                    -1.6537268161773682
                ],
                [
                    0.9201318621635437,
                    1.3600842952728271,
                    -1.5183316469192505,
                    -8.61247444152832,
                    -9.655978202819824,
                    -3.610278606414795,
                    -6.349961280822754,
                    -10.952666282653809,
                    1.379272699356079,
                    -0.8807702660560608,
                    -3.500171422958374,
                    -0.2988491952419281,
                    0.8526487946510315,
                    1.0529429912567139,
                    -0.3725805878639221,
                    1.9557195901870728,
                    0.5458344221115112,
                    -2.0035533905029297,
                    0.9711847305297852,
                    -2.3633882999420166
                ],
                [
                    -2.660529613494873,
                    -2.4633100032806396,
                    -1.0898329019546509,
                    4.069494247436523,
                    4.263737678527832,
                    1.4038734436035156,
                    4.759985446929932,
                    3.805368423461914,
                    -1.7745251655578613,
                    -6.526355266571045,
                    0.16470323503017426,
                    0.9555845856666565,
                    -2.841073513031006,
                    -2.7011897563934326,
                    -0.9747911691665649,
                    -7.361487865447998,
                    -7.656216621398926,
                    0.2845633029937744,
                    -4.774178504943848,
                    5.438022136688232
                ],
                [
                    -2.0027008056640625,
                    -1.0144493579864502,
                    -0.3771607279777527,
                    -10.225382804870605,
                    6.05960750579834,
                    2.367300033569336,
                    -0.1506660133600235,
                    8.180006980895996,
                    -1.6561769247055054,
                    1.5597141981124878,
                    -6.645707130432129,
                    -5.867655277252197,
                    -7.049461841583252,
                    -9.20261287689209,
                    -5.81352424621582,
                    5.872903347015381,
                    -4.467746257781982,
                    10.164241790771484,
                    1.8857576847076416,
                    10.622321128845215
                ],
                [
                    6.49131965637207,
                    2.0095391273498535,
                    -3.6289467811584473,
                    11.796345710754395,
                    -0.8972752094268799,
                    -4.140260219573975,
                    -2.1895878314971924,
                    -19.796524047851562,
                    11.42408275604248,
                    5.858645915985107,
                    -10.536459922790527,
                    3.272834539413452,
                    -2.0007030963897705,
                    -0.09717187285423279,
                    -7.73106575012207,
                    -0.6833086013793945,
                    -4.271363258361816,
                    -5.524786949157715,
                    -2.824345588684082,
                    8.294440269470215
                ],
                [
                    -6.045519828796387,
                    -4.488003253936768,
                    2.0716392993927,
                    4.099895000457764,
                    -2.8660922050476074,
                    4.891736030578613,
                    4.414821624755859,
                    4.364361763000488,
                    -0.31913572549819946,
                    -3.2979371547698975,
                    3.154383659362793,
                    -3.3044581413269043,
                    -3.1755597591400146,
                    8.217037200927734,
                    -5.207998275756836,
                    -2.3984150886535645,
                    0.4143397808074951,
                    0.13617751002311707,
                    -9.329623222351074,
                    3.111694097518921
                ]
            ],
            "biases": [
                -7.1913018226623535,
                7.0514936447143555,
                11.634324073791504,
                0.2330322116613388,
                13.5874605178833,
                9.456499099731445,
                0.6800914406776428,
                -7.720401287078857,
                -0.09572885185480118,
                -0.28282293677330017
            ]
        },
        {
            "weights": [
                [
                    -0.9845284223556519,
                    6.569511413574219,
                    -1.0869832038879395,
                    -1.1212888956069946,
                    1.6640807390213013,
                    -9.750277519226074,
                    3.7476160526275635,
                    7.586038589477539,
                    -1.112880825996399,
                    -1.1833600997924805
                ]
            ],
            "biases": [
                0.13492204248905182
            ]
        }
    ],
    "inputLookup": null,
    "inputLookupLength": 0,
    "outputLookup": null,
    "outputLookupLength": 0,
    "options": {
        "inputSize": 0,
        "outputSize": 0,
        "binaryThresh": 0.5,
        "hiddenLayers": [
            10
        ]
    },
    "trainOpts": {
        "activation": "sigmoid",
        "iterations": 20000,
        "errorThresh": 0.005,
        "log": false,
        "logPeriod": 10,
        "leakyReluAlpha": 0.01,
        "learningRate": 0.3,
        "momentum": 0.1,
        "callbackPeriod": 10,
        "timeout": "Infinity",
        "beta1": 0.9,
        "beta2": 0.999,
        "epsilon": 1e-8
    }
}