{
    "type": "NeuralNetwork",
    "sizes": [
        5,
        10,
        1
    ],
    "layers": [
        {
            "weights": [],
            "biases": []
        },
        {
            "weights": [
                [
                    -6.692028999328613,
                    -1.0940601825714111,
                    1.1453806161880493,
                    -0.9741032123565674,
                    2.390745162963867
                ],
                [
                    -0.7427847981452942,
                    4.674228668212891,
                    3.856234073638916,
                    6.042968273162842,
                    -4.1500115394592285
                ],
                [
                    -6.723834991455078,
                    -1.4844319820404053,
                    0.47662779688835144,
                    -3.139984369277954,
                    2.7204270362854004
                ],
                [
                    0.9133095145225525,
                    -8.071967124938965,
                    0.2786763906478882,
                    -5.00934362411499,
                    -7.343988418579102
                ],
                [
                    -1.7707433700561523,
                    0.6977882385253906,
                    -6.84615421295166,
                    -4.9141035079956055,
                    -1.6151269674301147
                ],
                [
                    6.547043800354004,
                    7.2521443367004395,
                    -3.2091777324676514,
                    5.8289713859558105,
                    -3.2365951538085938
                ],
                [
                    0.41459470987319946,
                    -1.3330423831939697,
                    6.266077995300293,
                    -0.07939288020133972,
                    0.4831043779850006
                ],
                [
                    0.11789730936288834,
                    3.2090671062469482,
                    -0.2814168632030487,
                    3.271199941635132,
                    1.1607304811477661
                ],
                [
                    -5.196380615234375,
                    -6.777838706970215,
                    5.8650288581848145,
                    -1.4591560363769531,
                    -2.8374650478363037
                ],
                [
                    2.2349140644073486,
                    5.0759477615356445,
                    1.7012465000152588,
                    -0.6927537322044373,
                    4.666769504547119
                ]
            ],
            "biases": [
                -5.938318729400635,
                -15.702001571655273,
                -4.649123668670654,
                -2.0400547981262207,
                -2.519481658935547,
                -18.74052619934082,
                -8.813943862915039,
                -10.112339973449707,
                -6.838648796081543,
                -15.698847770690918
            ]
        },
        {
            "weights": [
                [
                    2.3770551681518555,
                    1.2124115228652954,
                    1.605150580406189,
                    1.5119470357894897,
                    2.713169574737549,
                    -0.7091299891471863,
                    -1.30143141746521,
                    1.6315586566925049,
                    1.4696249961853027,
                    1.3699116706848145
                ]
            ],
            "biases": [
                -0.14546145498752594
            ]
        }
    ],
    "inputLookup": null,
    "inputLookupLength": 0,
    "outputLookup": null,
    "outputLookupLength": 0,
    "options": {
        "inputSize": 0,
        "outputSize": 0,
        "binaryThresh": 0.5,
        "hiddenLayers": [
            10
        ]
    },
    "trainOpts": {
        "activation": "sigmoid",
        "iterations": 20000,
        "errorThresh": 0.005,
        "log": false,
        "logPeriod": 10,
        "leakyReluAlpha": 0.01,
        "learningRate": 0.3,
        "momentum": 0.1,
        "callbackPeriod": 10,
        "timeout": "Infinity",
        "beta1": 0.9,
        "beta2": 0.999,
        "epsilon": 1e-8
    }
}