{
    "type": "NeuralNetwork",
    "sizes": [
        10,
        10,
        1
    ],
    "layers": [
        {
            "weights": [],
            "biases": []
        },
        {
            "weights": [
                [
                    -2.9300239086151123,
                    -7.465358734130859,
                    6.456262588500977,
                    15.44612979888916,
                    -16.15475845336914,
                    -4.441220283508301,
                    15.562573432922363,
                    -16.255268096923828,
                    7.0823187828063965,
                    14.942978858947754
                ],
                [
                    -7.652149200439453,
                    8.794971466064453,
                    -19.28936767578125,
                    18.789268493652344,
                    8.833292007446289,
                    -14.66448974609375,
                    12.974346160888672,
                    20.2092227935791,
                    17.1658878326416,
                    19.980533599853516
                ],
                [
                    -44.708152770996094,
                    -3.601787567138672,
                    -23.634836196899414,
                    40.95354080200195,
                    -23.46324920654297,
                    -5.199563980102539,
                    11.136026382446289,
                    30.554027557373047,
                    -14.758130073547363,
                    -8.795268058776855
                ],
                [
                    -19.885982513427734,
                    -13.953872680664062,
                    -23.26190185546875,
                    21.762773513793945,
                    -3.4912049770355225,
                    -8.11154556274414,
                    22.125513076782227,
                    5.166416168212891,
                    -18.27041244506836,
                    11.423272132873535
                ],
                [
                    15.507920265197754,
                    -16.981355667114258,
                    -23.08939552307129,
                    4.135955810546875,
                    -20.0935001373291,
                    10.002134323120117,
                    -15.18731689453125,
                    5.740070343017578,
                    -14.946649551391602,
                    -12.296407699584961
                ],
                [
                    -8.854318618774414,
                    -9.466065406799316,
                    -1.5475947856903076,
                    -18.933841705322266,
                    -18.133508682250977,
                    10.881460189819336,
                    -12.633711814880371,
                    -18.527570724487305,
                    -11.338125228881836,
                    1.497098684310913
                ],
                [
                    20.88007354736328,
                    -8.675189971923828,
                    -27.62076759338379,
                    8.055707931518555,
                    -18.6085147857666,
                    4.424450874328613,
                    -23.19523048400879,
                    15.677560806274414,
                    -19.976369857788086,
                    -22.34478187561035
                ],
                [
                    17.34561538696289,
                    -11.625880241394043,
                    -33.4810676574707,
                    -40.10164260864258,
                    -19.529939651489258,
                    -46.247154235839844,
                    -7.4214396476745605,
                    -2.5351080894470215,
                    20.73295021057129,
                    43.94279098510742
                ],
                [
                    -2.9316565990448,
                    -8.756982803344727,
                    -19.56092071533203,
                    10.076623916625977,
                    16.42251968383789,
                    -15.871479034423828,
                    9.540458679199219,
                    -9.687520027160645,
                    -16.102508544921875,
                    -7.728777885437012
                ],
                [
                    4.233495235443115,
                    -11.140807151794434,
                    -14.475199699401855,
                    -11.739850997924805,
                    -8.608232498168945,
                    -15.12311840057373,
                    9.751367568969727,
                    -9.41208553314209,
                    -4.618237018585205,
                    14.604859352111816
                ]
            ],
            "biases": [
                -48.996238708496094,
                -60.46190643310547,
                -41.59345245361328,
                -41.42866134643555,
                -15.135358810424805,
                1.362499475479126,
                -27.263607025146484,
                -7.592354774475098,
                -23.276838302612305,
                -20.45670509338379
            ]
        },
        {
            "weights": [
                [
                    1.559197187423706,
                    -0.6360431909561157,
                    1.374685525894165,
                    -1.7584277391433716,
                    -1.4175875186920166,
                    1.3961824178695679,
                    2.613814115524292,
                    1.0180646181106567,
                    1.7832543849945068,
                    -2.4244518280029297
                ]
            ],
            "biases": [
                -0.32230740785598755
            ]
        }
    ],
    "inputLookup": null,
    "inputLookupLength": 0,
    "outputLookup": null,
    "outputLookupLength": 0,
    "options": {
        "inputSize": 0,
        "outputSize": 0,
        "binaryThresh": 0.5,
        "hiddenLayers": [
            10
        ]
    },
    "trainOpts": {
        "activation": "sigmoid",
        "iterations": 20000,
        "errorThresh": 0.005,
        "log": false,
        "logPeriod": 10,
        "leakyReluAlpha": 0.01,
        "learningRate": 0.3,
        "momentum": 0.1,
        "callbackPeriod": 10,
        "timeout": "Infinity",
        "beta1": 0.9,
        "beta2": 0.999,
        "epsilon": 1e-8
    }
}