{
    "type": "NeuralNetwork",
    "sizes": [
        20,
        10,
        1
    ],
    "layers": [
        {
            "weights": [],
            "biases": []
        },
        {
            "weights": [
                [
                    -63.77213668823242,
                    6.923796653747559,
                    38.09809494018555,
                    -56.85624694824219,
                    55.47172546386719,
                    -36.36984634399414,
                    12.488579750061035,
                    6.451434135437012,
                    -1.575528621673584,
                    7.543356895446777,
                    -20.34483528137207,
                    -17.088607788085938,
                    14.98923110961914,
                    -17.938182830810547,
                    15.336280822753906,
                    -1.2588400840759277,
                    -0.5120874047279358,
                    -4.106236934661865,
                    3.379199981689453,
                    -34.041015625
                ],
                [
                    8.641215324401855,
                    8.927745819091797,
                    9.40857219696045,
                    12.160161018371582,
                    15.353240013122559,
                    -82.95350646972656,
                    -1.8697972297668457,
                    -39.825416564941406,
                    24.421499252319336,
                    -41.69778823852539,
                    -5.753939628601074,
                    21.178287506103516,
                    23.34194564819336,
                    -2.0289125442504883,
                    -31.057252883911133,
                    -53.168941497802734,
                    10.880497932434082,
                    -33.79950714111328,
                    -21.868906021118164,
                    -22.390893936157227
                ],
                [
                    -31.50213050842285,
                    15.941350936889648,
                    -1.0904709100723267,
                    18.54255485534668,
                    31.40639877319336,
                    19.542449951171875,
                    -33.364070892333984,
                    -27.691341400146484,
                    -21.921144485473633,
                    -9.840733528137207,
                    -6.505541801452637,
                    16.908079147338867,
                    -4.294070243835449,
                    -16.336328506469727,
                    -49.74346160888672,
                    -17.140958786010742,
                    -64.83594512939453,
                    -19.103626251220703,
                    -33.74839401245117,
                    -20.47881317138672
                ],
                [
                    -33.99872589111328,
                    40.66289138793945,
                    -25.392494201660156,
                    -9.472681045532227,
                    -3.829115390777588,
                    -15.5430326461792,
                    -40.49769973754883,
                    -58.12432861328125,
                    -9.041430473327637,
                    -20.226112365722656,
                    21.9906005859375,
                    -15.902175903320312,
                    20.782827377319336,
                    -16.064104080200195,
                    26.34966468811035,
                    -12.929951667785645,
                    9.189080238342285,
                    12.27525806427002,
                    21.311660766601562,
                    17.825565338134766
                ],
                [
                    -1.3356797695159912,
                    -1.1132874488830566,
                    -8.875716209411621,
                    41.116817474365234,
                    -8.153864860534668,
                    5.8241753578186035,
                    -1.382586121559143,
                    -23.582399368286133,
                    7.349738597869873,
                    -24.496715545654297,
                    -26.173084259033203,
                    -0.8230374455451965,
                    24.748855590820312,
                    -39.95626449584961,
                    -31.542255401611328,
                    -38.53608703613281,
                    -25.739086151123047,
                    -81.00872802734375,
                    -65.3859634399414,
                    -0.7904362678527832
                ],
                [
                    -14.447630882263184,
                    -22.06842613220215,
                    20.45172119140625,
                    -27.764766693115234,
                    8.915192604064941,
                    23.69731330871582,
                    -50.63762664794922,
                    -33.51121139526367,
                    -7.467036724090576,
                    -21.11088752746582,
                    -21.40683937072754,
                    -22.277555465698242,
                    -12.356160163879395,
                    -17.492380142211914,
                    -15.6760892868042,
                    -10.71842098236084,
                    -53.84152603149414,
                    -13.115761756896973,
                    -13.90590763092041,
                    53.55028533935547
                ],
                [
                    -42.184295654296875,
                    -15.229781150817871,
                    -8.716938972473145,
                    -31.525165557861328,
                    10.693305015563965,
                    -2.8669941425323486,
                    -34.53831100463867,
                    -19.020469665527344,
                    -19.587465286254883,
                    -21.390888214111328,
                    -5.691421985626221,
                    -46.24919891357422,
                    15.569955825805664,
                    -39.048362731933594,
                    32.995643615722656,
                    7.447396278381348,
                    -34.84813690185547,
                    5.622066974639893,
                    2.518480062484741,
                    22.749038696289062
                ],
                [
                    -52.88814163208008,
                    27.67170524597168,
                    -14.752776145935059,
                    -2.1431026458740234,
                    29.5717830657959,
                    3.1548056602478027,
                    -47.549163818359375,
                    -39.12739562988281,
                    -42.15748596191406,
                    -19.438190460205078,
                    -20.304933547973633,
                    4.825387001037598,
                    -10.61146068572998,
                    14.741264343261719,
                    5.225306987762451,
                    -28.2227783203125,
                    10.801902770996094,
                    -6.574929714202881,
                    -19.592613220214844,
                    21.2416934967041
                ],
                [
                    -12.394320487976074,
                    -0.7823354005813599,
                    -3.7927794456481934,
                    9.875873565673828,
                    38.216590881347656,
                    -20.36277961730957,
                    -24.21865463256836,
                    -14.141007423400879,
                    -4.2985076904296875,
                    -10.401819229125977,
                    -6.144247055053711,
                    14.920811653137207,
                    -10.603672981262207,
                    5.759413719177246,
                    -26.693004608154297,
                    3.1943676471710205,
                    -17.80603790283203,
                    14.172978401184082,
                    -52.768943786621094,
                    -37.60169982910156
                ],
                [
                    -6.174688816070557,
                    19.17298698425293,
                    15.872544288635254,
                    25.991947174072266,
                    8.029674530029297,
                    22.21418571472168,
                    -28.21057891845703,
                    -15.739326477050781,
                    -77.06575775146484,
                    -35.9263801574707,
                    10.018818855285645,
                    12.35618782043457,
                    -15.185173988342285,
                    13.478043556213379,
                    -33.344112396240234,
                    -41.16138458251953,
                    25.656747817993164,
                    -33.1063232421875,
                    -36.766685485839844,
                    12.37181282043457
                ]
            ],
            "biases": [
                -53.13690948486328,
                -21.525869369506836,
                5.206969261169434,
                -55.93053436279297,
                22.12401580810547,
                1.288307785987854,
                -3.277414560317993,
                -15.059453010559082,
                -16.396791458129883,
                -37.92926025390625
            ]
        },
        {
            "weights": [
                [
                    1.597546100616455,
                    -2.9620561599731445,
                    -4.348849296569824,
                    2.3827974796295166,
                    2.3681797981262207,
                    6.380043029785156,
                    -3.5956194400787354,
                    -3.446910858154297,
                    5.828545570373535,
                    3.0186471939086914
                ]
            ],
            "biases": [
                -0.1284697949886322
            ]
        }
    ],
    "inputLookup": null,
    "inputLookupLength": 0,
    "outputLookup": null,
    "outputLookupLength": 0,
    "options": {
        "inputSize": 0,
        "outputSize": 0,
        "binaryThresh": 0.5,
        "hiddenLayers": [
            10
        ]
    },
    "trainOpts": {
        "activation": "sigmoid",
        "iterations": 20000,
        "errorThresh": 0.005,
        "log": false,
        "logPeriod": 10,
        "leakyReluAlpha": 0.01,
        "learningRate": 0.3,
        "momentum": 0.1,
        "callbackPeriod": 10,
        "timeout": "Infinity",
        "beta1": 0.9,
        "beta2": 0.999,
        "epsilon": 1e-8
    }
}