{
    "type": "NeuralNetwork",
    "sizes": [
        20,
        10,
        1
    ],
    "layers": [
        {
            "weights": [],
            "biases": []
        },
        {
            "weights": [
                [
                    11.004645347595215,
                    -5.568698406219482,
                    11.225640296936035,
                    2.4324421882629395,
                    -9.93121337890625,
                    12.80264663696289,
                    -11.622669219970703,
                    -1.993354082107544,
                    1.4471931457519531,
                    4.7426557540893555,
                    -4.367679119110107,
                    6.480281352996826,
                    11.61284065246582,
                    0.697405993938446,
                    -9.833481788635254,
                    -6.164782524108887,
                    -4.559684753417969,
                    3.3085262775421143,
                    -13.240043640136719,
                    8.557936668395996
                ],
                [
                    8.410167694091797,
                    1.8165301084518433,
                    5.025669574737549,
                    2.9371585845947266,
                    -2.1685779094696045,
                    6.3114728927612305,
                    -3.074042797088623,
                    -4.170722484588623,
                    -4.044363975524902,
                    -10.428592681884766,
                    -7.856757164001465,
                    -3.442497968673706,
                    5.038909912109375,
                    3.4601221084594727,
                    -1.5786633491516113,
                    -8.265216827392578,
                    -8.801688194274902,
                    -6.294908046722412,
                    7.482724666595459,
                    12.51056957244873
                ],
                [
                    1.188977837562561,
                    -2.5872230529785156,
                    1.5917916297912598,
                    -1.887211561203003,
                    -5.294637203216553,
                    -5.266676425933838,
                    -2.736082077026367,
                    -1.273926854133606,
                    5.773065090179443,
                    5.393296718597412,
                    -0.9478961825370789,
                    3.9570462703704834,
                    -3.555920362472534,
                    2.659104585647583,
                    -6.663116931915283,
                    -1.3834596872329712,
                    -6.65286111831665,
                    2.1036128997802734,
                    -1.0569865703582764,
                    4.845399856567383
                ],
                [
                    2.209484815597534,
                    0.3478050231933594,
                    -0.6098007559776306,
                    -3.6926822662353516,
                    -4.082363128662109,
                    -6.968945026397705,
                    1.355859398841858,
                    1.3560868501663208,
                    -0.8625360131263733,
                    -11.815048217773438,
                    -1.0284898281097412,
                    2.284349203109741,
                    -0.4495483338832855,
                    5.061581134796143,
                    2.223881483078003,
                    -2.5248050689697266,
                    -0.20060929656028748,
                    -1.049280047416687,
                    0.020641891285777092,
                    -2.2927803993225098
                ],
                [
                    7.123534679412842,
                    2.2699193954467773,
                    1.5750724077224731,
                    -5.153291702270508,
                    1.2827497720718384,
                    3.7760095596313477,
                    -5.899952411651611,
                    -3.5343856811523438,
                    -4.011491298675537,
                    -3.489611864089966,
                    -5.78486442565918,
                    -0.8047285079956055,
                    3.8793606758117676,
                    7.458548069000244,
                    -1.6240006685256958,
                    -7.577996730804443,
                    -0.9305852055549622,
                    -3.9769434928894043,
                    0.48886191844940186,
                    3.726763963699341
                ],
                [
                    -4.92629861831665,
                    4.832040309906006,
                    10.68950366973877,
                    5.945197582244873,
                    -3.5625014305114746,
                    2.455094814300537,
                    -7.667481899261475,
                    -15.860053062438965,
                    -2.00581693649292,
                    -11.216835021972656,
                    -0.31366631388664246,
                    -6.556130409240723,
                    1.9902108907699585,
                    -10.639687538146973,
                    -3.3469901084899902,
                    2.304729461669922,
                    -10.61779499053955,
                    -10.243690490722656,
                    3.3969666957855225,
                    11.476716995239258
                ],
                [
                    0.6073455214500427,
                    0.5627865791320801,
                    0.7558723092079163,
                    -13.29109001159668,
                    -12.588541984558105,
                    -1.9770442247390747,
                    -2.9171955585479736,
                    -3.537052869796753,
                    -6.800333023071289,
                    6.258641719818115,
                    -2.276042938232422,
                    2.1769063472747803,
                    -4.839318752288818,
                    13.917474746704102,
                    -0.2895943522453308,
                    -0.3250731825828552,
                    -0.2826128304004669,
                    2.576399326324463,
                    -0.5551032423973083,
                    2.909604072570801
                ],
                [
                    -3.037513256072998,
                    4.00291633605957,
                    -2.3528828620910645,
                    -1.8902626037597656,
                    6.369410991668701,
                    -10.261500358581543,
                    5.2573065757751465,
                    -0.387004554271698,
                    17.94995880126953,
                    -4.0328497886657715,
                    1.9959704875946045,
                    -16.007314682006836,
                    -14.03872299194336,
                    -2.3327157497406006,
                    -8.883355140686035,
                    3.493767499923706,
                    -0.8050180077552795,
                    10.050424575805664,
                    6.779130458831787,
                    -9.233829498291016
                ],
                [
                    -2.754445791244507,
                    2.368999481201172,
                    2.175792932510376,
                    1.199853777885437,
                    -1.8595170974731445,
                    -1.40328848361969,
                    -1.529989242553711,
                    -6.597527503967285,
                    -0.9875778555870056,
                    -1.423109769821167,
                    1.2353460788726807,
                    -0.3210178017616272,
                    -1.1130348443984985,
                    -9.323923110961914,
                    -0.5709056258201599,
                    -0.1739828735589981,
                    -2.816229820251465,
                    -7.8940110206604,
                    0.9725887179374695,
                    2.8636136054992676
                ],
                [
                    3.137449026107788,
                    6.888858318328857,
                    -4.7235612869262695,
                    -9.508490562438965,
                    11.781864166259766,
                    4.334752559661865,
                    -4.697364807128906,
                    -5.158851623535156,
                    -7.469180583953857,
                    -3.923475980758667,
                    -0.5713488459587097,
                    -6.192165374755859,
                    3.8701562881469727,
                    9.76215648651123,
                    0.6308054327964783,
                    -3.3905587196350098,
                    -0.9048876166343689,
                    -11.427903175354004,
                    -0.6966615915298462,
                    -0.9611140489578247
                ]
            ],
            "biases": [
                -5.251194477081299,
                -4.800592422485352,
                -1.5001431703567505,
                2.4415502548217773,
                -0.049256063997745514,
                9.741924285888672,
                -1.7635657787322998,
                1.0073519945144653,
                5.624367713928223,
                -0.2320384532213211
            ]
        },
        {
            "weights": [
                [
                    -0.8825093507766724,
                    -2.4921867847442627,
                    5.645644664764404,
                    -4.437077045440674,
                    2.5990731716156006,
                    2.458322763442993,
                    -6.559486389160156,
                    -0.7472769618034363,
                    -7.994022846221924,
                    -2.159116506576538
                ]
            ],
            "biases": [
                -0.0492672398686409
            ]
        }
    ],
    "inputLookup": null,
    "inputLookupLength": 0,
    "outputLookup": null,
    "outputLookupLength": 0,
    "options": {
        "inputSize": 0,
        "outputSize": 0,
        "binaryThresh": 0.5,
        "hiddenLayers": [
            10
        ]
    },
    "trainOpts": {
        "activation": "sigmoid",
        "iterations": 20000,
        "errorThresh": 0.005,
        "log": false,
        "logPeriod": 10,
        "leakyReluAlpha": 0.01,
        "learningRate": 0.3,
        "momentum": 0.1,
        "callbackPeriod": 10,
        "timeout": "Infinity",
        "beta1": 0.9,
        "beta2": 0.999,
        "epsilon": 1e-8
    }
}